function [y1] = gdNet_1_40(x1)
%MYNEURALNETWORKFUNCTION neural network simulation function.
%
% Auto-generated by MATLAB, 09-Jul-2021 01:49:53.
%
% [y1] = myNeuralNetworkFunction(x1) takes these arguments:
%   x = Qx12 matrix, input #1
% and returns:
%   y = Qx2 matrix, output #1
% where Q is the number of samples.

%#ok<*RPMT0>

% ===== NEURAL NETWORK CONSTANTS =====

% Input 1
x1_step1.xoffset = [-0.011749;-0.011132;-0.009377;-0.005719;0.001818;0.006589;0.015282;0.006926;0.00169;-0.006698;-0.010773;-0.012656];
x1_step1.gain = [10.7493362284879;1.97798111423632;1.98142022257293;1.9886270419471;2.00364262228732;2.01326540575854;2.03103832772428;2.01394860805942;2.00338572186996;2.09197143203812;2.25265559936971;2.4634637532102];
x1_step1.ymin = -1;

% Layer 1
b1 = [1.3945496082888402256;-1.7511230452734416474;-1.6417610370958299892;-1.4198344780980365343;-1.4817489618149655151;1.7030929685456388523;-1.1150700629837562161;1.3868983399798753275;-0.94114205221653890465;-1.6107836004748969927;-0.5807910177544550745;1.6289044083376171823;-0.4163673565285966327;0.66297788812250690871;0.67540377971100840071;0.7153640409378321241;0.71435630424142426698;0.91002672556456332131;-1.2927848425365471297;0.42875151314178561179;0.19784094394871817868;1.1206859504036386088;-1.5325725994594938673;-2.1148519421858775758;0.92346047012214926841;1.1378866993715963662;0.30305491102317339003;-1.4218237959079975674;-0.71422092313664486962;1.3486112560280416606;1.4515851865721367542;-0.80807867576829617295;-1.0682483833576168486;-2.5758331463422194929;-2.1590320404127898435;2.2917205831606173305;-2.3787475758802281156;-1.7578684246449853834;-1.9508437337840347503;1.4531342895814036709];
IW1_1 = [-1.3045764346569113101 2.536761748176749709 0.67754852822455191586 -0.78063938603027160923 -0.88255722641316280974 0.0091782153969886814959 -1.3481573192040194886 -0.12845737806803375625 0.11570473975389333754 -2.3853407142916451811 0.71380134262187200367 1.6149647781533316149;0.29350604636255955837 -0.54666137858663288451 0.73719158173708831949 0.6093676528507959711 0.44108161536828688343 0.32636978842118791189 -0.75288324998017486234 0.735857687351391343 0.45243019907874720831 0.50780631271841059071 -0.53986655269229666398 -0.35446725229984610284;0.27683482797429942446 -0.41414470374528494778 1.423628010574759184 -0.23732402280514919291 0.26329804552922503325 -0.33886217920283978611 0.62951498039297826281 0.23165682951312835391 0.9056030756708510765 -0.35286295947141138596 -0.58368263561370858916 -0.51530661388189469285;0.89779077115396033193 0.54225274949088797527 0.031264337983600384852 -0.74465923935967925917 -2.8190081375756430582 -0.73628542652420425618 -0.42555863435801694061 0.33031495320274767424 0.524785679852201703 0.0013154356061167663677 1.1165788222427983634 0.41185103162345715333;0.75243701299861109888 0.18521282288565460439 0.35653569013359975859 0.2245476176131124546 0.46995755075831913139 -0.81511906797285060833 -0.46521809239039169093 -0.30333221307259072841 1.0179009727432144494 0.65417071140803828566 0.19865142112921083117 -0.79316126602499925635;-0.50950927437551418731 -0.765763613650921382 0.27627248733873976949 -0.76943985687291738262 -0.14685084194947303771 0.079548961293426034835 -0.60489158241689855444 0.49358982281348523502 -0.85631506581483773921 -0.52980387994033861787 0.30716407217511565442 0.21108662307766629107;1.2011395683829839687 -0.13051919795691990789 -0.33171293856775518893 0.073668609884030969437 0.54996659552411542027 0.44576179371292967701 -1.0138351612898401921 0.04454653078190480564 -0.23768499031658096854 -1.1351761747110140632 -0.37782228659251709812 -0.33560593725336307358;-0.64096184654096366451 -0.67424764618027321905 -0.21293086870608951555 -0.36342146878073350313 0.28813366105095766789 -0.75587862176522691016 0.2136152251471626351 -0.50186605053301269752 -0.070730013949773809512 0.58917228820970901637 0.43076565433856711662 -0.98883710397630308897;-0.18653786488375767583 -0.17980813409151463755 0.041589009714553412667 0.14332385660589580523 1.0342923801802974548 0.42114095365316439601 -1.5637093672266522137 -0.39182791466380895162 0.031287546108757613439 1.2057761110504163771 1.0773980992496900999 -1.2975792843226512385;0.7152455425542760814 -0.51623915674312526036 -0.47292405579769836166 -1.7874380682769717144 -0.93346469363361483929 0.175780950990095719 0.64048524654485849972 0.88362200824761139017 0.45420109118779916635 0.30881509283522612375 1.0925936426341347207 0.44086213614218394685;1.123929087155758122 -0.86432222495310839783 0.32237351620126580842 -0.4598100604423500104 -0.24805513574192847304 -0.27400383223296304047 0.35869284983811311474 0.58680511614745045623 -1.3786395727593954152 -0.85871021122896185052 -0.45787158908665204216 -0.44352196276141869768;-1.8351875050599453232 0.78019113253446936707 0.31092610595090391934 0.10856701727549579461 0.86358297620437052267 0.97486905895669939692 0.5633490658426857367 -0.84276904038592703738 1.7157241617930192312 -0.41637726440295985686 -2.1289152237806976409 0.31432864357215262174;-0.178480416784857987 -0.95618186710417751861 0.45799466838717328709 0.60129987323368039309 0.66999508279803432487 0.46811913751026773545 0.13216576097178117655 0.31923636156695428534 0.57453678159531174074 0.43303040040779028352 0.37199820824145868325 -0.1778848230470689018;-0.13823434383836416539 -1.1092511889808032155 -0.54809776668813581235 0.97728318232223010398 -1.4670426712740420871 -1.336338934325290051 1.7609766781797204782 -1.6710952430913392774 0.12613467707423381414 0.10769044701335001024 0.58814191003177518358 0.30305415452208323002;-1.559204149949662721 -0.10897035550893224842 0.83365013517311770119 -0.62990326927366546705 -0.8148683093272547362 1.1850896498668328505 -1.5547823479807501013 1.1286481791049627343 -0.012729583603051389251 -0.82851894205272458294 -0.4142776796722201782 -0.097119977224961101525;-0.39060130721953001398 -0.28922319679094526945 0.14213002134692231948 -1.8494728686828876274 0.24129200547158755064 0.13915679357904503499 1.2621963411956436119 0.39172165414104259673 -0.57073742261631343897 0.052045037191865886617 -0.43131598243389690506 -1.0166605752645874183;-1.4952072548621704318 0.22878860904450426528 0.17280696478596149768 0.88099088410121484394 -0.92796174169539835663 0.30711439671339196833 0.537312595460749165 -1.0337358574508084263 -0.54827491709113462814 -0.16519235642098620276 -0.93524940898213337892 0.77340139868250246113;0.023264518506210227905 -0.16117478663108422698 -0.58507069123103827568 -1.0054389596289219355 0.035538638597862326485 1.621093244177791215 0.017685764542169513797 0.49313953815836469863 0.10182915722691554539 -0.6646486942204836712 0.36915262201758369809 1.9266979531710495266;0.40829846881727188679 1.3177491602198037057 -0.45046296191324636249 0.76769967163757024675 -0.67042198433709532246 -1.1573238087397317297 -1.8899367042447217102 -0.11777909515279468 0.38211088163392409323 -1.6536863749804433521 -0.34324339765984795969 0.694380398858857939;0.74813844377084581794 -0.23560577779457905767 1.6984599431414955095 0.15984207626871846375 0.87232419293583485231 -0.82881138739444881747 -0.27278465887788438948 -0.41541904084516556583 0.3401002665704481176 1.7407002180566986116 -1.6798033544687915875 -1.0215437747606681551;-0.83681977869935419978 -0.74127065748361364861 -0.66858401427264535499 0.48771019267681386955 0.050705157560166559672 0.66145979160461587654 -0.15439371264141485418 -0.29844211694704692039 -1.2214823259620211093 0.28577416377912101542 -0.51716321039434620666 -0.84015904193051937909;1.0156381616458558526 0.81294885720657295014 -0.26142862861070459424 0.37236209753714843984 -0.8604096239892549125 -0.067927416155557696076 0.90500872237147944599 2.0585358318006465872 -0.36384483077283813479 0.85355068294755409575 0.088080702645694966546 1.1080463005488383477;1.2242438408005407169 0.09657308223235573641 -0.52420267565799616438 0.49750310302046801825 0.69980480979350101478 0.60529211008365557678 -1.1901809618024186133 0.26421201562577711908 0.082602830234435722923 1.3792298022724407414 -0.84634983066490143688 -3.37393576425070707;-1.6487058119754329777 0.10467646756304567479 0.69095547171854077018 -0.82273788335736897093 -1.0689984407806896183 0.67071260214290229218 -1.2131158546365883311 -0.11459434592237809081 -0.49178259249444888912 -1.4193950833050010818 -0.80571825475891656332 0.74357191322296800617;-0.5987685189387893514 0.10648732173656996758 0.73480095359949726408 0.509710691437511354 1.1837104880032036647 1.4387632514622228364 0.38058551435239923455 -0.37386784500419834032 -2.1364444252350374143 -1.2013958572955403259 0.10229001530978530654 3.3860705070514609538;-0.20981872944016152771 -1.2331152480926945714 -0.08259700781899446953 0.74928968159542042038 1.7558723654093835176 0.13806885063965401717 -0.53952703868779439134 0.18930749911040092859 0.32507388658992891761 -0.031548928636369141798 0.075262050213209433225 0.10618853295488410449;0.0014534417470591573518 -0.24647084065601074232 0.37947234351761410798 0.797962073534784877 0.13308919309158567801 -0.55369741212503897909 -1.6073586673440598549 -0.031554487996276317507 1.6576671230265531687 -1.5432521701211483478 0.38963573617320546028 1.0193053870055905907;-1.4061206036250586404 -1.2105126803499930421 0.18243018078660294679 0.042002195154881759309 0.56410790504369945353 -0.24057379382359891928 0.40478347365291023063 -1.2821150171089112924 -0.83040029010486315908 0.69559837689026715601 0.70478658176768271826 -0.092308239525194679675;-0.48701988065636797609 1.4629000926511939173 0.62961187556828268619 1.6964747401624784562 -0.76355902759821914216 -0.14358256303115896069 1.2323822186025081837 -0.2674426183596096962 -0.40612526965680278979 -0.13605397728549994962 -0.46487403796619425345 -1.0927061101846848867;-0.25585266802128864283 1.7897891641506904481 0.28780349451392545079 -0.55205353529952416736 1.7634441377554914698 -8.7508399931362362834e-05 -0.14381873607950651506 -0.89810283246185729222 0.017004214926359676602 0.48605694324276926821 -1.7324642169451200946 1.4171706570649731383;0.60657176422961023299 -0.20167336070237137924 -0.88956088921833331717 -0.46187172580284274748 -0.25606893780187406362 -2.4094480038629932928 0.79211554183056798184 1.2994327814012196498 0.63531915894711610271 0.19899759703511368802 -0.32205086353968970236 0.76399687899193546858;-1.1560360701321312771 0.1585219442366949949 1.5396612151537723001 -0.89012703993499742161 0.27289989485383708834 0.48868652596516504172 -0.2735743542905562653 -0.048592426405338916273 -1.2821513722949542391 -1.1578363886100442315 -0.84857994050194596181 -0.93929532001136939456;-2.3437964556582104869 0.11746932008409742554 -0.70834938676877523545 -1.1298275365760379607 0.41446596288479137238 -0.15994241084095764394 -0.40594123682392618813 0.179499705765613915 0.55688166206018241411 0.56066970675248584133 1.1056197186887206652 2.6939767815428181663;-0.81685380026073217685 0.916796785068799025 0.71900488776913340505 -0.45867086619629510169 -0.48230926356912467989 -0.11020248477782863816 0.92757582523710579991 -0.72799185489558393414 -0.62106808725668349869 -0.2865177427335823257 -2.1424327504698408298 0.049718294771484636274;-2.5852709519039436259 -0.058778313825810633853 -1.8029566176112628018 0.18906264983277934477 1.5818801435294320701 -0.24910990470896912652 1.5474461477955097077 -0.65470544835533861505 0.5163832564792966151 0.98952944373325402161 0.2805861303522788619 -2.1162244125850078191;2.8532351986638579966 0.83572700312513503729 0.70893621049254074151 0.71434423099522847966 -0.0084757819536408016831 -0.61309816655623117221 -1.5270923766348161177 -0.70267640802223696461 0.81873249520545388069 0.67613287829278267971 -0.6597069659831401589 -1.3999165906349460009;-0.011392394656925139418 -0.28684147223927397574 0.031580830952479627127 -0.40688464142399349832 -2.1934871599426997157 1.0426384074294106075 -0.13039546411794764036 -0.020741467881916868937 0.93281582846500854522 0.12404884682399786033 -0.60680543277277310121 -1.4453537947381762674;-0.3632425665376437518 0.2122955397214103257 0.071697933756576140429 0.63539544140134962547 -0.77151830032887502853 1.0302298448028299749 -0.18226826705124254957 0.13656052863638898365 0.54928414682798654134 -0.67011346081375511297 0.71963824667979003902 0.30677523022016284227;-0.63831181194825403757 0.68319049394600450675 0.32471494740256801048 0.68828157978050230614 -0.44361449655485130084 -0.43661404154380722975 0.14685626811738372588 0.6800625530144349673 -0.14609006461759765916 0.88924639577373676413 -0.26694433504509107458 0.58427219479640601918;0.82839383903512842089 0.067621885974978257483 0.38473915223898552673 -0.55477688179405970637 -1.8471465315763124782 0.4277827342770441077 -1.4546216352602823196 0.13917528131551673565 -0.10032891410844030355 0.2631937705908588554 0.75136339414075759002 0.31352248633139584433];

% Layer 2
b2 = [0.0059112119898704108822;-0.52680149055845293393];
LW2_1 = [0.16669435318589084782 -0.23225728692403438402 0.0861479861571503025 0.043760712291542089303 -0.34276444715795467699 -0.90026707057712629378 -0.50814690095107861723 -1.0504357791005263234 -0.20666491490196658987 0.96708419814632951006 -0.98037017928272329748 -0.64133960887631069614 0.15755049580908153661 -0.62277698739289877317 1.4288625112364334857 -0.086795526031488878793 0.9721058229788567262 0.20248656669887102333 -0.01363994195833895598 -0.36870901257287375108 -0.79170040364731919524 -0.59008567719300375476 0.39483980001128315962 -0.86618685433746811508 -0.048864169920995625951 0.68827297164162926091 0.27630884389806720236 0.41864289109201324734 -0.024349970782847542294 0.4111682920610745251 0.49288150631686178382 1.1245745165184839465 -1.0127100051418991278 0.53614884460609268935 -0.33426240130702783437 0.036191523670320767392 0.32400807911593876298 -0.72732912130834437292 -0.2345485134268572025 0.14888328295890301822;2.7185871452661451997 0.61691562163853796985 0.75804934037366777932 1.6858741894210604872 0.74014468368632946316 0.55218422065312733338 -2.4314719206371484539 -0.33890522178793491825 2.6822129640131202599 -2.0509130053979061081 0.79923916559793040104 2.2342938035283959053 1.0492347710984548659 2.0244184361042942832 -0.89523286082332020897 -0.9367869937984550921 0.62405985975862621196 3.0153063300936895352 2.0729623957690361813 1.1162751063612612601 0.93023992155854839936 2.3605598021856262214 1.6477563584124050866 -2.2034566811430211786 2.4471007176830563701 0.75283601286057522106 -2.0168255696038501767 -1.5369578812256616818 -1.8766410826519543953 -2.9277388651921518736 1.3787309525158188972 1.6712785908697869175 1.0283837217774520756 3.1955142355168479895 1.2196765667354234619 1.2028004730653818477 -2.1144932786907189026 -0.37643697731534692119 -0.48805384676725566129 1.243775062300365164];

% Output 1
y1_step1.ymin = -1;
y1_step1.gain = [2.05334381907577;1];
y1_step1.xoffset = [0;-1];

% ===== SIMULATION ========

% Dimensions
Q = size(x1,1); % samples

% Input 1
x1 = x1';
xp1 = mapminmax_apply(x1,x1_step1);

% Layer 1
a1 = tansig_apply(repmat(b1,1,Q) + IW1_1*xp1);

% Layer 2
a2 = repmat(b2,1,Q) + LW2_1*a1;

% Output 1
y1 = mapminmax_reverse(a2,y1_step1);
y1 = y1';
end

% ===== MODULE FUNCTIONS ========

% Map Minimum and Maximum Input Processing Function
function y = mapminmax_apply(x,settings)
y = bsxfun(@minus,x,settings.xoffset);
y = bsxfun(@times,y,settings.gain);
y = bsxfun(@plus,y,settings.ymin);
end

% Sigmoid Symmetric Transfer Function
function a = tansig_apply(n,~)
a = 2 ./ (1 + exp(-2*n)) - 1;
end

% Map Minimum and Maximum Output Reverse-Processing Function
function x = mapminmax_reverse(y,settings)
x = bsxfun(@minus,y,settings.ymin);
x = bsxfun(@rdivide,x,settings.gain);
x = bsxfun(@plus,x,settings.xoffset);
end
