function [y1] = gdNet30(x1)
%MYNEURALNETWORKFUNCTION neural network simulation function.
%
% Auto-generated by MATLAB, 08-Jul-2021 23:02:58.
%
% [y1] = myNeuralNetworkFunction(x1) takes these arguments:
%   x = Qx12 matrix, input #1
% and returns:
%   y = Qx2 matrix, output #1
% where Q is the number of samples.

%#ok<*RPMT0>

% ===== NEURAL NETWORK CONSTANTS =====

% Input 1
x1_step1.xoffset = [-0.01047601;-0.00892852428571429;-0.00584696857142857;0.00162097714285714;0.00376416857142857;0.0161386685714286;0.0121159228571429;0.00158425142857143;-0.00549906428571429;-0.00865804571428571;-0.01015141;0];
x1_step1.gain = [2.30515964525549;2.3092784762164;2.31752442544108;2.33775435410255;2.34362543473875;2.37810944009363;2.36678846419323;2.33765400364391;2.31845908518788;2.309999901132;2.30602239144118;2.0044345558895];
x1_step1.ymin = -1;

% Layer 1
b1 = [1.6409820176983200835;1.6392282598134424454;1.749346237951947991;-1.9798945306479658335;-1.3258879457077872299;1.2370760584821389738;0.81998329928375879305;1.1367492498275373336;-1.2045592003208454024;1.903846563261074154;0.69326577237809117182;0.28420354019208238228;0.040113020189751977251;0.1576024983034851612;0.74137963286079033853;0.027776844080627634964;-0.038544058627163854669;-0.11639201793506480376;0.55069600074094382514;-0.9232595893609880644;1.4163749742221631855;-1.8404491211951794494;1.0679995325015794183;-0.88377476434328572363;1.6445344568004629515;-0.58425554745142072033;-1.3101438160581035941;-1.881639938974143389;-1.5659194539205401053;-1.6024970962743678715];
IW1_1 = [-0.95246872130778859056 -0.37507195121559716577 -0.6001206134795969982 0.58601420458143038683 0.75981944021697811475 0.71478835313550681541 -0.25356822084848557042 -0.051952435296054512437 0.28486301597970881128 -0.20482326631614128365 0.25101830440473033024 0.96884554200099182175;-0.95447674369930213256 -0.83931822333555716753 0.64610857489296968925 0.52734523120760778969 0.63050936930753653797 0.64478084337115670888 0.21626365294758523317 0.51062960653929168053 -0.70505106790839955355 -0.8604201611976787234 -0.31189922674749420706 -0.1020875909341340676;-1.235224600611531498 1.6510290692486115915 -0.51922742285299483544 0.66626889459462168563 -0.075837060749520734948 -1.0119763097991634204 0.14557706109415677331 -0.04269648346340847167 -0.6818393258698677295 0.34695994948076847031 1.6375042609405809912 -0.072895809402091338303;-0.56373108802676330509 0.23566264306100045967 -0.39297033007435189234 -0.20072832772559148773 0.31121097813068171467 -0.84967399438871393791 0.14077938662707972783 0.18822685167017680352 -0.26711463996011752808 -0.86835895363797355184 -1.3114546624800518249 -0.4167560114213444411;0.8821823344223482799 0.73694073877420485097 0.30968908266686878683 -1.278547610163396131 -0.99530308318488436292 0.0338623378990036486 0.3999411674302180697 -1.4386127653220370792 0.089847086828906977396 -0.25775264061086960998 0.010116972877541922926 0.046850982784755988708;-1.1027839859404635625 0.29311042981272694696 0.20797632096052012796 -0.58325575236125137835 2.5539801489246323207 0.39188325956081548895 0.49273378841435316877 0.46744850355577544088 0.41116676735279772403 -0.37033325506017900075 0.61210600547607951771 -1.1019344296289543816;-0.54495278368326138807 1.3045589104993038365 0.62325661125601905521 0.60152701919687845411 -0.060456081565444894088 0.17731461333995879315 -0.6643463635775488374 0.016484275212336037264 -0.29820278694768320715 0.17868978809635480132 -0.3343985966436765489 0.51046523211212346816;0.48810365326457960666 -0.082206187623693735556 0.25624804024719743945 -0.33531299046719814649 1.0790947922136393533 0.33595083316909057913 -0.46082509790405390415 -0.36293789727293324088 0.36442623028881282465 0.71198417585076778646 -0.76930358148944966157 1.0361202797102389006;0.47077978892371008524 -0.86626682610677208096 -0.49057932009507759785 -0.43133459225971909623 -0.12291265103209392251 -0.85021651418040244952 -0.74135821049770611602 -0.46695214467671308789 -0.82863465756866550027 -0.4092005989280251832 1.3193265290751778895 1.5219441336791741382;0.3430750135428016212 1.2376397548114210778 -0.068878586944056741093 -0.46008907658800207718 0.79296343045358352875 -0.80320017184884762163 1.3331094862740520135 -0.76534544417873096034 0.85921516682021725764 -0.41858268658753206015 -0.054401869382083536952 -1.2934548015374847107;-0.75981610097666041348 -0.41748536100865607512 0.20070616282575645672 -0.89157634880175029579 -1.2347570633739362034 -0.46984526126987918859 -0.2763087508111385926 0.49559619360374274066 -0.70578012307163229266 -0.33601379757390026359 -0.6735062186120668315 0.24962789775770546918;-0.4331241056643359566 -1.5713398226889574438 -0.35582100065921901111 -0.86835107896848939824 1.1175519626773471327 0.67999903672244188524 0.30589368934054839144 -0.40282575755199823142 0.57270117168814105302 -0.30196130485374617081 0.055272221291893512685 -0.91252638519255402372;-0.38472640366809551793 0.3108363265542242182 -0.41706844011127158778 -0.25961184817492782839 0.85404955069165566783 0.41369804165672108276 -0.80157555799396440488 1.2624859908918897311 -0.97526224187151033806 -0.74781548364439287546 0.73047332386700092322 -1.0693064780792362889;1.4867480207070022935 0.82075456347109698729 -0.058409829987995667833 0.64304726328822148229 -0.24517309731173753118 0.2283968339386944213 0.7651712817195430727 0.72078764996816191424 -0.3225544044849373293 -0.50076227839712195156 -2.0903442360095674246 1.0630961319215255223;-0.46057511267755174567 -0.041980755061322871935 0.23978966331765599884 -0.60118899279323301243 0.35956719091811806255 0.66476437753130468433 -0.67234831508639747444 -0.93679719828880836374 -0.80569881779979857228 0.78794372238306775724 -0.079283693400980292942 -1.105713446191357141;0.085380286223842097315 1.3773443610785316427 0.9688414524278203821 -0.80118997984075046581 0.2649332412999416686 -0.57525923137848233857 -0.20842968396754130156 0.47029232561804412693 1.1378152527876717048 0.74686493303771439578 -0.14787582341941560293 -0.33161335554605320119;1.220579605665684797 -1.5254818234383269449 0.82460481494473103492 -1.3290379431772545438 -0.53514693550101133379 -0.015556060832097772656 0.36162176730835982053 -0.88619311946130518987 0.66259078685840366862 -0.51259459084611347368 0.53680258608777864371 0.11606557655240649918;-0.46023473631704958642 0.74838564914594618571 -0.077083485393335982039 0.065607507788019672756 -0.53071270919895086049 0.13945347145673864242 -0.65326516930990441434 -0.64870769820592200094 -1.2753990162926629459 -0.37921429321913596722 -0.38822372214052774941 -0.90974078634214283756;0.15280241164389901654 0.3797708850548703885 -0.61444344114537829959 -0.99978635603713517099 -0.35192575882755616767 -0.47658746452790629045 0.30237378635061512577 -1.3180325688362999337 -0.043562076057188828249 0.10297235309279899329 -0.52586618285523678562 0.087397173913145664859;-0.58088261729494239383 0.70754872856483985721 -0.29150713211383899592 -0.62324173824795037202 -1.4339024884280338057 -1.3350304915449799914 -0.50383018009435365236 0.78793052673378871642 0.60128813646011369798 0.77031667765041966778 0.83287569029393604403 -0.4210247421325575834;0.12039247877485104166 0.25209023155410059669 0.27845723379063452851 0.49302286995292371463 1.3909208938150541268 -0.26677587474317893124 0.63352980072113507237 0.34816079697555823991 -0.67646528052319832014 -0.42847325278846565277 1.1748613978200990182 0.73398777182813901288;-0.70383070671213698866 0.3413531078958039755 0.5361019744196356962 2.1267294636813822706 -0.633255761036224607 -1.2291635270398317825 -0.17363871280405945852 0.83137650350714986658 -1.187107779167131838 -2.1560155059735874872 -0.7836865929995947555 0.66353766148890191978;1.4347443096326348844 -0.26836056752909365208 0.97485076597985831359 -0.089037785354637050128 -0.29477692299689411959 -0.29106409468046728906 -0.59643636562339708007 -0.59050058097431323834 -0.67263425534120513394 0.37876056518863104872 -0.61640026525905744492 0.68937106160335992477;-1.5356465537702828072 0.60274381360573558997 1.3854979715409847518 0.76255492523223333823 0.3496438458174732089 0.51672856592458116243 -0.63220697618491383807 -0.40018634796910496076 -0.41959186132040743322 -0.68411399886502677337 0.2541176322402834975 0.28930979103809945086;1.659266526195858571 -0.84731609269458973976 0.70004411218985285181 -0.49651711324778241563 -1.1597565393552791146 0.83208330336509273017 1.3736483432152648554 -0.2434060847250054116 0.15028847895985816829 -0.95867727623049769914 0.26339756532582336845 -0.79429470644150057534;-0.99264050649181556629 -0.10931558168331863279 -1.3339389727141135467 -0.25647321317397503426 -0.048368599254390798325 -0.32665997966022020105 -0.32102811653809082415 -0.10462582856379562535 -0.092890298928893055841 1.4783206425189787669 0.55702953449548031628 -2.2958058614545513443;-0.67284035811717790576 -1.3939391784153973841 -0.40787952747841482726 0.052445100046170603503 0.63665812142243660698 -0.73274424801799142859 -0.56931819405882422291 -0.16027997422586057197 0.212123427938866016 0.0033032195923014366634 0.55243961010135023137 -1.4883657593928898422;-0.70779692451013276333 -0.71295038445658565074 0.6550178588212395292 0.31137307651998691327 -0.21673698556731879616 -0.35322686278946363592 -0.4900275510711457061 0.18322236617034501349 -0.43220721751559332269 -1.4827808731365581529 -0.70386247452053218865 0.21449358630184292562;-0.36668364391892266374 1.4067118530222981754 0.32511269676576465271 -0.080354630884614475228 -0.74059433435812849211 0.27717998710558094944 -1.0922089665909422429 -0.1179593336669857162 1.0254963758460102774 -0.64484509668673306582 -0.4217345616887218096 -0.34358095699143381685;0.41869255127409144013 -0.92415313726633885327 0.56839873657624184755 0.049850732097597667825 -1.1513227132387819918 0.869022553841240053 1.2861620203876300561 -0.46763824958433264367 -1.1644640843283793341 -0.2642769837973908964 -1.3512948591271867205 0.1382417982162997272];

% Layer 2
b2 = [-0.12857577693931712681;0.90717914319487424901];
LW2_1 = [-0.58911830296996836598 -0.58848088010389287827 1.5173155968263134508 -1.3782193750382174535 -0.93601251944354457724 -1.1754446447489255156 1.830308053860022266 1.097460890752447904 -0.85098349839914289028 1.1635431312601955955 -0.50951839983699886982 1.0403657630332079354 1.3886233483364465169 1.0380150668893870503 -0.55971577999262733805 -1.2514789880104149056 1.6343186614801661349 0.20521313983510314216 -0.51181776352740981917 0.79950367876682881807 0.83769873583974263642 -1.115804881719939301 -1.2647958630228506305 -0.78553353093404476581 -1.4974800845729969723 0.94261862908230020786 -0.31175963109086646252 1.8734039799091899425 1.3143569876495553306 0.88314328556586718655;0.33548609070984503067 0.30025461689915866614 -0.094275017629960433663 -0.080068581598196561511 0.44334281369219097346 0.12934569089612105164 0.24469177900471197895 -0.0073905116123580711501 0.20143567876219789503 -0.055250048239314543397 -0.37171558028291806774 0.018618614289389608107 -0.17775921164252803108 -0.061653829783472315074 -0.039643891170711764715 0.38365162274943770404 -0.18935815012308171434 -0.31184096851974557607 0.26283623287073681896 0.058418520364192982885 0.13814741166433774922 -0.15245245436588913956 -0.15376808232171759738 -0.11717954398963863205 -0.080682589998104126128 0.29641142136879222724 0.0051891435642226046293 0.48544226661165507108 -0.312245687672905059 0.2165962004649290007];

% Output 1
y1_step1.ymin = -1;
y1_step1.gain = [1;2.2281565458226];
y1_step1.xoffset = [-1;0.102397];

% ===== SIMULATION ========

% Dimensions
Q = size(x1,1); % samples

% Input 1
x1 = x1';
xp1 = mapminmax_apply(x1,x1_step1);

% Layer 1
a1 = tansig_apply(repmat(b1,1,Q) + IW1_1*xp1);

% Layer 2
a2 = repmat(b2,1,Q) + LW2_1*a1;

% Output 1
y1 = mapminmax_reverse(a2,y1_step1);
y1 = y1';
end

% ===== MODULE FUNCTIONS ========

% Map Minimum and Maximum Input Processing Function
function y = mapminmax_apply(x,settings)
y = bsxfun(@minus,x,settings.xoffset);
y = bsxfun(@times,y,settings.gain);
y = bsxfun(@plus,y,settings.ymin);
end

% Sigmoid Symmetric Transfer Function
function a = tansig_apply(n,~)
a = 2 ./ (1 + exp(-2*n)) - 1;
end

% Map Minimum and Maximum Output Reverse-Processing Function
function x = mapminmax_reverse(y,settings)
x = bsxfun(@minus,y,settings.ymin);
x = bsxfun(@rdivide,x,settings.gain);
x = bsxfun(@plus,x,settings.xoffset);
end
