function [y1] = gdNetT3N40(x1)
%MYNEURALNETWORKFUNCTION neural network simulation function.
%
% Auto-generated by MATLAB, 12-Aug-2021 21:45:06.
%
% [y1] = myNeuralNetworkFunction(x1) takes these arguments:
%   x = Qx14 matrix, input #1
% and returns:
%   y = Qx2 matrix, output #1
% where Q is the number of samples.

%#ok<*RPMT0>

% ===== NEURAL NETWORK CONSTANTS =====

% Input 1
x1_step1.xoffset = [0.014928;0.015425;0.017231;0.021103;0.027804;0.034437;0.04709;0.03412;0.027544;0.019775;0.016141;0.014448;0.014928;0.001797];
x1_step1.gain = [2.03030844445888;2.03133331640556;2.03506622614266;2.04311587429525;2.05719834272102;2.07133040516258;2.09883409765875;2.07065059841802;2.05664832136364;2.04034787931342;2.03281161223305;2.02931960972125;2.03030844445888;2.00451617494214];
x1_step1.ymin = -1;

% Layer 1
b1 = [-4.1162382554899101805;1.3246012655097139099;-1.4440641904904278903;3.4941933469881640839;4.5039349435113322784;-2.2710125026295044925;-2.9608044825054768978;0.465158647503917555;2.595351040638708362;0.83956012978759408938;0.26020170421133953509;0.078424147216196837817;0.46631822340010664618;-1.485162462894788149;-0.10334138913120327619;-0.24431061464451461762;0.62964901507416881632;0.045598307996843168155;0.588686665121031516;1.3529318919577184577;1.4744964595905230009;-2.4868086124436361573;2.8141584666749954735;0.41199093694672150878;2.6613079785835904723;0.10702383584801689054;0.1872402979133787615;-1.6022911793908662936;1.1270641104288738887;-1.1344876330385649243;2.8948669122157619782;-0.20523728145419239954;-2.2049604328394112329;1.5124753295995705393;-1.5878339624818422759;2.1010283238531686223;1.4812627360399099885;6.1004575455085436886;2.5368916098494422862;4.870105428733447539];
IW1_1 = [-0.77864924295626658513 -0.36220161197942468689 0.14701679399540881765 0.16361876282685436368 2.4301401146041596846 -0.53662328956025584503 0.54871590791012592181 -4.1096087328096206903 1.4240963210622117341 0.61490400246955856378 -0.64763490539438794968 -0.026690853259926011765 -1.3332329467017538516 0.85869847768547047373;-0.19832522545122527324 -0.84973815163313903831 0.23246454903661806224 -0.051444575612961854216 1.8111828109058734082 0.076501023423821007396 -0.56287245172470146137 -1.4023876020110830343 -0.10785105323293857349 -0.73319061372961846779 -1.4022235979888924007 -0.23985638313501433938 0.14061250018948021068 0.07450584619585323698;-0.68881745477243128128 -0.86363445037635988566 -0.43252606480155464386 -0.9762606052479624319 0.10069255777217307746 -0.69101176407170061822 0.7061700007988914729 1.2224003146721544866 -2.9061419763509599434 -0.10093938063909008163 -1.5810830900684071931 -0.37432638894156911036 -1.6981470935403299993 2.6434017995457259609;0.81533625178170576753 -0.017401012390596125312 -0.21665347985562349864 -0.2721526077476977834 -2.1502639049872103172 0.56944856775991581355 -0.51413606274236578475 2.1230069709299272951 -0.35058868842129325971 -0.69068559017578845527 0.71610378573400979008 0.46732640004661363253 1.2645396880305677101 -0.80249267256493339584;-1.1447967963131175928 1.6252025665168752244 -0.042300691741446821981 -0.058384504564133306304 -0.33960843025861697786 -2.1035804996326037397 3.7975436578638466223 -2.2156430075726523121 -0.77352782850862544795 -0.10110623249944039603 1.7792235603365960106 0.011307454994161893203 0.2467170795037648412 -2.2084984164522261096;0.35737966211038663111 0.33851421679308474344 -0.68963638666628279683 0.15551377956077255815 0.14433357249338610306 -0.24996096480414503604 -2.0617729258404366988 -0.46815137274468265893 1.4325305040678351087 -0.62038935780310577872 -0.12319134404574361152 0.070077753257954095156 -0.52514993417604449721 -1.0267482302180175324;0.95838864778756571727 -3.4353210813664372125 -0.74950094917220289048 0.82212898163875192115 -0.82193626420348142592 2.104151824677415128 -0.42312979194063610189 -0.75684420696948995211 -0.43771944915907073925 -0.9028540763307169037 0.4419464129919454809 -0.10260048346440829581 1.0814696507172942841 0.065521450168142550408;-0.22214956324842435875 0.37017023594583708945 2.0124968472544493281 -0.58109171016325045223 -0.59547103056538341903 0.9151416227446955709 -0.5785174257506551232 -1.2154209616962454721 1.3150701389098591321 -1.175599794617209426 0.15784594142805874473 -1.63610783744177124 0.20659734378157729173 -0.59262759536508402558;-1.0914644185332407211 0.16084169647661741842 -0.97708207272149849576 -0.23883397624299024242 1.5305991432151335729 1.0209387901547151145 1.3969797271580819409 1.0020037773499967937 -1.3420879446848150707 -1.3337737729873322401 -1.4480149847722014744 2.2360813393156493412 -1.4211592819824805378 2.5372241016878569475;-0.79274868941234233333 -0.23310967303641033643 0.8649652088119169635 -0.29750035568031618638 0.94527737031104708265 -0.70853000226574724962 1.3963348262945813882 0.52472411666461882263 0.13628099253551004266 0.049769986721916861794 0.34867309119439898746 -0.18289730218156530217 -0.94045853212089580708 -0.068954173323083220448;0.38928581716394378143 -1.4569416380790498611 0.16715931687170706987 1.9028477292307497404 0.7705966943791761059 -0.1869989722854071279 -0.095551269130824137421 1.48576281871006044 -0.68872689776993900601 -1.0253465310894249729 0.64015084438035874115 -0.30949915876088285316 0.11013357735647144597 1.6290411968998728121;0.45403830781345128065 0.56516193298261441225 4.1254049725088748346 -1.1068685122725030467 -2.3491737501510243646 -0.41388790207862480308 0.71595860680868295134 3.0026272927044437289 -0.72906959058202058799 -0.49423037171053474381 -2.5434484987722294491 0.42337070438997559396 -0.36053353930553749818 -0.49352275325805039508;-0.366699743076420559 -0.19713823426378293546 -0.28146421752612410527 0.62272451949366336432 0.32443664819115203279 -0.10746073137795336683 -0.2792644839227294562 0.73469660898092692403 -0.61455641775768388158 -0.32061341844876867224 -0.70855455203694539534 0.93001654669831612665 0.12761571089901563303 0.46486238342682884017;1.1303049602139578766 -0.84263233049011121434 0.32004531830974819462 -0.99936219687727556593 1.8819716515352287178 -1.2468521107699530592 0.78387384698147677398 1.1512281457036119825 -0.10035006894816118905 -0.20037672683176482868 -2.3640869262389321293 -0.13489444820580906437 0.46633767695129851871 -0.70921064767944719254;-0.29380793993638465444 -0.52107000652209678471 -1.2748487643517187884 0.41247973591220826739 0.28089351597215023171 0.035883674796215084268 0.53753638036959294766 0.63577823495967689116 -0.38743778632649250593 0.083753902679939110087 -0.15888813140951080216 1.3188462620305241302 0.3817336899120945537 0.042682518279478734446;-0.69609106477318027917 -0.18359104766267816955 -0.66125399363805825725 0.56736149737142937965 -1.0020225947673626621 1.3524641710657865357 -0.40206937828995337192 -0.38233207956348408407 -0.21115092743732860603 -0.50230518754703235018 0.20136823875402712347 0.30786733093028745278 0.32592965768216852762 -0.73915946350258709963;-0.86705605172066280151 0.56903467987751621404 -0.099191018952836967904 0.88751721041996300965 0.52839869825904861589 0.21802819913418935993 -1.7963167667371651159 0.14312955289879075726 0.48684192839289019972 -0.28135669148379038873 -1.4477983325900833922 1.3743293238764748843 -0.31658338996614154848 0.93253382279147056799;1.7012395830514781547 -1.7328493360867773809 1.8827255011368129178 -1.740550097040741484 -1.167425816060957855 1.7789959293943737872 -0.74845375981942585675 -0.7212105499442411638 -3.1967827962746371284 -1.6955853697177429851 3.2385128510741876262 0.28384109476196733857 0.25600065924588494282 -1.3606477716980527326;0.44233929844443836688 -0.34132051241052646651 -0.16253988072683889232 -0.84839594884514879514 0.10564203083281578643 -1.4803214669477220422 0.85322772431653370884 1.806178681296919164 -1.5746218638136260104 1.3312064480776670816 -0.24230113788790497154 3.4350111576152828619 0.11690343435731447019 1.1271022699350770058;1.2982489712818396921 -0.21750465722974743343 -1.3468508170224593457 0.74601265206496381044 -2.4281781144074807699 0.81865582599219466342 -0.89326878414491983627 -1.5994591350961337994 0.20177834912663111799 -0.0080483670508249421927 1.0543681092460115423 3.4492156845392627496 0.16694918896207272541 0.75840270907617823859;3.1768828373202286919 -3.6321537873389657669 -1.3889464544372804866 -0.92291279232287004586 0.078779014167116523382 0.44188443900536439335 -0.14059360968354273069 0.82264067691542275274 -0.46804239742558895188 0.16177532021504492654 1.3694249866974692598 0.23136552968520088247 2.9893902686873845553 0.21162997776919409421;-1.5769356427116161257 1.5126766780435483284 2.1072950043208065196 1.7864574168963867074 0.30542687683334912574 -0.83786522219175929571 -0.49464037893156914683 -0.42230463651497929245 -0.15663984856282101021 -0.41780287287852491129 -1.7426730195349295904 0.024250338330295870271 -2.4860433233853691526 0.061076280855735423647;-0.51063880197341493528 2.1344593221018310913 -0.18452786423729256038 0.25621892766708503908 -0.66450413534470043064 -1.7717462249312792011 1.8816908274136361356 -2.1401325498698517968 3.4154522909521349838 -1.5859268359075340271 -0.059036710399834900487 -1.0911291872217230292 -0.91898761181573884738 -0.94711369557013436182;-1.3085281449973038548 0.63968758530502434212 -0.56777893043258464978 -0.88437046947982467238 1.1933427953377502284 -2.4382250539027698899 0.8786527424330710101 1.6367315417636361108 -3.6279660151745356522 2.1262237476576175688 2.5110665269793397414 0.50029771080065377209 -1.4732350620070662206 -0.18584983538973531836;0.25215842488686091016 -0.75594884650986271524 0.88781384080691572169 -0.15265191226647045752 -0.96417024014060226378 0.088522357078310617839 -0.20630199478825311799 0.40290846497202559284 -1.0886758524823281213 -0.20231320149259027219 -0.13364190960428698474 3.2733191394925800211 0.34898215881529953686 0.56154312244236326279;-0.42106120538366492712 -1.578377240459518438 1.0320551004775153636 -0.31591209173352075013 -1.0270627874402096236 2.0173912444523534049 0.48015048710313817937 1.4116689194498830418 -0.32644741402294602528 -1.5415882028017102723 2.5755613748033185928 0.64429912975998904212 -0.0813055740230954338 0.64835352758687658792;-0.7888891304355706291 -2.0256691503548274191 -5.5045345510333758554 0.86777415219394427037 3.9588059997169233739 2.2322672769629336997 -2.3445652659745697122 1.1471849352075320638 0.47936776310381939981 0.68454133349378243345 -1.400825796763774056 2.9384502262261280592 -1.2212249682214775248 1.0721335915303424891;-0.1043619570306684452 0.83273800966188626926 -0.37345222517545784147 -0.25044493112332522067 -1.6092515234060689178 1.8702589765926649346 -0.16055127632943919092 -0.29419554348584997516 0.50970093427122376006 0.44818018433571621406 1.6055822955034428912 -0.0078657211037826482714 0.47046435173006850849 -0.46457849235001874577;-0.046126548481415605152 0.19421847911436707079 2.5185211736665906734 -0.3197057539144523286 -0.7837027307550437083 1.5184336795199309122 0.57679815911540610607 0.74747143462716880702 -0.019721836713227063748 -0.94867967638503591932 -1.3988794600464391493 0.64725530973655942546 -0.16717329718482332179 0.62223917346639023851;0.29278764879795432519 -0.61974172254644188662 0.35420617262262543701 0.1493225831497631273 0.029046553368807188911 0.27286789933525856799 -2.259050229062702364 0.025844748050822159702 1.2493485757481408438 0.50961163259504049794 0.21000851654057708928 -0.027118505251875334172 1.0503045154829957486 -1.8936219256185797821;-0.55256579322042775892 -1.5555105209546804534 -1.0391386622555724983 3.6948061443920190428 -0.44982637169132289046 2.3562523722556036887 0.33085066622063630248 -1.6139905820139279768 -1.3151427988055290896 0.1019052912242497666 0.8911602349597955719 0.38206812907980181038 -1.494570215347064801 -0.41545778955735263027;0.10591971548189349495 -0.21455665301816947976 -0.46071104259977024853 -0.66586953266597015411 -2.0304813243759487484 -0.87564185469208755119 0.73906439531137124721 0.04434281407895090954 1.407251546815850185 0.97856635784965351199 -0.59029443996811636897 -1.7276060092849374605 -0.3043954252679789696 2.3944357431847573814;0.076344401002669856626 -0.78843428269560067445 -0.13823557096260119526 -2.2801400811268868196 -0.62808453470666514296 2.1644533763540558802 -0.02034118286147973062 -0.21010107750584428032 0.009898756004604637726 -0.89216500460600822731 0.27089532622047890476 0.12437420269069318635 0.74283364001383500597 1.3325257465641060506;-0.23664404207620581833 -0.76348870765810650241 -0.23176023868707554265 -1.2538948578410644696 -0.59264699958437416782 -0.84078784983714571766 0.16022297615147571004 0.29055296424911669639 -1.9456654579566459162 -1.243706882804531455 -0.2652868890613143682 0.9375927935954403436 -0.15399048191215172765 1.1426651035476764751;0.23725999985415965887 -0.6413184812408121438 -0.13038037060572332804 -0.019502650472555643768 0.41704672732183423189 -0.41605142767712433027 -1.7687264605341155299 -0.42364803722766325444 1.1787958238706814917 -0.6156233309968590639 -0.020305235674207999796 0.065366291388412947616 -0.20025880697702846955 -1.6111504371458940099;-0.70780360447399182089 -0.27857048378985349579 0.29993727676651243952 -0.074858363784663553564 1.250878699434924135 -1.2153837320001597 2.6978932574943432776 1.0391585913443930345 0.020460942459911979352 1.0832207781619800357 -1.4083255262398619578 0.12218253242594200036 -1.2559390951155884331 -1.3607880677457169227;0.86471356361097384546 -0.014608055832124097057 0.57444864588924449134 -0.66105983002466295329 1.0454771984049910927 -1.4297057580125576148 0.41947294711568949843 0.52870067956504440687 0.4527265179322012556 0.49665813224899474365 -0.38250322468773906293 -0.20613052142238233455 -0.25098342668022832758 -0.53827130415425383791;2.1400561440182706008 2.1360572035238885036 -1.9670779607530279876 -3.4092493273523034603 -0.40892112339262792764 1.2869083606493778582 -1.0187707713227678319 -0.49057473524255951203 1.0078499344127747062 -0.63971062222638608308 4.2046286014477294302 1.5956270639017897661 2.171400394044240123 -0.57161867735623184128;0.93280880820512335205 -2.1431910008964982772 0.27256147214823267522 0.23231183264078889006 -0.21438588460085217235 -0.109343008696800012 -0.32951748423948079569 2.0845490159789150653 3.363551424696160641 1.0458448376324891438 -0.19223018431157293251 -0.021205236390007813074 1.267801301630061106 1.4912718555740749338;2.0519869304396451959 -0.47048784958843270498 -2.2921209503086057424 -2.320875128810064858 -0.31941462862135927558 0.26579529343701635558 1.0603909682513885659 0.69043699726043294973 -0.045877728920856321315 1.7515356708886848924 0.46267888193348727377 1.5101496516429999684 1.5365108848991031465 -0.84184382187671380482];

% Layer 2
b2 = [-0.30800740895310796397;0.779965043526682833];
LW2_1 = [-1.8040720322902772388 -0.82940306983638845129 -0.60204079259769427424 -2.2646467589864647252 -0.58079705543381798805 1.8213319151936648854 -1.0629770437106400571 2.2541616875353485128 -1.7817575283907147732 -1.9924695606181457297 0.97679019229506380828 0.51584069215432293287 -4.2504816443525372804 1.1102464459519185702 3.040311264548296144 -1.0425759926237305741 0.91559649972813161867 0.61586805828364166171 1.0812396609880345899 -0.49055469791278566438 -1.6078215137415943214 -2.3310870627809654465 1.0418982191284262839 0.32961425691967499718 1.4830882725495146968 -0.41419350297543161554 0.42301585157175086715 -3.3393384958550216268 -0.60893301012195544253 -3.6175183249950553233 0.68281210343235199112 -0.5935288507960913007 -0.71719491346235808571 -1.5917776100506930703 -1.244119641775821794 1.0707880281616604101 -2.4605338334783315446 0.5274855291325268869 0.32386124396155252514 -1.2717786306901965876;0.065404645910345324267 -0.0039803675528293520208 -1.9349600815232745887 0.22413445371438089904 -0.057503192484504105086 -2.7981652906631451216 0.12103193887520564964 0.12993203380626150434 0.07514182013381785763 -0.37935168368551080986 0.092797261110690296149 0.015681130804404138507 -0.3679798522715277409 -0.0010388397785696151972 0.36300419753941737255 -1.6725822435591601867 0.15655603761926059625 -0.028740188840041223928 0.084983191564087692815 0.033885912845031160301 -0.076758353450469565815 -0.12559009369230550446 0.038000718427932581034 0.0034813014453943802451 -0.20373832051163914825 -0.0070450357595236321948 -0.0025989152166040591606 0.24014430290869004381 0.0058893584302901202943 -2.7145881504063824607 0.051909063235917346502 0.86834750751380340716 0.11153615593274709972 -0.66248599409123065662 3.2038520576999611755 0.23575191680571028208 -1.3879672948586048165 -0.0018238757185668995342 0.014243127145782158438 -0.14400097440297052187];

% Output 1
y1_step1.ymin = -1;
y1_step1.gain = [1;2];
y1_step1.xoffset = [-1;0];

% ===== SIMULATION ========

% Dimensions
Q = size(x1,1); % samples

% Input 1
x1 = x1';
xp1 = mapminmax_apply(x1,x1_step1);

% Layer 1
a1 = tansig_apply(repmat(b1,1,Q) + IW1_1*xp1);

% Layer 2
a2 = repmat(b2,1,Q) + LW2_1*a1;

% Output 1
y1 = mapminmax_reverse(a2,y1_step1);
y1 = y1';
end

% ===== MODULE FUNCTIONS ========

% Map Minimum and Maximum Input Processing Function
function y = mapminmax_apply(x,settings)
y = bsxfun(@minus,x,settings.xoffset);
y = bsxfun(@times,y,settings.gain);
y = bsxfun(@plus,y,settings.ymin);
end

% Sigmoid Symmetric Transfer Function
function a = tansig_apply(n,~)
a = 2 ./ (1 + exp(-2*n)) - 1;
end

% Map Minimum and Maximum Output Reverse-Processing Function
function x = mapminmax_reverse(y,settings)
x = bsxfun(@minus,y,settings.ymin);
x = bsxfun(@rdivide,x,settings.gain);
x = bsxfun(@plus,x,settings.xoffset);
end
