function [y1] = gdNet2T40ND(x1)
%GDNET2T40ND neural network simulation function.
%
% Auto-generated by MATLAB, 18-Aug-2021 19:20:10.
% 
% [y1] = gdNet2T40ND(x1) takes these arguments:
%   x = 14xQ matrix, input #1
% and returns:
%   y = 2xQ matrix, output #1
% where Q is the number of samples.

%#ok<*RPMT0>

% ===== NEURAL NETWORK CONSTANTS =====

% Input 1
x1_step1.xoffset = [0.014469;0.014929;0.016612;0.019995;0.027617;0.033129;0.040462;0.032248;0.027814;0.019981;0.016227;0.014616;0.014469;0.001797];
x1_step1.gain = [2.02936285109246;2.03031050553716;2.03378524041375;2.04080591425554;2.05680272073864;2.06852827316157;2.08433642023557;2.06664517355686;2.05721950326378;2.04077676045056;2.03298931765763;2.02966559229701;2.02936285109246;2.00496228164708];
x1_step1.ymin = -1;

% Layer 1
b1 = [-8.0257684081669466991;-8.8863324480187113608;3.3395566307961157548;-0.06731096578012532583;-0.23475554546274524093;6.7941479376586197958;8.2202363202092243455;2.4553419889605878623;-4.6286851545885552284;-2.4192654566941880212;-2.8223146661396336654;2.4644439514553795334;-0.82295387603308467472;-3.2525270772448489076;3.2311456383952634752;1.0358370822937199573;-3.6386237630233368989;-1.2009325906008025964;3.6193333104560778679;-0.3183284196264167254;2.9431963858847174365;-7.1887255385035180311;0.89871318111332842982;-5.0305955407427749293;-2.7908079707919593027;-3.7786713913453349178;4.1998747731921453052;-18.132820221678212391;10.674285184454747721;-8.2171725031052176291;-4.4355055187873766442;0.43840471318450835447;-4.3162895637771967472;-9.797844916378018354;-2.3317615717793773733;-1.0089163839405150824;-15.919642243477872157;-13.971313068742208685;16.636324882708471762;-17.47632468714688514];
IW1_1 = [0.0073352854002550552104 -0.44536667541128954761 -0.22546403300703563022 0.69084726760985160077 -1.648883292554871538 -2.1113240896118030676 0.42510263243925444643 -0.50524343894810919142 0.59415158868839923478 -0.72699790119604523753 -3.9799390525103977012 -1.0643355078561480553 -0.74319589858287560258 -1.8929632212212716968;-2.0619032229397875611 -1.2243487040701508395 2.5021252453766451573 0.27170964959067506195 -0.24613513390707422723 -1.1580798310099083004 0.7147608343129678854 -1.9598371870113562299 0.27039920588107080324 -2.9757010717612790707 -0.78719032510290731786 -2.3831970102893671459 -3.2164348510733544728 -0.17688901529603237583;0.053804922213911948736 3.9664669020986078607 3.8838131036979666177 -5.0914525680183837508 0.79055463350454602267 -2.6158382860329765229 -0.32287496883410898851 -0.35960648902265612836 -0.14212465167096921537 0.12318609170130351282 1.0013747037904714432 1.2343121752309029748 -0.11206871278971701489 -0.14299321989333019234;0.48292664309323396488 0.67646332050987312279 -0.93425976159718571168 -0.087508893381154792546 -1.1505835796868701948 1.4803565012091000064 -1.1580579866977203096 3.0173359253051685869 -1.0253430103687475317 0.42610745249995374273 0.27476935422316139945 1.2891481756577245488 -0.26715329196636672382 -0.21576994144513289564;0.31689085223088786503 -0.30391770309699367436 0.080718066405213118042 -2.7321700228808767363 -2.7446096475145353999 1.8775572864085237068 3.0603156146720813524 -1.7324788888597058012 -0.46562540811021591036 -1.1928183924927795445 1.1148505249729654398 0.48982939331342312261 0.96886267601660347459 -0.018302651999104614655;0.13827783312630489987 3.1924928910727556897 -5.1069558100329066619 1.4484401499557808535 5.2284661495407931397 3.0763719822203756671 1.3273399729861663499 3.540214033313302977 5.3802664509190352149 1.8745077299846821806 0.70706122915306657273 5.0983147820632508385 0.027948663489323965353 0.11765086156317172694;5.1279145939498373963 0.30341953301788610053 -0.29764561484797380508 -1.0733998824151540497 -2.3846895700042569644 -1.59943042242404454 1.6073038376084511913 11.139743402470600131 -1.1207440880772356895 4.7486776858688584113 -6.7303227944193428911 -3.0830644282882841978 6.3768495534045266382 0.26168661520978747648;-0.21815535967839883025 7.3413206855574388854 1.9664959757472113555 -9.7027151724098477104 3.0881111490107309159 0.59286475571993946243 10.107742928967679674 0.68406199321978844452 -2.6937787697625585892 1.4343358954606846289 0.24433081269188464124 -0.68391179850212446834 -0.61130707016987761993 -0.37746379401478152849;1.5714789056818476709 1.6644799696568932657 -3.979431917417804776 -4.8251146003607825463 -4.5625919190107318002 2.49786090472530109 0.90980965448123785055 -1.0846909047759880629 -1.3695015913500228066 -0.19826326532872820541 -0.53296959383170461333 -0.37109656368769433632 0.375743391763586565 0.35115476487827190777;2.5363190159371233889 -0.35078539785835854969 0.61464750294078529524 -1.7895531659607788466 -1.4619159464685216321 0.72071941419109319948 -6.1646470125507111248 -0.083410952992968162567 1.0396977868036192394 0.2854094969362912515 0.36093365094596030485 -2.0149481472905748092 3.0185114218300146405 -0.22724796222068852081;-0.8195939594541160611 5.3923867630940547357 -5.002980859106751943 -2.5634323452089633477 3.280701170871332728 1.3407451586250953568 0.92629148961330376455 0.090437549498744621013 3.4403677976876427813 -7.9116125548381992516 2.820854699328637416 2.8889737994172812741 -0.85997054746245149559 0.029159829552703554756;4.6395589709922839816 -0.2262384840250026008 -1.6272030008916154031 4.8148178812166895213 -8.4268519428262003146 2.8109313582005532872 -6.6432456778481610016 -1.6453979626605603759 -3.3322674142255443996 -2.5298875215026153107 4.049324081193121927 2.1686842503852847841 3.9331927476971699775 0.45375225569026111927;-9.3103783948585068231 13.344339637269632348 7.0391736232025481357 -0.7631942220061772586 -0.0071878105179076189069 0.34234271010522782097 -0.92545524133650769461 -0.52048618075751440504 1.1741225090775666562 -3.637657984575885628 4.8852085430675344924 -3.57823377577848456 -9.6686820092608236621 0.09455761266732426451;0.77871304780830730152 -5.5981304860711116334 1.3811760890662532208 -1.4406652793030512161 5.4662294278309309092 -1.8708861894644379653 -1.0540789708164344241 -3.2003961132309828308 1.2990919636121409653 -4.4372042899455825804 -0.3930815346313732972 -0.35296620912212056664 1.2853717169140330689 0.07679884561481545302;-2.9834609026103890983 0.40324061389031634617 -1.1640810377182500002 1.8375711534319005835 1.1678084296166542089 -0.080169299303862559536 1.050148429077184753 0.29103978829637061621 0.28390992515337276636 0.37267899961355899219 3.0705242696748955566 1.5605247791312177874 -2.6178858244368878871 0.35780541801235710153;-0.23661500778925795285 0.038007456674805220609 0.052739011874146819736 0.012522770842762123017 0.1508230673901753971 0.032929660509533796586 -0.095474732806602943813 -0.015381349346535332437 0.088250842105216581457 -0.045245958944443158412 0.055059824032414640682 0.031570416924032167205 0.17289501293601081122 -1.5772976436757770724;7.9764276800572044834 -3.3795478593753482954 -17.252717119909029009 0.96678018323865277939 -6.9321189893371917279 -9.154013401276953843 0.84788839707701890713 3.9840986145890671111 -15.258066862271812525 -5.4565207621182558739 3.3140230651034903175 0.69256921974408758302 7.0411725316806013097 0.076734150921941635115;-0.005061079527233324285 -0.77800614909136378561 2.0261760892262983269 0.014260203944649019539 0.66803147579565957948 -0.73699278418050928607 0.27951878006329278215 0.0079100951707487248549 0.41018532779679961475 -0.61796543631175782085 -11.458335078930483419 10.244734179833425713 -1.2794966540642693786 -0.10560744092538257299;0.92022856747294867752 0.18091522322830458358 0.4488456896457193035 0.2258387565238919592 -3.9370791887851721569 0.96548009136956014498 1.1428473188209731237 1.9079417721922597995 -0.95385695332812370228 2.2642891510110745301 -1.2170588602326608552 4.1720861963770756731 0.25785802763263360182 -0.42482441684434646412;-0.38727594066854936772 0.64238937111117844214 1.2074255752775662209 -21.763109809222807911 16.029142595954898098 7.8122875671995535285 3.0089449368402059193 -12.187814249411655254 1.2248909735405795196 1.5715679453527742204 -0.36735573073193611426 4.4850507586877492727 -0.47449534406218835114 0.067789076883420992803;0.28945762261605606502 3.6924706699008895683 3.8512369663929559849 -3.6080312415355946243 0.20597318002705863882 -1.3493695238232448208 -0.74065476637648886005 0.86268925559019093985 0.15204195117169411189 -2.9188640050662764125 5.3925014945174751801 -0.73771341285210967342 -1.0242571174983379212 0.083998387266087090608;-0.40587874839721210796 2.1088289591700206671 -3.9432966846015471418 1.3058919982957941652 1.0381660155520235911 3.1357039716252881334 -0.9048139907049216335 0.39774207514694170928 2.6762968899346133433 -7.7692377210405156873 -0.26399639127100105185 -0.97523512539536783006 0.19122402415847594703 0.19302189490880000688;-1.4162460468611388631 0.42527477838260818732 3.9302423640547154982 -0.86479477954854089283 1.6778918422951649703 0.30183702066808310027 -0.68939207187270579169 0.22759835545702677972 -0.094759682722905760888 -0.25249086680685672857 -8.1089795028591868942 7.5019507748656746315 -0.81102470995252906594 0.031901653743740786273;1.0801579184314014093 8.5687766026315586032 -8.397818169872204308 -4.1831531561823558363 -1.946030469556867093 -0.18935965701267867822 -1.5431576454449367208 -2.5474793591011146709 2.201614741415947929 0.17548848412829837207 0.46678682534569726492 -3.5611320185479944378 2.1383679921074789654 -0.43416826283834719646;6.6914042738970325175 -3.8449495170553578127 -4.8479147075990507432 -1.1831158157005741138 -3.8280225400002443337 -2.9324291953828391932 -4.4843757879999408544 -1.8623496054359069962 -2.3029117550215918442 -1.6279238254401759978 0.72375978566709375794 -2.0812857099954542583 6.0853701971270224291 7.5715086819561392417;-0.93240326729805389494 1.5256361278441417095 0.83340233764055382526 1.0674413913675688814 -3.5404179845368712876 1.6541161984616434832 -1.3201088989784646177 3.6217102739450584004 -1.0511995599795806999 1.4890014167860481376 -3.5368131488981449095 1.4184046203782239015 -2.1425138149071072391 -0.1591195911569347754;1.2198846863224297454 -0.32711067466555293626 0.086421827859875288702 -0.57522356885963299433 -1.067219528998060607 -1.2944491222136498276 0.59495861503842517592 -2.2635300980489820866 -5.057852314872614663 -1.6340739957862833176 10.085992967463841552 2.6499868056553368412 0.60522176879797384697 -0.040901259524694560943;-0.29179400647433162419 -4.3261170684075649362 -0.79237528336047424737 -4.4894999047764914124 0.28585286091437261957 -5.7525666580364029912 2.9379961727120504911 -5.3066261545925703658 0.26288541517132091307 -7.5166619127927436494 0.23402463175188445432 -0.59380956185178834783 -0.4744157334797952652 -4.0651851236421547853;5.7639907154736995665 -1.446700435549002961 -0.68455158430014884097 -0.41361983205932895125 -0.43346333619714683127 -0.043742052014392907022 -0.79673371091851419301 0.078708455083256120832 -0.62550252971046371719 -0.4360299069359787616 -2.1801046996704838143 6.9176256186713889207 5.2276587264561191759 -0.071742614329783113702;-0.63531499018776227405 0.0048242488329951118547 -0.15853629494071885819 1.1668478605168017825 -1.9879651815749597166 -2.6808064885964038027 0.57304657541447401314 -0.084848386517273347018 0.74947338349519321277 -0.54899419762964096758 -3.6767730789156800597 -2.0304012416874632763 0.22619484292158667516 -2.0612330469769357677;-2.0038832593060971199 -2.9966723156431829267 0.0090083445162999608441 -2.8476315159461029758 4.2842909434571607719 -3.582836505777198699 8.4867956121053840235 0.3450197171314899891 2.8887466660254523809 -3.1518864087679210328 -1.0128473688158150523 -2.873805089090215148 -2.3765366099150870838 -0.21598829498726490606;-0.28865168467807583719 0.10822085271014594832 -0.56285759282403091674 0.32076072100235669682 -3.6049828725662980133 10.602479150395426544 7.5845184000157459536 -18.880962260795968177 -0.37207838106293444902 4.6823380192810937217 0.4517571188250920633 0.52323941844039467686 0.25617034488844325768 -0.09649790585001132015;-1.7917685887952252699 1.0705480558218900544 1.3265492494019726077 1.8057511529184657739 6.5756986679465629919 0.21575371617611574515 -3.8678131783674616351 -2.4818678377457055184 3.6568377852016027418 1.2306025778770770529 2.5620254263090225244 -5.2561815951361472443 -2.1429168920385643915 -0.45183986528421099527;-1.9909688930088804693 -9.1657457822457040209 -0.62483215538258307653 -0.23996243047780319024 -1.0144593257732839042 -8.7478806559878119486 5.280510645230990896 1.9447341105230726566 1.5194496021379841899 2.0550414208695335638 -2.5128887812706279803 0.48285533896215232508 -2.1902593509671173244 -2.5761221789100203772;-4.9268458053071126912 -0.2689304777073858177 2.8577138638131978077 1.9983843286419600282 10.791743219178700386 0.62204946016715012558 1.9291334597911873328 1.7104761394519214512 3.2965144826022427793 2.7516339981820832072 1.1416591225690722045 -1.8698503078332451288 -5.0798873568259717004 -1.0101042787765877051;0.5220511330955570628 -0.1182037001909421875 0.11975767188460345603 -3.4419602700351128455 2.8030808463285863397 -2.0963594684723609873 1.8749455876082048444 -4.4285416185707742187 -0.34613624912315954507 -0.84554367466819368993 3.7925982885528073396 -1.0513699118261656817 0.46722422248483175267 -0.15484215354323041525;5.8651499161406768224 -21.024571986465574014 -7.044818691238912578 2.2721168214503322247 1.9798502994404845179 0.50679588179042489582 0.55225499537021938146 0.74384256384780511606 0.45357488036820697852 1.2690163953493482918 1.678262995930654311 -10.553265592549916363 5.805697184107263098 0.095286274595776404572;-3.6778082597167314205 4.9519580675734795605 -6.5678857934672416619 2.2995130876162788169 -0.89526121243522993609 -0.90117730147986585543 0.87451976328006220118 -3.7317952863704211275 1.6567266386552050861 -10.703987883398054848 9.3137654440883377305 -8.6548633641236847325 -2.8656998100306205757 -1.0595233208331837904;-0.40996292601294326285 -2.0635206552449263384 2.1231177861591303824 2.5362719720846076399 -3.2067277645573466494 9.9626177465220226992 7.7312086869015956836 -1.4024210835595602997 -3.758149337277934432 0.52795149384705175599 0.11192521697531743197 0.58037960978262115308 -0.23960499451142333593 -3.5793069820168956774;-10.245412633215833509 3.4336806183242116752 2.6042891663624270215 -6.2650524279969310726 7.1158986251002271928 5.7928340132494531289 0.053953278186054470789 -19.149492298465528251 4.6788469955088807239 0.92414683562511001913 6.2323119416703187667 -4.3423346068128676478 -9.0649629466407546374 -0.36146118575627517178];

% Layer 2
b2 = [-0.50327811918997478191;0.36329043250242221141];
LW2_1 = [-0.95053962559983284919 -0.79732843177339107754 0.5055206453429836877 0.61155553843973842199 -0.38671290025068272289 0.11174329597462852315 -0.17680456268120750551 0.13866588695993789515 0.29947936435063210459 0.39507220439845264215 -0.33785568278755456761 0.16237716744714134065 0.33735993336153047295 0.26662218765582884616 0.3849934901220569694 -0.062902835074309756958 -0.11501952873781744191 0.72960287800687362303 0.333993895540737884 -0.15695248893598107154 -0.49846526127110807325 0.23604955620573803143 -0.60253736236094046497 -0.28440047555905084709 -0.010383690594688290906 -0.44462217156880573521 -0.27273464796300372903 -0.17465966670972002395 -0.43659752236883969667 1.0985650143745648855 0.19309592361349997569 0.22288572779279228198 -0.30980881955889483237 -0.06782274974557789271 0.20718340701647541824 0.29736339109730097752 -0.27072585494975626164 0.20336842270885610584 0.17409087771132639166 -0.14003008215835319183;5.8943562780255458478 -0.025416832218988869019 0.029580038385181008087 0.031891628525910493963 -0.049020438310968937612 0.0062472764694390062884 -0.0045489437345194640855 0.0017764353227148047855 0.026112453953280583691 0.03085108861303518385 0.019751726431777277826 0.02176493729385237802 0.031440756214459332496 -0.0052760381446978121475 -0.010632674258576276655 -0.92429911678708920331 -0.01521192636529926541 0.024410605773391436113 0.0076699871881007273405 0.014632662391200404808 -0.031061197545002142834 0.021361466662848181686 -0.0078747261092899437096 -0.040403040584744101538 0.1821736297392886339 -0.015589547670934796042 -0.022244929470551001033 -0.88105245093903150622 -0.024866138423843692218 -5.039974313037337339 0.0051322629920408481888 -0.0030508350172187472665 0.017280246676051359833 -0.021665283138288075893 0.0047002171838515464236 0.025075912870787399334 0.0074389552450387121108 0.021171825295166254305 0.0035835359911854294118 -0.0015711693879437193307];

% Output 1
y1_step1.ymin = -1;
y1_step1.gain = [1;2];
y1_step1.xoffset = [-1;0];

% ===== SIMULATION ========

% Dimensions
Q = size(x1,2); % samples

% Input 1
xp1 = mapminmax_apply(x1,x1_step1);

% Layer 1
a1 = tansig_apply(repmat(b1,1,Q) + IW1_1*xp1);

% Layer 2
a2 = repmat(b2,1,Q) + LW2_1*a1;

% Output 1
y1 = mapminmax_reverse(a2,y1_step1);
end

% ===== MODULE FUNCTIONS ========

% Map Minimum and Maximum Input Processing Function
function y = mapminmax_apply(x,settings)
  y = bsxfun(@minus,x,settings.xoffset);
  y = bsxfun(@times,y,settings.gain);
  y = bsxfun(@plus,y,settings.ymin);
end

% Sigmoid Symmetric Transfer Function
function a = tansig_apply(n,~)
  a = 2 ./ (1 + exp(-2*n)) - 1;
end

% Map Minimum and Maximum Output Reverse-Processing Function
function x = mapminmax_reverse(y,settings)
  x = bsxfun(@minus,y,settings.ymin);
  x = bsxfun(@rdivide,x,settings.gain);
  x = bsxfun(@plus,x,settings.xoffset);
end
