function [y1] = gdNet3T40N(x1)
%GDNET3T40N neural network simulation function.
%
% Auto-generated by MATLAB, 16-Aug-2021 17:24:57.
% 
% [y1] = gdNet3T40N(x1) takes these arguments:
%   x = 14xQ matrix, input #1
% and returns:
%   y = 2xQ matrix, output #1
% where Q is the number of samples.

%#ok<*RPMT0>

% ===== NEURAL NETWORK CONSTANTS =====

% Input 1
x1_step1.xoffset = [0.014469;0.014929;0.016612;0.019995;0.027617;0.033082;0.040462;0.032248;0.027544;0.019775;0.016141;0.014448;0.014469;0.001797];
x1_step1.gain = [2.02936285109246;2.03031050553716;2.03378524041375;2.04080591425554;2.05680272073864;2.06842772603261;2.08433642023557;2.06664517355686;2.05664832136364;2.04034787931342;2.03281161223305;2.02931960972125;2.02936285109246;2.00451617494214];
x1_step1.ymin = -1;

% Layer 1
b1 = [2.2487512984712263453;-9.5627885546577164888;4.204123568182501991;0.76460451428156106513;-4.2768612535502894545;-4.7140155030592048035;-6.9594230485873778136;-0.040586941125098245642;1.2032842572919595359;-10.139695440072937771;1.9565171262263534313;1.492081927224889748;-10.520284248369312863;-0.90911871984183312279;8.5152724356814122331;3.4055307758785593464;-0.22122405432215611065;0.92176693531175846186;-5.3814348101012026149;0.81389538649747916743;-0.67572647298482102496;-4.9381677736972982018;-0.9141757507267749272;1.4434305346774791712;-1.0425134528243100718;-1.3864545434511685862;-4.8749231975504887515;-0.98454527784202927609;-0.3295059071393057204;-4.6790797929164922309;-3.4037521508269130699;1.9688295917223195275;7.1423676503468467303;-1.2360881845822684344;-3.4809633605868075534;-0.14984391950236367053;0.5161288673575360475;0.38592654290337680134;1.9284228289936682366;-2.5326782837098842371];
IW1_1 = [-0.77452252499488394299 -1.5999347948772570938 1.0343944476547901612 0.046326912863140203014 2.2890047898773464574 -0.034639582828552284433 -0.8433603179569351127 0.060877296231600618037 2.6090504448653262237 -0.49246941963068002757 0.21339615415691526312 0.058385922189104495772 -0.32289184003373455623 -0.24505452670852090336;-3.5451285764139033319 0.041363054684525314697 -1.6434546336867714711 -1.3928590110356637854 -0.67370883478340193307 -0.92921485687979787915 2.1126558980372687202 -0.88916661254318207774 -0.70108260987061155056 -0.32592449621826580231 -0.66310018771261458603 -0.12579351365870411472 -4.4192710653579556634 0.092743015905234912899;-0.91261236039092652472 2.843331071154616474 0.43879829934271835645 -6.7947154867591716965 5.7635390152988899004 2.0778027012409814311 -0.60177438118343695717 -1.0652498007917512446 0.55413982548166385023 1.0715922264379107443 19.203183723507311953 -16.310056248603668649 0.029722650189487179184 -0.15086434372018817096;-0.32651078279318973552 0.068558609119218266725 0.10727750102995241288 -0.15727651294565134221 0.8963357503335828147 -0.14881077232232214902 0.06333080219294384694 -0.16317304052474171372 0.28810242980730099704 -0.31858678872409584848 0.18588202892579250292 0.25355983695205902562 0.41486311667203684683 -0.67186758309880501017;1.8769820390217599737 -6.2797131444426854685 -1.8289012593552875785 0.9783223805260340411 1.4734098624870584082 -0.24413097350017268217 0.10029308464461855754 0.48848352583686044381 0.79604112086124345637 -0.0098302842856597839188 -0.077973297055089069163 -2.6243358832848486806 0.84117674732292413431 0.052941401469823179404;-0.37910038035475429608 -2.9395479611277788301 -0.081620730734298527209 0.29862486049653086395 0.79321434333056295429 0.29211618576201681119 1.2723830567103850964 1.3011276429326446014 -5.3712100657918320223 1.2722010951563045289 0.6140260666034351722 -0.79646796842563494234 -0.48364935072097114954 0.13473049446079815583;-0.048271235358000492977 0.22552879937051367731 13.421105440243364271 -12.998362501829610949 -3.2525468336657370472 5.268257006366352968 3.9371999884596533548 -6.5707247946134161865 2.5870908530744345377 2.2708089069778862878 -1.5568319930496004044 -6.2736595714285270375 0.048859874759741399319 4.0526023169896827625;0.44152776909885671497 1.4460199977382746095 -0.68905496907412622232 0.22041012309219917831 -0.74863732614067668436 0.53942351756413564612 -1.6167622262749770101 0.55752030541096098126 0.96682415289339140863 1.1643661615737375126 -0.24988496761681039393 -0.33976012540990752075 0.86958382284568891407 -0.0029317678886880737046;-0.23790931341602392091 -2.247864689047874176 0.17320795944794473153 0.3423317903633713577 0.13967380449644306584 1.0307081800520476733 -0.23582902628569829551 3.5292774151328822896 -0.45073483205057218726 -0.712804013666181846 -0.36788814968440525233 -0.053796018261781729242 -0.042674783983623877648 -0.056382758294135991439;11.067772855940471999 -15.727551665526789293 -14.229580148429386455 0.15941834136272919897 0.2508214246980604023 0.50262691764433942154 0.14855864407380695025 -2.5613472513310631129 0.83015577233552195757 0.68605848079901876613 0.0093805312916587831745 -5.8402167571501362175 10.004402558410276924 -0.72208269677102931983;0.78016221953532183253 -0.57836949244741964193 -0.21953222074398451302 -1.051878191980442967 -0.46323706277756299121 -3.2895738673222467696 0.24184294793895028119 0.65878098766129888908 0.7078425734448813289 0.73307070585937705864 0.82542499827894189046 4.2150327880385125567 0.78797549265908128913 -0.19456448877885609838;-1.6437590990841079996 2.1175029663384350442 -1.5650469914760578583 -1.9269742663065876354 0.9538074962464447859 -0.42702489931005149781 1.0548824275377532977 -0.87155357449078940668 1.2605130798657941948 -1.9930182456058289642 1.0042312764397705038 0.36947793974902676251 -1.1309603454870365002 -0.47217750256101570505;0.072802947492841371679 -1.3280872358158704039 0.17624139079848685774 0.0551791296997228356 -1.6423510694913647789 0.48604611442971190627 -1.2488075542966581288 -0.9019095413282801621 -0.93252331284409795131 0.26135237136281086467 -0.47566577138566423777 -7.2347297397887961878 -0.96942656333565480065 -2.2385634207501192705;0.38019615095020997675 1.4022891784819877525 -0.2335405488783265926 -1.3483777133120145031 0.48350812469205828315 0.12161312384684802579 0.95402439670905692104 -3.0663701853700291444 1.4009968658931504226 0.379365587906996371 0.99899218895005659213 0.10253317362229015519 0.16888395789619714549 -0.042357975434497291412;0.11896305455537518891 5.8437355173643892314 6.6419138823652845716 -3.1172281312373111284 2.0723729881115540152 -4.4827873292121909188 13.070917042711842626 0.86948291283070722191 -0.01330712347460396433 2.4424118012567768154 -2.2101506998117743663 9.030099628390185984 -1.010042516922205369 8.2106757655400066653;2.6999545452516384714 2.9907396235701235732 -4.517014330317267401 -3.1521662940552315213 1.1631243725344830864 -1.1129996112156852472 1.7707511985033816959 0.10303489720514590056 0.66811198445667896451 -0.034603291960547413741 2.8208359729513148295 0.15622203750861710092 2.8172657828123459645 -0.0038177792584816062221;-0.76638656362498502883 -0.700788908502877117 -0.08456372791027046143 0.52917061229802342393 0.80543282035188390466 -0.60259191460180783206 0.15034910074853991002 0.96565441559990849996 1.0130662630499596144 0.21203180355156114878 -0.2085035840996102563 0.80167561815355281585 -0.2068882323901383713 -0.18915341265116156211;8.1153790192159256378 -2.1399976572853480761 -5.7030033233986952013 -8.208898614185702769 2.8207792821451604937 -4.2901664101889611658 5.587604770548735722 -0.47340754200968937493 5.3709272233107858696 -4.1615513753278312592 3.3020113222349487536 -0.7208071297199311056 8.1638555929237099917 0.14212956615629035451;-0.89598554945734032451 0.65480126327285304022 0.27725606909749600515 0.23352659904026601412 0.75617215516143743148 1.4326623752280800428 -0.090084706021236374274 0.12312589039075749753 0.1888118528136618901 2.8918638284864943699 -0.83277082178717598548 -7.0051634124483461719 0.44132921263690438884 1.2994048185004776208;0.37181994270388063484 -2.3596712204240697375 -0.080219602642406503956 0.51618233602367658008 0.45378342221059958517 0.58112238678293925975 0.27864331620707216697 0.065593194973615348564 -0.03121130345319141422 0.27590419625362366807 -0.23548857795900965395 0.51207712415664663475 -0.25782147713108516385 -0.22218888761000291088;-0.8110264966942087872 0.36987752468277113049 -1.1487513445578296789 -1.8086647843150134296 -0.1813655574267966919 -0.87949023918308011361 -0.29468890243416789865 0.21277091643964768375 1.6277032136328259959 0.28701064920331498254 -0.92137753960962598399 -0.48334656128695135946 -1.0372996079314598106 0.099940442691714800882;0.017962408766495012447 0.066600919703449945608 -0.64668440184912001634 -0.34044529244645316268 -2.6440450181175245703 -0.46860496993179617808 0.28793126444883671011 -0.58855508281791946157 1.132125183587495032 -2.2538750704872643205 0.18830790676195210964 -0.38495199268680241333 -0.091636068579716886684 -2.6205821255513974677;0.42898147613561316005 -0.90913265424084066524 -1.9729006001154512084 3.6010591645869824973 -0.7129673537107874548 0.89460034535153165614 -2.5197397012364950442 -0.60076506762379977555 0.9968345584629835221 1.324174012789336663 -0.61923225420724725687 -2.3934386035984758223 1.0376100849310856411 0.55058716380841044025;0.14190786458668255832 1.2978649905384185281 0.11243879591853643551 0.62604779210576855242 -0.91056636077542085772 0.57079358346639141875 -0.48006508710623030378 -0.18593415343497776693 -1.839081305651277809 0.8040312029042251396 0.27622941017125296481 1.2807862031883860965 0.65017598465481551973 0.13118635668364325708;0.39336687374131740214 -0.7388226788059450989 1.7563864082228217711 -0.049105180188663680174 1.6607553106843233603 -0.89235833365148087282 -3.3103012294306366492 -1.0387019808301440893 -0.13233687241610711527 1.3736227147696578044 -4.40501623401878728 2.9782726511293891036 0.15518085645122248195 0.15206891255961396681;0.068619484294333940588 -1.3751989333869647503 -0.14405046085890949037 -0.63240737448162664958 1.0375231260146533518 -0.47072680647347037164 0.39595525415435672834 0.049707117640085410337 2.024447585330611421 -0.97123804091623588963 -0.33763796117507932637 -1.1511515104791905095 -1.0675406661437607525 -0.18091471015324581129;-2.3805295936370463039 -0.36387066396022854642 1.5912876278845091704 3.3533636909945085947 -0.15079059029954075544 1.1433959622915372822 -0.61758750441317156188 -0.57977832717413613217 -0.51439472261074159487 0.36545209581192050763 -5.4414482608450756018 -0.57675146996409965006 -1.9247320352577959035 0.30805258196248341829;0.046876477377811656688 1.9553076071176735962 -1.1218098269212832818 -1.8849536396898951551 8.3966934992562833884 -5.2701960669126117764 -9.8075765815015056859 -1.2947034103300996133 -3.0402198959157860081 3.49935461457566932 0.73333486501223588139 -0.24983871761658604793 0.51176425676385817187 -0.27834633742811615287;-0.26581030514357406602 0.352405125760883009 -0.45692346164352376503 -0.76100972175548375898 0.14254642497161881809 0.46570622672937833642 -0.16414573744106733533 -0.30912674619142094246 -0.22221649128874709778 -0.30297272952478904173 0.57371541650791257894 0.43186223253169131464 0.019446733048653366827 -0.014737629373220595408;-1.0016237579421403137 -3.1183914339613290068 -0.31529263813614005763 0.55396094743970136776 0.8661686292282708699 0.32233985978632095915 1.1763540077650060933 1.3914821924997120561 -5.3936874050040826134 1.1893063694818328813 0.67697475603871970495 -0.68153803165000004238 0.19953906018049877291 0.13154955345306318382;-2.5353015613024401098 0.2147645487628689065 1.2639100365234723355 0.60859118530320166496 0.49560443307073270836 0.88752360874377378419 0.10735025903863849861 0.65369468176344436294 0.65625816548703874709 0.46406013557291558858 1.656821130253021801 -2.3504434339069506521 -2.8847450772361131754 0.087244984443309372968;-0.30112389626067520565 0.23430708502372754598 -0.071845356722848363606 -0.30733164614573865725 0.50260342460758211658 -0.091797531751494215735 -0.082032249993386763265 -0.035672448836698164576 0.1778723504417318857 -0.31398940449296763866 3.6868432808183122518 0.012032382611377113318 -0.04385113559517896803 -0.23980683052379866971;1.122593416473489869 9.7637572683378994753 -3.977699542059970117 -3.6021807644574215246 -0.17902606759497721733 1.2371584502540347028 -1.2640289908547268638 -1.8052898721586527753 0.28959340995613735981 6.5139716557313143142 -3.6293984670686727512 2.8646518748180538338 0.17039427783697821961 -0.16106974659462899857;-1.1212076402561577115 0.32564219408181055426 0.22852464209596298761 1.6468531235606402863 0.49713741789397236648 0.013851607124524094317 -2.5930563369326091738 1.6086235297537379019 0.085503520064458674033 0.6600699552865209041 -0.077635339187283755602 1.1746770594400273158 -1.2008146668712180727 -0.042115667795705316601;-2.0504923460335477969 -0.45780131353929687243 -1.7450070747302854901 5.0795916607335183102 6.2353917114818537826 -4.6529546388558902237 -6.4048706729038888952 1.7153585683896670488 3.6409121239329151898 2.9684595884719655601 -7.404156807835936327 1.674915066813935427 -1.3555651622486730723 0.40421513763723559975;-0.49691671600568210199 0.44148693236122121819 1.887694745490872128 -1.1656787115064177751 4.3236590487109456404 -0.69590058530281462268 4.7156839315550813652 -2.230081714707185192 1.6808347545021062874 0.59317096346291708908 0.70633628359370070893 1.3798344409690830314 -0.14194855116816806895 -6.1592547392361458591;-0.58959132668074720751 0.071591426550092221448 0.1047961074434078238 -0.1630651471313590839 0.95081038704357123681 -0.17729200022298585715 0.064903984621105068054 -0.16786869117384700667 0.29638675480495374481 -0.31277969908665786969 0.17993958624118863709 0.25156834056371307762 0.69183520138908383146 -0.3867159312819618;-0.15654807860016384247 -0.11037525144070331473 -0.00039526767773443403919 -0.78805350915876226647 0.43371434762080846026 0.0014725595002341379872 -0.23691787121520804793 0.55525666879750601446 0.46289622227892063266 0.22542284647352120452 0.47206612196322572661 1.0978210149852554167 -0.55084153626678300508 -0.099113061755454257007;0.0038873444169231132633 0.087338090833659204337 -0.036236392550716561844 -0.23805843078314956052 -0.17207360256102741114 0.59364958513456822509 -0.47020896635877945657 -0.49353307146537606087 -0.080528373686838974899 -0.62136637339174172201 3.0352348047934887276 0.4917125267926086285 0.025964361435329784411 -0.17045801533812579565;0.14397548804949414358 0.65224109770785199114 -0.13337292028922176357 0.8397959276215133384 -2.9531603919758993015 3.2749951789586928541 -7.8539652579213852235 0.28512408595570559733 -0.850056525075273961 -0.70769137638175916294 -0.71095898099436438677 1.338765406299221139 -0.17903213002762521922 0.29418657427130701087];

% Layer 2
b2 = [-1.2938625536056582721;1.5849256881158422239];
LW2_1 = [0.43953749519219303954 -0.16641785028731806428 -0.25597578219242422826 0.56335073055686979426 -0.65714391221425372258 -4.0383438100085129463 0.086087963854677124198 0.92857713875454750418 -0.90631505301533488161 -0.18851818389199515025 0.29243656482703400679 0.81186907233952942953 -0.12891260158894260468 -1.2354772786346615021 0.062117009051379228068 -0.64811376948036691914 1.1341104466034241938 0.17981639227569140571 -0.26496846252121275533 1.9438464665702996914 -0.87520804511766014944 0.15472345553769598081 -0.32861823360596226218 -4.4412739251962332077 -0.37866485127955590295 -4.1021003814847025737 -0.43307871796310049017 0.28124997804333440321 2.4878682544073691396 3.9398443506273950199 0.74160689473142227257 1.370057066572970994 0.34448043117189985907 -0.82023588974128480711 0.21032573761195361151 -0.09839944030428911248 -1.4391268684612084083 -2.4180202989583770012 -1.6640426539707156017 0.23835019616016359101;0.01922693500383904075 -0.016367553473552988452 -0.023527559300076252014 -4.9480449237794434936 -0.013250428337385291438 -0.032288129362837050818 0.010922034367840048955 0.022030566522027443532 -0.01945247829297958031 0.0018557405666559739169 0.020239427370702233605 0.049023378351966184763 0.86138217917520687461 -0.042241575501348042898 0.023293241332228199064 -0.042241525160624959767 0.060173556893794888367 0.020357823861097430057 -0.0097445870732437347289 0.062617012705605087919 -0.056802366499062097172 0.89178732628205070743 -0.013558545698962497228 -0.087405932318364562561 -0.038725467690163516143 -0.08444466772665515375 -0.030867625869387987914 0.015621409883937767762 0.21776002229388510822 0.022478296866785447278 0.051323575792343124891 0.039415362308852112949 0.0011557685279590032817 -0.0082204947444834836068 0.013087819678859732853 -1.0248891113229603445 4.702291063251120562 -0.13366436224852951131 -0.071815955123604446886 0.023722690995218218002];

% Output 1
y1_step1.ymin = -1;
y1_step1.gain = [1;2];
y1_step1.xoffset = [-1;0];

% ===== SIMULATION ========

% Dimensions
Q = size(x1,2); % samples

% Input 1
xp1 = mapminmax_apply(x1,x1_step1);

% Layer 1
a1 = tansig_apply(repmat(b1,1,Q) + IW1_1*xp1);

% Layer 2
a2 = repmat(b2,1,Q) + LW2_1*a1;

% Output 1
y1 = mapminmax_reverse(a2,y1_step1);
end

% ===== MODULE FUNCTIONS ========

% Map Minimum and Maximum Input Processing Function
function y = mapminmax_apply(x,settings)
  y = bsxfun(@minus,x,settings.xoffset);
  y = bsxfun(@times,y,settings.gain);
  y = bsxfun(@plus,y,settings.ymin);
end

% Sigmoid Symmetric Transfer Function
function a = tansig_apply(n,~)
  a = 2 ./ (1 + exp(-2*n)) - 1;
end

% Map Minimum and Maximum Output Reverse-Processing Function
function x = mapminmax_reverse(y,settings)
  x = bsxfun(@minus,y,settings.ymin);
  x = bsxfun(@rdivide,x,settings.gain);
  x = bsxfun(@plus,x,settings.xoffset);
end
