function [y1] = gdNetT2N40(x1)
%MYNEURALNETWORKFUNCTION neural network simulation function.
%
% Auto-generated by MATLAB, 12-Aug-2021 21:38:32.
%
% [y1] = myNeuralNetworkFunction(x1) takes these arguments:
%   x = Qx14 matrix, input #1
% and returns:
%   y = Qx2 matrix, output #1
% where Q is the number of samples.

%#ok<*RPMT0>

% ===== NEURAL NETWORK CONSTANTS =====

% Input 1
x1_step1.xoffset = [0.015853;0.016293;0.018015;0.0213;0.027949;0.041065;0.056708;0.036124;0.028091;0.020117;0.016488;0.014631;0.015853;0.001797];
x1_step1.gain = [2.03221673185002;2.03312571731217;2.03669098815155;2.04352712782262;2.05750521320383;2.08564709808277;2.12023424347922;2.07495569969581;2.0578058233847;2.04106000410253;2.03352882323754;2.02969648933547;2.03221673185002;2.00549103445233];
x1_step1.ymin = -1;

% Layer 1
b1 = [-0.026422144748748540438;-4.6367164585936633259;-0.47713515458067856656;-0.26369690215029706337;-4.2191420107980421861;-0.62797402626483256327;-2.9782991789402797345;4.7529154439429142087;0.25439831410771357456;6.0677019761963233435;-2.8189242582809703741;-3.5496838187066610537;7.6828163726629634667;-1.9718464908489290455;-2.7745032723941918107;-2.7213784702488741374;-3.0917961216335387853;6.3823714666858615274;2.7078727744822042034;-1.0233177001853812627;1.9211902076042466359;2.9535351350779994739;-5.9343367750045397102;6.2991998107667761531;2.3675659739984356023;-0.43235036143192462355;0.92825533076878941063;-3.2786717245136949295;3.6021755172246345822;-1.567188351282560399;-0.73478426408244346124;-6.1747666871721769155;-7.927290702839511205;5.9561281969241468559;-3.1517227591036212075;-2.7743914930148090292;-8.139685488675930003;2.9923831790808277376;-1.9980377620675269235;5.7143883012820948508];
IW1_1 = [-1.0844545217206593701 0.071459911162443309762 0.68181598962567080413 -2.9960471738728911006 0.1574007875025680292 0.92035185953677689508 2.4715739990329077536 0.74994857965115591103 -0.048499428183503598411 2.2408188358697116449 -0.98140736585128796055 0.71655236251811160741 -1.2662368085358086667 -0.62806104404089313498;1.7197320688315496096 -6.3109330886241732372 -3.4450329966072557042 3.2814176498824467743 2.7114992218303122229 0.073582152975236653214 -5.1279928220732724498 -1.2190802555957400699 -0.91994933536127854179 -0.67075906539957519392 -0.80156066667460890152 -0.62309393601629492476 1.209765842740871733 0.77717577679254945533;-0.84396623452565000534 -5.1018964929739061276 3.1227469926584925375 -0.062398902246223852952 -0.39753185326783369025 0.66894266857969642004 5.489242047072954378 0.88010356360007091503 -2.151955250010746834 -0.63458389306177576117 -0.043089036916372593089 0.69477793351708438951 -0.19007910037578656937 0.68863933845174452042;-1.1550910889522436609 -1.0717772098417479576 -1.5693451740366457514 0.2566610961060206697 -0.3650707804212117713 -0.16433271779654887168 0.854340029369736631 -0.55753841604890486128 0.25470912612171991984 2.5151059888557747435 0.70283321329620407347 -0.74853371078311536913 0.039150553225786026423 1.8301260984189693382;0.70242368461067650198 1.0670252686887806703 -0.49433663016667556134 0.31502138763988646319 1.1038883737443661026 1.5957621079896089356 1.4512499478048379586 0.46749334793088159756 2.3992065120424461711 -6.3503202975052959189 -1.2264990584821391373 2.8076105030223250658 -0.021680239800772091452 -0.12927750854356631627;-0.76233668642524932135 3.319518599500778766 -1.4137495005207230125 -1.8436634077671985033 0.52976473774872978595 0.72705642954136873168 1.4575145297782066134 -1.9488730489428296444 0.6155134184605262071 0.94816332732122632354 1.0194462562361046309 -0.18974980356148204996 -0.58189978587415058797 -0.6863274241418267918;0.085005466240209992534 -0.68550931870216036401 0.092507488716928099048 0.35395077749791842292 0.41874570030640440033 0.7299947328433481486 -0.5841467837310824196 -0.31163683652729690099 -4.2450941472633880736 0.45232107718824188236 1.1874287492127557631 -0.24813712289584372028 0.2045849459646520152 -0.99180562755744539061;-0.35678291641359233255 -0.0048008720462780840946 -0.15151237397107175653 1.8764059934906951455 -1.3900884305895508941 0.59273458017550662014 3.7250537271866188682 1.7645835622531300668 -0.77857092823199280929 -0.68257174213513616134 -0.1489839655780522687 2.3912216523281086822 0.32549429085828707198 0.052254157843601947708;0.29527654261500568822 0.48159215170569846798 -0.71237598706189064757 -0.047799533233777925789 0.86394133156846164567 -0.39772389322895945751 -1.4823303817304653851 -0.11032057143864619497 0.040474815400943900401 -0.71584877088770915154 1.1195916206918370417 0.10858476476938394573 0.28926219240070544236 -0.53540462030998414722;-0.13236148913012985018 0.19975268347050947892 0.95252795090368358455 -1.971287421092152492 1.8031821424123217756 4.1452746321578546329 1.3684650636779367439 2.4907673051214347382 -0.47392582879356537351 1.8444661675504372411 0.090871249706134749058 0.40446330352589843216 0.615969681973266181 5.8349279689177118158;0.26574339161452825708 -1.0259642089098119921 -0.97067256766291010184 0.037287135495112394556 -0.68340952683566724701 0.33577505947998392832 -0.016580403537343000459 1.4230455629861642475 -0.3833795152505758419 -1.3332330540747896475 0.1600584395878250632 -0.14814494859567944873 -0.7715988632143022663 0.67202189102730536252;0.43391762142711221006 6.3921569554672803548 -2.0147089079798337075 -0.52278787653321379114 -0.17378449909010185159 -0.34557476187148861158 -3.5385392795500356655 2.35423260187014316 -3.6285785272556307923 -3.575434713352593441 2.8803909752403944466 1.3444985694846378621 0.72489722299157177687 7.2564225209181643095;-1.3481855060593794793 4.9817546490236042089 5.9259526261792112578 2.8182351224125752331 -0.43743489839595905977 -1.5056842630472715427 0.1996729996395245621 -0.96794939968999060831 -0.59467974575928850278 0.085452219257949352249 -0.1404704365445733627 -1.7053695683549716655 -1.0890197944801829344 -0.88647274565791744916;-1.2446917679707085735 2.5408037792151603185 -5.5673344954271728469 -0.15312227711531442575 4.3468915926411835216 1.3626137465266778825 -7.3019845456809377993 -1.058967589471793147 0.46904906621067815609 0.2864928836463379036 1.0659116091028320028 1.3836036905506403638 -1.745944365308072177 1.6411343547208507854;3.0644721051371583975 -1.9058063935021234414 -4.6047465389705086736 -0.42103324426548527359 -0.52856673030072276465 0.90621681906178419563 2.257913978974007474 0.10319458495297907652 -1.1375665201431663931 -0.1435218924782446781 -3.3356629593786633059 1.7535766645639461192 3.2281181046147540137 0.48890340088845818389;4.1610218266420258004 -1.6353888254088677634 -7.1981185914655405611 -2.2808879260577485937 0.23569570619681634582 -1.4494093775064489371 1.8730910062190271326 -0.19477609564462258773 -0.31177077873880104653 -0.33025482005242495775 -0.51235915617561844648 -0.53145092652552705648 4.1528682411707462663 -0.73210957751773575453;0.84033371450089000554 -2.1809583564047350102 0.66671889127288119781 0.77083476046196264253 -2.7017354831382922598 -2.0708115152670707459 8.2141252082087703457 -5.1595398632462678989 -2.9331899120495492639 0.12135836810687404552 1.4261530273004094926 -0.19661084585742305553 0.090655486639348983879 1.528815046313509507;2.7781326220499868995 0.062674788496252742398 -1.3165379345686569756 -2.9243183758950035411 0.24070682699856438269 -2.2197445278263998603 2.0723728058025145948 -0.15650223337482402353 0.44402596681170447557 0.30878861437842147764 4.6560902582265839555 0.35317000835560363736 3.1087627399470663114 -0.64302526342739074749;-1.1971066317144551938 0.29788817755606833426 0.015189044413222781149 1.7512027593213905785 -0.28319683452292870873 0.42033740747682485361 -0.89790106633192690033 0.03534011119128203926 -0.87602240930550856479 -1.1462278294945711377 1.7963165802864664577 0.78313330132726455268 -0.42953996376056602369 -1.6910694205300749182;-0.67057159085382667119 -0.55117792587933167603 0.17177466290803719562 0.21498493735734086618 -1.092269894806921382 -0.3916109163601007026 1.4124402371646327392 -0.25399926079832674253 0.25796563275226747081 0.34902443635418917145 0.59594866178195637918 0.22994244792947990397 0.59235319177474055063 -0.050709734171574288863;0.020881487478048382789 -0.1224067497298932522 0.40116470778355217686 1.3359381284576683502 0.93088472519356624257 0.15584308584435402345 -0.59850593688534248216 -2.0451830089322831085 1.096307223321785651 0.68089429476356311266 -0.33414696041252511804 -0.56676234146030113337 0.64107392092355319768 -0.95360541694297606963;1.5507149406744158426 0.7679337363322240595 0.74483042090789730594 -3.045115802644128955 0.71681721544439436222 0.79435519422555178615 -0.15627182416044249624 -1.5144108025260736294 0.83695452182310781097 -0.29433220730361542294 -0.83975935779269272885 0.28483322748692696535 1.8513922163811356025 -1.4689092063182229708;-3.1553706894776452074 1.922779295514701392 0.52440142068505213313 0.31550199357492392238 -0.29449626778057319543 1.1072171512592785536 -4.1372772260551142764 3.1228331646472082817 -0.98729357965975361733 0.11944678594459683107 -0.047235684920133698406 -0.52824082112783843357 -2.8812771097297709133 2.3709425057861284181;3.429830492895853844 0.30040084788774107372 -0.058587789559526391725 -0.48650363335011809207 -0.050385818878738670989 -1.2496013834623322936 -0.99583950616958960556 -0.22150642301610168339 -0.32697307567631223035 -0.32525956269075306793 0.054346985874185890775 0.68667556787781913741 3.5210412253134921734 -0.18579038211712864404;0.78850636745663205129 -0.37605856473998861 -0.13805164952180962179 -2.0204341000424506092 1.9987837876930447667 1.8463436645338249242 0.20520774630735591493 0.20489353407143590102 -0.4845860335961393317 0.070991911994087331106 -0.8576641418641763881 -0.11357670200023763096 0.53257090060110356955 -0.016553191680212984982;0.28088171606241224554 -1.9787060152978781513 -3.9179081271876503578 0.70861182713701398317 6.2564249802153861779 1.1323839347514736975 -0.8572230634018880302 4.7449946889326453103 -2.3429906701031408822 -5.0236986485594421481 -0.3225297634559439186 -0.015124793239798704422 -0.8975962275825410952 1.5753411609220364653;-0.44087218074277806368 0.48590685958314300263 -2.4094522512801868075 -1.0143521316900507845 0.19169365164818605307 0.52266693552708221038 1.3413498413316711222 -0.25125502974918012544 1.2488692495731985588 2.4369223844280600844 -1.4451702369894265932 -0.21224158479104140995 0.33478610781876072533 -0.7425013567707748896;1.2395168560598206486 -1.3119733589179525257 -0.89246535729919940216 1.4507916342587783287 -4.1147620386671253101 -1.2613074834843172045 -2.0186812118342500888 3.1250050263362427749 1.0442936051477449411 -1.9201959331485882743 -0.32849542968427597467 -1.0819273432377323196 1.8534057482403152317 9.2778783996461875461;0.73795006674309016059 0.83474176845553005322 1.7227025460729024076 -0.78160114950008341417 0.61993747775102758801 -0.93151538567190583784 -0.62377109397577190641 -0.61222290071270013545 -0.011163814416719397907 2.6463765634157190298 0.20873131392729768474 -1.0350736519555854276 -0.37522072762411740054 1.1977150211790972278;-1.0884889163253541611 -0.54172513771375785385 0.56402249959382178002 -0.20271919449841707683 -1.4193488169689374434 -0.025294124846490857739 1.7037017165506724847 0.27057561018731346447 -0.020336727343746616864 0.24830163543923000624 0.28721691835975271534 0.68037142695090901956 0.12893694950222625573 -0.61617088665297581329;-1.42240796786116519 4.4996000862821796673 1.0692956637045214485 0.8511505468688923548 -0.12433510261944433206 -0.61428129929068953086 -1.4117596009217723285 0.07211866565364251358 -0.98584672571646136952 -1.1296035605019982828 0.6751988947253529938 -0.0012479087264087064535 -1.5522841387576664651 1.3968898787512991078;-0.91430322761200677473 -2.4660016676763856225 1.5176763864640334667 -6.0571171678372284219 1.8820613357777122854 -1.4257248504864319383 2.6741578676360981959 -0.37447202548082136886 -0.60461518653273293999 -0.78195039383193298832 -1.563272499383955072 2.5829973690032659306 0.033148326706915240414 0.65111637497151653164;-2.0236421712977112897 -0.85240796684383846049 -0.73182954193337390603 1.4563844423786080906 -0.46387398565265974826 1.0366556400316291331 -1.2589183310933529381 1.0979143478055595207 -4.6887340374390040765 -0.70493226521393492767 0.44915251492660618338 0.48188471375550512299 -1.9450290720731460148 0.32562110260674975715;0.70821398081331754515 0.71587014444554952775 1.3870360798299115057 0.23140987088880249356 0.27572005933924015331 2.5664613923581249821 1.9477511478205196127 -0.04409177850990159131 -0.16421252115831119767 0.12826768174922278942 -0.21699241854548947939 1.9501589055314314525 -0.37576250707061109591 0.84017245839689058684;-0.16793279577280686987 -2.3626395288745669632 -0.79086111044733464759 -0.59785900604139752268 0.34252485858846482003 0.4931301576226717609 1.0654947162874530697 -0.35770894297640853932 0.37354372144220093777 -0.042581763820007986765 0.40213836160484467408 -0.72453622550239915601 0.29065449479703237001 0.080046953666741110789;-0.85790101995880252428 -0.24293441368845344885 0.63589333639398182285 -0.092731588808685719294 -1.2248771626222243469 -0.29342926308562794491 1.4216323096579663865 0.028129313213534332117 0.10733559062405548246 0.16211937298645356931 0.36353492756427313592 0.38060189227230240006 0.22320078965966058671 1.4293812387457884849;0.65775380139437777949 2.8182978116407335634 -2.4625167807092518402 -0.64888610597330320662 -1.5366866590719538976 -1.4628100583536023382 2.6198634892036976041 -0.52924880783549754781 -4.1186861724312473498 0.26455430954043956948 -2.4118259740771188504 -4.4301235597615065132 1.6403205203441915128 0.87600291319901568698;1.0433363717079331412 -1.1787050211699325875 -0.24670427842011510844 -1.1102410407502405487 1.009384279362958825 -0.48844663522398334976 0.34206306413878612149 -0.60482812817112541204 1.9038531243975769236 0.51518730255137457075 -0.73111430870888582945 0.48080815702399798406 1.127208044849701718 0.014960672894127283877;-1.2069317029814254916 0.73111389561917872193 0.18870352537948845151 0.64906685622545545744 -0.26611644585352584036 1.0782214740182360924 -0.3823991622991144701 0.090565652217332232032 -2.7183156897601632451 0.64736180006254162578 1.0371212812873549236 -0.33386100292001569256 -0.38786472108046277096 -0.89924230445540009882;0.99936923340783645475 1.7080842277699179732 -2.8792963082115958784 1.886867065967017032 -1.3212587212188431351 -2.6541667942485451803 3.4450904496615351036 0.92668717935570388278 6.1819336679126157819 -0.36433845033684186809 1.7550646039923738506 -0.22141562839453574063 0.47964158680649543465 -1.1050022000698236369];

% Layer 2
b2 = [0.63918609525105640756;1.3483204835177660108];
LW2_1 = [0.64401044694571984994 0.36341922341792765039 0.57334860962957401309 1.1989782823756129915 -1.2760088587189091225 -1.0924671568417219092 3.2726884001458782514 0.72810127317945894099 2.3029739396168684706 0.49663559262213635703 2.0265985302436679838 -0.32672107079039236499 0.33401006244945236068 -0.2568614793134224028 0.5790016880430677304 -0.95083005334254011576 0.36794191854868696367 0.9613764434317999541 -0.8950439868933818266 6.6029046121577330553 1.4037672570125505622 0.82027901419147020157 0.64352239079547091105 -1.8098002017581553691 1.8544987146238578468 -0.45067336360465920508 1.563708416407646018 -0.092756836708964632288 -3.0088396794164879999 -3.4730013707796030253 1.8577064458767451605 0.55971820329551957851 -1.9972819487889479362 -0.96687806334793002794 -3.1073601914353359277 -1.7052771154069221726 -0.39917195497346480426 -4.5061469621155509913 -4.5041680219159125897 -0.31217375961179799626;-0.017385477559661927788 0.034327255079902974089 0.034365664106171471548 0.074661391251661060608 -0.031541857222565125585 0.097978525335939453678 -0.19869816533078127341 0.0032651486794630906613 0.059418555938508484104 -1.1069150169381531956 0.0058335098555071258214 0.035755802989754593979 -0.010373766967013035162 0.019219126651812509787 0.056089534407497594615 -0.061653232432916663108 0.0023401230027508389958 0.013327004266943063074 -0.078714814959574316844 -0.2950425264971535122 0.053166362920725546148 0.0089604205995453892197 0.034838085453565321992 -0.044313721709227808787 0.052815026531598883996 -0.0012075435366401790667 -8.0657397179246994451e-05 0.76167626691777945425 -0.30818202589108933953 -1.1056239600961965674 -0.0026520819944498442294 0.0033012410750463344958 0.0016969073135044388748 -0.035565568984750155213 -0.028961885759420831488 1.5021805373277139495 -0.0026023563150884450323 -0.11191489703723385418 -0.23571761531635748721 -0.011276125787597334263];

% Output 1
y1_step1.ymin = -1;
y1_step1.gain = [1;2];
y1_step1.xoffset = [-1;0];

% ===== SIMULATION ========

% Dimensions
Q = size(x1,1); % samples

% Input 1
x1 = x1';
xp1 = mapminmax_apply(x1,x1_step1);

% Layer 1
a1 = tansig_apply(repmat(b1,1,Q) + IW1_1*xp1);

% Layer 2
a2 = repmat(b2,1,Q) + LW2_1*a1;

% Output 1
y1 = mapminmax_reverse(a2,y1_step1);
y1 = y1';
end

% ===== MODULE FUNCTIONS ========

% Map Minimum and Maximum Input Processing Function
function y = mapminmax_apply(x,settings)
y = bsxfun(@minus,x,settings.xoffset);
y = bsxfun(@times,y,settings.gain);
y = bsxfun(@plus,y,settings.ymin);
end

% Sigmoid Symmetric Transfer Function
function a = tansig_apply(n,~)
a = 2 ./ (1 + exp(-2*n)) - 1;
end

% Map Minimum and Maximum Output Reverse-Processing Function
function x = mapminmax_reverse(y,settings)
x = bsxfun(@minus,y,settings.ymin);
x = bsxfun(@rdivide,x,settings.gain);
x = bsxfun(@plus,x,settings.xoffset);
end
