function [y1] = gdNet2T30ND(x1)
%GDNET2T30ND neural network simulation function.
%
% Auto-generated by MATLAB, 16-Aug-2021 17:46:02.
% 
% [y1] = gdNet2T30ND(x1) takes these arguments:
%   x = 14xQ matrix, input #1
% and returns:
%   y = 2xQ matrix, output #1
% where Q is the number of samples.

%#ok<*RPMT0>

% ===== NEURAL NETWORK CONSTANTS =====

% Input 1
x1_step1.xoffset = [0.014469;0.014929;0.016612;0.019995;0.027617;0.033129;0.040462;0.032248;0.027814;0.019981;0.016227;0.014616;0.014469;0.001797];
x1_step1.gain = [2.02936285109246;2.03031050553716;2.03378524041375;2.04080591425554;2.05680272073864;2.06852827316157;2.08433642023557;2.06664517355686;2.05721950326378;2.04077676045056;2.03298931765763;2.02966559229701;2.02936285109246;2.00496228164708];
x1_step1.ymin = -1;

% Layer 1
b1 = [-6.3215885991046940617;5.1960979390299648628;38.943340476350748247;-5.2155938135013393264;-1.4302532917198922391;1.7063311489480450511;-5.6463578441950792453;-0.94872880128942260747;-22.923488222367765843;8.5141583646793925766;2.4210770522790068249;1.7846010443516675537;0.42857769880195029089;4.056553804875907332;-6.5272303845005517076;-0.49330149507450704593;-2.5197754185798437732;4.0601059474240246416;-0.42799806126988232391;28.150650062000270424;-4.9870545689615548568;8.4452057403607625474;11.708685315251019077;-1.9540316833020936471;5.1014448195640316186;0.44455529357984474581;-14.529170637809174949;-7.3771099794980719011;26.322335267455507335;10.79780775360353573];
IW1_1 = [-0.98318254347150835226 1.4812778807677573489 0.01482365179246913911 -2.1442932555864686606 -0.29814202994095995169 0.13291759056856128351 0.23040755624788586409 1.1793244626503442962 0.61567670953988995475 0.35182006236238699826 0.12551842675220856171 -5.6140773832376380525 -1.0391605573404179008 -0.20284793970462683399;0.98191406916943246852 -11.526738758413435093 7.5721096195237755921 -4.8127167420594290093 11.976015840005555191 0.97034782764784999198 -3.8533335928615475297 -7.3692371568565553375 -0.70780290153923908214 4.974956222823557539 -0.39769711823208347967 3.202185548311720531 0.78251885056363057469 0.73561414814164138853;-0.96537231245219656817 0.59743796019141215403 18.038635393686867303 6.9457560987999480417 -1.0967416278889137171 -0.56913445679838414737 0.74465451536280347078 4.2031131003783661626 -2.288185455919492739 -0.51043624654183661349 -1.4102888046239203668 24.938396123331585841 -0.50755662280202606951 1.0440130342863944701;-0.075351199776342775438 -0.82289837123067477442 0.28338910096359359869 0.38721404803270187411 -1.8621606911931074535 -2.6552307857652057699 0.19091944309661051937 0.055690559381487231283 0.74875319154357888873 -0.069959530800051558663 -1.70165724272851282 -0.33090640443264718318 0.32602300459222566253 -2.7903140612970673828;0.86421995947394392168 -2.7936373270067296204 -1.0708630598218482621 0.66102932004390380083 -0.44105435954316823954 -0.71719438074052588306 -0.64082341533991404869 -0.091024557951854379034 0.62861493055606654234 -0.75178864942783607539 0.20510975392216435065 -0.64722101485740202165 0.038009085408441632692 -0.049003234075692868321;-2.5539410258447570179 0.92420261690092608831 1.5795716852111962858 0.98652223467788402456 0.85664576237317713314 -2.5140957626482847154 2.0039026874207581663 9.5790976634583149263 0.084073594974460250095 2.1412032156133218308 2.0177739104140539617 -5.1670255353334129111 -1.5868117302377093836 -0.64198975132267532828;0.41800597301120656635 -0.86148394694714669484 0.43016133736626266382 0.48270960283260411217 -2.0237937715111500303 -3.1171198046050538899 0.27634731003822232687 0.078853571599428573524 0.88593018213646057557 -0.0060225794704623584336 -2.0159933158076563942 -0.41043668578284375759 0.020323428676955641869 -2.9631347698957539727;-0.66927174662896216084 3.9000092362814258173 1.8671129581344894088 -1.3003026031419357977 -0.0072133469340594918995 -0.14604047882100967826 0.62277745573319787109 -0.22842332695013201072 0.59783533782456776962 -2.2280704134229694091 0.57932568286320496043 -0.46375338172024044292 -1.7100960748026152736 0.16679595407650565919;3.1278786035613390659 -6.9834669484010207796 -3.7376205131779629554 3.683630974558296689 -9.2675368569394400708 -1.0004374534093258831 6.728884972165012357 -10.638533323863345714 1.0715419826474830156 6.5827736162890682081 -0.80620199996354957594 -16.755797125158714778 3.7908341681512318644 -0.087782202331577866006;-9.8947785287812628496 23.733608752135868514 4.5563337217358093056 -0.6584611242006397358 0.29824956422569526282 -0.60908468144357863494 -0.096689918437103145044 0.86884914355926223806 -0.04490308963187554514 0.52133493254686080753 0.49915883211460781999 2.4576868983582773609 -10.284640297579594304 0.006515642875876830574;-1.6921762727001583571 -0.95909828277655018169 1.2395023017704724921 -0.82140200114012795751 -0.32629688841847648284 1.3761260378534596605 0.090785293245321946332 8.555213078993952891 -2.5325489871159212463 2.7854679415522651809 -0.90075305626715196361 -3.9440199286704498149 -1.7029364713238090978 0.10137848642905573915;-1.7675464145456976084 0.5871322601243560424 0.24288409146325923293 0.39298292338820978165 0.27220177542372969715 0.94181738361302558271 -1.4206457859390839715 0.78518150993225255263 0.049348295877104000895 -1.5280459271012287736 -0.49146273060086287376 4.6750446876417832698 -0.99338613650283591472 -0.16159737424814304974;1.5572279314072805523 0.49608983269944778582 -1.7134550842687572558 2.4633345359129377172 -3.2657863566276787992 1.240581442149377267 -2.0502987591255577016 3.4978960736278850163 -0.53820564061551012802 3.5171884248838813924 -0.072905751915402147723 -0.13031994725788759171 1.5999136800458537699 0.20379884136684481288;2.4851523214942696782 -0.21273043757973181256 -0.24549040853741699308 -1.3160042396678848231 -0.8231031115155744704 -1.0712304998946762247 -0.55027088834881521251 -0.8204388297716188605 -0.17066342083379262839 -1.2109854004169973152 -0.23401930820224173257 1.2992129584120590824 3.1715454458522844838 0.020142829692547322556;-1.1172744606714752891 -6.9730114564787051279 4.4341537247220266238 -5.01889408119189806 1.7936487830340843708 8.9530255134561347319 -1.8459294445310490129 2.1607705836959816281 -20.985719017073954262 11.272146314505553377 -2.70860066744983774 0.69997293361409884671 -2.2376748614048471708 -0.76195105690797371167;-4.6136488258546206609 0.14396631174516172358 8.7426937382919831521 1.4383636343965959803 -0.072812535259032931667 0.86238408136459920872 0.11237727178120313076 1.1915210618445786217 -0.22545190093153957833 1.9878482032649564815 -4.2091801345673198753 0.43034203375038987405 -3.094194789086921471 0.092161332450959629337;-4.0331037804568143912 1.8835982255644776462 9.9254835059008872378 -3.790104084335218726 -0.54119452237457654764 -11.298846265862993121 0.7662846886644308908 -0.84338207065739678736 2.7031862773098835895 -0.56363857841521691761 -0.45390763127737271398 2.4740648840522792007 -3.7732515769016607976 -0.73629528447894443399;1.3797127051533810693 0.23709073647586728639 -2.0177336946428199305 0.60686058639102768986 -0.33312658441472020598 0.21039625190350041972 -0.56108856794180916872 1.3704751563937045411 -0.41683426962281339145 3.2701287580584108561 0.36960357160374579522 0.29975054281211638285 1.2160269355252473211 0.0011436219484274182459;-0.80696034990733100933 2.7559289773059347795 1.6456909024997257163 -1.0356180135300798728 0.12841736522318944469 0.2405787818554583346 0.60730702285398741047 -0.2249439749935767674 0.39082903818163278187 -1.9238633210442812604 0.11151409194451918083 0.16921452269737591312 -0.66386339217383383282 0.12983216912005957067;-3.2520625224094592554 17.908682311174988655 9.0572639348893275724 -1.4610692726195770863 4.0000182336603486988 2.8052108520180332185 -1.5437313409450190704 -14.002236099831797844 32.526981582446865104 -18.943998060967484065 17.012364615045221683 5.7770733654766193155 -2.8973552649773539613 1.5805721982649918456;-1.2310382962681936103 -4.4901382686021120705 1.8525852793688366571 0.37712194890092110011 1.0310518039194982443 0.04410095824435351225 0.061740778418529609906 0.39978900329004957159 0.2577366815887713325 0.28119184899946486622 0.40670021469649692003 -2.7813724163978288395 -1.518871147685103562 0.091744079677181719634;2.184446652042518533 2.5195810581845599074 -0.1736807963932202048 -1.5373264035670035632 -0.61672515337740874131 -2.8037794783788383413 12.616905086812217007 -0.61739182512046475448 1.324617249594667534 -1.7419955243974207804 -2.0422744496527163172 -0.395965611174155796 1.9916027915955831773 0.75137743359739384008;6.0722231180456889277 1.9974082969916500119 -7.5746737368428336268 7.2143704042103369289 -0.69781479726617412496 -2.527372497915137739 2.362555362900746303 -0.16339441299559781529 0.082335459720929884964 14.729223063162173446 -12.582782915945077917 0.23229928724740758761 6.2324394730316345914 0.3373002369260332256;-0.57835561187977668762 -0.13929119267483994205 0.59317929474466191131 -0.54593547409859588537 0.2663183093984552996 -0.5218447940677339858 1.0415730339851054786 -0.19773486525623126808 0.60365085430798515187 0.44767813803274192352 1.0803519652904813864 -3.661441455868666317 0.060550119036264164751 0.012635841926496131638;7.1374487637816326213 -3.5253886183630473994 -8.8226457743607831219 0.93609183925541838978 0.44556922316883668111 0.091710878468346773706 0.50571984784497681087 0.9137842092165531227 0.45659640091715092414 -0.67544897183174579247 3.3733943903474887804 0.62158100459990128783 7.1433946751354309157 -0.087563065800267250727;-0.3103238478903114772 0.014561284905539961451 -0.0153957162585330945 0.016899886335030461088 0.0040087831746563641622 0.0066645997650665545972 -0.0040467928485917736836 0.02432410171999029036 -0.013085560704842890203 0.038844419614861597223 -0.0048138811519405537778 0.007519932761648697242 0.33996640772382308304 0.34720884028190068804;-4.4479692182770218523 -7.5339196819297402641 5.4677469152700757249 -0.53533008782451119156 -5.5599439073778418319 0.57281936708952407855 1.2118286511256077809 -0.36441796982204899269 -8.455410517053849162 4.0327906613287520798 -2.6724494619946823626 -0.12541854020014042703 -4.5052249014414673667 -0.56696384873564975582;-0.1203478121497627007 -1.1852672054880779573 0.03440702747287847918 -0.039005195331297218275 -0.91777308817257374773 -0.064494951059110280922 -0.52187052787171450685 -1.8689020640252487215 0.74629981916966026123 -1.2404796139834661783 -0.055210544146341244964 -4.2580529088835410434 0.034520725540460484027 -1.7635036863923287953;8.6340006188240483453 0.83764647004398007368 3.2137739589190132961 -8.7768176996106834764 -0.80791517515760769008 -0.31359388752561845326 12.271425262734794615 -0.32125158670280679063 -1.029559947336199599 -0.70701847756436186909 -1.177469183181527157 14.281321703366455012 7.6476452687172162825 -0.21180993914323129057;2.4610991275516957977 -1.2821856939188387425 1.7792328613780838964 -2.3529521355503817404 1.1230412970936054506 0.58240810470474146943 -1.0147013335296393155 -0.33326644238925695607 -0.5192126964691061719 0.726178909721082122 5.6796869392463467108 1.5043648206157447245 3.2557883290434888046 -0.073677748424201452981];

% Layer 2
b2 = [0.10531044921801355208;-0.8594029849542721422];
LW2_1 = [-0.51412351547350720882 -0.16503202198857813698 -0.34894515822209704048 -0.36579213631441503951 1.0214164207918465799 -0.26052353199450306587 0.58324165395359006681 -2.2739972835403445828 -0.22252448524220150294 0.38259950946540488559 -0.25730589882041243754 0.56154775079266194826 0.30978779366952313712 -0.69973583415347084813 0.13830071643254740477 -0.30720410348664412004 0.17058157799778603247 0.79773884556815699565 2.7251885446370129884 -0.10801509338317634434 -0.64271756005482405527 0.16112131640595075965 -0.17332391813098349531 1.2641266701543059092 -0.4581297529062576257 -0.024607718403283084657 -0.14021761560181739137 -0.41187198878160674598 -0.2002098246944930271 -0.48698107125383588434;0.0074690184825941738356 -0.012312090100854249791 -0.011558314605316871368 9.63459520774632594 0.054812223357998846041 -0.026110107672443198801 -9.0931836079203396395 -0.13130411813758505191 -0.010257376356556624844 -0.0083264262150563386755 0.012493375333179235209 0.017395259631116991722 -0.027273376163377861803 0.039473260850494996943 0.014513191516314031398 -0.035359221148828466619 0.011145528304336779768 0.02502145726713619206 0.19521733212381692235 0.0042967841704813257778 -0.0050025051834548996815 -0.0073039702894393040283 -0.011742479561045373465 0.050817575984797552779 -0.031866184883251040538 5.7558147930679552928 0.00029497674597025872519 1.2147920739617354968 -0.0042431603077335055055 -0.041992146791463728916];

% Output 1
y1_step1.ymin = -1;
y1_step1.gain = [1;2];
y1_step1.xoffset = [-1;0];

% ===== SIMULATION ========

% Dimensions
Q = size(x1,2); % samples

% Input 1
xp1 = mapminmax_apply(x1,x1_step1);

% Layer 1
a1 = tansig_apply(repmat(b1,1,Q) + IW1_1*xp1);

% Layer 2
a2 = repmat(b2,1,Q) + LW2_1*a1;

% Output 1
y1 = mapminmax_reverse(a2,y1_step1);
end

% ===== MODULE FUNCTIONS ========

% Map Minimum and Maximum Input Processing Function
function y = mapminmax_apply(x,settings)
  y = bsxfun(@minus,x,settings.xoffset);
  y = bsxfun(@times,y,settings.gain);
  y = bsxfun(@plus,y,settings.ymin);
end

% Sigmoid Symmetric Transfer Function
function a = tansig_apply(n,~)
  a = 2 ./ (1 + exp(-2*n)) - 1;
end

% Map Minimum and Maximum Output Reverse-Processing Function
function x = mapminmax_reverse(y,settings)
  x = bsxfun(@minus,y,settings.ymin);
  x = bsxfun(@rdivide,x,settings.gain);
  x = bsxfun(@plus,x,settings.xoffset);
end
