function [y1] = gdNet2T30N(x1)
%GDNET2T30N neural network simulation function.
%
% Auto-generated by MATLAB, 18-Aug-2021 15:31:42.
% 
% [y1] = gdNet2T30N(x1) takes these arguments:
%   x = 14xQ matrix, input #1
% and returns:
%   y = 2xQ matrix, output #1
% where Q is the number of samples.

%#ok<*RPMT0>

% ===== NEURAL NETWORK CONSTANTS =====

% Input 1
x1_step1.xoffset = [0.014469;0.014929;0.016612;0.019995;0.027617;0.033129;0.040462;0.032248;0.027814;0.019981;0.016227;0.014616;0.014469;0.001797];
x1_step1.gain = [2.02936285109246;2.03031050553716;2.03378524041375;2.04080591425554;2.05680272073864;2.06852827316157;2.08433642023557;2.06664517355686;2.05721950326378;2.04077676045056;2.03298931765763;2.02966559229701;2.02936285109246;2.00496228164708];
x1_step1.ymin = -1;

% Layer 1
b1 = [5.0820885485806241988;-4.3869994646966077312;3.5000541246668692708;3.4450240322865428588;5.3009279331323311268;6.5339261303116478175;-3.6302849201966633785;-2.2095921281487203025;-0.49750796555165377466;-5.8769276530056897556;-5.9937891127214548703;-32.08797498044556562;-3.7752638613730260531;2.1354630808213959092;4.6466456660519925848;0.48569662460807072613;7.71712240173332642;-1.497147932614113941;-1.2775341258989838522;-0.68569720992419547212;-2.3862917483599872526;2.8323168278493273675;-2.5675280779757847505;4.4526692522554780496;7.4458323516770592576;0.8477888154941002341;3.3672547674387258709;6.4122334736272241784;-14.116484750830824879;-2.2799646312207775267];
IW1_1 = [2.2604722170990743102 -0.26199590620737794877 -0.85869066216671430247 1.2600497878322203249 -3.2263719716947663052 -1.5831089380698171176 -1.7471094679141412342 2.6556063084196237511 6.596152780865795151 -3.9912506104925431494 -0.22349302791735298213 0.82345943115078756858 2.4380689964982869 0.60731250361151678518;-0.79022498596188950337 -5.5999760454273683763 4.8640682442308236233 1.098266063627216349 -0.19338644228328541463 -0.15516642498931937366 -0.58194435173762981695 -0.028020189684075932218 -0.92683221909768565006 -0.47203601387658877808 -1.6444289051189966422 0.078929026760938089669 -1.7021364510755139232 -0.060235499424100190369;0.67111997114545440812 -0.99568727418683422581 1.6080145689030524991 -0.73961891135008306364 -1.7762222256368684903 -0.3758986525691221936 -1.6766218125158889318 7.5900731187050993753 -3.1424202461890478055 0.095177457053181285795 -1.9169304996925990991 0.75675807214116741495 1.5335958676607197582 0.13877710658487385498;0.11701873321615717527 -0.91624955206154190535 0.85462455169905615637 1.1462816244309910196 0.30678440985827359899 0.26069021163885064407 0.62103277954481306278 0.98969719502605324468 0.66483619933751614273 0.16961613483918436263 0.70392653925810122484 -0.068771706920036729249 0.17188970279182053114 0.1196504035638361052;-0.34978189970532974629 -2.1323134447543519165 1.5618665930923740781 0.60959223170570631112 -0.60055184983289733314 0.1254789525187053334 -0.63794319130007060004 8.6078021766804315718 1.2465553567397558155 -3.2550835653670211478 2.6334809847314346598 -1.8385054238035323237 0.11602420862589335471 -0.034838270927250912512;0.33480689267788160679 -0.022233937879571390173 0.46326131604350834214 -0.43329202682042472494 -1.4523993202414466896 13.543609565083057689 2.9286113566191911417 -3.9315978294809732496 1.7698433973303382416 2.420538840137292258 -3.3700401963070585332 0.59567406541756839911 0.43886432924020263302 0.34218686278291537972;-0.67357146541458468025 -0.13049197824854891214 0.79765716659866003901 1.4239633437174907815 1.6232035735108609753 -0.043803566403340085667 0.96141140453592643933 -0.73408602933692779224 -2.6736828559130576544 1.1249744447001301939 1.4546704353986139591 -3.014067415365307312 -2.1957863715530243631 0.34911925848697600294;0.38776179451547077015 1.4187514750635767946 0.019430100440362627068 0.097758310052422275893 -0.95039405332231075008 -0.34319393572633322131 -2.752250587840848528 -0.6343534332090603467 1.1080124571217746521 0.17473715825945451696 0.44377842513755227927 -0.52317785895000257224 0.31292505358308408958 -0.069986829255640550795;2.1393141439644205448 -10.574078107294660356 0.40862847721499823139 -9.0441681326053462442 11.437832463108035697 -0.16912699132890557374 0.66063470261678580719 0.22796051094553704264 -2.1601101762026555519 1.7761796397326794494 2.1922289777773569242 1.1597009077205662209 2.79396821180503796 -0.23939002851349522327;4.6837329055172336467 -1.8230974262336614444 -11.218554222690382716 -2.7310108730704421021 1.1083745987993984805 0.5517061583416945636 0.36172638303216120281 -0.14898964094965055915 -0.00058601975619293217995 0.85841857792103926084 -0.098907686632847061081 -3.2379356894467994366 4.5772396032375253228 -0.097677457132220410485;-1.2916136477213746581 -0.23109038297045941812 -1.0838101018006305321 -1.2424170435983941108 -2.6905261914618319175 2.152210155109164802 7.8382875085492571543 -14.080917233212545625 0.57602261634872642393 -0.65141854308219482306 -0.18379217113796933458 0.32553521915140104515 -0.0050910347390285791425 0.13196715495498054227;-4.6438790130356633057 -3.4058025765525550277 0.73909525567414646741 -0.030934181425990612407 -3.7064545333364753432 0.48766939462472985722 -2.1978821113302098311 -3.4849910427491215259 1.7130969609473298831 -3.3370760757304718247 0.15783016467025495766 -19.966901809381745636 -4.9952892827017949529 -4.6950799255898809648;-1.4053234765967499431 -0.84872329419920999882 -0.22934820112950152216 4.4798158380948676083 -1.6323185323982025707 -7.0746507743992381734 -1.1543516277242533707 1.3177710366999693115 -1.0960831842927212243 -1.3186097119983541948 1.5352291348307327556 -0.20894345978318162871 -0.53049455390960009726 -0.13766217812938108533;-0.69446525121293944949 -1.1929418842211880758 2.1863440785263614785 4.7882238982580025421 0.63401017879770404928 -0.14281085217483382999 1.1746347017742146956 -0.067697325043704625891 0.50652905099497513852 -0.21878855828111301585 0.41132692813728199965 -2.0617972579469081573 -0.15616334974729687013 -0.11911276194520295513;1.3052736371376187918 6.0903612687017858462 -5.2435751543227357985 -0.94010719022929345456 0.24927198960057306287 0.16765898730746009448 0.64279455932685958253 0.092138432629913058491 1.0249707867611073109 0.62021861245309906074 1.4081617475630872072 0.011801064683891776541 1.3008053554510223826 0.080490507722550772018;-0.27772967830497363728 3.5680725880812285133 3.2633419372102769884 -3.6670343525750617175 -1.5278678069981026511 0.47681606908358425967 0.64539138155275033171 -0.082869534531684774237 0.14269658010491406697 -0.65121149396253719122 1.1749010159048753899 -1.7404164769308352323 -1.5201350802736368628 -0.099585303638885777633;1.1199599087048417445 0.2442269342290944445 0.35350680409187873465 4.1145880174437099441 -20.624395044414693956 11.346805539684732267 14.640170497409821238 1.6178013338691703549 -0.93499138883334653727 -3.2895220798511859428 4.2331657558019584187 1.0150618050612720822 1.1990413785370639399 0.11430257748823184627;-0.49519873568349426218 0.7259312588841483338 1.0235606023568264433 0.16114720803679083438 -0.75477296967525753235 -0.44589839667496417031 -0.045011961151078756782 0.086644197621871435477 0.34248103618281983129 -0.49091401483623359203 0.16599249760414899746 -0.95592597046622029833 -1.2327130110911341809 0.12203452302476061608;0.80640800818715174803 -4.6738590942848556864 -2.3181940301662002923 1.5210984081537228807 -0.13050830093532755916 0.22329005748957886368 -0.82372853807199897247 0.42011407972517778031 0.53054450299715960604 -0.089617916621815923994 0.26247130179320798948 0.18230258027575652058 0.060141618414426466221 -0.065345071079089406263;-0.75985409359366007376 1.9051757960346020759 1.5656923249535548148 0.067880902872184983865 0.99110344822764340211 0.37699117255489167366 1.8576925855013095568 0.32619706167986928236 0.50243461433063829613 -0.56071366757589991003 -3.083328946086536515 0.54397916891893804969 -0.71169608783622861914 0.12886691689143184303;-0.79249617115397752443 -1.0339591614252594542 1.850285642273601372 -1.5709533248762839186 4.0886929264041178556 -4.3402786772662764747 0.49097896320447387275 1.0435424289755899085 1.4647980440839987182 2.8582439225494389312 -5.745026228867197382 0.4099228368993220184 0.347801700884874887 -0.046635451789659637667;1.8513388300307485057 1.8311980777896883499 -0.53339212644574995892 3.9311693301453018989 -4.9614688383950529271 -0.1986656519687662048 -2.1341924279383457375 9.026084170054339495 1.344589062232608434 -3.2502282917477636204 1.0961619810145692977 -0.29256766508097098445 1.8651416402125162719 0.31786108735858648044;-0.71704280410036536075 -0.27654963522500297657 1.2460450436578924815 2.5145697475709845037 -0.64924986964120678934 -2.2322151524957214441 -3.963546795176033033 -0.95721069219669996375 0.70171310993593138949 1.0830397134519209601 0.075047838020854240604 -1.0074409483192228176 -0.083570898316750144574 0.019134336911144030069;5.9829480159752064239 -1.8257538332507470269 -4.1974630680978224362 1.3394189998822472187 -3.181954126016171891 -1.309379962709220635 -3.8777189783921901522 2.0455992926506598728 -1.3294005106874700051 0.43526735108981212674 0.56082445309834050295 1.6355400014681347187 5.585716250572586361 4.7659006593390751405;7.4176347381880187726 -2.3475107271908997042 4.8354552749620465235 -5.1674075201688509651 -13.255701286672181283 1.4551246376810680339 1.4811047587927597124 -8.7746818697006254695 7.1044648096833977746 -2.1999861480152786974 -0.63683995242127355851 13.955665632231388784 7.6511954841371281333 0.13540616979793154706;0.12415503585364985606 -0.0023448070530425746405 0.064306965876193056264 0.072155278075314549513 0.12225564989551791772 0.018736546668852251118 0.0080531884576555239075 0.030596085036631904402 -0.057316883086500902689 0.10859835673487711061 0.019118449252406126415 0.11493562044191704685 -0.18309261660088166357 -1.3494609929434400186;7.0543108996794154919 -11.880348636103407856 -1.4472098147823688752 -0.0022558745329540018376 1.4727996510746728109 0.82424691257312876491 1.938427819065092983 5.3506002228281275279 1.4664105010079611091 -4.1340459219678162839 -0.33187719041945745735 -0.60476936787256296846 6.7467352522504473455 0.025174836517242553391;4.5445241017793422955 -0.30457641690277525992 -0.3288676423598853038 -1.1216290904365813219 -0.70054314541849893594 -0.57270426263237961262 -0.3941488742264987466 -0.47295812842254481012 -1.0331000983447633512 -0.67768759279328338874 -0.21874238428770839682 2.2678997936823557247 3.2393587881166454601 -0.023117446725194217005;-2.254875167640510103 -5.0106846331659413707 -0.76513167352199928928 -0.35789522451742450393 -1.9045151855681050623 3.0212384403508809605 0.50878816804862414536 2.8995898909317401326 0.16171552341135003728 -4.0458554665847996645 -2.2517913581779014365 -3.0884551379366209645 -1.9114584939023675503 -0.19296628240321356262;0.38392432165041850967 1.5975993261640666354 0.072776351001427305731 0.16098709916955145083 -1.0508179753434612191 -0.30788778047592813003 -3.1600545322458506448 -0.47900610301896662246 1.1385048788573728373 0.28171254132800460646 0.413566538599414113 -0.44619246567445020046 0.44000342307739354064 -0.040835264955160009703];

% Layer 2
b2 = [-1.1383789940387638584;1.0820988204252548481];
LW2_1 = [0.27304087762418166596 -5.4588900009533141144 0.50862602837529369282 1.3468452143054552295 -0.38017797446038281706 0.24234165158795245576 0.44364307343600356548 7.7334168841018886553 -0.19292328299068400854 -0.50371814770582312715 0.23471922953767165865 -0.04048060525375078017 0.38651167780983985978 -0.37646951733823191821 -5.171309840039114647 0.51907884283796246194 -0.14602580885922647469 -1.2126036704743279326 0.56064484108465684198 0.3244079159016457492 0.29321305646930040378 0.22636928386662652501 -0.39722805885586720542 -0.091879958555016003063 -0.16383626998213068893 -0.065993890071578242829 -0.31331036642027371153 -0.52048546505344794877 -0.19800632445937529913 -6.9627697640601295959;0.018202296418069800754 -0.14768387630381932252 0.018852772819207747057 0.17584141363003491509 -0.044744158703454946224 0.013216231454418482169 0.077554170617387743758 -0.16949909285217948374 -0.0032062881399952123176 -0.013548280726000234975 -0.0028868518784832173339 0.82254995179026790808 0.032835486402589243726 -0.044058202142021003767 -0.14288100328955283258 0.010254750114681401504 -0.015497251441896500376 -0.10761806867323761572 -0.016545531450151026304 0.048576711767098691708 0.018292143860721768456 -0.0075653788642069978373 -0.011631603239336266858 0.073585250897506601642 -0.0073507933237355891146 -1.0645246402736294744 -0.02512981090249924096 -0.027125354899271838377 0.011126259466980367024 0.20615417438331057332];

% Output 1
y1_step1.ymin = -1;
y1_step1.gain = [1;2];
y1_step1.xoffset = [-1;0];

% ===== SIMULATION ========

% Dimensions
Q = size(x1,2); % samples

% Input 1
xp1 = mapminmax_apply(x1,x1_step1);

% Layer 1
a1 = tansig_apply(repmat(b1,1,Q) + IW1_1*xp1);

% Layer 2
a2 = repmat(b2,1,Q) + LW2_1*a1;

% Output 1
y1 = mapminmax_reverse(a2,y1_step1);
end

% ===== MODULE FUNCTIONS ========

% Map Minimum and Maximum Input Processing Function
function y = mapminmax_apply(x,settings)
  y = bsxfun(@minus,x,settings.xoffset);
  y = bsxfun(@times,y,settings.gain);
  y = bsxfun(@plus,y,settings.ymin);
end

% Sigmoid Symmetric Transfer Function
function a = tansig_apply(n,~)
  a = 2 ./ (1 + exp(-2*n)) - 1;
end

% Map Minimum and Maximum Output Reverse-Processing Function
function x = mapminmax_reverse(y,settings)
  x = bsxfun(@minus,y,settings.ymin);
  x = bsxfun(@rdivide,x,settings.gain);
  x = bsxfun(@plus,x,settings.xoffset);
end
