function [y1] = gdNet3T40Nv2(x1)
%GDNET3T40NV2 neural network simulation function.
%
% Auto-generated by MATLAB, 18-Aug-2021 15:50:34.
% 
% [y1] = gdNet3T40Nv2(x1) takes these arguments:
%   x = 14xQ matrix, input #1
% and returns:
%   y = 2xQ matrix, output #1
% where Q is the number of samples.

%#ok<*RPMT0>

% ===== NEURAL NETWORK CONSTANTS =====

% Input 1
x1_step1.xoffset = [0.014469;0.014929;0.016612;0.019995;0.027617;0.033082;0.040462;0.032248;0.027544;0.019775;0.016141;0.014448;0.014469;0.001797];
x1_step1.gain = [2.02936285109246;2.03031050553716;2.03378524041375;2.04080591425554;2.05680272073864;2.06842772603261;2.08433642023557;2.06664517355686;2.05664832136364;2.04034787931342;2.03281161223305;2.02931960972125;2.02936285109246;2.00451617494214];
x1_step1.ymin = -1;

% Layer 1
b1 = [4.325958314571392016;4.3965410023384796645;0.37195713755113524179;-0.40865864618375125072;-0.060936156484488163132;0.8061131196820636724;10.386948335128407095;-4.2899728828732746067;3.2641877457631500725;-2.0492002021112685206;-1.7641799182420425662;-1.8426520552917187157;10.720958339174906371;-1.3109621894478955539;-12.736854825050853535;2.9430324469467330495;9.0024013055151712592;-0.84608714170280552302;0.9386150772552421806;-1.5285008023744846017;-1.9397202043343131361;0.66848103774370382091;-3.488812034855106603;-2.3886737328841829431;7.7908047906189299425;0.93768015401006432619;-1.5829026986492682472;2.8659286816226896555;3.5845361281656904495;1.6065661127078045833;-3.0074521247652756806;-0.40082975288540800829;2.9917740920298965257;-0.039207968214218902325;-5.1671016596165957324;7.6228261494795450659;-3.5841221120385027277;11.469317365329507297;7.0531665984383247192;-6.3842582802821388199];
IW1_1 = [0.20626872731747800116 -0.14051967523430441975 0.16162410536663066041 -0.40388244666796713211 1.3617088960301559908 0.9527776493759041454 1.5400511717636895526 0.83849669380872782209 -0.82000315782398947029 1.1999964355415095874 -0.26126728984809594047 1.1195023491218716316 -0.11337847737459813557 0.18086773129822833472;-0.063483445565684221146 -0.50787672231903491227 0.14582413933199372957 -0.45126675394848142497 -0.5530032489936349549 -2.5768871407037150512 1.2962139935456726825 1.0566534108800902381 -0.70809466112270602611 -0.76538361943456667547 0.15623161417068293089 6.3141731556897990885 0.83573356291457845391 -0.44621121584955669714;-0.20619375327304328982 -0.10420718585748894869 -0.13798793581252641327 0.40023709533058271504 1.8670781451281646124 -0.50886003316716010847 0.88079927812338776327 0.55860435944665320918 0.62835056872895345137 0.6577499733087394107 0.40003312491978443299 0.85163697770043078616 -0.24701222460016453164 0.085948370190034484306;-0.50479852900612320887 -0.9722677511166472053 0.082186164117327875633 -0.036539481191468679844 0.19085765017449976555 0.097497286579670536244 -0.3775870831298636654 -0.031873972054039481638 -0.85171026804348259898 0.72633161603890150637 -0.56216436303935524155 -0.29381293720063683672 0.28048532604855591632 -0.70262140802310724119;0.028164397751514812923 0.51571053107451580999 0.53139969163745837122 0.13944114166454052439 1.9546645641214435152 -0.70233543261110087386 0.90449612571022630636 0.46309242779185055827 0.72075766219031867088 1.3148377081218838303 0.026373255060764586033 -0.18541703009409982172 -0.34098243133442118769 -0.11642916223297068712;0.94065636531637486506 -0.048709508253227312702 -0.56013289073056649059 -0.94169745604114030169 -0.30125499106098801994 0.0460749169353078733 -0.32151665965292985927 0.51442626543791236671 1.4466313501926753027 0.46688647088823209685 -2.1388711370049433569 0.042836282208803012905 0.38604219562377339869 -0.077997808393685169603;1.2678833566877438788 -3.7901250154297723149 1.4233845213909623872 -0.06286943780260235981 -1.1360010467102175102 -0.59609302967678734486 -0.80444070791113342356 7.3408334956451968267 5.308051191298228666 2.1729603757789788254 -4.8389890488877558283 1.1968268683762102178 1.8154861740988608165 -0.85025363385553909268;-0.87042257689018553979 1.3383301048741329531 1.1056341633167954264 -3.0834716077849932958 -2.0891563214578710017 2.3210843156632936513 -1.6720871629983049544 -2.750054978512267656 0.34708495128778971139 -2.4525192924550207607 2.0549830941841902288 0.5350742783796927915 -2.1443194070148692276 -0.023659935354976333044;-0.15856810838610480019 3.5917282551152180936 6.6408435200523658892 4.5919693439279676284 7.3201371565172506095 3.4835771443255496571 -2.7834036240433941423 -0.41612442002179050871 0.32179648411615441317 4.1462160910347618525 0.41157977709984999715 -2.4885582979604481402 -0.50371762461895375207 2.1831833362914885299;0.77879955709577231016 2.5398815062158752731 -4.5418580220462692054 -3.0426966598686333576 -0.8012093177081905937 -0.45582909312265873503 0.36772767222641017382 0.41153001924525012267 -1.5622008416452766166 0.40270930493970125141 0.010589083141821466899 2.2385489228611472612 0.84131797938223518152 -0.1695681842132215067;0.55793440022093288011 -0.87400781512143677077 0.091582731622146820727 -0.044604602362280684758 0.13053014602145598944 0.072072909801059889534 -0.36771240745745842338 -0.076867488249259999233 -0.86726964335126832673 0.68023270372103339376 -0.56161059719452388617 -0.24603007577215432744 -0.76170284248250752501 0.81544809665894213424;0.625463199404752479 -0.56681368536646503653 1.2155000622517571074 -0.40785748122431353391 1.3706907196747293298 -1.2250739839531390452 0.77357072925335235158 -0.19890674774605177078 0.5538057164537586452 1.7834049649628482825 -2.9216823053878839822 -1.3515585785643948746 1.0078599899130804562 0.39900446331293670799;2.4653014640171515559 0.33506351499105507807 -0.68337565799109234455 -0.75216861480831587183 2.6920461005072611194 -0.85389840901962765773 0.23753925249060084401 0.35978067881233888325 -0.6138858628855158317 0.48672031897390438671 -0.38701756338839005123 5.9873511791980815744 3.0774616674017569729 1.9508513137349416944;-0.018300631340932724256 0.18760317994468728164 -0.31273484425652703367 0.34785204561322535799 0.0457591155235576863 -0.26162271847293366855 0.025998731253328497687 -0.84604220777415328758 -0.20507563461177030772 -1.6404714388118002422 1.29892744009688621 1.4845316466171345482 -0.19012154199015984801 0.06421157920744270664;0.39260909941382515775 0.8993621024711639933 -1.4265135616785373784 -0.95367754232530010938 -1.8663800841365243421 -0.91885657213178273395 -3.3848711271757299102 -0.95051037292521523003 -1.9649860853323506404 -3.8510685785854152918 -2.6170214129749056475 -1.0158196345577032993 -0.82015563029854732235 -4.7574278097616611305;-0.34329210536328330639 2.2886327745584593707 1.3753400139422660153 3.2972610364220735768 -0.1758317085385006362 -3.0163114840663887151 4.0606820555763114555 -0.41896407958050152498 0.05613413820017139344 4.656648911483447506 -0.36717784178072115919 2.0238459119972702638 -0.60602961997726623178 0.38354512496127407539;-2.8902479093516064701 16.824716075833375584 -3.529666533843004661 -0.39801468513665649862 -1.6709971026785692683 0.20417425313608222881 1.0972753085165103393 -0.8507155649410432785 -0.14334055604324591471 -0.85571424164758302933 0.41672391365018895959 6.0388059048900579739 -3.047627390252574564 0.11464431711663372604;-0.31143741617671993893 -0.21131086644249549855 -4.3808020415526858216 3.2456060537806155075 2.5870930365183206767 2.7432966553878905813 -1.4493829937556521603 -0.25719526800572894976 3.4728091969560259678 0.029220008151911815164 -1.0161936888490858966 -2.0059276906485989933 0.074083402490302513455 0.40661313310531149723;-0.15575527199101935061 1.0567215632905251343 -1.0564167210135408936 0.08496941578057441713 -0.49643921648052408147 0.4250872129082529649 -0.7728871331219938634 0.038084306292560932139 -0.21974926123190438587 0.20965323559834300737 2.243859725223186441 -1.1787369753437435538 -0.63808093622605455142 -0.2294117592248243187;-0.53335507094595513422 0.12179930738662626821 0.020945440773703902226 0.36646690956820099361 0.14769734148530752615 -0.081931409186254966492 -0.12028531641785243644 -0.94457995792338267371 -0.28743497345435964352 -1.4738182810369386821 1.2625610289686808319 1.5877446626559210685 -0.32524019264499004489 0.070310987603185881589;1.8732345498679445761 -2.3895103137263316029 -0.19844921089174616391 -0.91426093609997449718 3.4143648892515821025 2.6447577357072664661 1.4505018862006449076 -3.9944457300471478689 -7.6322546973686433702 4.2205779198578019518 -0.51273398657573110437 -0.90507263382741021118 2.4787464616101484438 0.18465659104868442641;-0.0045130210871461087785 -0.73952215937348453334 -0.98298396064243431791 -0.94242019177564295696 -0.62066763861569496097 1.2339787323675597275 -0.78995592930530911246 -0.088180156481888039011 -1.0360030798966060051 -1.3628825865621059243 -0.25968100266954030619 1.0365222560846769628 0.14867236819033213813 0.12940506698973983091;0.95281523549658608818 1.5062742406583526922 -1.7643908977702444929 -1.1592046353799370095 -1.2706220120421882758 7.6756194341944574688 -2.2754665675690919358 -10.886451448806703013 -0.14297474782729832632 0.62194110481918496447 -0.40554870066326448308 -0.88894835326270693621 -0.030803960172275844653 0.1377201342807234663;-3.3437575541355504249 0.66849163579060610907 1.5762938478601187242 0.57758026995933198222 1.481349317710259017 1.0867266019952954714 0.28562898815015508314 0.14049496828060278886 0.11699461114750432655 0.51315598343952617544 0.58257572275665137074 -0.84665930300677105791 -4.0607182371279924027 -3.433312540536620272;-0.35831260413829746359 -4.411488029720530335 -0.10944832780314270315 -1.777042978924762151 8.8378756571432006695 -1.4749690653497116166 1.430651639004632214 0.63596112250812786293 -0.92149436536740092496 0.79708793886903239745 1.8441566230197392606 2.2730680459553869177 -1.4688463961225590726 6.9408790911012374636;1.7715712368867440052 0.26285346679710375195 1.7925728512742964416 2.5258523714015201911 -5.9764612427937811034 -1.2946294830371085638 2.2632671962219417239 6.163581284603839805 0.083618242186044466902 1.5518339343067160119 -1.710863923645348228 -3.245316467495356072 1.9025372135537412799 -0.098598128921142697001;-1.9825099144578000043 3.1599278053312556125 1.3102556432724197233 -0.60001812221805572722 -0.0092674201291726345658 -0.14194392705937822208 0.63947946547604972434 -0.51515477007489030026 0.52744748910985950197 -2.0152474166228686592 1.105279506640828302 -1.0419174706060134739 -1.6822955979172435903 0.11063374409208999449;0.13864157036686264313 1.8957906544168052765 -0.93329614378421610343 -2.5699633855230339385 0.11497597024653680164 -2.0910715817774487846 1.4815996105916953152 0.46210128310318737688 0.34770175958270610472 -0.19665377385831692147 7.0719883484661494322 -2.3755377242421085171 0.49740208959541787337 -0.22202469213631867428;8.285603112364997358 -17.495215054165655033 -0.41572420972822543561 1.4682795391121836737 0.54354605650077980616 -0.19316690906919098403 1.0569814883872967748 0.71707843154607397995 0.37583048725562917536 2.3681490049306117562 0.14398340248008387188 0.45063330914543747729 9.9308956317707455241 0.25749917810001632379;0.6293961381445296599 0.46249119334831695349 -0.10012267652532771955 -3.6766216232840509548 2.4688907669237978304 2.3911255132253885769 0.46386162544445608269 0.10501576847995326702 -0.0042325450792980705977 -0.53972987227174384905 0.60062339897625283136 0.19628118783208406417 -0.48008777271092711869 -0.10638432059557674514;-1.2573328342172700456 0.23631251485141710478 5.525406400682616237 -6.7899991860966384394 1.329585900783784691 0.27081882060172446369 0.17387748285591753117 -0.063975759291870576417 0.77389359088410913934 -1.2821681893333760627 -24.55594069427985815 22.289034833406073943 -0.53839772838751509543 -0.088062371824565249812;-0.51375326838318102762 0.15256438917593834192 -1.2790457400515948816 -1.1965808780383619947 0.71088016206881976533 0.57671527032250791134 -0.23974465835809882774 0.26952101703592984405 0.8499551257283497474 0.24277937475409283596 -0.98032352707076886311 0.1498975739040590005 0.61079673210817808648 -0.0060216405950561310845;0.26887499178357765484 0.012172792800035431987 0.80799119096275684448 -8.3935256468167249722 5.0124477195462491252 6.6267415189004097442 0.73468486375021802015 -0.069630913362948174128 -0.18833547767407712858 0.6997012732610768948 0.27179974781259835792 -1.0719821187660041328 -0.42094589172476259975 -0.23030103305339350017;0.80891100143861682792 0.78800047954546181828 -0.11051512599120033586 -0.38956834684794144907 -1.5939580683249123805 0.28885341372360828771 -0.54831664965484683272 -0.43462353533307979125 -0.67901464687093926464 -0.40176354336151409719 -0.54967547137618699704 -0.76734329139304313649 -0.42538685372672363494 -0.11000303345017239942;-2.6155624845834375414 -0.032581626033476168702 0.24074801094299252968 0.48373839153637404609 0.44272162747292215235 0.25931340186398194048 0.34294460957914468802 0.43796645805066403145 0.10136999113495007152 -0.016933100920806049006 0.28240247888761488282 -0.57023517919821564703 -2.4875960007070050395 0.043563729190188901774;2.5014694763948646106 3.7785252666969260105 -0.3184116148918398892 -0.32703318187960112029 -0.982948677710594243 -0.85020994097945989942 0.2631554114857095894 -0.39315761041940899823 -0.27096867503462851445 4.48240315287662483 0.40851390361897471637 -2.4643989838354327659 1.6051820273601462574 0.20562552606589601378;-0.095074086758794196239 -0.47346937187033466543 -1.6006991994483976693 0.3388573943382552911 1.4989283039211662718 -0.0086586319101339317278 1.1664784277659980827 -5.869630583305570859 1.1255907997293603806 -0.76698544811928270892 2.3898618559374620318 -0.14485898909191066708 -0.046771427089152980971 0.26570079945478825012;1.861060473399054338 -4.5520306188264436642 2.6170142320579508066 5.8747090741242420364 3.1214264662648734117 -3.550211644743265893 0.6489913235792288404 3.2347216545726351633 -0.88962652759910865186 -1.046234829116738041 -0.66825145067354274619 7.8693074713604538317 1.2100173141222625439 0.74349883367188440708;-0.03233059223752314526 -0.57712178797033863997 1.0075209411610166477 0.36999594244008804367 0.33394237386346509178 2.0173152664372193676 3.2344711105087120551 1.1276565660794934942 -1.3729435746916434091 0.29577204998413442194 -0.63525804117847306518 4.0470689208491030797 -0.43142818227382223606 0.49380055928194799275;-1.3902106198651114077 1.4409574382985592678 2.755766809702507647 -8.8310105217856840198 -2.5899719659547373318 4.0350301830904076184 -1.6888646123476727112 -0.59101788846225977725 0.27721977590943641667 -6.2603717362432336202 -4.8843489245678783917 6.8183346459559963648 -1.9147624449657387746 -0.30536158236311844449];

% Layer 2
b2 = [2.6390617879478068808;1.9347638249594683035];
LW2_1 = [0.98193641501860584597 -0.4157615685230460767 -4.6536509900667217821 0.20325995508881999907 3.831864080181893506 -1.3794573923232826829 -0.29633318836330430068 0.34614817873654762925 -0.10417636308102992682 -0.46436211860102866167 -0.077257084832666578222 -0.67662266645615887217 -0.14294681167499101448 6.948510486772843997 -0.18708523398032947394 0.31089053406535038793 0.37776354645026227752 -0.27821055955507534296 -1.3563419253664232844 -6.4500849819670316165 -0.17720355739133950013 2.8594908669311318583 0.23243872965373688078 0.045332966294576212962 -0.14916350782479037562 0.26492377938680150562 -0.99378438394771761999 0.42168023342958821376 -0.4532299355715085909 -0.90726009824549458394 0.24161277111863488365 1.4734490474923724879 0.39409796945861730322 -3.8135935978991963857 2.624472458317117507 0.58260637312115792774 -0.53944440005271576677 0.26479885719971985036 -0.64933354694555689424 -0.18873742049901687245;0.17962941916252381236 -0.04508183763690284257 -0.3519449471025022369 -0.93656538971263858517 0.30806046146263821317 -0.11011210841249019499 -0.03695812423510937833 0.024085099714289737172 0.007908495293171304702 -0.01933183084591296938 0.93277432195792686631 -0.044340218852875049049 -0.99661311721381318218 0.28384203470524926871 0.70355476833859076358 0.020686859514454637027 -0.010497303031613572366 -0.025932675137045918534 -0.10419129432672234736 -0.3711660142026323439 -0.0038139098669917603779 0.25619636027062464567 0.010021787712381300534 -0.25085085584196614716 0.57251316975332933179 0.020780032491031056457 -0.067691975000679333041 0.031775564316893281647 -0.035092364599570886885 -0.03983333646872477124 0.014068324783689325347 0.11462990806353118289 -0.011255165324227085419 -0.33344072462361867837 0.22720166240330558205 0.022875848592545725002 -0.015712230620447329571 0.011531446974233297217 -0.042901570511304873423 -0.016172224506333380406];

% Output 1
y1_step1.ymin = -1;
y1_step1.gain = [1;2];
y1_step1.xoffset = [-1;0];

% ===== SIMULATION ========

% Dimensions
Q = size(x1,2); % samples

% Input 1
xp1 = mapminmax_apply(x1,x1_step1);

% Layer 1
a1 = tansig_apply(repmat(b1,1,Q) + IW1_1*xp1);

% Layer 2
a2 = repmat(b2,1,Q) + LW2_1*a1;

% Output 1
y1 = mapminmax_reverse(a2,y1_step1);
end

% ===== MODULE FUNCTIONS ========

% Map Minimum and Maximum Input Processing Function
function y = mapminmax_apply(x,settings)
  y = bsxfun(@minus,x,settings.xoffset);
  y = bsxfun(@times,y,settings.gain);
  y = bsxfun(@plus,y,settings.ymin);
end

% Sigmoid Symmetric Transfer Function
function a = tansig_apply(n,~)
  a = 2 ./ (1 + exp(-2*n)) - 1;
end

% Map Minimum and Maximum Output Reverse-Processing Function
function x = mapminmax_reverse(y,settings)
  x = bsxfun(@minus,y,settings.ymin);
  x = bsxfun(@rdivide,x,settings.gain);
  x = bsxfun(@plus,x,settings.xoffset);
end
