function [y1] = gdNetT2N30(x1)
%MYNEURALNETWORKFUNCTION neural network simulation function.
%
% Auto-generated by MATLAB, 12-Aug-2021 21:36:50.
%
% [y1] = myNeuralNetworkFunction(x1) takes these arguments:
%   x = Qx14 matrix, input #1
% and returns:
%   y = Qx2 matrix, output #1
% where Q is the number of samples.

%#ok<*RPMT0>

% ===== NEURAL NETWORK CONSTANTS =====

% Input 1
x1_step1.xoffset = [0.015853;0.016293;0.018015;0.0213;0.027949;0.041065;0.056708;0.036124;0.028091;0.020117;0.016488;0.014631;0.015853;0.001797];
x1_step1.gain = [2.03221673185002;2.03312571731217;2.03669098815155;2.04352712782262;2.05750521320383;2.08564709808277;2.12023424347922;2.07495569969581;2.0578058233847;2.04106000410253;2.03352882323754;2.02969648933547;2.03221673185002;2.00549103445233];
x1_step1.ymin = -1;

% Layer 1
b1 = [-4.5093991197757885558;3.010586916814215197;-4.1157523891063352295;3.2013270732729637302;-1.5054978772139793186;0.99664409726520342137;0.42540519851055641487;-3.03412081363416819;-2.1051130652526390818;-0.75700666067172317497;1.5089484825796020129;4.5381411563002194143;4.0244333285950677492;-0.94320765316755250662;0.061456413369493811949;1.3253459759887427083;3.9928226866034721709;-3.147176568484936876;0.405514104637123729;0.23412806498242988429;1.7773537339847373939;0.098588873095860493634;0.47481588873820917973;-1.1889493500514942692;-3.9757106448064449822;1.5759755154579284664;-0.41793687094398496162;-4.3920833625145707657;-3.54681512498954854;0.17150185272446799578];
IW1_1 = [0.85191368068900386046 0.8837715933168522886 -0.15988218441840415518 0.98096409303712517325 -1.1124193630478316219 -1.7393461500156799371 -3.4063550216971414386 0.71218629209309103345 0.31700680291595773053 0.43101308490786394145 -0.38517728384602523128 -2.4027238264911408017 -0.34855228653035008612 -0.77899854301319637617;-3.8585717514717701171 4.4544438131710011319 5.171680343223443721 1.2291642820111075007 -0.73645852203334072339 -0.34783690375240738923 -0.34105378127320584714 -0.18978961856800249941 -0.46720785387422980595 -0.2360045375492459685 0.43154025363409959093 0.95802153833298409058 -3.5401895657034385678 -0.22572539506528077613;0.23946859591288147118 -3.1287457491358994233 0.38045576531184427393 -0.74700970111967246456 0.61468492985738609757 0.37133330161839878114 0.36350342891430015291 -1.9692846327892332692 1.2461392817508538666 -3.3819321321226505361 0.66533277222043607502 0.79838445264299040538 -0.17754483133779419557 0.00067979418345857564598;0.11359442151727203174 -0.51447511489382158345 0.075731634448427634365 -1.0800787414935584252 0.51924415892450115351 2.6297199013972685222 1.5615527161548083956 -0.69126514352323864543 -0.03665331368337403084 -0.31829527489644254823 0.47557942033677985672 0.75755069700156063561 -0.32511360232477554133 0.64308387741562400564;-0.25056654029447311682 1.5022419481281250597 0.37243007279751527694 0.53830659050114848529 2.0486939673240653903 1.3022844505072952437 -2.2019955199506675569 -1.7568067786586416545 -1.3052072792164972626 -0.11309428565855229876 1.876218004806464501 0.7602662159770952055 -0.74575559387904266639 -2.4541707315170802062;-2.6101367405869817517 -2.7508237215761179861 0.96238150371547814821 -1.1994890061219594113 1.5517223073953125834 2.1394934659120732334 -1.1653652947987458433 -0.3345271459394241198 0.47771065927347222679 0.7013725528888068439 1.7265994804157158704 0.71220294048146293164 -2.8208459209057519246 -0.11584049988178200807;-0.10411658650315866459 1.5735968233487340751 -0.084037491497160235476 -0.21479234686684567368 -2.1383939244170169225 1.4677227307180618077 -2.6030190948067910561 5.8658598360692906226 -1.900390496412342145 -0.23708506544783658487 -0.18321337551700417334 -1.0232970683180502292 0.80063976453437391001 0.007480097132115117245;1.8690141080350755054 -1.3947792960059135492 -2.3895671354575394041 0.58750524153686867201 -0.24695943036808321036 0.32330903662672144661 -0.74969763729426130983 -1.0335572319686796572 3.2665844620769637352 0.93352141318964909633 -2.5652256721950457141 -0.45034940517044735886 1.3694541837055622668 1.6877621213628528629;0.080028578614023487825 1.7359571215720566162 -1.0561445289523705426 -0.36000219162384095029 1.0326616519557880736 -0.27910257334880100855 2.5021679217589882782 -0.6649109879146974933 1.0930864857381281663 2.0070860993277803708 0.12281789033219597806 -3.9043781596266455836 -0.60438266059260414842 -0.032174077112949076018;1.0298537642728884389 -0.76644976197334913071 0.011768104714993409682 -0.95413585115891896837 -0.40688201487325492689 2.0028082727512659389 0.1227868505044405617 0.50964211248886881478 -0.88612797294620126998 -0.083931554117198964304 0.83724329183449597291 -0.25024447997483045825 -0.057641646827069945025 1.4631290718804890183;-0.039112704398361418379 0.63214695392820718922 1.3846417732753644181 0.034038352848111366744 0.066573103444533932027 -0.57685300762875713065 -0.3382820989867212913 0.34010810700129434636 -0.35361256462031842585 0.26105933624655319747 -0.68831867251594713863 -0.59435774335156521531 0.59270864979963600039 -0.86342281986475200029;1.9197279416709078781 -0.030791719468118684822 -1.6015443957522208507 -2.5022170449484084642 0.81207278450363351574 0.29597171043700321036 -0.20789694377340389719 0.19202100965297785873 0.53493992055642292094 -0.26267672110247103356 4.1483545926318186048 0.11689426840614469683 2.6079035956684477604 0.041679220240673428566;1.0127302409820064799 1.5080933726220853153 -0.12527774954299894516 2.1038690822023387028 -3.0320254619645328198 1.1170624538610958165 -3.0615068950508987911 2.6515584940947407588 0.16598526439580393865 3.288541914454539139 -0.4078937043625633363 -0.87987577419404605639 0.86783131755459486101 -0.68864213406244467741;1.1179781155221866218 -0.64847185381080363342 -0.29368302581067168289 -0.35173227458185657435 -0.35425124119361767194 0.65579861316575394081 -2.016829579441461906 -2.9885394306414956311 5.7190766403614627933 -0.44277446562051969714 -2.0315455884095348082 0.81753854280185778158 1.6361615737717063457 1.4954713680846287716;0.46243578424375786362 0.83187627522450213746 -3.1205150481026366904 0.12895651574685926266 -0.45954089408595444333 2.1014856310254241833 -1.6618141465103239973 1.252021391264514838 -1.4857703422184309616 -0.32037257623244397298 2.2546377818489777844 0.053120084724260718811 0.18954406238768972681 -0.52264378195483307543;-0.20166066987473041383 0.0085055573103385712086 0.042038384507478078478 -0.062813498567391198857 -0.39042037785892519386 0.43130445796490329835 1.2725299588515748272 0.46264360859997993858 -0.44727570341622296946 0.042624181749825656995 0.33438167433338111811 -0.1784422968778442975 0.44657701478789679772 1.7962744895999394057;0.17213498720175673951 1.1010655795820645242 3.710804192705614124 -0.12427670418860078949 0.8917637074390135643 -0.3852582667280139983 -1.3661697154137022459 0.73039627138397533734 -0.75880891763808655526 0.12071088899667176131 0.99544514216269641693 0.33953409845426135716 0.34580012431603163181 1.0142784355567013854;-3.0512528751121701376 0.36091989139614388815 0.5433768138941766912 -1.6588810763482007005 1.833720388026873982 0.57996536524207031871 -2.4008140038065457489 -1.0640174244373337142 -0.095552355690928306164 -2.8473232641054422309 -0.7112904238322672601 -0.043652398265429520618 -2.8736891784948426221 -0.89603888796426778285;-0.55788507732964820462 0.83378311511533131917 -0.031003772361539755353 1.0492408189600164192 0.39901664521609936376 -2.0993970327653590502 -0.12267369100831232442 -0.56068428513275336833 1.0091241841766338538 0.10566626236064219357 -0.8693982190468739768 0.30146073478499635367 -0.45687955478956610023 -1.0044059820666102478;0.93391603070772610806 -1.0057231898601881603 -1.8507019489976714866 0.42382625303901977354 -0.36465131598868583129 1.5256086183657633359 -0.27056133119396719167 0.99567507292542389852 -2.344219440501869034 1.2020255203985474868 -0.24951398596393231655 0.98001907513703212516 0.29877240905627816536 -1.5402356961561260995;1.7029476859302574709 -0.8920461769920337014 0.66277526035196188126 -0.21619139711253854141 -1.152934407741054823 -0.23389995400859836527 -2.2061422181556578082 0.66107405647359251954 -1.9170816789225606502 -1.0118379569181694677 1.1578220401788918981 -1.7256357989645965123 0.39191653982865082284 -0.16825280825628324832;0.063871922972236566673 -0.67166597115333226409 0.21045745391236364563 0.76336013260586854656 -1.1126119335759725448 1.5579444673988716019 -2.2109507877705842915 0.24273014341567453189 -0.128310159542470964 -0.062795927533178474977 -1.8545899694193044294 1.6698956940993350262 1.26437174969746291 -1.2016949459378591936;-0.044085758990875814622 -0.032994547381131923702 0.2611515188465192705 -0.045381109264860761132 -0.16219580786414902751 -0.06865432878728516819 -1.0038482013936214088 0.64548191621753703284 -0.54130626179403018572 -0.39277422707712833505 0.049877368494656293407 -0.40919325773512515987 0.45872815646723336114 1.2688428318591979949;-0.74965115580425190078 2.1957444897030016229 -2.6831696949947838604 0.47004553655077885299 -0.98763712301165584861 1.2235305419360837931 0.0033243674322816635369 0.55180029734368263306 2.0515900405237217363 0.10391887845785043043 0.92923685901537966814 -0.6145041659495814601 -0.91855367228311424199 0.80118726792224070898;-1.2971156042855016555 0.595384312302967178 -0.69311954707379197504 -0.18210783668313174077 0.53843913666125453599 0.1214788902940162757 0.96000456790157873144 -0.37167034283342142986 0.18888539761597364364 0.30984546771242627017 -2.2420538494062585144 0.22654901792088877333 -0.86296326780070187201 0.21428485677048741964;0.52493113771707167192 -1.4058712151321002271 0.30659027418115492036 -1.0248633164037492804 2.7517245951155659967 -1.5470303531920026607 1.1561335520821842682 -2.2879026850744126342 0.04559075922494236488 -0.2693329580907778964 0.39035132360309832134 0.74095880835001082243 0.49020167172143924716 -0.5762700810339298485;1.3545353879410095832 -0.34172710802157213461 -0.8898180677069854605 -2.2300701626981394021 1.2858999213522004368 0.2444592691791012129 -0.89560347465858392013 -0.037216839159021880556 1.5774441104228469346 -0.040854124023301519042 2.2704250682281763574 0.19028514878526378573 0.72913189154152657778 -0.26742574398335200447;-0.60787866213235530743 -3.620162441202405379 -0.74771895617500394593 -1.7109820791227370318 -0.98347691498238809515 0.3135603000182907163 4.5683399263804940205 -1.6308159490220779375 -0.53341520943645304165 -0.62230649084393285797 -0.32871099105695361642 -0.046731659185941146206 -1.2865162641122489529 0.5956488548085973056;-0.88944881641645046066 -2.5800690511966291041 0.3551639901917462705 0.82342519968664040775 0.66552820016434943717 0.53120678461010095717 0.67254604294469877424 0.89605554734980885634 0.27748139951380035306 0.34399063225459114435 0.2285117115120512965 -0.16319856313498298794 -0.94005671990873151955 -0.041334555302660891396;0.75768034052324295669 2.2452592303653147177 0.3542826968135898702 0.37326771093092808718 1.2506852154771253005 -0.71399519511826914364 2.6659693531878518868 1.2598443145344118133 1.2216558211467425377 0.24436260653725755398 1.5008728388263583575 -1.2744694193063483834 1.8575037671835223918 1.3439337357535285911];

% Layer 2
b2 = [0.0029091316404458583689;-0.86891562661669685674];
LW2_1 = [2.1776810256759544515 1.3480003499469241923 -0.92453112885456933956 3.8533588790109636335 0.88968731752389118572 0.64625889829677951592 -0.62814176383428388384 0.92525872100582551294 -0.54236983412640948909 2.7050809548408194516 1.5651777942421074563 1.5477816657561720426 -0.56708366997768488993 -0.55862372631380530219 0.92014087069027095112 2.1478534938771014495 -0.76191128017333387135 -0.45465533642263133984 3.2526997749707020624 -1.0536760440888652823 1.1918991165490864237 1.0243915125581553038 -1.2037879215499864838 -0.57368888303790255279 3.0932072217874795328 -1.1170945936512723939 0.67598361294881748051 0.61178191102033430138 1.4171439079658556537 -0.63028752788234765347;-0.034737113969750203768 -0.033393267993444740449 -0.0042921490556959950025 -0.092828071941376641418 -2.11002917524976219 -0.073909683291714739495 -0.0075262338991093245474 0.017906750820998029033 0.030500913725988107461 2.9051694003982539982 -0.040151990973745325941 -0.02279449461767363988 0.0021696482725312572597 -0.080915549456997470923 -0.022818652351049750066 -2.0152846710999710034 0.011865776646572836692 0.012368804570877776211 2.7406884922904901636 -0.049686741632126933677 -0.28201487304125760769 -0.0047637751080992531139 2.0712319694009706517 -0.010299527571435608195 0.11934109368543983909 -0.0085825886723674710971 -0.0090883831955071471553 0.0091292486699670622602 -0.0081329534041960360735 -0.05776022920309160924];

% Output 1
y1_step1.ymin = -1;
y1_step1.gain = [1;2];
y1_step1.xoffset = [-1;0];

% ===== SIMULATION ========

% Dimensions
Q = size(x1,1); % samples

% Input 1
x1 = x1';
xp1 = mapminmax_apply(x1,x1_step1);

% Layer 1
a1 = tansig_apply(repmat(b1,1,Q) + IW1_1*xp1);

% Layer 2
a2 = repmat(b2,1,Q) + LW2_1*a1;

% Output 1
y1 = mapminmax_reverse(a2,y1_step1);
y1 = y1';
end

% ===== MODULE FUNCTIONS ========

% Map Minimum and Maximum Input Processing Function
function y = mapminmax_apply(x,settings)
y = bsxfun(@minus,x,settings.xoffset);
y = bsxfun(@times,y,settings.gain);
y = bsxfun(@plus,y,settings.ymin);
end

% Sigmoid Symmetric Transfer Function
function a = tansig_apply(n,~)
a = 2 ./ (1 + exp(-2*n)) - 1;
end

% Map Minimum and Maximum Output Reverse-Processing Function
function x = mapminmax_reverse(y,settings)
x = bsxfun(@minus,y,settings.ymin);
x = bsxfun(@rdivide,x,settings.gain);
x = bsxfun(@plus,x,settings.xoffset);
end
