function [y1] = gdNet2T40Nv3(x1)
%GDNET2T40NV3 neural network simulation function.
%
% Auto-generated by MATLAB, 18-Aug-2021 19:10:52.
% 
% [y1] = gdNet2T40Nv3(x1) takes these arguments:
%   x = 14xQ matrix, input #1
% and returns:
%   y = 2xQ matrix, output #1
% where Q is the number of samples.

%#ok<*RPMT0>

% ===== NEURAL NETWORK CONSTANTS =====

% Input 1
x1_step1.xoffset = [0.014469;0.014929;0.016612;0.019995;0.027617;0.033129;0.040462;0.032248;0.027814;0.019981;0.016227;0.014616;0.014469;0.001797];
x1_step1.gain = [2.02936285109246;2.03031050553716;2.03378524041375;2.04080591425554;2.05680272073864;2.06852827316157;2.08433642023557;2.06664517355686;2.05721950326378;2.04077676045056;2.03298931765763;2.02966559229701;2.02936285109246;2.00496228164708];
x1_step1.ymin = -1;

% Layer 1
b1 = [-14.876163189055958469;7.4604376775241814101;-27.951519871936362449;-5.7908011335958660126;4.7355845019150279995;-1.7373586500787585596;-1.6197911093391752502;2.7698588227177616261;-0.60838871838897801148;-1.0496331180860098975;0.043813443736505294779;0.036392747549801485185;0.96145313052729997061;-0.71805308102009368643;-3.1415984435164112654;-18.261552015664502591;1.6133312853936545572;0.26535554044656300965;-1.0424708974812206819;2.124704021738320403;1.8439383319018374241;1.3520899352796269532;14.810209245668897182;0.56157066911065145476;1.0942757445476063438;2.269805859268563264;1.4724617229003635899;7.0716606322210111557;-5.5702457704887775591;-1.2879511959112033281;0.9761412922007780546;7.6634749223262108586;-1.9891654929375182093;-0.46969053322549392249;-7.2670522399156238791;-20.311342147304511485;3.6226316736463899382;-12.772363218491442183;-7.3865733268720230598;-4.9851583522324034448];
IW1_1 = [-0.84114835745049010285 -1.6726829499312492189 -0.053160208043811628398 -0.074542715351846658423 -2.5060014127417704621 -0.54498778447356899246 -1.6353966905225996165 -1.5566245675400689485 0.89975570713890373753 -2.1541971568715907459 -0.3883172723749913624 -8.6390314742913538737 -1.4225928744678455473 -2.9714406470155334539;-2.3785396862696539522 -2.9079430446743819161 8.8563892778811634798 1.2582797178213720457 -0.25435138272367235901 1.6193568941253664306 -5.0145073687306078725 0.12527470566279527708 1.8257377009134470036 2.9937623403700133196 -6.0310745014692130894 2.0411551889253805037 -2.4284360536430829036 0.62252324641675049754;1.2840291108205337256 0.84945969017949418678 1.4656823606726336884 3.2946674282524850419 -10.449908918660941737 -12.646140075979756645 0.63203719434217520146 2.1594868725121871833 2.6297671172756009739 -2.6325048139289091154 -5.618882722062147117 -11.312522705209715923 0.10813343655663995579 -8.0710520927879816355;-2.0309534059562244224 4.9622845301729290313 -4.8756882103549950003 1.9355325728317467338 -0.17703770553977291047 -2.3467505820095291291 4.7201424507063256542 -2.2753607779837943248 3.618631003395936574 -5.7311480437880364391 4.7737227680644638284 -3.6977947143560410126 -1.7195938220721396217 -1.2282339499487637813;1.9588428918495877085 -1.8465226034399835342 -0.22360430179080911794 0.19466608846864574822 0.05416684430077602086 -1.0552872981685952336 0.32433869239919271843 2.0084650440705380525 2.0336803737802382486 0.89229299650916804598 -1.2562677415652103718 -0.22413368636686673008 1.8274266064610213967 -0.47299410973545347181;0.22440928437707083343 0.19488416976133501879 0.40624033191161917911 0.52699095400834461422 0.64093645340854454862 -2.6190913323037365856 0.018729864787169276524 -0.91490250786080018486 0.4583795603040564659 -0.047351544130406791888 0.27348799263417167271 -0.4176101407275431554 0.26873178419091309221 0.093161934670090845723;0.28812710825572668272 0.12801654165146109099 0.46216569652126221479 0.42324435714056851676 0.89261035946583899836 -2.9248553242085075787 0.47476166346490045189 -0.82494179011120849498 0.55767665510217001579 -0.53480115271665418231 0.22222571516842115624 0.0094508560799234295202 0.14682603363665358565 0.092738919906254282943;0.39617150256511346473 0.27116835744798029051 0.27071236077268923115 -0.79245558827292972293 -2.0678838453375147921 -2.0410993475592782431 -0.93553956709835628391 8.9545764372493987793 -2.7202141207236323339 -1.2428679369867701165 -0.2862270405799625661 0.49850525245096871663 0.17687138265415905392 0.19500179112463034148;-1.6924309362595597594 0.80980752176644421603 -1.007516438274965731 0.35155030642700074717 -0.24392760539292998589 -0.14581797940465984764 0.14647186018950289488 0.13340943844914912586 0.23676268100090888669 -0.75713434243883515062 1.9218876648155500675 -1.6677156719730918955 -0.74192050824434352396 0.021465665356112776513;0.38089217219746990262 -0.097516020722063778692 0.96712515148612565596 0.22611298376096516938 0.036949569012414071323 -1.7641222730309640276 -0.26510893637901539188 -0.61658417324263514736 -0.79922505692273571043 2.1084056849925887356 -0.12651368030481191518 -0.55815692600307420523 -0.0060678715098588676541 0.1113646201091360588;1.4429201929107189351 -4.402367257948960777 -1.855545480421254112 -1.4336456764294300825 0.034939299914667230895 -0.020220694371509181919 -0.75690026177430291821 -1.0882470363133258662 0.38137967413574330733 0.18263222383482041744 0.0074229880102487620641 2.2470935881584912508 1.880626101819528273 -0.47633468814362367461;-0.21982281190216451661 0.26727304625634934476 -0.2961272316451601383 0.44867041505083093966 0.085961282633119293073 -0.32021151470091691049 0.24797950104063379295 0.82090656689379326583 0.3757688814460307114 -1.1366617742882580977 0.18499884435520097536 0.12554768805936344922 -0.55291240653448214815 -0.068788994963718527731;-0.42181692672281917433 0.069541455907537103043 0.14384308772104217877 0.15179854345518842273 0.07404189949424450079 0.01690042375522603918 0.038855714414893521846 -0.023019888908252423426 0.023800873815032253661 -0.079482726810736523126 0.030561441917766357657 0.1737019240013881749 0.3991360431469851977 -1.3401874857005406927;0.022571958512696221888 0.43693527221678635231 1.6467257250744342656 1.4006900384598905962 0.14794116049538233448 -0.12864858661989359012 0.83753407910122001923 0.76749390388225791071 -0.15169473790142457004 -1.126958628274086216 -0.24487169722167453911 -1.689103751607217152 -0.2395501523447201575 0.5031764177044540931;-0.57115369536749127644 0.87711200593705096473 -6.4895332022801168748 14.087908153798437638 -9.2339258302001212542 -8.9013633174942281556 8.7214191843010571148 0.85469863595509787402 -4.1412874836535209511 -1.3259202778173309056 -10.982760594255797315 8.1850791852988500352 -1.3228170761131430311 0.21858691714267558526;-4.5474069979563118693 -2.941307939612011868 -2.1803189891834633407 2.9911035193568298318 -1.0254418181627840134 -0.27184305575092831964 -0.12727185640573798753 0.51431812741324189897 0.62291341163426672267 -0.7799624172708423675 -0.5259588163459497645 -9.4625154984365398292 -4.8746906289811970936 0.10724542185702992669;4.0235212356831855374 -5.8371963479766266758 1.0687495660572070566 0.88148408230482155901 -2.2802976786448412305 -3.3826139897593030526 0.73569917800396056329 -0.054889900806948943579 0.96373659895228702688 -1.340557181388442709 4.5117749337134229748 -1.4614964992643917352 4.1892542265932064538 -0.12584420808783727819;0.47345013641082084321 -0.18756495401236783493 1.9247119549199573907 -7.0733763066018751076 4.1479077932104218007 4.9273903844357631598 0.6586007164783893586 -0.4110188431345322968 0.12303338291773094348 1.8495136693706071274 -2.5044775038487570029 0.2158432829289321786 -0.49509227419519108437 0.22119367952140903122;-0.57281721815742825399 -2.2774598231042810781 1.5321282386073840076 3.6513213204724697114 -0.49415856641376704195 -1.3695077969311160171 0.025824386777894656197 0.94387869683018765787 0.95036094598128106892 -5.1419349864672447836 0.73831097713773330415 -1.0109774778877707035 -0.76346095701696858882 -0.1863366520642605606;0.72797834900854629936 1.4526095109702870101 -3.7639186062232723451 -1.057466985396395609 -0.21360097188773230492 0.26608086265871466747 -0.66063256418024107752 -0.83298087543300614044 0.27938532143527428087 2.698499521755768793 0.4337860197979319099 1.5518946901442700614 -0.31723545206562425713 -0.72167842386809011312;0.23503423866592607072 -3.7261189706316883985 0.24538916852200393093 0.34632427772470281147 0.77091308005041037088 0.38296949191972007309 -0.19115127593062880562 -0.51987063461121263419 2.2766788208233843527 -0.74205185185318767171 1.9510661108463722702 -0.37946736370390349302 -0.058076558485762395934 -0.52754950317202464749;0.29351850542868201943 0.69344820464496004231 0.082325524052813375819 -0.52226625724562947273 -0.1290856773414038039 1.867947512665683707 -1.2528748285371305027 -2.8212622519074028737 -0.46543150389199183792 2.0984783534600741639 0.28872243512645012764 -0.251972319178277393 -0.14542689655481957911 0.19986637798100301278;8.1955715486720510654 -2.4249993224106805023 1.0887033736579518894 -4.9409509679735208465 5.1939885677905444084 1.2160843502307081554 -1.6602156636292626501 1.7347142555324119861 -1.1453341319633252304 0.59266614858000543631 0.2392748462850414759 4.6108589304934763931 7.0396937166834296917 0.065471469093960218966;-0.16181378448746622234 0.068156181522204081769 0.61265373347379048496 1.0436197505880191461 0.085537502010897784044 -0.33337271679261398782 0.30640633885904827727 0.78949248714360842349 0.31577790066760308418 -2.0864708794932784741 0.16463258565203453543 0.48888819229750057893 -0.34904788768648414843 0.03024396900948205999;1.1742219575606920312 -0.53880739716223369218 -0.21338056368608221414 -0.82087868055065082995 -1.7105863223707322707 -1.031459114639481367 2.5718254769459170106 -1.0613823380148206255 0.04306480695635003797 -1.7043255856754173649 4.3188000836293136686 -3.1663255447280742594 0.45623402296354553798 0.1753720163264883003;-0.7442115319390976147 1.9994519711051699229 0.49209942576622744959 -0.4031997459806269668 0.29631119168207342707 1.0083560238109809948 0.9004163212697953167 0.065013285462375031143 -1.5507602645927758278 1.2727947537880204276 0.18112305900048597529 1.6679188321806057704 0.51834901823738788185 1.2450468620569343781;0.36293487139893049198 0.69644540797802956256 0.027004530644195955807 -0.59668994407246067624 0.013166756539812666735 1.9922771311496214608 -1.3423869675105355448 -2.9956169006912261032 -0.47028360267348895407 2.1918790560320648986 0.37419211953414427407 -0.2323420684584443785 -0.30153294226816707013 0.18580497130366641079;3.0199666515605665396 0.014069049619443409899 0.083918209319039205329 -0.75834350915468662357 -0.41692744504641732206 -0.10309052160488324512 -0.46042156394443101153 -0.11319556832241016442 -0.34089067531154554347 -0.31569137453039158858 0.34759343066585324244 2.7491539165717262527 2.8259564188559540554 0.063221811698156382686;5.839649251685532505 -3.5935114755931478747 -4.0617292996988378917 -1.5027752903449613786 -6.2823474415662952097 -4.1130822597803771146 -3.4527445797315237108 -0.51563707761285360043 -4.062747956484058065 -0.95470929853977060109 -2.0518705847135811915 -1.9366114532470120047 5.4193211413304789303 5.3321501152014976199;5.0463548746350816998 -11.361117913045994499 -2.5559898122793853759 0.45956638497018187373 -0.063195570787810614877 0.74957221970389309451 0.21196870346291346587 -0.2529509874087205179 -0.85892574295165347031 3.3895191801122130926 0.6944955468067083304 -2.3302233876399323087 5.7911092730804858419 0.01085526958498192994;-3.86334039368584925 3.7531225229409015398 -7.0237788599540937895 4.5669563814174383154 1.2076403536292370511 8.821119819595466538 -1.6139715042352973384 -2.5692814529447280947 3.4833480748135885463 -7.4791449581604769747 2.9499099027450070842 -3.5008044535243922901 -3.0828895544308649868 1.3643559875731243736;0.71651633432752959152 3.2866001518922693947 0.36550000091706852379 -1.6741099348721326656 -1.1665660331596769961 0.81370381124543911255 6.0924078472243063942 -0.85513351409052507091 0.25776159247682794984 0.23758904618497073136 0.2395716091070488607 3.8165401685355426764 0.84336205629138483175 -0.1771272992958362047;0.15013789091849219504 0.27316395742856675044 0.31083867872697479307 0.61138110555254010503 0.4405971860296500342 -2.2860273238032471355 -0.23422446704082683366 -1.469574441804180287 0.56291730367399361867 0.25202632640499167405 0.33800039172305651469 -0.72497675037050646196 0.43646989264159674615 0.083410238867890326708;-0.55475962559842628696 9.8423402703814026893 -2.5290935091377764188 -5.990037564581264462 -4.8729078482369079239 -3.298236775391793163 4.0517304248328382954 -1.4156863212655632633 -0.90531080284162668281 -0.93582704491440638073 -0.29752853054737016247 3.4695410029178810341 -1.6853538292513114971 0.24288385255987615663;-2.2520838930775992637 -2.3336292815357229102 -0.55940022477350126451 -0.31536178220561117413 -0.15923917855881261629 4.0140817367587358078 -0.27363931052635781516 -1.9023409004999776162 -5.5443905838900766625 -9.3725757603730084355 8.6356966924020603926 0.1886788218384923832 -1.5358317754891239737 0.19922252163353071364;-3.432907547630802636 -6.6819323074121239614 -6.175728961060065636 4.3657474603885759734 -6.6829870592748008562 9.5792877807731464657 -9.3524879561402514128 6.0744992647369180361 -3.7434222403414278979 -3.6018790730686345292 -2.2174182154620329932 -3.9504642664567630739 -2.4663207015953934054 5.9646553871430505467;2.5743633481642715921 3.1996957838503714555 -2.7854984732147305415 0.22545501353185493087 1.1258002260871717848 0.054372845783914006135 -0.57678006405478199348 0.61733295456430836712 0.39449277365542129159 0.20602780586985913747 -0.80521088973236742969 -1.4063669709923358742 2.8431727075037280805 0.27803774869493469435;-2.9690162705112621566 10.295745881832168322 -12.434582577437744533 -4.2542581553324838595 2.0185129780570627567 0.84057536668008869807 0.57442335435050428938 -1.6268780106102300742 0.71869059057868478479 1.0962112778262729229 0.44517926035688665243 -7.8106964584791684914 -2.3220136846928247643 0.14518322523104532085;-0.82061949596929550932 -3.1245882907938975492 -0.3108231550128402465 1.4370654368812407764 1.2094446104756086946 -0.78070227361706490132 -5.9579353034675133216 0.88963335787643715857 -0.25491508702621334947 -0.23653686143098062722 -0.27673350718973405149 -3.5568922318413642714 -0.67968702860153318301 0.17941426863586884544;-2.4275588486842907265 1.9919401130744203154 0.10757716139017667323 0.1052916623202179297 0.016127544681200839394 0.170070758426956542 -0.27679464966575961782 -1.267708483812127751 -1.235244286639070932 -0.93841937962256660732 0.92896305301285220235 0.14780927662694184899 -2.6862234083611848945 0.35715024416929025408];

% Layer 2
b2 = [1.0128343013288472196;0.99515482589280279679];
LW2_1 = [-0.19561029918791006388 -0.33372226686914568949 0.29535871093111815133 -0.27137131062492242384 -1.4251506416914359043 -19.057248849169667437 8.7817319221063385726 0.30556695949845719129 -1.1404833165567589415 1.5186207857089624174 0.79926818728034909611 3.8136278328527217774 0.022121500482377622759 1.693262329015979617 -0.20170182673841749454 -0.42441348663056227553 -0.35891208642787325589 -0.35376899286944774037 0.63672578788106592995 0.79761763184323219988 0.64525081562610531183 7.849345102666545948 -0.21072642480392078657 -2.7881149490393433155 0.45179340614201740634 0.31036402644708260823 -7.2510885271352991666 -1.8562647623830750288 -0.076183492341642303214 -0.69666682465388607426 0.15050879759797544666 5.262965970429154261 9.8036838643524486514 0.21994716408302061872 0.24650394421117449717 -0.081354829341316464708 0.29086445128069687849 -0.37077955398119127883 5.4454243476738763974 -1.6926612762346950891;0.94499624116600899892 -0.059787513952693722985 -0.39615400364788966314 -0.015841575923244279739 -0.070813323733569494278 -0.41849599982999380332 0.2808959495947339069 -0.0098882829623681296055 -0.09094219821984318719 0.094297718883991285543 0.058874336026005363864 0.21487403354047665549 -1.0775525745821146195 0.16374248001057256641 -0.025415030492168338982 -0.014976750585390321766 -0.016971862362613363701 -0.028130149368907914759 0.0063529289697735608078 0.085458879411084973099 0.042882342732536916918 1.1055455521970900534 -0.0055471566595610283246 0.018575304203486471544 -0.026078695739616599564 0.040671909386043279822 -0.99395034831012696319 -0.14479185870317934359 0.08854132296967061333 -0.038673092293838660927 0.024205384519026418993 0.18499367856512674568 0.18391514225826746665 0.012900197664161306213 0.0067937467245961571938 0.0029060715274602526466 0.010015678323177974046 -0.0066168664381101608904 0.17436788195984379013 -0.11060301326594962346];

% Output 1
y1_step1.ymin = -1;
y1_step1.gain = [1;2];
y1_step1.xoffset = [-1;0];

% ===== SIMULATION ========

% Dimensions
Q = size(x1,2); % samples

% Input 1
xp1 = mapminmax_apply(x1,x1_step1);

% Layer 1
a1 = tansig_apply(repmat(b1,1,Q) + IW1_1*xp1);

% Layer 2
a2 = repmat(b2,1,Q) + LW2_1*a1;

% Output 1
y1 = mapminmax_reverse(a2,y1_step1);
end

% ===== MODULE FUNCTIONS ========

% Map Minimum and Maximum Input Processing Function
function y = mapminmax_apply(x,settings)
  y = bsxfun(@minus,x,settings.xoffset);
  y = bsxfun(@times,y,settings.gain);
  y = bsxfun(@plus,y,settings.ymin);
end

% Sigmoid Symmetric Transfer Function
function a = tansig_apply(n,~)
  a = 2 ./ (1 + exp(-2*n)) - 1;
end

% Map Minimum and Maximum Output Reverse-Processing Function
function x = mapminmax_reverse(y,settings)
  x = bsxfun(@minus,y,settings.ymin);
  x = bsxfun(@rdivide,x,settings.gain);
  x = bsxfun(@plus,x,settings.xoffset);
end
