function [y1] = gdNetBDMix40v2(x1)
%MYNEURALNETWORKFUNCTION neural network simulation function.
%
% Auto-generated by MATLAB, 28-Jul-2021 22:07:24.
%
% [y1] = myNeuralNetworkFunction(x1) takes these arguments:
%   x = Qx14 matrix, input #1
% and returns:
%   y = Qx2 matrix, output #1
% where Q is the number of samples.

%#ok<*RPMT0>

% ===== NEURAL NETWORK CONSTANTS =====

% Input 1
x1_step1.xoffset = [0.03278;0.037097;0.043548;0.054841;0.075468;0.115881;0.135191;0.115127;0.100462;0.078792;0.05694;0.046205;0.03278;0.004303];
x1_step1.gain = [2.0677818903662;2.07705241337913;2.09106154830561;2.1160460832516;2.16325665309584;2.26213892021323;2.31264938269606;2.26021135236356;2.22336354884396;2.17106234422628;2.12075583738044;2.09688664755005;2.0677818903662;2.00906490083256];
x1_step1.ymin = -1;

% Layer 1
b1 = [-4.0472872419037235758;-2.3942084995084926824;6.691036787117978335;3.2341082807668848353;2.7934261672822655598;-2.5533617932144694329;-1.4116331708747500429;-8.814879837067961077;-1.6612866714135750001;-1.3791299064253736972;4.022174193260426911;-1.0455530972147653035;-0.10926954504879722585;-6.094199771020580414;8.9948254140747039287;2.4587518902402765164;1.4285810117530322039;-8.6926096188310069124;0.39127598807635460831;1.5580544994070695264;-0.25625702278437550996;-2.241416497135135355;1.414328710311119508;-2.0028857775411261777;1.4011613035051844189;0.11828148791603937395;2.1479539422620419487;0.75925355698465579746;-2.6907630851420529794;-1.9743391311832936275;1.9419857375442830527;4.2900313895443966672;1.4900478031922119726;-1.3171267750450721401;-0.6315193205625788675;7.0887989306400571721;-2.0921241532601961843;1.1158146892555351748;1.9220115853872323797;-6.2726265843314745752];
IW1_1 = [-0.66245527532481074395 -1.6501546091732437471 0.75836052446787660664 -0.40625673988637966971 0.15886333585620779352 0.46063944886127555778 -0.64505324050086720877 0.46643070440789613507 -1.5134720662992569018 -1.270477249313234136 1.3913888275986086018 1.3977503902446646311 -0.7628161292426712814 1.8704533115682595579;-0.2513705834826428509 0.9525382549034353552 -1.4893539660690338078 2.0373984108947076344 1.0349059034241554489 -3.0701591299607531305 0.2506463083852026319 1.726974077388471418 -0.46746585015124358931 0.99846915364184907205 -2.8494647240130066557 0.72028772433315924051 0.0088185593864864922353 -2.3294036018769581631;0.97330539206562827204 -2.1189484794746560326 2.4217679675556369467 0.22221391577112192817 -0.17925045329408742512 0.0060370155234662353783 4.931235357199403424 -1.0778801121395462648 -0.26739064546250673748 -0.1881396694213651466 2.8014149793991731663 0.77213705842125179846 0.45748929137277666301 2.1673296526827257047;-0.53020631723070965613 1.5261470575338973443 -0.71098720774284329682 0.75627217471986640795 0.0765184949292184724 -0.74032924034557479054 -0.39480595531966178324 0.073394936899121493434 -0.29233770163911776407 0.17508453678762306294 2.3453546802418259176 -1.3545328340324955807 0.26279517079809661118 1.2465688584032992292;0.61033957402742189391 -0.89224223973565397472 -1.3255832242553693412 0.85400142943486667679 2.1260783843129535953 -1.5165725898955269013 -0.325090726080624004 -0.22939126417508848288 -0.43497147076238140695 0.1596569281927295858 0.91400807532877692552 0.68123421089572788745 0.47634835221371613079 -0.04310283465801060393;0.27188283441501881477 0.15310297798344901787 -0.11494794320510197394 -0.041630893417169731463 -2.1783425007725178979 1.4491099303169838741 -0.27107869680006385638 -0.31176461269351130046 0.19464319538970586976 1.669419354610144568 -2.8008550738556747817 -0.93246186511687656484 -0.67547806447239999716 -0.53722191503561878001;-0.61606229648721166914 -1.5647188857394909167 -0.53803675828446761997 -0.30681430011763710652 -5.2999738386439947391 2.7975687801985649195 -1.1669303177715646402 -0.28405960047127626344 -2.5435533304429673862 -1.3426384851582262581 -1.1508077734197514896 -2.3842161445613219151 0.33214281601494177742 2.2861136049730204078;3.3610354620715918728 4.1615112411079113741 1.6555529602993079852 2.7995632056851285085 -6.7171667731725692718 -9.3132908389726143383 -1.4476229452648419205 -0.68335999879406383872 0.32316927637116471539 4.4879129074148433887 0.5431678572144954531 -3.3705507209316789563 3.2521632525507824241 2.0361315611971124717;0.7948031223742834106 -1.9892227870329517447 -1.8275677097231661783 1.1299051051989079664 0.05275762036031510227 -1.2685270087653106597 -1.8487653687156493376 2.1133759718740781075 0.013081710508050275327 -0.64639541979065973099 -0.29829953442832851662 0.47782771652777056293 0.44135179426266235581 0.68579619715526962676;0.01010823204634788211 0.031656658841848303587 0.62068028543062825353 -0.1182216029380701583 -0.27678624073868196565 0.98133619959697770962 -0.40759312017462795419 0.39475119180816198305 -0.45256389186987150408 0.045647351834180067975 0.88697991230486983305 -2.607464701967592724 0.062905057674909670151 -0.3569592708054073471;-2.7203219060717027666 -0.50292391191636565129 2.2244843638986462331 1.250827432324418842 0.20392946820132162866 1.1544669346757125972 0.87871638999802859082 0.60800601476315174754 -4.2067352682444703049 -1.1613341518105317896 -2.943272842469698336 0.02940252781642330171 -2.6760984362811655046 -0.86977215451340339492;0.46303058870448998707 0.29098257307918395931 0.61452610644798577599 -1.1985063442851260351 -1.7445493283431430243 -1.5232914470515903638 2.1304521546233918805 -0.67339825493323290928 -0.39632485394369149079 -0.26515695546370632307 -5.033105851443184342 2.3737996449100848828 0.26015790303079922019 5.8421754446943001682;1.2417824713269398629 -0.42142206636298895628 0.16804946713034998873 -0.99398121969147334998 -0.20850662830504984591 -0.39168785468278721762 0.24349864634729892487 -0.33217812598336143859 0.45913503878939282421 -0.071710615625963786135 0.61829616932629039017 -0.41898113468721576158 1.1260943069233628755 0.78312165234652719725;-1.7147470327971854331 0.56842779154074374315 1.6148040036334585512 -0.67935115757982911244 0.53334894433014157222 0.90436362818248627882 -1.1548469367500295846 -1.0625209068590109052 0.76620272766303409995 -1.2291286705392954204 0.24639920390945807549 -3.167839244811851529 -2.3636527765191446271 0.83244893550547871541;0.59151576465988542353 -2.6147695131790684719 -1.2142548791141083431 1.6112101277885209072 -0.21208808486411551142 -3.45191517681573945 -4.0693965760881560811 3.1589787101529251956 3.4454940042331556604 -3.0555721908415596211 -0.051192253373443588615 7.2687046217484487798 1.2394887096342763755 -3.6480550836859899633;0.048514656798267163929 -1.4579159479019152545 -2.593221248046172267 1.2882385221780727758 0.21693359605060860695 0.73146512803052055052 -1.6895391901674292612 0.8560754653434271555 -0.071558560523743749981 1.7378715913379176872 1.5186521763008546948 -0.69242000567527117738 -0.035958942450415386227 -1.4984856376170634373;-0.26071681424741649513 0.99143338487987764385 -0.098433087480928993518 -0.11920901042046447293 0.36598309551981444976 -0.45978792829844583601 0.28184126324529196195 -0.2167064669077853889 -0.30755636431040977996 0.05428604626814671763 -0.20775417126821543734 1.8693305194690155169 0.069687143768187048698 0.49644215846691541749;-1.7441182237453642934 2.9071784565414513501 3.817976641262499804 0.85873714217843499785 1.8539248700264665537 -4.6229852783799412208 -2.4576315433438558067 -1.7222790874692732732 3.0272663617506618827 4.2033627173147403155 0.029700058514541431698 -3.3314558748782694408 -2.446027512538946791 0.17849480182097882119;0.051520953583369916151 -0.24169741299688163316 -1.5637704536671062083 0.48851290435941313595 -0.29574966307230621254 -0.076804111951245007672 -0.6737405612041690306 -0.10668975006922160054 0.60221113401154868772 -0.53459128554125567856 0.10434873467274118075 0.18316870113450978153 -0.99110206042598458787 -0.81524111545062982742;-0.53679111182485395037 -0.14642049235409121399 -1.7547535923427373117 0.93191268738325017118 1.7400188084236523078 -0.53423431355006267829 0.58714915505990783462 -0.49826436804196938546 1.3289255491645519669 -0.43669110569082214557 -0.86011514129932076234 -0.51705783351983958251 0.52921568419730313781 -1.3580930886740152364;-0.78704869932286058987 0.066725358841344450944 0.83109839630541704203 0.91427023828595854749 -0.48697059543269255455 -1.0126690039518619901 -0.064248843808426492341 -0.46897442628195185055 2.0018464051526310143 0.66824902986527567883 -1.9238597892908413378 -2.7008432165555738003 -0.036087155196211827268 -2.447318748416627443;-2.7128280228876682223 3.5743119236508777981 0.47754228580802210447 -0.19815048725971023957 1.1740040008441041675 0.83186117708374962554 -0.94740203548817580881 -1.4583886241883901036 0.017249166238180405758 0.44263065601450984898 -1.7897977670801750172 1.8892332237882056845 -2.6411136934751091587 0.31109426052518523997;0.24012031946074732791 3.8490109475672364958 0.027745325813355783268 -0.096581019423837594085 -0.804771339845978817 1.079278710499244287 -2.166230322671989672 -0.35982108042008720261 -0.79584524402190670589 1.524919852287694777 -1.1668455262875336853 -1.7741284717047023367 -0.6861392819809829513 -0.93632584196376389407;-2.697454206995757886 6.0066331936904697741 -0.56323103195899837381 -0.93043095004490028455 1.0207546196315153697 -1.5876177658739341059 -0.18977192390902597463 -0.22513812275831762699 -0.59928905415159861025 2.42767902143137837 -5.5679599372391193057 1.6420285653092328015 -2.7505506897417517642 0.37429390737145556978;-0.12295482387446843298 1.9377892684861894868 -0.55370898505684018609 0.82706730387845250885 0.041806624686932011836 -0.44194450836518472947 0.023248251466616715044 -0.083201824124622361656 0.86521146156341555145 -0.53004013416894235622 -0.0050212497220639071283 0.51589793342880418958 -0.76572256124649618059 -0.68825289881773976663;-0.17418500538735043337 0.11962887066689643911 0.24312625705479823379 -0.73710559389408292219 -0.027751029290824277829 0.25422018863221823581 -0.083283992832252823346 -0.050012200608313503447 -0.37370059159359458878 0.74257008587089357032 -1.0691257993159946071 -0.39034680242865765765 0.33712913528982180189 -1.0546012438458720606;2.1165161759623005722 -1.3335192123732422242 4.6041045052563838169 0.73375260466893332811 -1.4891209410133592339 3.5533950353446992487 -4.8077538384939941807 -1.3285212299716955275 -0.18468510221045381092 -0.30749598331662264528 -2.2876182326932150701 0.3098190681643343547 1.1157467476908868864 1.3059972632821676974;-4.4875592851170411635 3.6668373317068443384 3.5078458399743208673 0.68349173441967658871 2.03055005685327572 -2.7470200304025538252 -4.6998019508119206478 -2.5003867962131312019 1.1038446577456035858 2.5387923471284898902 -3.0659615465146221602 2.8083533731826251234 -3.6333702852115279391 -2.6692026138783377931;-0.99579106246415549641 -3.105052605812737454 -0.68416926414371792564 -0.47795505583050212906 1.6766653200239245436 -1.4313361343323465213 4.1691313968848380256 -2.4847062895209717226 2.6058919214264344433 -2.4079917309550813442 -0.38824700151731317277 -1.2082078294142577501 -1.0134050756543311334 -0.011337803193688928208;-1.2360096342933288849 -0.62009931494567294141 2.0658420210342329781 0.085512457396210106442 0.50610223435429424477 0.26252805735861201031 -3.0999008846976381371 0.30817387710054666705 -1.0620242832981636738 -0.30196840063992480552 -1.1442981638457334626 -1.553297290132870323 -0.12954942588663487246 -0.055168082228907226738;1.1373118001783444342 -1.4446764315588804806 1.7425322300738468329 -0.6766017655078986337 -0.82329416794108722932 -0.44669223405835151164 1.703991181953056433 -0.18902799990404176023 -1.7071703879038209184 0.44426539492151356781 -1.3190594366135686144 0.18070788160150910717 0.076640804876277057733 1.1507697147900188828;3.2436151876953527307 -1.6772266568849913959 -0.69666853497143144125 0.38204407085101649288 -0.58291182342603631295 -0.6860344209155290196 0.56054588794042103927 1.2775603770288812555 0.42037855710357607819 -0.36370836508010367938 1.0024641637314672948 0.071976578149712824861 2.2852986740737240012 -0.30472763070538794183;1.8547584064369737611 1.4843015855008705461 -0.63897977053044052731 -1.0469563833639030648 -0.031636578987142088826 0.40672296872620022912 -0.71644473435844913123 -0.403108016202981978 -0.037715701698753066606 -0.94850960023271535526 1.0553785437449443307 -2.1405603837559468161 0.63533862882710612219 1.2745534503585549402;1.8704425998218603411 -1.5105654793852587581 -0.61494767622446688815 -1.8961731731406084034 1.6590692166001606012 -5.479208106495980779 4.0644438009193972761 -1.2003777913902744512 -0.081492857088807518773 -0.67470985887410117599 -6.9293049581405306014 3.310710308795884238 2.2069510531912661655 8.0145602786886307456;-0.86574739009868595385 -0.005501786837859758833 -0.26889649792342756873 0.40967843422701155642 0.37037427463650585135 -0.056359214671733437463 -0.23135559868749897006 0.17630000503865622674 -0.73743751396673462573 0.10596908541563120065 -0.01945176263947991091 0.049870142129481910553 -0.91550018838916535913 0.07294215518653736352;1.0500110805245304046 -2.5571199857831037328 2.7328544039753728256 0.60724164308817851765 -0.0081088353714574290532 -0.35343479510717024095 5.4241645043243691404 -0.77105859271261922849 -0.64270825688056509861 -0.068161416671681740453 2.9941083028206754157 0.77916122728116632423 0.31978576853970863692 2.5682035977512276403;0.37863442358694254786 0.3015662665135924736 0.61011259260828831774 -2.4108593015407175919 -0.21837109356212261457 -0.99203868580031073776 0.30439693656393229659 0.66792193508046127093 0.43550925241698873469 -0.05923854045147348979 -0.48475042441551624561 0.060292256151974296663 0.25687032522708519444 2.1193115091324910004;-0.12335787863853162061 0.073851336209325602056 -1.6379722885276022382 1.3545801442110596557 1.5727319942297202093 1.5211134140320263786 -0.48952102114703710534 -2.281803712959530106 -0.045109482981340008612 0.1629593715528832587 2.143538530600544334 -1.4938419334052186471 -0.08047908849927470909 -1.5371449546228417304;0.94336251526558922986 0.67864552899327434954 -0.12517624867100918262 -0.66668410842320990906 -0.079387496557443634759 0.69370829885097307077 -0.52747174544514863204 -0.31829605332670146689 0.25835433386868894567 -0.47547636647733010351 1.4195479989683610356 -0.79871825883522351575 0.29873682802785361812 1.0996458767210912644;-2.2718432485373050156 0.45717148289138498374 1.8160853429747429999 -0.62843294157729034932 0.6807522467198717786 1.0725214165132592736 -1.2986932543861795519 -1.1605597712171020763 0.96001939686109238892 -1.3213795613386698502 0.3522266621264679709 -3.2433415475278821738 -1.7945202871756191776 1.0109917320185048961];

% Layer 2
b2 = [-0.71622084721668943796;-2.1913751965113998921];
LW2_1 = [1.5025540326861983598 1.5234659493724196366 4.1762905295829675367 -1.966040358006442057 -1.6375620270365482956 -1.1810649096843897077 -0.17654136868973085983 0.40319878284810045654 -0.75814283623804734624 -2.2739881701897330935 -1.0485387584439138653 0.43200794981420154173 3.8646477578895592764 -6.872102038337469132 0.3922419219316311545 0.58734943811725914831 -4.1186730151907342545 -0.73066388780698354743 -2.1690173448387057853 1.6529972222341231536 -0.83892201657251630476 -1.8540987531253518839 0.62377837588109819045 0.65185865742950954704 2.6609656254949745069 1.3279928599558348257 0.35656713445348969804 -0.24459333308915068295 -0.57472738843448523127 -0.62204949739440795753 1.845503289786355916 -2.1291740393195848213 -1.4937644084881092077 -0.221662503540576733 5.5329121214899421588 -3.8510489502653162397 -0.76100443533933426199 -0.85528831754346490435 4.9592883262656561882 6.1301980954120542933;-0.23472354798705835632 0.52660622183670935392 1.1590914662100852972 -2.760709319196142264 0.48331830670790276727 0.32363762998543399441 4.6921929684236838298 0.042280306271763060111 0.066601645914340659727 0.43099713203709461018 0.031963352389076209181 -0.5882224324186184905 -0.78856310933961115683 -0.041514860335389369705 -0.072252622826815701695 -0.29321477993219180469 0.40652992948166943865 0.22147268137805281585 0.29425534850429485578 -0.065683981664028112668 0.10855550162682668647 0.088741413374214705989 -0.049855049555770677983 0.015946522682286197459 -0.55730505494292359447 -0.99613432881199182045 0.057399039298765330841 0.034948461298916808082 0.069575746406109140185 0.10163908971877350096 1.0315013932368679583 0.052843999263741572858 -0.072147755943155339464 0.49657547762107367983 -0.7306283446058413622 -1.0238657271532787263 0.54078302029248948024 0.22756224797191856868 0.48769288281542028107 -0.026294387928533252685];

% Output 1
y1_step1.ymin = -1;
y1_step1.gain = [1;2];
y1_step1.xoffset = [-1;0];

% ===== SIMULATION ========

% Dimensions
Q = size(x1,1); % samples

% Input 1
x1 = x1';
xp1 = mapminmax_apply(x1,x1_step1);

% Layer 1
a1 = tansig_apply(repmat(b1,1,Q) + IW1_1*xp1);

% Layer 2
a2 = repmat(b2,1,Q) + LW2_1*a1;

% Output 1
y1 = mapminmax_reverse(a2,y1_step1);
y1 = y1';
end

% ===== MODULE FUNCTIONS ========

% Map Minimum and Maximum Input Processing Function
function y = mapminmax_apply(x,settings)
y = bsxfun(@minus,x,settings.xoffset);
y = bsxfun(@times,y,settings.gain);
y = bsxfun(@plus,y,settings.ymin);
end

% Sigmoid Symmetric Transfer Function
function a = tansig_apply(n,~)
a = 2 ./ (1 + exp(-2*n)) - 1;
end

% Map Minimum and Maximum Output Reverse-Processing Function
function x = mapminmax_reverse(y,settings)
x = bsxfun(@minus,y,settings.ymin);
x = bsxfun(@rdivide,x,settings.gain);
x = bsxfun(@plus,x,settings.xoffset);
end
