function [y1] = gdNetT3N40D(x1)
%MYNEURALNETWORKFUNCTION neural network simulation function.
%
% Auto-generated by MATLAB, 12-Aug-2021 22:13:45.
%
% [y1] = myNeuralNetworkFunction(x1) takes these arguments:
%   x = Qx14 matrix, input #1
% and returns:
%   y = Qx2 matrix, output #1
% where Q is the number of samples.

%#ok<*RPMT0>

% ===== NEURAL NETWORK CONSTANTS =====

% Input 1
x1_step1.xoffset = [0.014928;0.015425;0.017231;0.021103;0.027804;0.034437;0.04709;0.03412;0.027544;0.019775;0.016141;0.014448;0.014928;0.001797];
x1_step1.gain = [2.03030844445888;2.03133331640556;2.03506622614266;2.04311587429525;2.05719834272102;2.07133040516258;2.09883409765875;2.07065059841802;2.05664832136364;2.04034787931342;2.03281161223305;2.02931960972125;2.03030844445888;2.00451617494214];
x1_step1.ymin = -1;

% Layer 1
b1 = [-7.252629318558462046;-1.5534767431210614319;1.3434068614551244458;-0.68742475442152628506;-3.5683256929816797864;-2.7926800610696296268;0.068796631881794773067;0.18803752333582465783;-3.6361302535199073738;0.30891618355722061384;0.85360353306298442089;-2.3822076946949710674;-0.42478579727897680662;-5.8189560818279337795;-1.4113456459536175558;0.089916229976083825171;0.55134948757409674158;-0.43784242485382757204;0.9430850151294457584;-7.2377024900452848755;-4.8694416473707198278;-2.4158673984236633814;1.4117776576191800597;1.1637714025949832397;-5.174889042687691898;-1.8451110933378687129;-0.4933723744493411778;-1.9379553143287662209;-0.91925021134453288596;2.1057477176943897312;-1.4758895938784259982;-3.8737110206071321272;3.0684288168942233099;7.6282728344362729089;1.579180078365349571;0.28591087558869876517;-3.6306075565840933983;-2.8091207789449286203;-5.6551752118936855496;-6.2271437688679665001];
IW1_1 = [-0.26078522379571822398 0.75305517317111791975 -0.54884790977605113493 -1.2249832815920023155 0.45039595191136283514 -0.31120592459873652746 0.7322236442846564719 0.71751085113284318595 -0.32595793643133769146 -0.17478358906196128641 0.49911613180877872908 -7.0212703436967993653 -0.64322077498666585527 -0.10348762507602216054;0.37326524914702502445 1.0527624665293313644 -1.0115712751533509905 1.4723846953048074226 -0.0075004984879183007884 0.71316721006043404252 0.80200618972894976988 -1.3150967771195687384 -4.8237197150323014583 1.8764690008150743949 0.517793225310317351 0.44540848948033179289 0.45564803025787459223 -0.75781490845815935309;-1.3538226482198316702 0.61891400718953515359 1.2139883042428809556 2.1656507654240431116 0.32988812868420563928 -0.6540110482283812976 1.3394334278603376998 1.299597408958452327 -0.77301923110447945398 -1.2383597578722875809 0.21009659294483370995 0.54301094123058946117 -0.62720244990957529918 1.7761422453818789258;-2.1452667220442154239 -2.586660078361346482 1.2829954121444888671 -0.82169378549298521808 4.2628422456732346646 0.14802933305273491271 0.40418610769961604845 -4.1546868001124064307 -0.80485807603810000099 2.1144834490545743044 2.9420885193466981278 -1.4311846527827782882 -2.5373472859905832344 -0.65246712028595010846;1.3492831171246768562 -1.3247129120955776216 -5.258067907437046884 -0.50893099592647561558 0.049094513148030677341 1.761721789884653333 -0.22108670393624324513 0.78247466047380076493 2.5443294953182933327 -1.745087363020128457 -3.3123939750151203398 2.5713057035319599741 1.3466395370110140206 -0.084897886954385673453;-0.15739386148775000307 0.13249076494864775455 -1.1056224593150871804 0.32324163581070786133 -1.3832070592993641611 0.025044094818173361777 -0.40089901486276235953 -0.59748813102411846288 0.082476659885931336014 0.083195480072370570079 -3.3174363500741415045 0.80163068335432519085 0.22830087689216199687 0.1606529107052755978;1.925723501047006625 1.037382342311052863 -2.6077608620421055541 -1.1733944171028445336 -0.16771044765575854329 -0.30914376228607082231 0.46538587187238272813 0.89118485517708112553 -0.3876010871675489855 -0.18385180027782407897 2.5344324903010342354 -0.33030283400332854926 0.48461529700209637905 0.59816248824022144603;-1.1749487781306158229 -0.48017474101239326911 1.6325456691445456858 1.1045284214566961634 0.035556639764981405605 0.47813549176422914799 -0.58314825397182867839 -0.58690352361276754145 0.30386357040043526778 0.24376392545719804961 -1.8312223931790749809 0.40217092759921729828 -0.66631958216392017658 -0.42559036301885716513;-0.035336703570169776534 -0.60063683929361166847 0.018906751004386455894 -1.2742338325661428655 0.95850299675883154915 3.0562155188804687178 -0.77594644598537354518 -3.1382770261496113484 -2.5393018204829429507 0.82274715590487890182 -0.53066100662768955765 0.20849350823330828342 -0.20727180912779305522 0.33027370677296341572;-0.99425175281676592132 0.78410199719981898969 0.027639077245914207143 0.48370048006294674714 -0.35640179811383332353 -0.19255404762840810928 1.5077720021105067705 0.66004595842549140805 -0.4312839695749426383 -0.40204742512159513668 0.060517768143057745767 0.33234890912874043289 -0.08542649052402181975 1.2899562301846614343;2.4882731936679989282 -0.089506153194754065061 -0.82352129441600041559 1.3741923515194587324 0.2519515352748372683 0.52598875230274477754 -0.51422876504729242431 0.57497647430438436622 -0.292045038844935545 0.23087694657885923788 -0.44334352312046815259 0.73461991502149137645 2.2605751593544294309 2.8271101748740616877;-1.4297940040484220514 0.67407786308200667857 1.9186093950481859505 0.77097627505815635729 0.056497172433697624705 1.8260024897323989812 -3.2218075969410158166 1.9045714859745048742 0.44291356439246415411 -0.016001185537308892926 -2.5131734609810769676 -0.71075379324100618206 -0.79995750873961646299 0.085108230730191941626;1.1335759027226930407 -1.2611353471140465121 1.1411611710257483221 2.039121622298902814 -2.1828624322936933666 -2.1054860818500862329 3.8196178410987706719 -2.4321231981145472467 5.1570329539962553866 -2.5524308207452168773 -4.56780511268261602 2.9915154538889732194 0.91255441783133772748 0.57052344411568023386;-0.041179685177868609325 -2.5056871302174275051 -1.5149319357575332656 3.3946873721156229919 0.75387470902379016824 -2.9322811388560334755 2.1903317045358217108 -0.23389106909400780854 0.38624530227728059995 -1.2491641347161508424 -0.20330844283911794768 -5.2727096229865164645 0.38786359217472732297 -1.150205285000845068;2.4272645313213487839 -1.5803635989683080254 -5.0040495704028300494 -2.6154027907980812451 0.6168591736394727354 -1.2640057387638932163 3.2854558141307665942 -1.4553941206694724908 0.71122146667897301331 -0.25507077518630116852 0.77651023798202234438 -1.9567820606219172852 1.4354739992613070321 -5.5567394587918359505;-0.43129289034657147806 -2.159425155120970885 0.2125633291389736057 1.2664808084550611689 1.1998104462337828569 -1.3234614183799444653 -0.028341333720114030709 -0.4594088362955789373 3.6352243491280087362 -0.96111880135728222641 -0.96815540176446401865 0.043830022203000938708 0.31230366949848792357 -0.17991602973700909773;0.7909643686087912684 1.7681865737696149665 -0.79443556473259735462 -2.8206637751713459217 1.0422529235897179944 -0.25240585773781171186 -1.8475441058311508069 -0.53365587424025207053 -3.4783968714507347286 -1.2847559963330974497 -0.53443433189773581482 -0.34806018348524675465 1.2313398158847410624 1.3093607108816900375;-0.24100035713917050684 2.0887229933832553996 0.54861863348052608558 -0.98492935488947408462 -2.0600912484027236182 -2.4579418627506983697 -1.3917066342021893188 0.21780918109664521021 -3.8942492553858447657 -1.3251863503288077162 -0.98375564003902704613 1.1824369472871338882 0.73470902541464255808 1.510679106902527602;2.8498108632970624576 -4.5255895252759623659 -1.4339727404121196397 0.3073848769946635473 0.21583484430579455426 -0.087589293149892111234 0.41033810921294244789 0.9743254621269238358 -0.2112721931348459925 -0.48431603026021924352 0.91763131885164272994 -0.080901781482516088584 2.6971977530344020124 0.020127311550506739313;-3.035598311769620139 -0.10609636122789015134 3.1917264607799094023 -2.1899512626967094775 3.3717375093850443513 0.34205881171738666824 0.1699270356294914075 -2.2443358135855473456 -1.1978555645926365347 0.17214236309871916442 -8.2942788956265989242 -0.60534729680525645179 -1.9349201758925886896 -0.62311283623392943465;-0.87201374927228125777 -0.65690531447436484314 -0.12134915252703148969 1.8595882961691352353 -3.4523305961777670525 0.20646432998283642535 -3.063512379849315348 -0.64269380671747422529 -1.4202267534582788677 -0.38178491241752399166 -0.40112674630652406238 0.72110469946129673868 -0.21359106222452242663 -3.6516662749848207703;-0.66132289491292195471 -0.17442894330898697786 -0.076516479057700786948 0.3693990389603171165 0.36452791848515303519 3.1588399789372365589 -0.94316539639277552354 -3.3866668689165844164 -0.60975139280517609564 1.5807525259903665305 -1.5654430253381379501 -0.40654921537031601941 -0.27983648519695458745 0.072354853204125907373;2.1409000533949602563 -3.9654187288178111004 -1.6488907534032049007 0.029432922415101113456 0.2755941737048244744 -0.61034553225881260641 1.18387848046285038 0.42948840799578835714 -0.20780262656557563217 -0.27068132857840976335 0.8062560344999055717 0.04439558657083642057 2.7893213107981460475 -0.33577544454606123026;-1.9857186668411874741 0.99306718056626608337 0.92175029857230417196 -4.255059129296729914 5.9137793479259439522 2.2957100454271714973 -0.80871729843357831324 -0.68927669566410254554 -5.7032567181118807298 0.38326315704184349409 2.2254101637141783243 0.78870331136583249343 -2.0504935761667208993 -0.0087217534076264660592;0.64782199780048832505 -5.3116847768626547222 -2.2869016307664886689 2.9493184421794795824 0.43001468763073247281 0.16039223834486140974 -2.3137737533475348783 1.2622881087994599625 -3.1055486679467407818 2.5521853289160518763 -1.3676705653933551865 -0.88343930839590378845 0.73768626938542236626 -0.51689128205123491266;-0.71286302353100317042 -1.16343042708028932 -0.35815563737836486613 -1.209162262016289624 -0.46958136021918195357 -0.73616612488940624814 2.2260597010461431466 -0.86367687140873494744 0.34173097549137526618 -0.83975274013124101558 0.31964910838700794082 0.44007077877765887752 -0.069750395084708788351 1.0240050237448723447;1.0873189218019443381 1.4109854338969571863 -0.65520247135772324842 -0.18406854716315090847 -1.7728549393664136957 -2.1900513843831754812 -1.3024421554373502019 0.31646614210543488888 -3.5076531975221305615 -1.0397462484667410187 -0.80757942218400557977 -0.025911580706015097109 0.51730841471748045812 1.0010074440940890383;-0.35870179300936999578 -2.2604932049814379091 0.7294017747801744278 0.019920575579277698119 0.47426747639987049121 1.327750006540259653 0.82954387837497711722 0.67751433027047724966 -0.73834976881442526686 0.42480795345968030974 0.99233435513352741264 0.33993834740496736702 0.13013872826942415872 0.43440658474482252149;0.51753928952139283126 2.2404805821606852412 -0.28814996696142225474 -1.2612300771337128236 -1.2594334851753739013 1.3373595041306358677 0.02337641877453757247 0.46686273448222320726 -3.7128758756630073634 0.94976865436863633363 1.0081515330859149859 -0.023741627923214849577 -0.36428434827863026557 1.0589338683213194159;-0.6441045911946354785 0.21946654299858603387 3.5379566793828320925 0.24923327804643802263 -0.023458278172843488596 -1.0607212765642548558 0.25591756830761558383 -0.49588340396274599442 -1.6371102635692142968 1.4011913345935875785 2.6502752734850907324 -2.0577959981185700578 -0.51095242176446042937 0.45067449468741177521;-0.10895166974605981214 1.1286344638262071349 -3.1361664358071505987 0.75849093713657911309 0.51030893287463197083 1.6073291981974906495 0.76358469713988275096 1.1341529199412359041 -1.940454046797851495 0.82522292568869159979 1.2547977839011947854 0.52667434655155231926 0.74473664793088989455 0.92401570941564104;-1.100415206527396661 0.3999057123971149208 -0.1288864344713427923 1.7245627856308576309 -1.8664015912119942264 -0.036849958792415565823 -2.8876376519844155766 -0.48250568368331292479 1.1482786040638643943 -0.3157097726022303763 -0.14883657519813303649 0.49592126333426650442 0.058508341501266609985 -1.372235366721274108;1.2902539571293538678 1.3433544586154742007 0.22154560441934256776 -2.18847145495547446 -1.3687983043212696987 1.339031807152350817 -2.1983448887485166345 -0.29472555095322772178 -3.6485301383443160539 -1.3924291102071952864 -0.90653248802912023141 3.7284935093528370764 0.57574364698533020412 1.8063072573584446623;1.2388769648239066345 0.82811720682631595469 -0.50376773616495029717 0.41812150720227808653 0.29861587661766791912 0.79228685335180948357 0.15499268463923207562 -0.19756234686540025125 0.41110985264383448357 1.1643791504287552829 4.1211251568718294536 0.12861499233167386635 0.73354929018245718098 0.11133732737808166302;2.3619856413169575404 -0.025647722275589680818 0.43594881536649349174 -5.734446739023774775 0.26955525648501793556 -0.22026583099829216694 5.9305710603487380439 0.33452626546696717647 2.059483243885773085 -3.4168865370167549322 -6.4328913180618414458 2.562870327498773193 2.4476832262112240279 -1.4762863917722299778;-0.29707241795398586781 0.39085388822712346935 -0.2821934434306982431 2.601804774995910563 1.1774096839176380058 1.347947187922634571 2.3989944464919132905 -7.0301723809761149653 -0.11925708991058502073 0.45382570326459215071 1.6229136347814587804 1.0080342167677054377 1.5673471814273667313 -2.9185069634992397702;0.59669142418459919508 -1.1070667542008927331 -0.16902765909997213845 0.53947377878614355406 -0.56229093028209431449 -1.5211025482571969292 -0.14112174745982539181 0.088062157133455554181 0.83456287850441268628 -2.9297589655057456604 0.521475533284327053 -1.2514633299789525989 0.10109081630840346944 -0.35373972111729962142;-0.91141654891398893312 -1.5095606374225825075 0.94394412928859616763 -1.4759015731811011563 1.3565291107798995718 0.059973455645951995185 0.96709930280811851055 -5.0663734737829519972 0.64375085520574293341 1.0455527900111865058 -0.48406106435617202166 0.54724304850469829287 -0.61389324020972357854 -1.547246394595022112;-1.2709818266352463922 -0.67493983771649690429 -0.5220007648911085818 1.5869353832569397245 -2.3169682597936587243 1.6903610191316309486 1.8757489410935159757 -0.48980174471135051739 -5.0868653171155608916 1.4088092943398207169 -1.7240089989441556018 1.3588535040166245249 -1.5727512835370198729 1.3830894756864611228;-1.6995086160347896431 -1.120466980189930295 0.33172199985998607197 0.45571905324195621789 -2.9024176478900871601 3.0458080014726078844 2.6496703013339142352 0.06323303863954969628 -6.5290517579186744257 2.2707240542805937622 -0.65679375413903562375 0.12729850127300904039 -2.1083759250878064684 0.41569157506068427077];

% Layer 2
b2 = [-0.56542651724606085573;-0.058514051234305079763];
LW2_1 = [-0.76440595555796519989 1.3251525238875050405 0.87179039076757791626 -0.35540377935926698028 -1.0956473790613525665 -0.78256937394146397491 -3.9767555813178074864 -5.0626698792933577664 -0.83151144278913080576 -1.7385751902350938813 0.5007192240634340541 0.87851654673293633202 -0.24301398419382608251 0.40657671100974696055 -0.27003183497688271197 -1.178726974868833155 -1.5604956434385603981 -1.9888972046478978761 -3.5386642429415213762 -0.30657204329648080066 -0.0648214461407221193 1.0237344958698240127 3.1846143331702649881 -0.36950691201646990169 -0.48706055442413331846 0.96723272054046549595 2.5685902466865053739 2.5255023654998414173 -0.7317678029302067122 -1.9349350371287372674 -1.5880685829544540777 -1.0460822260730953115 1.1527862906444528157 -0.8968948421878680799 -0.36051469969938004789 -0.68481701889803114902 -0.8800283843236537118 -0.60170713318433510786 0.54637987734517057259 -0.51353575700637077439;0.031954636991409088309 0.29445039884724999446 8.9497829764089266782e-06 -0.01337629624369054103 0.11168769846427009651 -0.025080654417969180936 0.039619616824793590926 0.096863070933284375896 -0.037404218298863367576 -0.10965597751994247966 -0.052690552768950335571 0.0097815884190693355715 -0.00092482894838653818218 -0.027414965896474189494 0.012586727327182460623 2.3252865495656647177 -0.066540937012748421764 0.076756737446369946443 0.032638649864967839154 0.0031632489057690851841 0.88617011567345216339 0.054634402420679697987 0.012836988273859513757 0.0030740636241156607707 -0.0043057928349729728337 0.011466239707655119864 -0.062796971291602804444 0.0015681459229789623117 2.2986282860392814875 0.14394062883189501223 0.015852851458101290677 -1.8769227233061878124 0.069770574299695131693 -0.0080275621256920455526 0.020815763703004155905 -0.36512713437517435588 0.0088652098154460966944 -0.004391042362585904392 0.016862749844798904236 -0.026957841717212917276];

% Output 1
y1_step1.ymin = -1;
y1_step1.gain = [1;2];
y1_step1.xoffset = [-1;0];

% ===== SIMULATION ========

% Dimensions
Q = size(x1,1); % samples

% Input 1
x1 = x1';
xp1 = mapminmax_apply(x1,x1_step1);

% Layer 1
a1 = tansig_apply(repmat(b1,1,Q) + IW1_1*xp1);

% Layer 2
a2 = repmat(b2,1,Q) + LW2_1*a1;

% Output 1
y1 = mapminmax_reverse(a2,y1_step1);
y1 = y1';
end

% ===== MODULE FUNCTIONS ========

% Map Minimum and Maximum Input Processing Function
function y = mapminmax_apply(x,settings)
y = bsxfun(@minus,x,settings.xoffset);
y = bsxfun(@times,y,settings.gain);
y = bsxfun(@plus,y,settings.ymin);
end

% Sigmoid Symmetric Transfer Function
function a = tansig_apply(n,~)
a = 2 ./ (1 + exp(-2*n)) - 1;
end

% Map Minimum and Maximum Output Reverse-Processing Function
function x = mapminmax_reverse(y,settings)
x = bsxfun(@minus,y,settings.ymin);
x = bsxfun(@rdivide,x,settings.gain);
x = bsxfun(@plus,x,settings.xoffset);
end
