function [y1] = gdNet3T30N(x1)
%GDNET3T30N neural network simulation function.
%
% Auto-generated by MATLAB, 30-Aug-2021 21:44:13.
% 
% [y1] = gdNet3T30N(x1) takes these arguments:
%   x = 14xQ matrix, input #1
% and returns:
%   y = 2xQ matrix, output #1
% where Q is the number of samples.

%#ok<*RPMT0>

% ===== NEURAL NETWORK CONSTANTS =====

% Input 1
x1_step1.xoffset = [0.014469;0.014929;0.016612;0.019995;0.027617;0.033082;0.040462;0.032248;0.027544;0.019775;0.016141;0.014448;0.014469;0.001797];
x1_step1.gain = [2.02936285109246;2.03031050553716;2.03378524041375;2.04080591425554;2.05680272073864;2.06842772603261;2.08433642023557;2.06664517355686;2.05664832136364;2.04034787931342;2.03281161223305;2.02931960972125;2.02936285109246;2.00451617494214];
x1_step1.ymin = -1;

% Layer 1
b1 = [-4.4501930810888108425;4.1037042972787522999;-1.6063329132987511638;1.0652419075474561794;-6.5260855042403784765;0.83184807762461110414;0.87334790135373152609;0.05356258459164577046;-7.888957121862783417;-1.7372831983024064062;0.37966867872265674944;-0.38587244277802379422;3.0595231812024299423;-1.6812480565657046405;-8.0024425180255178702;-1.5444712108525300298;-10.792174260106095929;2.3779190434369317231;0.59014855251431608263;-9.8778024131237458505;-3.1717806280928728668;-1.3091734172574529538;2.9878427517081656006;1.104860251467203458;-18.812371236771145533;-0.39965388161691717261;-1.4794386066130915669;-5.9263147655655252777;-3.8373800205305594879;6.8011701765849998935];
IW1_1 = [0.0022952692066272439159 2.0325026355312565407 -0.19226570738358961243 -0.71663247164971655145 0.19591201973045369034 0.0018352354171486638668 0.067435785736929626522 -2.5039032498204343291 -2.8268412607748687471 -0.4080756160570832014 0.52319509822165788382 -0.67750980540635130644 -0.23226321804105734548 -0.12636222310183287121;-0.30580125482177578089 -1.8938732148460646343 0.10328182894487024368 0.82445740690278657148 -0.18677513440309237436 0.05346022299344249662 -0.019102607851013517215 2.3885641999687265979 1.9064619356534990846 0.48997235994922033742 -0.2761861400956603374 0.84268519157917309848 0.47036699506872875487 0.10537015802196073033;0.52479888224528004059 0.74469266206417239484 -0.11927515514734349233 -0.16871872764933859568 0.038183188223217701118 -1.745477693914236017 1.3459261380733051894 -0.65756810766400419777 -0.58426564807702408011 -1.9206412275670172729 -0.59505274474848479649 0.87621788294358748939 -0.52132278373916318692 0.1026720310915079093;8.7510668829983977446 -14.138544733884113924 -4.2241255195264209021 1.4411423300739083508 -0.76683118419958340439 1.5919562001112605998 0.043462702993108059957 0.82790302667263238057 0.35260737736229080808 -0.87546444665579348232 1.9955525646867715572 -0.74229718326622484703 8.2837847978413652328 -0.25565459589873190671;-1.4624260426209492181 -0.32522674216992208951 -0.02961762767930697926 0.83101216565733759811 -0.22428379628935926626 0.7182894832761941295 0.20836964084681944276 -5.3891780357211045427 0.81036919140682073248 -0.092143636333948286676 0.2028175109037810564 0.69262306657090044748 -2.7220736869071586739 -0.07118101522222404498;-0.18639825764883280468 0.086831577348596505894 -0.50573002712059145214 0.95420309650049761618 -1.1037313244245028354 -1.0217531041551164428 -0.073637447730225291664 0.15642926676452009738 -0.43224463732755252776 0.0634932303224874095 -0.12949602392497733261 0.53909756604350089759 0.34239949054035401232 0.17239005989390468465;1.0228222268196829337 0.47408239661983309077 0.024269470772162772543 -0.25215684048388342653 0.31437908972174832822 -1.7611925393679497276 2.0741812296844996943 -0.45632091983001465962 0.51376387022695957363 0.45105478827810735476 1.9592501261334400731 0.33906247930240257515 0.60867987106349830118 0.15879951403848993619;-1.071917555239277231 0.68483478807403452837 2.5920747941450197338 -0.22101035502841637204 0.049643507231547395753 1.4852288336163315119 -1.0981154989792520915 -0.79686534023500643631 -0.13967602626089792306 -0.11096221769943204194 -0.0573840034545388053 -0.31619208107235452498 -0.3846969838653448992 0.27375112192328970862;-3.06306015203084403 5.6960448620259773733 -0.63595375537679832423 -1.9623443714317143627 -1.7693316401197440868 6.2279680852649637046 -3.5171197750720564201 -5.2331512085493514519 0.34868074303648072254 -6.8022027846848489574 -0.49245022477367123015 0.31701319503881603135 -3.312799963550922655 -0.10000039951826340812;0.66962996457076084944 0.48643630709388502309 0.26474156788087926939 -2.120091485974206158 -0.87545616334589926311 -0.10903275249883243037 -1.5786026640791035458 0.052529163459756021692 -0.056285768618066146785 -0.73576349692133524716 0.76496021865262830985 -0.51260032340422778674 -0.74431538681043585282 -0.28880567516282257268;-0.26350485984592558752 -0.16284556746992226439 -0.21016423820411550549 -0.77940189908152768261 1.0029046680727142782 2.0506107835372890946 -0.72433563931375855027 -0.92211773437180510893 -0.29510825571231136255 0.28783282576519636509 -0.57851065598615780683 -0.53979291771136184153 -0.38844490208296150735 -0.45454831882352381145;0.94225123939483024227 1.18126563624989811 3.1405192814446136751 -5.2939176644586849463 1.2618286509310430166 -1.194131247788747574 3.7272230956172389682 -1.4729668063416694324 2.0527155128420759844 0.95674435280477720944 1.205472993232893586 -0.57717006134990300747 0.538191054709503236 -0.18902503070419060527;-0.33761843428895099706 0.83960750189041022384 0.8125380946945548466 0.80393525020758027644 2.8200496501598468768 -0.30354659579424614346 2.3914154292848803784 0.055425515328227918654 0.080620853927076047141 0.55842355974005131181 -0.29806257392308965759 0.98161825917025424815 -0.0922941543744523335 1.2230167714215931518;-1.3981038292149794433 2.5695029603181489541 2.1371930507342407068 -0.41732017474480709307 -1.0043390115822861119 2.3549176567905973911 -2.2648883701240443145 -1.6690190188984568298 -0.3442588339086106175 -0.1733507063976175433 -0.16088640451995378511 -1.8123884714068478896 -1.2825355619901048776 0.13515103026414562737;-4.0545974698735109953 -0.78631013429233620471 7.1102059335872720425 -0.061362218690032423185 0.3787799426497129307 -1.815388653201752911 1.3662286604196052231 0.41174987827185960398 -2.3906949324815665037 -1.4253412078204115154 2.2944233698872804617 -5.8460726084879057751 -4.7465296855099587958 0.076023543918121883056;-0.56163058861818937473 0.19153498067674018523 0.11347799068740239969 -1.4019527620273364299 0.18927300771381436184 -0.15315433822627697036 -0.28741243842281904985 -0.86181187949661508529 -0.58963381638770862025 0.42578337226285944972 0.45109816685145248671 -2.0551355094885472852 0.89375394110854133878 0.23208134423047555028;-3.3870838436663266435 -0.54789627536552498732 -0.27601504349779798497 3.0806487816209675579 -0.86050435177510953277 1.0611405878813018333 -3.9168590315949316505 -0.089028719033617198519 0.71433558920592499231 -0.071151266498234555513 -6.5839480939246612934 -2.1088965478892043315 -3.0271115107477504225 0.11562907012556331021;-4.687240846846188802 5.0717269982861585831 0.32692210122245651815 4.483060416481509769 -1.4324735914513451185 2.4562194688788356878 -3.3226410146793687872 1.5634149353582242892 -0.048321277949995203316 -2.5581203336728575159 1.7886458619821838933 -0.0056357362195226358773 -4.4476436101753265007 0.1852725748144765372;-0.53211117348809566785 -0.24736968650848745188 0.9762035411177644173 -3.3110021593118683647 2.9890681713984368351 5.3327153339991228975 -1.2497792397811962051 0.71378093404621145712 4.851692901516407197 -1.7215108481434717724 1.1704720563949977397 -5.8987072571143990274 -1.4707815842466804845 -0.65574520879005682161;-5.0875912996225149953 0.073719222161342162769 0.48681750753216596062 1.0780749012613988214 0.26602521689648017666 -0.024681049610336305844 1.002040995474272167 0.099217196912447902513 -0.027992093850686038115 0.47866019185459657281 0.51054553913714151303 -4.1699071320619554015 -3.9756350772023401063 -0.23359653320806944565;-0.82325555499914204738 0.98825658918841474687 0.093851766851222762078 -0.71384214254690858681 0.43730653410528053104 4.4629396547984141463 -1.0808599993933554195 -1.6066694297372823286 -0.26962837457587840451 -1.1720385300297622155 0.79340447581934880894 -6.1276498612766694407 -1.1722118468295286142 -0.1298605001289123706;-0.054186799245611136366 -0.12080540781945511841 -0.090880080263792489825 -0.057868087142509162801 -0.88304386365205322917 0.016417857746683865022 -0.13740132375145513999 -0.074281181093510978419 -0.14488229226383705917 0.090146052860151218433 -0.16010251624800880821 -0.61909514462349413133 -0.020179861201885293531 0.34222759146613895842;1.3392359897723649098 -1.2672727268477135265 -7.5198102637914878699 7.3490937741822230933 -1.6007527931484575312 -3.5937879771644114513 -0.19462777220689378432 0.078431978502603236225 -0.81192367015442312717 -10.316295505627817164 15.674375012548493302 0.78321083317098172394 0.0073352139113977239335 -0.53960354747572392142;1.0844450343834475259 -0.96501597905754077367 -1.5881651005471615345 -0.88840472521444091569 -1.4444072573733122145 -9.9156590847302918945 10.574241564056784171 0.69860085596320875556 -2.5079534046816740478 2.2160099810119660013 3.0852459897316113491 -4.1217238946519163534 1.3336049553379381027 -0.2709570559422407876;-1.0596362716887468558 -4.4862081190029501343 0.17548908210101382688 -0.29043197295227085597 -2.42811491237998478 0.72491640196031803534 -3.309439364967295738 -1.5512271465526477066 1.4600756643254337863 -3.7289371514775488947 -11.3337764054382788 -0.056611892520140649765 0.19464377741195992844 -3.9998794121215799358;-0.049266659933879873579 -0.092885496105673676093 -0.099933098777112955302 -0.036054596609350647585 -0.86207399008909912919 -0.060945454476459055837 -0.094514386295347738165 -0.060809096735659783073 -0.15285145399554947443 0.078811354783404730107 -0.15480494272627226549 -0.5693178829128329177 -0.026982460630370345978 -0.58851630802127974373;-0.43359595529499106448 0.20779770769241290296 2.1030350930032395418 -6.5401628905782249745 0.19250190652498949673 1.8615435005879634733 2.5668643732420157733 -2.285918616063717046 0.11502361629901854123 -1.5982075257447434513 -0.91856800808147920367 1.5504565477299190324 -0.021009251755102181791 0.14914233867651341403;-1.0744184146135049573 -4.9634341821676413176 -7.2087069183528802441 9.1540108663431460911 -0.32811448374909196746 -3.6251402263779550772 11.675298928322890291 -6.1957500418298785405 -6.7436305617490042152 -3.0339961130651103005 5.7905347306290746445 -1.7375975347041847652 -0.70704513048929984453 -0.22133168240260278625;0.9987048754800506023 -0.052465699764265794069 -5.2035403355218488031 -1.3581488145254345667 0.1500077883549774671 -0.22006971433886518552 0.82420011017030225808 -0.52431838608213199304 -0.63650708093221930461 0.92820749275817715507 -0.23622998222879507124 -1.0983607365518088805 2.02895748923424879 -0.035424354311176492471;5.7883437757110627331 -11.218011533417580949 1.0537421668084916426 2.8155970207580907072 2.4452332551309505781 -11.104137798629240663 5.3073704052631036632 10.329808326570301347 1.2999983700389929897 0.41011827756099578091 0.017735940651872107027 1.3816623120779949474 4.9400093452013882356 0.060651282623302812946];

% Layer 2
b2 = [0.0025592386637496838259;1.7013257721253576271];
LW2_1 = [6.0372779559531384308 6.5939779108148579567 0.63592516379335650711 -0.39019504758855960702 -0.67544855295172478993 -1.1837473462660621504 0.85619835655093867732 -0.95612268087458462951 -0.42232657067486700786 0.7638174097609543578 0.76569186566258362614 -0.75010418502628062321 0.24336354843220603383 0.63170613331491742848 -0.30205165417952761775 -0.74255060833931285647 -0.28551931321357193472 -0.40744802977360211615 0.23559735062495032465 0.69465130518400552972 -0.28613323107848742666 1.0705822966955804709 -0.15982749439032553629 -0.19189098455155365053 0.026597779333349322317 0.024747738059048736414 -0.28298404332232235392 0.14487121039821271307 -0.77662858877279949965 -0.37586134907148804896;0.58265850211338299225 0.60337085589809313912 0.069839770321652436258 -0.013342763365147667851 -0.090511653208810480264 0.019352519693898843217 0.0038559171619328255938 -0.094561274323063465586 -0.052998013640151289683 0.018597100708475734765 -0.030210637635106969007 -0.038676234808239409735 0.00022683441167901024832 0.06922859966089614514 -0.0082170678302619752642 -0.010691266916574094017 -0.0039052393592510286843 -0.00086614439424286047801 -0.0013408284427896617792 0.099963591861052247811 -0.0064832454250664823397 1.5896718251308472603 -0.0082492830492792591085 -0.022047244378128265374 0.7815087456220720652 -1.6620664460687402109 -0.011357509629878954557 -0.0025611178561250401257 -0.00010634734900730625357 -0.038456489666298408758];

% Output 1
y1_step1.ymin = -1;
y1_step1.gain = [1;2];
y1_step1.xoffset = [-1;0];

% ===== SIMULATION ========

% Dimensions
Q = size(x1,2); % samples

% Input 1
xp1 = mapminmax_apply(x1,x1_step1);

% Layer 1
a1 = tansig_apply(repmat(b1,1,Q) + IW1_1*xp1);

% Layer 2
a2 = repmat(b2,1,Q) + LW2_1*a1;

% Output 1
y1 = mapminmax_reverse(a2,y1_step1);
end

% ===== MODULE FUNCTIONS ========

% Map Minimum and Maximum Input Processing Function
function y = mapminmax_apply(x,settings)
  y = bsxfun(@minus,x,settings.xoffset);
  y = bsxfun(@times,y,settings.gain);
  y = bsxfun(@plus,y,settings.ymin);
end

% Sigmoid Symmetric Transfer Function
function a = tansig_apply(n,~)
  a = 2 ./ (1 + exp(-2*n)) - 1;
end

% Map Minimum and Maximum Output Reverse-Processing Function
function x = mapminmax_reverse(y,settings)
  x = bsxfun(@minus,y,settings.ymin);
  x = bsxfun(@rdivide,x,settings.gain);
  x = bsxfun(@plus,x,settings.xoffset);
end
