function [y1] = gdNet_1_30(x1)
%MYNEURALNETWORKFUNCTION neural network simulation function.
%
% Auto-generated by MATLAB, 09-Jul-2021 01:49:15.
%
% [y1] = myNeuralNetworkFunction(x1) takes these arguments:
%   x = Qx12 matrix, input #1
% and returns:
%   y = Qx2 matrix, output #1
% where Q is the number of samples.

%#ok<*RPMT0>

% ===== NEURAL NETWORK CONSTANTS =====

% Input 1
x1_step1.xoffset = [-0.011749;-0.011132;-0.009377;-0.005719;0.001818;0.006589;0.015282;0.006926;0.00169;-0.006698;-0.010773;-0.012656];
x1_step1.gain = [10.7493362284879;1.97798111423632;1.98142022257293;1.9886270419471;2.00364262228732;2.01326540575854;2.03103832772428;2.01394860805942;2.00338572186996;2.09197143203812;2.25265559936971;2.4634637532102];
x1_step1.ymin = -1;

% Layer 1
b1 = [-1.5267273601037911757;1.4589462543841835718;-2.7067169663220806974;4.6832667470710696023;1.5507595844319777001;0.7522665978312560453;1.5303021760898070092;-0.82985577687436551386;1.0470926085836276265;1.676042824929297792;0.6213019076324212131;1.5166806081202841572;-0.65228776563080792528;1.5463759518303801244;0.31756988802615943035;0.13514435506008190546;-0.36045512344455277187;-1.2052815233217986091;-0.10720625963695784577;1.3932313029385476888;0.55373968998998557289;2.0291943963222118796;-1.8047670231933918839;1.1405516545079601443;0.99268345267960833578;0.89212756168419060643;1.2601104082973721976;1.3320538098874858957;1.6811602912895391437;-2.6621901980598803306];
IW1_1 = [1.4419936150409249365 -2.5482401658050042315 0.62234226119703084379 -0.67351792031781909653 1.5833384713194864624 0.63899823976474112719 2.3106858632243811869 0.86365109870357004151 -0.63360048664813517494 0.83375623670741605409 0.54253245153401563616 -2.0458531899003755683;-0.86540962299864165885 -0.73446526572012305056 0.16458312756552137546 0.69620728012390653561 -0.70565225879411286325 -0.23865376016465233988 -0.47796503507478105277 0.36894365864286204904 -0.63756496349638935861 0.18618011664965680718 1.128008477107326879 0.32900562345334022352;-1.0120616276455520754 0.1884936710097821766 -0.411671067687619463 -0.76374838110991749573 -1.038294231162441017 0.73076173085331741497 0.49242894008913962178 -0.64551494320436242358 0.39789520808694267551 -0.090551260757750356989 -2.190219762934244141 -0.79733002847851208728;0.99725556673126880547 -0.19534122805899870046 -0.020626626479328870334 -0.72024138868379461442 -0.092919923895054032381 2.2239448963441579288 0.2557756142361657381 0.64852518191494235023 0.51629656021675440769 -0.65860050508299161631 0.583402024730687363 2.4316488680274734868;-0.62037749674225317609 0.74586319788533883557 0.32234684014220110759 -1.2114124784118414091 -0.19772177477233349174 2.1372954654682998488 0.95279253822351450687 -0.17168503741307264421 1.3037778958176347022 -0.022726435461025758927 -1.8579748867392413825 -0.55673409178892629967;-1.0463100027139289327 -1.532635021749039872 -1.2476528211843573857 -0.002386173842560953412 0.88551213718848142964 1.0980702209732799979 -0.87913498490482322456 0.45768933716593140915 0.38163746184563152042 0.64915610509938614925 -0.58921411554674285593 0.80759556035887114511;-0.18303975979882655678 -0.23341983861945980738 -0.34401355860736687609 -0.74417943109903328391 0.054513704130502112222 -0.94742855155772243148 -0.30811180638593083092 1.0362601516043732364 2.1545980230492478569 -3.0226643145974438909 0.83007098613828123046 2.1487416758645876413;0.97557077968115368805 0.56894568935946154831 0.11120240843239770356 0.43574058803870907575 0.17409637739675437595 0.36411073776180680195 -0.46757022963663441573 -0.088771902073877542727 -0.52005173167057316963 0.33152566256733084771 0.030433769028668591211 -0.51483124856408135628;-0.76964956727785749369 -0.1324326538154659838 -0.81207630614470094343 1.0111514733511679509 0.036765683906076040977 -0.18855916848725173818 -0.5907376028293566117 0.81826374541560764619 0.7532526608558072212 0.77061859974143076535 1.1944121061810877293 0.65306041631402023118;-0.37509976761978558457 0.67187076206911278131 -0.28341125651461679391 1.5515911583900166004 -0.17984361564486459062 -0.085025002940303129328 2.2982672142027436024 0.9131072865556287832 -1.3257027160914349739 0.15423828016717916478 -1.0710860971147651011 -1.0651416604748695782;0.34389260785314745839 0.047052855058047175774 -0.55196718555113710725 0.87518776366807238265 0.447281691264862169 0.84047744936792923021 -1.1086107601964476643 -2.4275170863941610833 3.4597776238747273148 -1.3599606977918765605 -0.17572021374372337466 1.177926991188713135;0.083333290842512536267 -0.7964792429778690952 2.075062699218774398 0.63502139485313802147 0.082632324402270682095 -0.3970855785362606416 -0.58305907001098866704 2.2587177707059611365 -2.6442665961979368028 0.47878041642570390302 -0.54690053036245145357 0.63478953319248720977;1.7839731624618451189 0.46514650486289926823 -0.73041976378387463154 -1.7032560301564974026 1.3084351575256352174 0.47184860437047299042 1.6564592002439006979 1.3642405481226533848 0.34990514429817920483 -0.61144825346901365837 -0.90331273284217805664 0.31777113377006854789;-1.840533498764271414 3.8788537701303114069 0.1997528150388779844 0.65001779770493384181 0.28120596777224926566 -0.81686483403738308073 -0.89651236741091555604 -0.88359754532859269283 -0.35744742833262505011 0.42296806912209539142 -0.79381580740415247366 -1.1936884949746906504;0.28944935102389057757 0.69554564356546477732 -0.47910006450636949404 0.8231745891299873108 0.75353601861961405639 0.62826587478377915463 -0.035996241927297403795 -1.7109580632243373 -1.8539432677571485719 1.1956818807508917679 -0.62393304636988122791 2.2711892739315779899;-0.78974493636922138418 -1.4222074216489102305 -1.7543494103700700837 1.3780096478055903209 -0.7715722334299537355 -0.89177854081136542774 0.30224903720991319611 -0.74056535488963315395 0.43982759111782948613 0.91150634493688165172 2.1857878661323373315 -0.44894221586580546068;-1.2456608468880827623 -0.27742097904222184912 0.44748449134690193585 -0.665122545490468009 -1.0674748640861828619 -0.09550317130516382258 0.52084488983037668941 -1.2362365017746339557 -0.10965297446358940325 -1.1104628064208683647 1.036724126266115098 -0.45387479456403057032;-0.79108265086003337618 -0.39965554933108382585 0.99683428593704981324 -0.28047840276717661556 -1.6348889260857977224 -1.1743712417457932151 -2.61928595796687258 -0.8944121167757188573 0.94100292593706580391 0.74123219235262849391 0.11804617545023982084 -1.3496588333795065395;-0.69437995407279817783 0.6410894346479832917 -0.81894115591064342574 0.31503305250748070421 0.61526200745259007618 -0.86748710484791524689 2.6035325149013068824 -0.68692648430809921667 -0.91690320308860673304 0.21021096512004761037 0.37188635122692359491 1.6576546735895103524;1.0019006044751646023 -0.75600438797609492703 1.551576019308105403 -0.6241354123814806254 0.9199744448480295933 0.8607468835364131543 -0.21479888180256848096 0.65589689365616310468 -0.97492516980523380443 -0.59751476458132168901 -1.3074441354636447965 0.28013640841987308416;1.5445519789820043588 -0.47896519891325373131 -0.36937571608273167545 -0.93702073228162330309 -1.30217989150608493 1.164028941225571101 -1.7357625279978117216 1.6853082726575603356 -0.96972702850805847508 0.57062161027908997468 0.33666037976824253475 -0.034312972305926919825;1.2593458172098568326 -1.133083595899315954 0.14603623970264359433 0.11105636782390236605 -1.7873944287055212321 0.62795134172901301284 0.88254716041366754187 0.49888388096125974025 0.94195226716003621625 -0.67205619157476403913 0.28670695033658871731 3.1896198996880356091;-2.4890544116771500249 0.15792782898568694105 0.3629412128524768244 0.33557220827414990794 0.71044829578679746795 0.71265609877710289766 -0.39014929808424014812 -0.95954852099077059258 1.1442034627354453757 -1.8326805779782140426 0.29052250040166666123 0.55597716404168995297;0.028867934292316755479 0.63361584503868118023 -0.8704564139304975523 0.49538838213569746927 -0.17779692123765111766 -0.65994554777086611441 -0.69725391230957600719 0.097848523079474739039 -0.56345038451732953888 -0.52431879658077007456 -0.20507627469272846077 -0.71655628440895813291;-1.0634782999597525155 1.1176142486850539903 0.3319874880875353651 -1.0896001187837864865 -1.2208141462497648089 -0.76884045197897932233 0.13161116118147150877 -2.178647116472259615 -0.34938353523999221562 0.48310264550097337111 1.095717541302696052 3.1828971771260055057;-0.36657752655435116296 -0.17929854569947023535 -1.3016959372091418956 1.3669650978758784987 -1.6376606102051944891 0.90735178239280700474 2.0592081632735079744 -1.1171314527850548792 -0.25156784262916859207 1.2264807050520480924 0.14896599977126054326 -0.65853949138097478411;0.6241883521020075154 -0.86217006586850741812 0.17257289430199185265 -0.989727616607388061 -0.52189359895900522268 0.61106245602767184089 -0.9519225852569903612 -0.70417854230926346659 0.24968837126887832856 0.65177652227382065764 0.44026027537038187054 0.57526858922289958453;0.95243682245065119929 -0.15630667082648869171 -0.37722769420739127311 0.37112993589076531675 -0.90487313805089664154 0.31842610748278571409 0.506268156765122046 0.69479533421536221471 0.72390116862899200889 -0.48024707936412514009 -1.1094059766691732882 -1.381962894666116215;1.9158760474460485579 1.0744517164403251108 -0.034920474750002178377 -0.53522931950289032166 -0.25832323372858917443 1.0876054873584266591 -0.14221006724908225038 0.13559395818726183158 -0.17632712374380246634 -0.1221331524250846845 -1.1619285185302179464 -1.1815936446836114992;-3.1974562405915833985 -1.0353538434093894072 -0.71536458047838513696 0.56574603506823806232 0.62492189966430433667 1.959227790771332911 -1.4173129831640938203 -0.73738420832294482299 0.55917767505176496634 0.48449202190625278996 0.52352446295026333623 0.77505377387354434937];

% Layer 2
b2 = [-0.62103545767190015958;-0.63042543187079946865];
LW2_1 = [0.53087006587126206458 0.095811077966986984977 -0.54507727888832269159 -0.30034630909688314615 0.044882467798747431587 0.45413020836297812721 0.30557406145931031993 0.78765749452550493093 0.44769305592758146251 0.58735654692889094353 0.06729165652748994586 -0.16735562470934498003 -0.3116273054130500042 -0.45898265483017325339 -0.25791222753798515033 -0.20451956284103661732 1.2055295456118653163 0.23146572000550391657 0.19352596426592635903 -0.29005925286688311049 0.33450639277659433013 -0.31733547238639614463 0.6302120137496706187 0.39375938787943609576 0.13610319322742636672 0.069760990441258080574 0.24941143829991674341 -0.95984173695943786342 1.4450287807544783814 -0.27898179742264023195;-3.4871908869847647594 1.0442519408684698412 -2.4312796668632872255 -2.8047960752825162878 2.3898691924513695284 0.69752830442085567153 1.4849161917423916446 0.28130823438878366227 2.045842652016067742 -1.3408326226643936252 -1.8424381802733698077 -1.6835082844503899135 2.3849485714426035265 3.3412114604432399112 1.8230555857796539865 -1.391736412954839075 0.38168364837703921966 -2.1547645948898659363 2.196561883656583003 2.7221101121060642392 2.4148937823275500314 1.6062391794818966506 1.7944144274064672828 -0.6707426419095710024 -0.99526688618811720577 1.9029228329718363977 0.94474724433386048084 1.0404054479283781909 -0.72530478920439778179 -1.1649936450678259892];

% Output 1
y1_step1.ymin = -1;
y1_step1.gain = [2.05334381907577;1];
y1_step1.xoffset = [0;-1];

% ===== SIMULATION ========

% Dimensions
Q = size(x1,1); % samples

% Input 1
x1 = x1';
xp1 = mapminmax_apply(x1,x1_step1);

% Layer 1
a1 = tansig_apply(repmat(b1,1,Q) + IW1_1*xp1);

% Layer 2
a2 = repmat(b2,1,Q) + LW2_1*a1;

% Output 1
y1 = mapminmax_reverse(a2,y1_step1);
y1 = y1';
end

% ===== MODULE FUNCTIONS ========

% Map Minimum and Maximum Input Processing Function
function y = mapminmax_apply(x,settings)
y = bsxfun(@minus,x,settings.xoffset);
y = bsxfun(@times,y,settings.gain);
y = bsxfun(@plus,y,settings.ymin);
end

% Sigmoid Symmetric Transfer Function
function a = tansig_apply(n,~)
a = 2 ./ (1 + exp(-2*n)) - 1;
end

% Map Minimum and Maximum Output Reverse-Processing Function
function x = mapminmax_reverse(y,settings)
x = bsxfun(@minus,y,settings.ymin);
x = bsxfun(@rdivide,x,settings.gain);
x = bsxfun(@plus,x,settings.xoffset);
end
