function [y1] = gdNet2T40N(x1)
%GDNET2T40N neural network simulation function.
%
% Auto-generated by MATLAB, 16-Aug-2021 17:15:04.
% 
% [y1] = gdNet2T40N(x1) takes these arguments:
%   x = 14xQ matrix, input #1
% and returns:
%   y = 2xQ matrix, output #1
% where Q is the number of samples.

%#ok<*RPMT0>

% ===== NEURAL NETWORK CONSTANTS =====

% Input 1
x1_step1.xoffset = [0.014469;0.014929;0.016612;0.019995;0.027617;0.033129;0.040462;0.032248;0.027814;0.019981;0.016227;0.014616;0.014469;0.001797];
x1_step1.gain = [2.02936285109246;2.03031050553716;2.03378524041375;2.04080591425554;2.05680272073864;2.06852827316157;2.08433642023557;2.06664517355686;2.05721950326378;2.04077676045056;2.03298931765763;2.02966559229701;2.02936285109246;2.00496228164708];
x1_step1.ymin = -1;

% Layer 1
b1 = [13.40111190436764943;-4.2621448309335221438;5.2912374840106481955;1.0673063292747890785;16.712273956835073108;-4.0369133901919047602;16.951630429744387385;2.125200299069834653;2.4859164687201817934;0.41711501954756524668;-1.2148354336198938785;-2.4897591254724922294;-7.0547866318527701068;-3.1798212770710598818;4.7735044508646611305;-4.1908764383510010987;-6.1609274843014274481;2.6403249904654488844;-5.4387140457423175377;-2.1947163954153898757;0.48398177667149483439;1.5540872952493138826;1.0172744958780073343;0.43483872248275418082;2.6499320417229386138;2.8642549985632177467;6.3725141603209838337;-1.2906169703510379509;-5.5062220106953914112;-0.28671582441309251266;-4.4925659463459615139;-19.418438275136775673;-5.7854705574779350385;4.6731113946919338176;-2.4919019442404248821;-3.3348775232054852502;4.6232983640447056217;2.6271898283883916569;-7.4365354113672506031;-2.1875970156733179905];
IW1_1 = [3.6666568915720798572 2.9096314420759918917 -0.47959486098844789081 -0.90241985329890361811 2.2118655448168467181 -0.61530872457110086238 -4.5101197094089533479 0.45419679446968092007 7.7989054839850657785 -4.7833115094035658643 0.90140673764536327628 4.5292073175903162507 4.1424570691164799285 0.53890571423086086611;-0.2097085300518038431 0.31337098498437565564 -1.1299534222744633816 0.21428419054084632545 0.25411154488098425253 -0.26326110507955946538 -2.1384821640005537979 0.8514664201288253409 0.64347516825639594629 -2.8515841659457983326 -0.064985495828739733848 -0.84226736951421132815 -0.10265643391932535722 -0.13025255130065660492;-0.18662841465547888586 6.8429645299058341479 1.0131972595091078837 1.2729986602944061147 1.9016397177043657951 0.73622479355210945773 5.5213535016723866988 -3.0033268777592772025 2.0487107614578441428 7.4701565329619254996 1.5421725684413811752 3.3656811417245733331 -1.0038818022637987504 -0.61819875617724517891;0.37892365442480602233 0.14120823503111526454 1.5890057174178129351 -0.81597026062088384712 -0.67148333603473242537 0.77301700848831000901 0.2743033906431872615 -0.12202377715493059607 -0.38383762835343970821 1.2167741834011445157 -0.045419266562434730539 -0.057731303984198172052 1.1291359660515150054 0.061662721856716569413;4.2081631747819772116 -0.52023113346423099923 -0.76042618539825668211 -0.47641156770638315443 -0.46875019392123662421 1.3373709437335232764 -0.31414766972417118573 -0.57316359632476931996 -0.30604158441657258738 -0.51642088925331153249 5.8592313757733700541 4.7813623390679955705 5.1215713114606522538 0.1684854353215659295;0.52537697673259187159 1.1046618311939877533 0.25142589511467094976 -0.37348895914625912518 -0.084305574337098940219 -2.7587980014908444204 3.4060910298223951997 -3.106352583176028137 0.86126555040319641154 0.39355091825399590721 -2.2511221624460624469 -0.056616006831235535235 0.37988682667677398097 -3.0872365278543791867;0.52639171217735891695 0.17839120719310036511 2.9678867488368814165 1.0883226485555976826 3.4432343891022769711 0.88841351171184579361 4.6265975035062743004 3.6296636673791899952 -1.7940634801489008243 5.45994220720505119 1.7377737543617004512 3.8486276947403883497 -0.066861456376359165721 5.8091679225787196117;2.5652679923720906885 0.0095690113608186654071 0.64816954883200461612 -1.9321526087247038461 -5.0547843255753228675 4.0049711912340892894 7.2599148740287748893 -2.0431534521469956189 -1.2979212955477636982 0.35987498182211830056 -0.69588284456064142258 -0.99665224847751354709 1.6813326130782593193 -0.14607772376078831389;2.6667354447355915426 -4.2193334332544445431 -2.883995477465811863 0.44108888879386548565 0.16351290351268862877 -0.040077378974263444533 0.61808158935047341487 0.21226874100989501226 -0.31009522114588683461 0.9673404390368623984 1.9832386890558193482 -1.2064708890700441835 3.4404912695537372969 -0.066569422428645469436;-0.47768657055363306085 -0.52570734677813490965 0.56672535247547850545 -0.41278430095007995204 -0.35177882596162340922 -0.11627952138678847305 0.27132627102339490488 -0.11871677887778654681 0.040440869427252917889 0.24707326591103073721 -0.14641555237341366547 -0.63011340578908647814 0.34340497866422881046 -1.0719322453907758064;0.78064924182346417947 0.22004901940735024923 0.91115089024531403794 -0.60463594740486892309 -0.64316228208827641577 0.28382339293163683092 0.20372452384017522564 0.19667459473154874638 -0.1488803542080062714 0.10772244428723148912 0.040792277147778013835 -1.7431172806719228419 -0.22796704951427398944 0.04062361692298242094;-0.054018836948581429314 0.56320446907673393788 -1.2585934705617867202 -1.5059279697084282379 0.58655075730305206161 0.12167463840155298693 3.4997187402913669807 -2.4639673684119540731 -3.4246561189817610327 -1.3666242058512299007 1.1821645116606265269 0.30525901303725216929 -0.23059193159530466666 0.054444863877941208907;-1.3582498494703332259 1.9618511722431446476 -4.6924941486407378832 -0.87967721582542801606 4.2217655448005242391 -0.64331201863944609265 -0.88433926585520783448 0.94877633207695788453 0.30775802874992508329 -6.7295640359394530705 0.36302368235069198965 3.0440838591333578833 -2.0816624677219288664 -0.28646952754855403711;0.51239259326398078898 -2.8924076468017170249 -1.8796652720859150509 -0.45164113697574898021 -0.6024297971658594264 0.23546249956490614141 0.3244951854490734644 -0.39040036289918234047 -0.2528340264004839133 -0.1538408325940424648 -0.21636187944832024899 0.41809365420109689815 -0.36813762329718069388 -0.078169688249900878829;0.80847215493381963114 0.34901447178830202756 0.66577062554035526531 3.3762684413180683585 -2.0208332873708449995 -1.1417149275739018055 -4.4935004371500246734 2.8251984935520422226 3.3719497959635238438 4.9388655793712192832 -2.2275659708551569516 0.02318240983467530214 -0.43974313464422593034 -0.023035155911709646881;-0.31450304240120202648 -0.85042879456588216236 0.19525655773519051683 0.048175097459435732572 2.0991569067321900199 -0.61998664215825605162 -1.4931227763537577857 0.46432828102518552971 0.087601633956689156646 -1.1192948996150902108 0.1604062525063965905 -4.7551012403887478186 -0.75485930648234977891 -0.00096901852717546504978;-1.4774736275335942359 0.63078488857907655252 -5.6846129184593428008 0.1766739695799994514 2.5292383627379400046 -0.0344519380715022569 -1.4023047515012736497 -7.270145994424123792 -0.23261464873283393962 -0.5479071645652517919 -0.3894702304113437652 -1.0204671059258025867 -0.50075804834761683537 -0.2661419156992444468;0.45748766653472966448 2.5880437273667107334 1.7295559689987132224 0.42197521610617899634 0.40882639484458788148 -0.31022179088754592291 -0.24840008215407544112 0.26867043528099748828 0.24692018972073001559 0.12355977651898913949 0.15806127045659909558 -0.57356022003307394197 -0.66382698599011913387 0.078923342043811864355;-1.355446828312391272 -0.26989520208580258798 -1.2186167743351652426 -1.290623256667897456 0.055871130912350255859 3.6917047968186813556 7.5454560376288251078 -16.375986408600876842 -0.11719808499624642661 -3.241862671348974434 5.6294585536300436601 0.40450028351425648676 -2.2603725205117477515 0.23384073642105365765;-0.96867302257703680191 -2.6209742242017908254 0.4361345129327571235 1.1968977225367378736 -0.064614456510289394742 0.36847532660896503698 0.19777844904192523612 0.47546140207100512365 0.1894831101527229833 0.51715743754158871592 0.070248779550851472853 -0.400923198155236582 -1.2870020197251448302 -0.0031557849990578304075;-0.57319757521364522734 -0.59119714085683783278 0.77951057066137452445 -0.50302496984850209039 -0.0044183509469663574676 -0.050517503249807756138 1.2457539508620818491 -0.50409615063064949769 -0.23798029480322469009 0.95452070315505233022 -0.030375450595960595129 -0.15074801747720129041 -0.1168106888206434657 0.027002417553437733921;0.15965877990187743452 2.6137793039009848961 -3.0882850227660343378 -1.0805530709081090368 -0.57151963877116684909 -0.16988684545853430241 1.8013165666165265044 -0.16622302138348071798 0.016784062440440998543 2.6175689401298036785 -0.258966546501149808 1.0109638944211138956 1.4751490010961696431 0.17438680835217984511;-0.35979893254599304431 -0.921213854198177029 1.2196016017788300356 -0.49910106709286455873 2.8142164963427389601 -0.58155609199560798217 0.18120214638383347339 2.383181224393458475 0.15925888979219660069 0.31590900291572365788 1.4494924470432339891 -0.47813899802209830492 -0.76192152594283990563 -0.083791949440707350072;0.85957263883001999716 0.42154947503350298499 0.48717761251922786503 -0.72070386705592259791 0.083361008724923718605 -0.42133782776263073444 -0.2907431622942167615 -0.52009416467101732273 -0.11727474299750091646 0.16498691442172422339 -0.3014245974851760268 -0.85961689939675078875 0.15748121735217412986 0.060133494518045810251;1.0965768763505758798 0.71355398245086232301 -3.064820707704035474 -0.3989221516615595875 0.28480352045936524474 0.45488708011179584956 -0.038215279443403790682 1.1031380496294214133 -0.05627010021352583935 3.1629798652780745094 -1.278480919130917659 0.096197038477951857249 1.0073376618693994367 -0.012359790313906902914;0.1668005817922937617 -0.08165857055599021197 0.64485345037038210858 -0.090639211362069038724 -0.92086715683595499193 0.1268747006426831081 0.21472709990919802703 0.06605614862719710878 0.022329760011502684802 0.37089332574340633242 -0.027907209478121221963 3.5876125711387589767 0.28609012126714122859 0.15193029393619966738;-1.5387934027876555287 0.036624093969201777787 4.8772129477421808375 -3.6777703538384751702 1.6443589820399944212 1.3439983625067146722 1.4142933193423272709 0.2038228367579826561 0.6387024735045172541 0.79846521461652908425 0.43313087034846448065 5.2702710164011152827 -0.88432944628852128144 -5.2559957512431871862;-0.87066276021273447672 -1.7532858319724011764 5.4525085216959068291 -1.7173334711099526029 -5.4598400623907501483 -0.29400629918197929147 0.39063840285118733853 0.42784217719717221318 -0.77986967113784955163 -0.16836769983595456512 0.28735578422427976442 0.4614037066212478555 0.25628961149658174845 0.013581386497687690518;-2.884132559682604402 -2.1774436375165886481 -5.1588801099259971039 2.9293569331454243354 7.4005879914409833376 -3.1538855187877117281 3.8289340695301743445 -1.5109837703360282646 1.5725869895701063417 -2.4567436737983952 5.0014490955259542915 -11.119598189846842118 -2.8701269872363917024 -0.9057247897700547723;0.14559252750770390605 -0.62506298186831499297 0.69910886141982786501 -0.46832920133215250047 -0.10782098690884099612 -0.10507686822881288913 0.29401923724660911086 0.10465002263266447169 0.2034781227702302242 0.41932934722153236695 -0.25060536571959035612 -0.54304293421708338396 -0.26368423862559697834 0.023895833875024381082;-9.8946861229870002319 16.67367582909103163 0.77913576507062343168 -0.99262728168902825132 -0.57279295138112895636 0.68344778786864956999 -1.2477241977030462117 -0.017716636469122130915 -0.40630508677288407204 2.3977020530953812028 -5.8042703086992926131 1.2554895112276815983 -9.6225843722936872382 -0.0060238359374804222382;1.0721583080270469246 -8.6842790630168185118 -14.434242505529859102 10.894609295639675395 7.9855186699619737922 -9.8651286790656591563 -0.76772097699865349263 -1.8476445952446249876 2.1207039017463324981 0.55290074881602646606 -4.2155814519455043765 -10.079969239185118113 1.4789648862309647814 -0.26187484300167074291;0.72230416785122952827 3.3735957306124735311 -1.8361387051743132126 1.4421730214891104183 -2.1467086467866369759 -5.2736315079438185194 3.6004727178203363991 -2.8454169414668863958 1.5834424209167212716 -0.16086637474746884324 -2.899206337786599974 0.030872661336359089046 1.5143652252104353728 -5.3877184618174949193;-0.01834519215893246763 -0.95114651977707243002 1.1923220283235993477 -0.22463336032606770476 0.051922440510822384652 -0.22478144525262430675 0.37948920353578158293 1.1367599911202688201 0.32717309051074661141 5.8554994943476748048 -2.1768671702157491588 0.24688202816609641777 -0.038168038443837204454 -0.087044077624371996027;0.18533573791757865235 0.072596246193350533193 -0.58762483423359990198 0.089836131646178873922 0.98263213880147037838 -0.102134837308310647 -0.24366396910563004052 -0.0089505080750073590795 0.0089641058657747661048 -0.3804169844781906118 -0.0050526558836219981341 -3.4497435352205507719 -0.62336790933778296608 -0.34826589526313944667;-4.9663286635774817057 1.1205698211663297492 4.7528213826049032775 0.27612088796309847138 0.44013620261126668032 -0.83318960490412696807 -2.8343329352825712419 -0.037928671898174989852 0.67463951068673477796 -0.06121091199570363045 -0.21463908350601890174 -0.062218344912314427209 -4.5804812823002061251 -0.094888621690733268577;0.37532437375415617087 -0.7825850463529079315 0.9686984153362894201 0.057208722139998030576 -0.065331084999948246805 -0.07588490082597286468 0.74625866405665941539 1.3034486196812626879 1.3804371678813316393 1.1544130800694654138 0.71245677227654391483 0.67596455443243919081 -0.52519620391327459519 -0.13823263547309480592;1.3096907207158645647 -0.002059558784703676565 -2.4344680421918822866 -0.0961569073313976036 -0.11658056151981065207 0.12242204843351779664 0.10331624921021714814 0.55538437665075857108 -0.22414874203788168194 2.5854167273259616167 0.87026379560937949798 -0.73401015636054189883 0.23822103308330538907 -0.04154600567420732582;0.62965018560802199499 -2.4367843376256463905 -0.65528630151100841772 -1.8211466131562550341 -3.9859540575421390507 -1.291871588963506845 -0.61402512784422935699 -3.4354617669089191345 -0.39481329927754704734 -2.8419412962569379211 -0.71157473172344676282 -0.02133847435406241444 0.13654411328549820315 0.076335442530283278972;-3.2910319944473727105 2.8896234388539854265 1.3668620169113594454 0.11867911211632851953 0.0072138595193613000434 -0.47105169583749650908 -0.70189201761860342543 -1.092991518384344829 0.059243167067843320595 -0.087046888938672711822 -0.20082233660745288373 0.094057466266384809339 -2.6343536017391606663 -0.10169205094860878091];

% Layer 2
b2 = [1.234838392400398055;2.0079383938516461861];
LW2_1 = [0.20705859931958742193 -1.3275476550075664406 -0.33961606197953569941 1.5981079116842633603 -2.9277559091252518542 -0.97557072734491867561 -0.0089855025306045943623 -0.30984743490853561276 1.2905989661286778603 -0.11502126796791656282 -2.664537429096828447 0.76676704589744248963 -0.36379659845594081169 3.9522860910727648509 0.48429541800487835301 -0.7921595826841227872 -0.22864382359681315049 4.5014575254131976578 0.19333377439964039013 -0.93226495323415570216 -2.185465041985980239 -0.42606049092727071859 0.52618780291057964948 -1.9102683618861764359 2.0861910416613760333 -2.769908057365148224 0.0048184043344701261644 0.40315884695457504527 0.20762227817707573641 2.9097340371834667927 0.26398956507963067253 -0.20174209334878923094 0.5575196326285850601 -1.946112491102838904 -1.1838185023962730646 -0.56034503453737205536 2.0300077573681880594 -2.3155563418678259957 0.2116165536244821177 1.601103129460963892;0.0096117233819435973774 -0.075872400588814739586 -0.0019136628819010498021 0.079926352510808554297 -1.0272190307528703546 -0.43984353347192511885 -0.65510115114159617189 -0.014919394910040403163 0.034638156255279148321 -1.1650929916207333203 -0.0081060686821294268556 0.038542782499977813748 -0.044449669078392491095 0.27088363771344897701 0.025253371619654532698 0.0327275932368209857 -0.0082508218821607890586 0.26870865261228998877 0.021140466458332861366 -0.030338975922784418987 -0.030800659330680622838 -0.019662144164598681362 0.00295029140140859545 -0.1075779639472228405 0.060621588498119639843 -2.0941621063529218816 -0.17306158093359513828 0.020725811738608039547 -0.011828976238854434222 0.97931424261547672661 0.016759606564932708062 -0.00083785161364312082596 -0.15891101295143805761 -0.15237646435186319449 -2.1272829743038212946 -0.034683353709500111539 0.092636013768863406659 -0.13018659452253317221 0.055973346825105040059 0.041862254145155465557];

% Output 1
y1_step1.ymin = -1;
y1_step1.gain = [1;2];
y1_step1.xoffset = [-1;0];

% ===== SIMULATION ========

% Dimensions
Q = size(x1,2); % samples

% Input 1
xp1 = mapminmax_apply(x1,x1_step1);

% Layer 1
a1 = tansig_apply(repmat(b1,1,Q) + IW1_1*xp1);

% Layer 2
a2 = repmat(b2,1,Q) + LW2_1*a1;

% Output 1
y1 = mapminmax_reverse(a2,y1_step1);
end

% ===== MODULE FUNCTIONS ========

% Map Minimum and Maximum Input Processing Function
function y = mapminmax_apply(x,settings)
  y = bsxfun(@minus,x,settings.xoffset);
  y = bsxfun(@times,y,settings.gain);
  y = bsxfun(@plus,y,settings.ymin);
end

% Sigmoid Symmetric Transfer Function
function a = tansig_apply(n,~)
  a = 2 ./ (1 + exp(-2*n)) - 1;
end

% Map Minimum and Maximum Output Reverse-Processing Function
function x = mapminmax_reverse(y,settings)
  x = bsxfun(@minus,y,settings.ymin);
  x = bsxfun(@rdivide,x,settings.gain);
  x = bsxfun(@plus,x,settings.xoffset);
end
