function [y1] = gdNetT1N30(x1)
%MYNEURALNETWORKFUNCTION neural network simulation function.
%
% Auto-generated by MATLAB, 12-Aug-2021 20:56:04.
%
% [y1] = myNeuralNetworkFunction(x1) takes these arguments:
%   x = Qx14 matrix, input #1
% and returns:
%   y = Qx2 matrix, output #1
% where Q is the number of samples.

%#ok<*RPMT0>

% ===== NEURAL NETWORK CONSTANTS =====

% Input 1
x1_step1.xoffset = [0.014928;0.015425;0.017231;0.021103;0.027804;0.034437;0.04709;0.03412;0.027544;0.019775;0.016141;0.014448;0.014928;0.011211];
x1_step1.gain = [2.03030844445888;2.03133331640556;2.03506622614266;2.04311587429525;2.05719834272102;2.07133040516258;2.09883409765875;2.07065059841802;2.05664832136364;2.04034787931342;2.03281161223305;7.91323924491871;2.03030844445888;2.0236094514703];
x1_step1.ymin = -1;

% Layer 1
b1 = [-2.600758877014063053;1.9504248810707836004;0.057709469099519190849;0.033750441487155974363;3.3427398165575104017;-0.82608925174415104298;-2.1557016422234607234;-2.0892860934897861114;-0.68655741286313487493;-3.0213390879693617919;-0.17485917679333523589;-1.0537560517169646257;0.36605846478238734942;1.1509614215848888996;0.63261451501131749087;-2.1762487577764062507;2.0078544211392062024;1.1320537407704758248;-1.0000610573765709166;2.259502165221174419;1.3386201798630450455;-0.72517571965923344202;0.14336470464432526928;0.13680520936647916352;-1.2524604618748536033;-0.10594614647015972164;1.2843780432597089458;-1.2490557156863546506;-1.3672781718370072834;3.811316593112984652];
IW1_1 = [-0.58108833027172535068 1.6339985764191329309 -1.1886284815297176731 0.92264298464405414268 -0.031145456315354272392 0.074436893923384844785 0.80765668860096362369 -0.68003670704717988915 -0.26601575097889373911 -0.28404112104928258553 0.48751624339537402708 -0.74078067506043376866 -1.1691865921284909646 1.3728788765660484561;-0.55431185299434471148 -0.18727740396840952819 -0.37207211436593640164 -0.15747149733954524109 -0.19923414597092820033 0.082600722152998629078 -0.80191611720014710496 0.099685169307725599031 0.41233517320290097308 -0.27639720140214996125 0.26019523644001751883 -0.17387507761377213322 -0.29712115816062700802 -1.3185707876368442104;-1.0419385573237409659 -1.3517668936484614761 -0.67407906887277624364 2.8436953953165966524 1.1535552481957809245 0.12146391731052258445 -0.15900020211071524967 1.050116933542079023 -0.17415591269229716009 -1.0489077358757536995 -1.1764156276763093611 1.3058799457473138084 -1.0611161399966360097 -0.51397208632610469348;0.47078572042013189236 1.2427500198851098023 0.52414902208019598095 -1.8669775938952613004 1.5216157324698724729 0.62721206343138335981 -1.1223543862446720976 0.31325790539100756282 0.019846259123330052543 0.22577666582310126908 -0.77574456362670718423 0.10790408797146103237 -0.1136495174672242231 0.58401463488108629196;-0.26631370133879400663 -0.34592515813641167011 -0.52278589563344735058 1.5851527947868233603 0.010525946966771861785 0.99733325666216487981 -1.2486548012541349717 0.72956860548203283923 0.69307354454673242294 1.7034573129189263252 -0.8836726777803473043 1.0568812879106292968 -0.91211337396139313682 -0.090831799074961735996;0.084265015771585363713 -1.9872798001655831435 3.0872521386269640153 -0.035772493040837377576 -0.16004938040501895391 -0.30245152617535198125 -0.012308743340886527801 0.68767026717013068904 0.38579874006558551036 -0.9292408214920899745 -1.7591102253144221823 0.66038753815436679329 0.54636642062521501018 0.32259568304835156693;-1.6630001714011852787 0.96062785437512443476 -0.43762675373609410956 0.47202604144081578008 1.0859384816253743189 0.077478279683355119611 -1.4629358761385740095 0.27989719800135282046 -0.14076272505903023036 -0.55969494753306547885 1.2141939995062638324 -0.32488941798895898394 -1.7482708692081792012 -0.049413540631799368619;0.49671921441323146906 3.0886193240835915219 0.96567822848381301704 -1.9910776544542019284 -0.28226436097355134258 -0.84492714570959293052 -0.56945984169867247537 -0.0822894103592728271 3.5458099902353832356 -2.4319329996227656565 2.0601909358678778261 -1.42742293419677857 0.047736255410038862246 3.4364764562027141359;0.24007663860668049249 0.10130154466321947271 1.2420363663531777121 0.79921153196648564432 -0.63910168281904189413 0.020840015142868865972 0.628474246910480705 0.51084185251402147721 0.81068666112422838044 0.26727383446438568448 0.82573911176604586348 1.5426466085357035674 -0.85641739024431751126 1.5770445212648396272;0.16026078377586858159 -0.43807094803753715562 -1.0970343685051515692 0.5709329397195329614 -1.8072551510565282307 0.37620778149536315826 -0.52655159431780673707 -3.1805450522719453943 -0.46994098156482883022 0.31941889921232446969 -3.5240492480067246994 -0.26679385865187543736 -0.85927442725701330684 -0.82289738429642300677;0.32618442763096588966 -1.168541840550351818 1.4892935172927690424 0.97482914533768449949 -1.0455501309909076557 0.074116287252535439922 0.49929629877524123183 0.67478278746030861956 0.91926372419735347119 0.31919783808836726946 1.1045777541473351668 1.7053269260206791458 0.68859496591383007047 1.6605931950292767141;-0.052749268228976201045 0.87767261286274145249 1.0080900235173471113 0.20335440813773844604 -1.1554676548643005862 0.61788895469488991363 1.2192618487021578133 -1.2201213357606877086 0.81269569944379382864 -2.7099669401414101522 0.40262708696841187361 3.018677948529842503 -0.35213651381585681088 -2.4327435397457324306;-1.5722113249709150917 -3.9262016043040537383 -0.14931078199706998566 -0.65749929046409405498 0.2008650916031824718 0.30019575510175777744 2.3451688723617869492 1.8361609542492569602 -3.7935523964466186797 0.37184732042253099138 0.29265229475954979144 2.6273561734261030587 -1.0701816214947685868 1.4454420242669805408;0.72307366561692676399 -1.8354751547685430602 1.5319758530613767356 0.37160522654151262323 0.74143934400521716022 0.29173170894859168367 -1.4296153069657189238 -0.080973312457847251844 -0.5100102960649915973 -0.025977289174845208386 1.77638751687105656 -1.4011351417235102801 -0.43268817283468785639 -0.63456002875625350246;-0.28393324796856889147 -0.72813463838959868735 -0.44654221170032237787 -1.1649084314300126586 -0.80588419315801818055 -0.92770679390811672249 3.5961473269914039363 -2.6365640675013630734 -0.27912241682480537497 -2.5508586527505627828 1.816759316338986574 1.114182632373436288 -0.60462132604062623908 -2.0217054346708103196;1.0809041880315202189 -1.2879618550674938326 1.9357081559608118049 -0.72712685108334040862 0.57977448711305545892 1.1600599360956258543 -1.6359002248792471335 0.068498529059698637367 0.83680373869839597134 -2.7102159937797858369 1.1393903313364197594 0.20685711156598624028 1.1116768489612647297 1.9950784890869759369;-0.16091360504604762527 -0.18594810320659824199 -0.48702119840171609333 0.2967723502914537681 0.23909163252374765474 0.6779937901320288729 -3.8858669717292109169 -1.351098139386077257 1.1397735066039929031 -0.35586524774399735938 -0.64113116063950981172 0.90995392565961086273 0.28739859227178532475 1.0850803173760112941;-0.53153203198150444919 -0.12401479772266797708 0.80945011113236031708 0.62720453309185375534 0.096457320592192363762 0.63060565290102377212 -3.8148653122947453475 -1.3411685630003233882 0.73519505896380699106 -0.35093435418376944801 0.20066379349720137037 1.1735883357863219345 0.67927998585238180684 3.6679831928297947918;0.33052493825711476427 0.822670429912115031 1.3300510633909117253 0.13241431952512647263 0.64125501792218086994 -0.88476609219194468636 -2.5795444730562739899 -0.33901947730590736851 -0.20789928742929864036 1.250455202885166095 -2.1126743726853054461 -0.28257220449295317177 0.42104686612132080636 -0.46014187932233796552;2.1301682554715060114 0.24171107660248564164 -1.7182937624369813978 -1.2009259810952255254 0.69613617887317791322 1.7763706390791875744 -1.507487616275308584 0.077028065914702209538 -0.64348755277529845475 1.0057921748849467658 -1.9050890321614954992 1.8157314539438340617 2.1560526281325338438 -1.1240001879913179561;1.4878289586769795072 0.87313999470063274888 0.26045739869017259238 -1.8873600996166843835 -3.8514746247416860037 -0.18901009871815777075 1.2589519382795786306 -0.76276164570727811309 -3.8138188450019696596 0.053072891762637700031 -2.5327076439517579587 -0.56023336142576085628 1.3865607764765175425 2.3184633034381709749;-0.67326344209475375013 0.95506220969600530424 0.70079368111109785477 -1.092489291999906964 1.4819019597589453419 -0.036308885642732040278 -0.42029960046297520915 -0.17608479088414488722 1.7869360556739708468 -1.5909200574702817566 1.2024243712374915738 -0.66889666853418183745 -1.0558836364530479468 1.1088519161917715916;-0.56515774774765725752 -0.38065173811919067459 0.50138114380626297439 -0.066014133261823357279 0.21141167920947803727 0.17804860460019572566 -0.45706388545551496216 0.073238197281488920387 2.513649448428167954 -0.016345811960647833871 1.6866195690338494639 -0.67211702553476715405 -0.12283720857290894579 3.2583349482734216274;1.1224310475462622172 -1.5934613120400151764 0.86875293016364873999 0.75159991101699952232 0.15034648569005140684 -0.0020028022583967082515 1.4618990690137207977 -0.6934974351232534584 0.84939166647978892044 -2.1360479542143049336 0.92826169955712489745 -0.3992859434457579626 1.3734376434255994859 0.86800444204350024613;-0.42160420044460428235 0.21524453449186253806 0.57528237292267048186 -0.63290061718737222751 -0.50656484396093048872 -0.37515657770879845545 -1.2498525452345106146 1.6942851861406538205 -0.54530682393197860147 -1.0802054225081136885 -0.49680895202013319878 -0.058974485688911351677 -1.0134216308368491077 2.9980921633877075649;0.46034450870816934209 0.35820041853049322533 -0.43526903494105129155 -0.49363267753075062982 -1.0622065778257483437 -0.54171166626175393244 1.4918396547724654955 0.072015835852095005931 0.20844328764944280996 -0.040895510902742529535 -1.3404826087460759432 1.0839436948839491492 0.50729176919243845756 0.13075889625023953688;0.027590580176676204882 -0.4704413040871414653 -1.2746883016071943739 -0.16220654859883559817 0.36108009838430216165 -1.4154600686148832711 0.99420502361058371577 1.6683915224427094959 -0.73453901285365985618 -2.6637691216570034136 0.83100519036943143458 1.5414273488415810576 0.10185350797508992138 -1.2828593178474259062;-1.4552391168703238122 1.5872981162185442194 -3.0896726444827864455 0.048998167573432317712 0.83474632064931109099 -0.5712723056755615314 -1.8992972432108736758 -0.30331373766206914944 -0.80765463539695714346 1.3212613074848638117 3.6443055865296458684 -1.6880845917094406961 -1.9919712253375789768 -1.0712947530487568759;-1.8800321127180346092 1.1383245412371125749 -2.6535903573313004422 -0.15215412793184834861 0.90005708810816498211 -0.61316578827742695967 -1.8640963468344020626 -0.54592438032339851706 -0.50572532260989022657 1.0768826260083104174 3.2139863485073552063 -1.4438876476154771655 -1.3673302519958638879 -1.3381058728931860546;0.26488659783176454754 -0.14322967380828471873 0.76046626547316031886 2.2726588119785495756 0.0029526043676920687986 -0.62276521399126172351 -0.27756757202667331486 -0.51223790931989043873 1.5623062588517870886 -0.75828989408169822362 -1.0201031497290833361 -0.99156792835059881508 0.18698689513509503257 -0.33297391835702827567];

% Layer 2
b2 = [-0.33735170428836147583;-0.27186625143073589461];
LW2_1 = [2.012417701949201998 -0.3637543032558166467 -2.0665647265157267576 -1.5668623302110005202 1.972587197402931869 2.5539888624310740362 -2.2508684541381396294 -1.0812094862836845177 2.8997875859222390638 0.50509539361901745202 -2.5258320395128714964 -1.262500352271026971 0.96055443304606413779 -2.443402566616073468 -0.62382014548949937804 0.99822761212873745151 -0.56817076668357746616 0.46994478899739638988 -0.80908151147209728116 0.80063207925302215529 1.3296673933736611328 1.9246710867302383452 -1.3607006672553785265 -1.3405936891951610868 -1.9494152112033726887 -2.9493512531723626857 1.0768592410890405198 1.7253921570576813416 -0.60326093223447496694 -0.93905864786749049244;0.052011889723261928165 0.68364842196871544733 -0.0014212058338431352023 0.039796515773134887028 -0.21348796225635519042 -0.011081806502030696129 -0.016606170579009031651 -0.003784837131354247021 -0.054539394590647778671 -0.044583296362568219928 0.066592580683836929967 0.43621087386337920044 -0.045012056839346115122 -0.053044402688970350435 0.0002605467804312050213 0.014524276551340836727 -1.4124926849782670768 1.4213383079899539752 0.0063933343863643030472 -0.023288613747538371157 2.2491701546882745255 -0.05684481507994094962 0.099938753174451139261 0.029655692685188219521 -1.025226497242264001 -0.07140202580225608886 0.028068573250329242885 -0.33858451642769582524 0.34245974549466684511 0.093628710733467540583];

% Output 1
y1_step1.ymin = -1;
y1_step1.gain = [1;2];
y1_step1.xoffset = [-1;0];

% ===== SIMULATION ========

% Dimensions
Q = size(x1,1); % samples

% Input 1
x1 = x1';
xp1 = mapminmax_apply(x1,x1_step1);

% Layer 1
a1 = tansig_apply(repmat(b1,1,Q) + IW1_1*xp1);

% Layer 2
a2 = repmat(b2,1,Q) + LW2_1*a1;

% Output 1
y1 = mapminmax_reverse(a2,y1_step1);
y1 = y1';
end

% ===== MODULE FUNCTIONS ========

% Map Minimum and Maximum Input Processing Function
function y = mapminmax_apply(x,settings)
y = bsxfun(@minus,x,settings.xoffset);
y = bsxfun(@times,y,settings.gain);
y = bsxfun(@plus,y,settings.ymin);
end

% Sigmoid Symmetric Transfer Function
function a = tansig_apply(n,~)
a = 2 ./ (1 + exp(-2*n)) - 1;
end

% Map Minimum and Maximum Output Reverse-Processing Function
function x = mapminmax_reverse(y,settings)
x = bsxfun(@minus,y,settings.ymin);
x = bsxfun(@rdivide,x,settings.gain);
x = bsxfun(@plus,x,settings.xoffset);
end
