function [y1] = gdNetT2N40D(x1)
%MYNEURALNETWORKFUNCTION neural network simulation function.
%
% Auto-generated by MATLAB, 12-Aug-2021 22:05:45.
%
% [y1] = myNeuralNetworkFunction(x1) takes these arguments:
%   x = Qx14 matrix, input #1
% and returns:
%   y = Qx2 matrix, output #1
% where Q is the number of samples.

%#ok<*RPMT0>

% ===== NEURAL NETWORK CONSTANTS =====

% Input 1
x1_step1.xoffset = [0.015853;0.016293;0.018015;0.0213;0.027949;0.041065;0.056708;0.036124;0.028091;0.020117;0.016488;0.014631;0.015853;0.001797];
x1_step1.gain = [2.03221673185002;2.03312571731217;2.03669098815155;2.04352712782262;2.05750521320383;2.08564709808277;2.12023424347922;2.07495569969581;2.0578058233847;2.04106000410253;2.03352882323754;2.02969648933547;2.03221673185002;2.00549103445233];
x1_step1.ymin = -1;

% Layer 1
b1 = [2.7671803843825042435;3.0788359795124504714;3.7617897803696398462;4.2066138411819045118;-0.90707594516412470842;-3.1415364241219947417;-0.98814650214459243127;-0.8595154143033226779;-2.4029164193434957575;1.489635863549982675;2.9942706409267572099;-1.3022055442518178925;3.6011073945409184383;-0.33556083916453660621;1.23329890838984646;-3.7795657657729524459;5.3431702387616546446;-0.82638928225408592176;1.0061583437521526285;0.97134268050005212469;-2.8821086580846451142;1.6205481934198922023;0.36424437088704680887;-2.2456374372412319929;-2.9909218749795742909;0.40570900374253360265;-3.3241319622077343254;0.67601920536390569527;0.34615284442025134881;-2.6772448383892717416;-1.0606227848220779464;2.371629836140638492;-2.3223452297037137093;1.4322517725519843257;-0.47172293818721727776;-5.084972251090171369;-6.1506300187063622786;3.4737980150391303269;-3.6879008696576547344;1.8534478684264046322];
IW1_1 = [0.57441354018353929511 0.17575229025597258192 -0.027981198005058348366 -1.5608240473715260244 -0.15786525783852203841 -0.72100093116451946518 1.3323393586062688421 1.0484831996956311961 -0.77365332265464537009 -0.073754437274196671392 0.56662093356707399217 -0.14053314417268125691 1.8666954901679069234 0.16682637469782413131;0.049842909913460492488 -0.30597298163164149409 -2.0206938379351373491 -1.4086981562500386911 0.54843955128095456253 2.0627834650568437347 -0.031669944164735022718 0.18094673955263451681 1.3648930067130553567 -0.93685809105593254031 -0.044003925760619372332 1.7679363645688683793 1.0405737125980936142 -0.61386051859993562285;-2.7886210813880945025 4.0036578089154399862 4.7773561636205883474 -0.39789048534700588444 0.15224511259368458949 -0.38691584117745475568 0.84853149144802730852 -0.58595699976870840864 0.35141214845587348536 0.58760874426195441877 0.44519287089780235078 0.97334777887381784822 -2.6240040747698896162 0.13504208541713053071;-0.94712094539188818043 -0.29378494142418887236 4.7972191108792667791 -1.12833539521228432 0.30979333714446077863 1.3364653666890515815 0.68478602425248413788 -0.56798483149623013588 0.085736573118045514286 0.046414009797503555377 1.5386461456575477591 0.50306841725219653139 -0.79352801081713741915 0.52826373145860738845;-0.26645212488361236236 -2.0836034247374648487 -1.8731082862953152279 0.10925360817517328071 -0.11648003086053121402 1.8316739269509099142 0.67005270260224736312 -0.40471205319208020112 -1.5723007783745530652 1.4926007441687441091 -1.8338561330452134435 1.2816310540187176858 -0.15772405410253659275 2.1075635422620373483;-0.92091252552808533505 -1.9540622016778455006 -0.53877811554225341073 0.11296435496843539037 -1.697025845373087316 3.050476161204194625 -0.61333991005384880246 -0.22311887537268343396 -0.50897826838387771886 0.23320288290923513186 -2.7115465761026338321 -1.0506017601751271862 -1.2013896933627541408 -1.1370606221917929357;0.060161562882898138305 1.9100294108642905666 -1.2200412590704539095 0.033702201430279049577 0.61984419277882030208 -0.57033443877794687271 2.9505525736334670128 0.86343399352023886273 0.88837240174752296618 1.1306069832054541635 -0.13355855413161699108 1.4059337385984458368 -0.46412853456896685511 1.513603589311126596;0.57757146930881608782 1.6182522493295798949 0.99692402288664871968 1.398695558564974295 -0.17228975959514297722 -2.1075988895964212766 -1.0328798221291914938 -0.42783824685516330666 2.0695742331539692671 -0.094582362245640844156 -0.4785089269361507136 -1.1207959711114019452 -0.33285443069496933877 0.57073120345649375196;0.43573080575196460051 -0.32980329139310216036 -1.2151363574742062301 0.091530916906285328394 0.26097850156115054432 -2.4961854235725797757 2.1900845397576245155 -2.0261007433699140812 -0.51748885968788693734 1.2351182559456981291 1.1901135809940199817 0.37043759450257457422 -0.44581338041828844077 -0.027298539315960015234;0.014068519677782304056 -0.61317489048542594965 -0.87151697254694626693 2.350814679701376253 -0.058783495463194300468 1.0663986062619710271 -1.1642155059247309978 -2.4967248925890022093 -0.43284302239695549019 1.1598834025008759596 0.78462428077289370076 -0.12946933618562272983 0.86410431890621497431 0.55022762031784711034;-0.8573694066764535604 -0.64085175247157077916 2.4853724243217358847 -0.6188148495725128706 -0.0317451802918068543 0.17434961690326286621 -0.51246607048819958763 -0.53261080550582162729 0.40871419037526823814 -0.89837925649066474598 -0.49330618273882936853 1.2548751566881182207 -1.3148817529741223531 -1.693179205155722622;0.4242127364471038331 0.43741833573762417542 -1.1208790791564262612 -0.2861223719587700498 -0.024616123640674759943 -2.2016030118656892967 2.0066781760782799182 -2.0693300650532906459 -0.010888897411766820106 0.75502546303833051322 1.3465685821439794534 0.21032391718299112138 0.46809259987119383739 -0.18434718882057191114;1.9747718659757098614 -0.036220712418360549723 -0.88534919727096594855 0.51964247780128214327 0.62131758013845628241 1.8903508652965435033 2.4111859215169615389 -7.1938813674934962705 -0.33532271243190164833 0.24098357678031420703 -0.30621069261220990043 0.024759345455692836208 3.3086659180376556399 -0.97638471747033328541;-1.0123648071999025166 -0.63623184473234106751 -1.7831737922524253381 -0.022314475420298112568 -0.91866768811977317366 -0.18695799230304688265 0.7780436482299336598 0.71989756441347740878 -2.9919063216358661172 -0.69169004441132253547 -0.36698868334118711632 2.1869962131531424099 -0.46364082522395894115 -0.82317228252410745704;1.3734986580222019459 0.6752083916650638562 0.033279091046561605494 0.61639567703964859291 0.22327137416982323348 1.132876699366437645 1.0371546678376786232 -1.6566703930765858122 -4.4955861044396625559 0.55856264017130874411 1.5878065549904230025 -0.025790429618564980618 0.80644863654668852426 -2.34990600923193238;-0.72239621183849012098 -1.5008594899863261229 0.4836064317046839256 -0.61867524645045879339 0.096908277906952763892 1.2214866884177344453 3.0439905696898001963 -2.1808716563397743116 -3.7323680309045754733 0.48573397762785253118 1.0141671637621036961 0.11549401263381924021 -1.5355842125875289739 1.2369780146943363253;3.6996153949777315084 -1.5783038213388984605 1.0409682513524010083 -2.2876450916175619099 3.3224727084051672854 0.99085649169062373076 -0.043564868218095034735 -0.57518732141870443364 -0.53212223667997415877 0.15851369874695003803 2.0448652287967541419 0.54214472428077364885 3.6720922329336320722 1.7800540988358120043;-0.76879644023769744265 0.14884287006605631531 0.81155685996462467724 1.0276337383048190777 -0.057608739259296708191 0.35996026387745244657 -1.4747908814442725056 -0.63134513389875301925 -0.32126582183812396609 -0.17249405593920560942 -1.7070253718034356094 -0.38372263503974202159 -0.81610919869116538283 -0.93022578423107160628;0.74249376284559920336 0.43528720500389450621 0.57883203354151535613 0.59821331296986324233 1.1637244342432753186 2.1052777757085396892 0.25953594280055347632 3.4787135353481097866 -0.95628555973238016374 4.8458708547965816393 -7.2066743748221249177 -0.62704178121015852199 -0.32949828713722217888 0.55677394341607977513;0.66623112594803857167 -0.43915370659110686269 -1.1081024861892196931 1.261676338208567616 0.11576203389912294306 -0.047152818356180327408 -1.5522682534331384563 0.2068085573743180805 -0.054105803559716489359 0.29086843350695040789 -0.77443482346132397343 0.98187994616136520243 0.74135143720568907888 1.2682448259417862246;-1.3957958926944844524 0.4151784206410577549 0.7699536307481003039 1.2363494392277265543 0.01746818789783175993 1.3693663996950586892 -1.4007244965537577475 -0.87804424985737139497 -0.25561381516447784223 0.10506446307890361658 -4.5937036016773475922 -0.29425665296396724679 -1.2297185528019294321 -1.3353162215627063514;1.2845346623322622115 -0.28014479115967594325 -0.33871503471037073263 0.60709550764001085632 0.71464314060584743782 -0.4217501716523680555 2.4087290271010854958 0.83202910913699135165 0.90515429698971983097 1.3435208593784353504 0.063373833025531095542 0.57104166418717272613 1.2293177575140223912 0.57979763425454700077;0.072638572221128919204 -1.0382547288113121997 0.23365096775792817962 2.4201415976369835548 -1.566830312927273372 1.467039975707384647 0.4020184374039373898 2.8286685572554137735 -0.59628435044745220495 1.3677335862648740683 -2.064692269991048601 0.018627008347956310053 -0.08066070906298351828 1.101584205394553706;-0.63428400656617545117 0.39953955443940919467 4.8118159904558330808 -1.13928642945564218 0.53736104797507822095 1.8665553488127466508 0.87876738828030731554 -0.58908289229898547212 -1.1969024711891522728 -3.4938663199549635507 0.89401246554922919607 -1.9454428314443461545 0.15105318544554463545 0.70444276250537218864;0.17242618123005079567 -1.6890676624758433899 -0.14017735001372166881 -4.7759556254708019907 1.8076910092555189546 0.41801580105909980078 -0.58351167704143636072 2.455860278738818625 -1.4441767956001916318 -1.0958107792909554945 0.19516405216320628635 -0.55947599737791187113 0.26248961540618076516 0.83222892326252784212;-1.3568862018921015178 0.63000310244969004447 2.0795296152178890381 1.6987845949269564372 -0.51557344421618789276 -0.40694468110016235318 -0.26763264786683405028 -0.50601378287516818322 -1.5487016566292002295 0.77152325277737798803 0.092575464086634876026 0.096098675963130347766 -0.26443727224340812798 -0.79570972163627307072;-0.61771500111193167193 -0.080086112183388208363 -0.17016982321065882156 0.52710495275347668542 -0.99796499428322271719 -1.7424147041315782847 0.011542057272803614432 -1.5896063717227524315 3.6208368272797728515 -4.2395015817859444951 -1.1515854414981727682 2.6070396250311103081 0.36462592251042996727 -0.18888272730073346617;-1.247249554742144273 0.16751749290895262545 1.2763316278818486182 -2.3305045532634083294 -0.0074171185586326647543 -0.28542560566569835645 0.92137803919939076369 -0.43749820387371246566 0.83292388230254776893 1.3677540534804839556 0.042151972995418535151 0.19874410185377314186 -1.0203220075537651201 -1.4212662636309114639;0.060218586505418766897 1.2644479393577316984 1.2170455518468044076 -0.41881217074052912164 1.7782486770929120112 0.69414712291939395516 1.0510784060873294976 -0.80309124731581216228 1.7007904399350999292 0.45911061926608703887 0.61323702335839369582 -0.34746250803423472941 0.5831124706587412776 2.9051248777886353736;-1.9514032731267190179 1.3127522188752389631 -3.6941226665262454354 0.33644147199764623535 -0.56308588705760953541 0.23006252246573569153 -0.47294879612804163749 0.093816395764565407855 1.0429009850699961781 0.64441717944444110167 1.4797251728244666946 1.1228193305649492029 -1.5986355993492957772 1.0591356679922923067;-0.21741832342260430933 -0.10876671700665443976 0.063098386612297274745 -2.5299635259957371503 -0.57962581171662541646 -1.2511745505809841461 1.3112863416944247064 -0.36200201138328780281 -1.1339657948624182193 -1.0250038373372190037 0.6343608694412325999 1.0054979693083399006 -0.31452272208665854603 0.63247678556991515642;2.3369895344906641554 -0.40073608484466272106 0.32378229947850128978 -1.062286525647240687 0.053826790538671835662 0.24341576814140172824 -1.3049119103660919983 0.4244704906971734637 -0.21146890867394721458 -0.350360955204400637 0.48822462811352118628 -0.66753917643566540452 2.3936270085967423782 1.1806809130849931222;-0.46748290530029806833 -1.1920827079590081699 4.6314544248084672518 -0.29742449958225269935 -0.22320402462274580024 0.51141007065319654679 1.3034397143381444284 -0.8230188504216937595 -1.9306261244575937397 -0.15625239468307547397 0.56691582686226960064 -2.6066773683082642421 -0.20150937944522645529 0.9449249041408924743;1.8163689176529647096 0.061382413973445543176 0.31479179534113693739 -1.6043841809090442219 0.32201123220693939064 1.7631788010592110982 -2.1404550468850351841 -1.7217578663582193688 -0.72300375511744230383 0.86148086621888364522 1.4215542647375887242 -0.69804742438884126443 1.2478533606941180079 1.1932227944121696073;0.21404607302339867525 0.20589661313987236979 -0.06224721778200719563 0.23548255162060199863 -0.25823850308790680108 0.3953710964849966869 -0.51257635702664483546 0.728304012315501903 -0.2130185312775430273 -0.31691661278156291193 0.26672150533866906263 -0.55638772092309618511 -0.31807509786763915605 0.05522898851955317101;-2.8053001807400090861 -0.36349142761662095458 0.099080777050161578101 1.64789352810346168 0.11249292564598784017 0.92191792573017006251 -0.70237341451531853931 -3.2951904964087317396 1.2478519216531007707 0.26725043167337414474 -0.74511793725410313538 0.51985000060684960488 -1.6831599667734777892 -0.096506634788921352719;-4.5360312124700090664 1.8462494380110539005 3.8399143007443199416 -1.4050522749952105706 0.33359786515293021747 1.5595593607032289807 0.94560235512535284474 1.0165765915735758274 -1.1329556652376968628 0.79552560434201935458 -3.5030699989555280638 -0.56162492898744009739 -4.8456850575219130306 0.50986742066594470391;-1.8914987515926162676 1.2131226357757167733 0.91109946392127538761 -0.63592161124675450345 2.9788604328495051909 0.31404457499190169267 2.3884728752893531478 -1.3505538611053893305 -2.1030641595524861565 1.3460757674856647093 1.0403344912674088452 1.6135158471408321823 -1.8540710596107659036 -7.8412477812321679238;-0.42570176548400845418 0.19908848489096575562 -0.2870699825381088921 1.496923194786568434 -1.6832840271051443537 -2.8361478074655637194 -0.36126970873977648502 -2.3566464080327533814 0.42421842323876174374 -1.2310780309279212297 -0.26683277543513006513 0.65929049594264632628 -0.050935506873502595093 -4.7468378049746355885;-0.11773345702045795447 0.36920784519009391955 -0.20904649892373433628 0.086647921645695916149 -0.25719753065154943306 -0.026865601308967968636 -0.76117393326516813445 0.22482810232425676222 -0.15900639440071823172 -0.30069158818422331292 0.36276561763302672681 -0.2249459460835969149 -0.0092852348763356740147 -1.8155175098358311558];

% Layer 2
b2 = [-0.54073295869472304265;1.5691235771594300719];
LW2_1 = [-3.8087159815541999919 -1.5931549874085479956 1.647442601672148399 -1.5696578499105571236 0.96381866222631296104 -0.68179559547726598101 -1.8884011528679121028 -1.4995553560926211389 -1.9624389528916652559 -1.215355752802033118 3.4266201032954457517 2.7110010488609801449 0.52682269872536990896 -0.94022915322193245657 0.6877061697647477434 0.60120536095433563251 -0.48788389126232606374 1.5269146453983184486 0.33159402293047096633 1.5157118310920953963 -1.034816524378667113 1.9016825932992320602 -0.48818256832413620128 0.73993975112064847011 -0.82080275662133350689 -2.2759554143378926128 0.39244076962501922567 1.0728539422277336701 -0.75412394168388507953 -0.69277584324230145896 0.9124740637463175652 -1.9736958737614895831 -0.99694493678193185637 1.1677539114762651717 3.8631297838869236294 -2.7762405575740514152 -0.56588735157117731056 -0.17563529867805052764 -0.13056402635360567221 -2.5139186281261811651;-0.01057325085654006562 -0.013134038416915225223 -0.015367310461460823023 -0.0537722944851388579 -0.020335478140408539544 -0.054218278864742189271 0.011546161189912897138 -0.0036279519390934925581 -0.067736885189757234382 -0.0020975244538525093102 -0.0018658710332403469559 0.13262158663697445893 0.0025328170131470408889 0.00072413753196926976437 -0.039641935529802010962 0.0015700979368810262168 -0.040424342029983587055 0.059218511753398657416 0.010512358027533617172 0.1838716245022732898 -0.0082120832549326810978 -0.053662482929106830598 -0.079769468310379801346 -0.010419247105872676482 -0.012426060797257615018 0.022673748216727657168 0.020934489305158659328 0.037444390155619941551 -0.055847296164028920051 0.0093627535864780897512 0.025351706270083023548 0.039288214953056711798 0.035294666937309794597 0.026790496645029946571 0.29920762440156495332 0.0023708333640044651665 -0.044429911300068514191 -0.77348887821612510862 1.114416028450629037 -0.68082910883482328224];

% Output 1
y1_step1.ymin = -1;
y1_step1.gain = [1;2];
y1_step1.xoffset = [-1;0];

% ===== SIMULATION ========

% Dimensions
Q = size(x1,1); % samples

% Input 1
x1 = x1';
xp1 = mapminmax_apply(x1,x1_step1);

% Layer 1
a1 = tansig_apply(repmat(b1,1,Q) + IW1_1*xp1);

% Layer 2
a2 = repmat(b2,1,Q) + LW2_1*a1;

% Output 1
y1 = mapminmax_reverse(a2,y1_step1);
y1 = y1';
end

% ===== MODULE FUNCTIONS ========

% Map Minimum and Maximum Input Processing Function
function y = mapminmax_apply(x,settings)
y = bsxfun(@minus,x,settings.xoffset);
y = bsxfun(@times,y,settings.gain);
y = bsxfun(@plus,y,settings.ymin);
end

% Sigmoid Symmetric Transfer Function
function a = tansig_apply(n,~)
a = 2 ./ (1 + exp(-2*n)) - 1;
end

% Map Minimum and Maximum Output Reverse-Processing Function
function x = mapminmax_reverse(y,settings)
x = bsxfun(@minus,y,settings.ymin);
x = bsxfun(@rdivide,x,settings.gain);
x = bsxfun(@plus,x,settings.xoffset);
end
