function [y1] = gdNet3T30N(x1)
%GDNET3T30N neural network simulation function.
%
% Auto-generated by MATLAB, 18-Aug-2021 15:41:19.
% 
% [y1] = gdNet3T30N(x1) takes these arguments:
%   x = 14xQ matrix, input #1
% and returns:
%   y = 2xQ matrix, output #1
% where Q is the number of samples.

%#ok<*RPMT0>

% ===== NEURAL NETWORK CONSTANTS =====

% Input 1
x1_step1.xoffset = [0.014469;0.014929;0.016612;0.019995;0.027617;0.033082;0.040462;0.032248;0.027544;0.019775;0.016141;0.014448;0.014469;0.001797];
x1_step1.gain = [2.02936285109246;2.03031050553716;2.03378524041375;2.04080591425554;2.05680272073864;2.06842772603261;2.08433642023557;2.06664517355686;2.05664832136364;2.04034787931342;2.03281161223305;2.02931960972125;2.02936285109246;2.00451617494214];
x1_step1.ymin = -1;

% Layer 1
b1 = [-0.92397820712091893736;2.9088194789810013496;22.238262572333681533;0.072336764164173630864;-10.164273956233069285;1.755879276314062043;2.036579034373189323;21.216894632649264452;0.24399411592309094843;-2.284134588558115464;4.2481472966400186664;29.531474688579745447;-1.1797284847008275843;1.2202927064809927504;0.37644688411146515206;3.6931254068319705475;4.686706615584690816;0.7183184720744849594;-3.2659817728344084919;-3.7650039316825889557;-15.628983040843440477;-3.5368528857130665521;7.1238240852889171961;-2.1092202391346011048;6.8569008708520478024;-0.049872422218220441303;-0.54059025567681351365;18.83220426488079724;3.8989625781352339473;12.49894694557137953];
IW1_1 = [-0.030637743459004825736 -0.62541599641497835904 0.12964296924564405744 0.78924174191093277031 0.99622246207129827589 -2.0739922712918530401 1.1166947124328383545 -1.1668053351374130244 1.3116286102094116828 -0.13318531692320770277 -0.011521569317975627333 0.51155092073765773275 0.49632485061460057674 -0.23139352542451804839;0.066917065159693991938 -0.42728568581346054733 2.1299219926931325375 -0.65048657352027539069 0.93331438627469165414 -1.8818421636778088768 0.76616753614453447785 -0.88397596295344316175 3.3048141249929292584 -1.718402894551350979 0.085240362564388577615 0.39870210210433243425 0.43045877438795804304 0.69235841078883564315;-0.17968727359855846126 1.7453426535294753741 9.8751583493337413699 0.3361937336522088926 -0.93258548408299657417 -0.69794327704215652908 -1.0764415163535494546 7.8768314788730613429 1.903003225077204652 -3.9951885519288299342 0.91209309854037967646 10.01997033087362432 0.36957665504314951566 0.58490958145657501177;0.67913110722511460526 -0.16413809696322681497 0.34136037560182119766 -1.0644374306169317457 1.0857946813280558995 -0.51258756707886177217 0.20313457543078847212 0.38237358851445552022 0.061897475370088994584 0.35175117968437052962 -0.58916727473553343053 -0.00055868336611974295236 -0.32217241350994563209 -0.30387947957416650002;11.249321348982887159 -27.548542007632271122 -4.1253787702864759268 1.3224796949280315239 0.1361195353591547752 -0.35548749233023513305 -0.14641071661185850461 -0.1077849860716598579 -0.45140214007468698609 -0.52686286487708267057 -0.76313811517148255614 -3.4741740398746823182 11.439916368732230723 0.3730318217797347069;1.5171277449883193711 2.0633153231464054222 3.9123592966629594514 -2.8892395352881594661 -4.1234046390393936932 4.023981803377448152 -4.6117093655806007391 1.149607597233327505 3.4123268063431333452 0.16546394878569811726 4.3050705165797973351 0.00162110664019506686 1.3514189159577598698 0.16201430387110463127;0.1503904853184999113 -1.8537905267912144769 -0.94694543046946122455 1.5357514094280464434 0.98093587879937149676 -0.41358895075479129577 -0.74387836303453480635 0.26600448374718893563 -0.3939137176852074429 -0.10596981223099186109 -0.28541543653722933893 1.834352597676750074 0.90953883317739037118 -0.096382774552468977736;0.27739301081338962884 5.4572055815052085137 0.018530510872097873121 1.1298396090319182683 -9.7114318834665755986 3.5285075300082597849 8.72601490860549589 0.0061559679841014930401 1.2963634300272222077 -2.0829886037136473576 18.118013704116172846 -0.6172092673359469428 1.3266256879009086234 -0.85971588901556150741;-0.087915031028830484261 1.0625336253942780917 0.084155792153195338456 1.1201756527401840469 0.12211556830361891546 -2.4347372965488256469 -0.72988481336326915816 0.18809301621372775948 0.68847280373836727829 -0.53434065460113333579 0.69896874899246008717 0.56251752816158862025 0.13750393070481947699 0.011175689728101859122;-1.1878268386435493209 -1.9760025368588443051 -1.2077551859548423252 0.38886722432323372889 -0.25952493288173339447 1.2770499035081415151 2.8051325437989529377 -1.5064421187060250684 -1.6319858385444117044 -1.1816680068469052056 -0.11658669872135696277 -0.56536840818137046316 -0.41990316751632650316 -0.048089907621803359983;4.2852740047791195721 -3.2410342021949745117 -3.7081743532487769777 0.18040949502352868206 0.92016520342604157801 -0.57102685446218193199 1.6045488494411368485 -0.17656037294874521448 2.886891015661909865 0.3062960093362031011 0.32173163108865127091 0.21276581945023465003 4.5495707536007881089 0.16463431837486769416;1.0344312910321538101 4.57682090061492719 -5.5119836115673725985 3.6474785254182746641 13.002955230062671177 -10.861326647779089072 8.8976237026179489931 -1.3701359293830033259 -3.425578933947921012 -0.025588915787662119827 -3.1908693785619872685 24.582942854043338343 1.339200592925343658 1.6595368456886088193;-0.33274413146096099014 0.14773496961596502275 -0.12312075153626658719 1.2932178530772002745 -1.3986088550494788496 1.1710598479049976195 -0.21060331190054315531 -0.39718941286827091908 -0.10563396364624391688 -0.32789873630898741519 0.79693348215345860552 0.0091064337697240316238 0.064133809760026541658 1.9465445787949327006;1.3384473137562367118 5.8452292072263407618 -7.2885651257599892716 0.72338033684836477999 -0.20634933602784766293 5.6530419876806616841 1.2389510090363018424 -0.12868809681039544701 8.0400861144668240854 0.12583843086617937934 2.8013619669745932761 -13.246897832309022291 2.0139634206361352042 0.028044825614238440281;0.47480962731309128699 -0.069634532019799799674 0.4401905339795896821 -0.40536100877019570765 0.49603386449127800928 0.26318530323757949319 0.044206169794088326364 0.33848587130374141463 0.0063060229455646002461 0.25722983628674289669 -0.14424816838343265668 0.094671969594252614044 -0.28553071561347653784 -0.92382338495788984822;0.29586381477271161966 3.7231459908215303045 0.83697308786761015487 -6.7814686047958998572 -0.87757909537552258872 0.81669278719379911902 1.1254010349892475951 -1.9265423112060449107 1.6361282815837612237 -0.48672520327572055265 -0.11902226248744676718 5.0510230275819862911 0.85409770836558163154 0.067101474030915653213;1.7094269355274087641 -3.0588259071797403443 -1.8347854012410322877 1.5563084043013710733 -2.8516672055065046543 5.3167240008977767474 0.51240776121491293793 -0.68893818752086888324 -6.4916952944487213983 -4.266918007153932102 12.235804717674852782 -0.56672112242316252662 0.57683962092527496512 0.10097190966671468204;3.2505051386402024072 3.4683746721196158092 -2.2622626215678569572 -2.3508323584746890766 -0.38597073378046509173 -0.52154522934389335731 -0.70818546691583050823 -0.10421434640755812551 -1.001114125893343143 -0.34071100015685318319 -0.42637331328353922366 -1.4153442247425849221 2.8223735420181199629 0.25716144917757960409;-0.50308113949875088444 5.3648435501731457364 -4.3814771473536140434 3.7719290993224117159 -6.7625305193817579763 0.15209475064957778123 1.2725270550597787 4.3478652906954451396 -1.7241656780589467157 -0.21432864664423578738 -7.8478344107380788586 6.8334549960488502052 -1.4741177728290506543 0.35112875126294629258;-2.9563932002412673938 1.6747495700148731235 2.3547963053183380566 0.24988119124496147028 -0.45014742668911955636 0.13730712221271548779 -0.55698350263436635643 0.045631831711045629796 -1.8238682600172364534 0.32508999062434645877 -2.1727248179637790315 -0.11360280445889398004 -1.8662217372300802243 0.12793304806868585621;-0.039244883430802755819 0.397537609294355887 -7.4046960899742373385 -0.66510147190949497897 1.279081726259952978 0.63633076108060782072 1.3853245521659438566 -6.9344006875156578573 3.7172170554381240848 -2.2274108208574716627 2.3131608772649432382 -9.1923301853531640404 0.5663057626308923842 -1.9331579778952883153;0.73246681020440040921 -4.5632621466350116179 0.7576490203407337809 -0.43215443825666549627 1.6057640485077384618 3.7150321264279626554 -0.47847431586954725091 -8.3108977658658336196 3.9922650008192150928 -0.42495786102534144346 0.43429900249422370706 0.63245669313464247807 0.70655627009440102881 -0.4249833161604426035;1.0587208150107623172 6.9936984087225342321 -2.3685116817172064962 -0.15904549431909026369 1.4598379912538181902 0.064892937905307743196 0.075298408676400238604 -0.60220551777044284414 3.2528675857563160712 -0.73297818727214381074 0.39958743684184161449 0.20214701101515014647 0.79216828247439841082 0.31572306421143281341;-1.1717515998510665831 -0.12330959208955745432 0.75052986591658465976 0.34895212812017556425 0.35668876765063733947 -3.0342904687974252553 -0.82179213605529843889 0.20847468728346296718 -0.4569148318926777308 -0.57599985742701931279 0.22790468659060814094 0.53349884898597144112 -0.6104802465061213157 -0.090001087906719526299;0.20513992248543982955 1.1462165682279001899 0.53285838686800224284 2.9099730118453286387 -3.041789335361531954 -5.0772890587755661329 1.6996503011277614981 4.8805804007086592833 -3.1698555868015780845 2.4021197489078356391 2.3280415327387871116 -1.8718833227353042226 0.27577100624247119498 0.22496282395671451937;-0.4977467085936957969 -4.3331107972570475084 0.50135997215652694514 4.191068858590018209 0.10895391769965866169 -2.3458466547999941021 7.8362475133010427442 0.41937183357279272933 -11.203083527836218636 4.0453394834980258565 1.4195281704672035872 0.37053567369334672321 -0.91351776696904463115 -0.00078069031395285037878;-0.57687067003948688804 -1.3060098712696512901 6.1038177667179080998 -3.8367846162123853127 1.9865615178162330245 -0.34938538260737717067 2.9591258705987235622 -0.041142616769516658637 1.6053656637319273504 0.81796370847398203185 0.48051421926728965506 -3.4066691608617247766 -0.90641607756424780185 0.089169719799176677677;0.5399200022092087714 3.2937042435864647416 0.020810409731327823152 0.94915544895255821167 4.7979024858069907467 -1.333297784780809625 5.59235307333057996 1.3423587971340489311 2.7084319580252378401 1.7184721363664638982 8.4121610384703799923 0.17753749494374257423 0.21055553284562689154 5.5302953831708787646;0.65893029536867864238 -0.071925017725077436404 0.10423457048270948211 -0.35335432673498529121 0.2672030036314371193 -0.096459718115523410131 -0.33852312209788637531 -0.23345082112947795894 0.5672108981655951121 -0.077976289585170194263 0.9104311978638783831 0.3558392049602187579 0.9743836912118791771 -0.02585177295615816509;2.5961714868487759666 -0.62039994611778004341 -5.2473781830754022693 -3.3542976781845732503 0.10681722534629831123 -1.6081045530142334954 10.470644586128916131 0.17682321580828222474 -8.525137896058051723 0.024055772247859333324 4.0025261860665208857 -0.23244619508589606238 1.7544492111197989015 1.2607412694443878021];

% Layer 2
b2 = [5.4813576259005705182;0.80862664113911286723];
LW2_1 = [0.94939426884856026323 0.47603478479295702197 -0.28209594626931538963 -0.9797811935516248516 -0.32244566702817989423 0.27107459021108165631 1.0500225121980650833 -0.13643178695071206397 -1.0583144111218154571 -0.41581126495916398422 -0.90454168365112541661 -0.16172718316431108909 -0.029860738427773203529 0.18334972463031407042 0.35349296068658864201 0.27814564879819902998 -0.29525714913033929143 0.26000011403934669696 0.17675617180383357274 -1.2523301133067226143 -0.40898620872128671477 -0.29851275283010725303 0.30990364768623535063 0.6555885444651570193 -0.29628070362139119487 0.17906089605385774877 0.2225989616598965104 0.032932872175001133563 -7.0305196975682768823 0.84161365741501725779;0.10935683740658500018 -0.062938834674854102214 0.0071684578672654821266 1.0281665747971928671 -0.002901170690958673748 0.017236799814340494907 0.025288648420754809842 -0.014338815763140186008 -0.042302890331263338919 -0.00032310586305241617219 -0.042586107468376141472 -0.026694620833671096199 0.66524824259163484186 0.012570533718969359796 -1.4114183034371277081 0.0013641560109122991083 -0.020208267563794686528 -0.0042870324651406149091 0.018915825686925954313 -0.056652821036513659192 0.89601858344238460852 -0.020278179877629375766 0.020192048097376524146 0.07921848142081848454 -0.028292061524586274018 -0.0021638822809697936568 0.003630026933475359683 -0.75776507151636918191 -0.095321042723929591545 1.0736470726377718155];

% Output 1
y1_step1.ymin = -1;
y1_step1.gain = [1;2];
y1_step1.xoffset = [-1;0];

% ===== SIMULATION ========

% Dimensions
Q = size(x1,2); % samples

% Input 1
xp1 = mapminmax_apply(x1,x1_step1);

% Layer 1
a1 = tansig_apply(repmat(b1,1,Q) + IW1_1*xp1);

% Layer 2
a2 = repmat(b2,1,Q) + LW2_1*a1;

% Output 1
y1 = mapminmax_reverse(a2,y1_step1);
end

% ===== MODULE FUNCTIONS ========

% Map Minimum and Maximum Input Processing Function
function y = mapminmax_apply(x,settings)
  y = bsxfun(@minus,x,settings.xoffset);
  y = bsxfun(@times,y,settings.gain);
  y = bsxfun(@plus,y,settings.ymin);
end

% Sigmoid Symmetric Transfer Function
function a = tansig_apply(n,~)
  a = 2 ./ (1 + exp(-2*n)) - 1;
end

% Map Minimum and Maximum Output Reverse-Processing Function
function x = mapminmax_reverse(y,settings)
  x = bsxfun(@minus,y,settings.ymin);
  x = bsxfun(@rdivide,x,settings.gain);
  x = bsxfun(@plus,x,settings.xoffset);
end
