function [y1] = gdNet3T40Nv2(x1)
%GDNET3T40NV2 neural network simulation function.
%
% Auto-generated by MATLAB, 30-Aug-2021 21:51:10.
% 
% [y1] = gdNet3T40Nv2(x1) takes these arguments:
%   x = 14xQ matrix, input #1
% and returns:
%   y = 2xQ matrix, output #1
% where Q is the number of samples.

%#ok<*RPMT0>

% ===== NEURAL NETWORK CONSTANTS =====

% Input 1
x1_step1.xoffset = [0.014469;0.014929;0.016612;0.019995;0.027617;0.033082;0.040462;0.032248;0.027544;0.019775;0.016141;0.014448;0.014469;0.001797];
x1_step1.gain = [2.02936285109246;2.03031050553716;2.03378524041375;2.04080591425554;2.05680272073864;2.06842772603261;2.08433642023557;2.06664517355686;2.05664832136364;2.04034787931342;2.03281161223305;2.02931960972125;2.02936285109246;2.00451617494214];
x1_step1.ymin = -1;

% Layer 1
b1 = [-3.0598110658358144143;2.0005975729184304335;-4.3595540166343589306;11.766100402971273908;-1.892717218908368304;3.1242646204052881842;-4.7104441779590757733;-4.5766811827092332976;-1.7798471500487855756;2.1926302721315993338;-1.9686347322393169534;-4.9649861588685855196;6.6764795786973794023;1.9783850581334458951;0.17480694971059146381;-3.302905110532756261;-0.77784719266735546928;-0.48092752972205371487;-1.3573370110635589736;1.1010165233594801926;1.6888697259540734752;3.9732665342079940274;-1.0421449191393035161;-1.5110383544735310757;1.0958654868224275702;-1.1821167338478610898;0.18457923329181966099;-0.85583785029742331929;-2.0055059078793950889;-0.20179782209075136645;2.8454918759898744085;-2.7790272291948290295;12.790010950550680491;-20.106487763455259454;0.24681916436620876532;23.575609385247886962;6.8093289584010188165;17.466550276337770242;0.56609090033248377072;-3.6262534167392708184];
IW1_1 = [-0.49366522097096054988 3.0762106228438055311 0.34346076104937550699 0.87177061420654422541 -1.8054003158345415248 0.6726193012584639197 -0.11561255187083069318 0.48720658133901140197 -3.9503156924462303756 0.33751675942588543755 -2.8371673073636092255 2.2210274650535652974 -1.438095586080154531 0.22548614948312326045;0.13839110150656286358 -0.52208861368326453523 -0.15699318443205348417 -0.32155460021289633543 -1.0840055025892325613 -0.8373274519369985347 0.2499701975480255467 -0.1811259866615582137 3.1922770862822704707 -1.4346864417244504786 -0.20779180754373549611 1.0880221843041013585 0.41404829398609466207 -0.1349306335828215353;-0.25012676213091794564 2.1567458520283473433 -0.47382931943712874867 0.063409255367720726571 -0.025171386367345630064 -0.26403755541510953719 -1.5604182276081846048 -1.9437883417822412468 -1.712323440501402505 0.6767370927311219253 0.43664206852089515465 -1.68734843861006234 -0.91190173356274695227 0.23913161334374702371;-6.2297787670205098109 15.532344605758753531 7.1657689010456584455 -0.19428025739001464345 -2.1159349920714980442 0.065114067963825988938 -0.34959728032267084474 0.016151822372666796435 -0.1811529683526062473 -1.2511956303659814704 -0.30795233620406625707 7.3407749111525042451 -5.7124929100846344454 -0.15089087251118965538;-0.027163385118245626793 -0.2773068671312739486 -0.61855144415507423705 -0.04415916365302954838 -0.20867431376548833954 0.1007058254957916843 -1.3561129235829207929 -1.3737954436346548892 0.11983048211952268547 -0.26659967082615010359 0.3235091700320950614 -0.068720296209221320982 0.40140827204427748098 0.003066280281021328824;-0.48436357403996394 0.775138514037262083 1.4169945923224387396 -0.29276325577162848335 1.765612654007479243 -0.16126200408046126311 -1.7585929781173745834 3.7788073356612996712 -1.045568598927244075 -0.040195371411765337677 0.096301108000481791538 1.1719678674871512047 -0.09667916582416556659 0.013187899557255746211;0.36104296893413789782 1.9089190844906009925 -5.3312967740428165442 -1.0108710442497372828 1.7733497011083179107 -0.67601851211457264501 1.56233012684088024 -3.5533249749867130696 5.8987477528953196071 4.0973503341921668763 -13.154866449154148711 2.9655982529191806663 0.22246146612813533228 0.16931261939964409313;-0.18500970632032143204 2.212811317858665916 -0.48261252696791656636 0.60119198471701695841 0.049300439070571029643 0.11928565037653590664 -4.3138560170247393089 -1.0183448022796353083 -0.37968935252107594014 0.21877913747024044233 -0.42775547044185302514 -0.98740854095214070085 -0.94764482243399716932 0.22178704457125633653;0.7894569733981149362 -0.70865832326656219564 -0.22344943534785008388 -3.5179619180799623912 -0.052502926130706256691 -1.9844656220998688756 -1.2421871737107483824 -1.7839950382786127214 -0.0068411787048703216751 -2.6505085008745314923 0.067596366778127719988 0.22167582867204585484 1.4201838166759004345 0.60715055934176653807;-0.07603099770355563336 0.95770726285380325393 0.34101080707039077566 -0.60809890575744085517 2.4556026181966705835 -0.3259388773074927137 -2.392557546384866729 5.5744143415414937337 -1.4813404220359494001 0.3786079707212851031 -0.42527198214278744137 0.1445713588641205638 -0.37726679392581419226 -0.39895967547316857349;0.31064407385287662322 -0.22139602000708263896 -0.80199394483168962022 -0.09209042375116294199 -0.24189275916920263687 0.19968493059260425393 -1.5120551884094726169 -1.1114184288189719041 0.091134567616222225683 -0.25078339323389164939 0.26835965555313162634 -0.10554691186971285055 0.11658121849493187361 -0.060653583312100023406;2.2626957947088301992 -0.28653203583897102202 -1.5745527947579887051 -1.2591831721356849805 -8.2878030311558941179 0.97207348406382532158 6.5528082059507584134 -3.5784389557299105533 -2.4253573844735263343 -2.3090634664483311589 -1.5492597311621194578 4.1730181563386743449 1.1075055729722076414 -0.26080055158469495069;0.44048625373601058008 2.4848345225483203791 -0.50557988792996166882 -0.48645681511026073185 -2.0665813453847015069 -0.68511180428909090878 1.3692991277467505551 -0.64998478307886364824 -0.56006872100058802122 0.53718292407769574481 6.9895699635141346207 -0.57924556477785038577 0.85963385930989444361 -0.23818996565781239139;-1.9184440336358774548 6.6006315941134081626 -0.44582044448373847612 18.629205680678190049 -8.5783382163503816287 -2.2669796363652179316 -6.6732666058383989238 5.9164499048578811369 0.85604942088368363162 1.5225300532777192863 0.9164446226931350914 -2.2410139343961077429 -2.113573206811149241 0.22185454911658875066;-1.0555886012499078319 -0.81390024679214123537 -2.5495043911637709222 -0.032399815752216010178 4.1418397583109989313 0.5710682956156415413 -1.8413326751132725878 0.165197391276284411 -4.7354156264215507832 -0.82674671130905397209 2.4721664348293392877 0.6834462851467502098 0.075979096459134212727 0.40371388399964003302;0.8908835530630636601 1.776511596477200472 -0.61299280966977565122 -0.27321804677855454635 2.886260333453942728 0.79549050468213322596 -0.53350274800596519942 1.1800088701302613448 -2.4765587461660465429 -7.9036772776321360112 1.8210907315607713919 2.2982791273046672131 0.7101908856084551136 0.75253664817913501484;-1.7662628390355199492 0.70669442771035761997 -0.52696700434070653518 0.016541310890553856394 1.9978072523899954582 1.4516551776389923223 -2.1388448050892181485 0.16427718142772218535 0.33183115986678374254 -3.0754553097751808899 2.1609102732491534127 1.0060691828021697258 -1.973819242343492153 -0.15139190928227191923;0.082722620121730483511 0.27097842700028407226 1.2871626639088276089 0.64088005626904065437 0.016701617384752891204 -0.22646652000123149162 0.28738114400386782776 0.17009705003047789762 0.45345659211883321271 -0.021134021504587194307 0.11879647206786364544 -2.6940685970836284469 -0.59641609335309775375 0.24147772174812581758;0.30165526262333075547 0.055401871396612484277 2.1083542898124072451 -1.6758308255114617857 0.10326737842887694085 -1.26128746689131499 -0.22716635626711448315 -2.9285054867486199903 6.7452817790062713499 2.5734410658691184715 1.3720266813239592185 -9.8105677809843285786 -0.26432360026852547152 0.3454131836072154571;-0.6199004429060880339 7.5853998653867140689 -1.9880223764400566377 -3.8321419999658514755 -3.6608999958268659825 -3.1978321945833210194 3.1204543832936471048 -0.72815636783954251765 -0.36237492115363656442 -0.72560560771826732029 -0.36545108162907213867 3.0775873458764362312 0.11700545144782090179 0.10548506907941271327;0.63422773064716919666 2.1048819062507706512 0.69130105225272830971 -0.28862145981983727827 -3.4629199279471292172 0.10540988179167117 -0.89664879748047643382 2.6489411208715560875 -0.66937207015712041347 0.070313319084105013745 3.1912939758643386057 -0.20071653830690414089 0.19810534982542277183 0.13255489492089689296;10.222482498321951994 -20.835919841802585495 1.5463143171535542741 0.21935705553203579954 0.45129230175394119406 0.36216944583757187948 2.1706600523812884518 -0.35974851764285886713 -1.4590331650891950055 4.5273534820700369607 0.35097222554377677239 0.5462068284689975961 10.710144696171230549 0.51205891036562201091;0.48183473039939966887 3.8502979894287285845 -5.1149436587551484479 -2.0756221877578209245 2.1153189612878282588 -0.64863098127252627467 2.1168658667576694121 -2.971506585396245903 7.2095943616021394007 0.62717703130602453498 -5.3592526228330701343 1.9086763920352749491 0.017318436052943576159 -0.065500016200316896198;-2.1753503426554399169 4.6686076948783217233 0.17970001490511194886 -1.2472072277212755687 -0.41368430407154993533 -0.093824799237976361233 0.30993494584863362507 0.06456281864316555652 0.16936324786636960948 -0.70506385090920609127 0.73762570061948062872 -1.5358506367742024157 -0.73176503857817032372 0.11346941970007562439;-0.56881510113128397332 1.2356342445487458193 0.6947890082315927307 0.18139889669535641525 -1.7393536256356940672 -0.018505733833893693585 1.6347653291989365787 5.635376945847749397 0.71459579216446478256 0.13698781430947210014 -1.5710576093221784166 -1.6059283645100603799 -0.56357368228524551412 -0.17879365386954135242;0.28253123454795731062 -0.3315965041796116175 -2.692797457526571403 0.50969820454797820641 -1.6018150720845545365 0.21303202318866121256 0.78383422529749735563 -0.7206087396106620746 -1.0003063837600678632 1.3650062934781035384 -0.62924563752338558142 -0.52302994390943235992 -0.52269895228014284783 -0.001218734198871380698;-2.9443378462289424569 8.4264611248452645498 -0.43580804008647244796 -1.6149977217266962004 -0.48547682644219192216 -0.32426199915976594568 1.4848239281620005947 0.34983136191515734614 -0.34492494722636984905 3.1576544905819603493 -1.9415437796931838133 -1.2558497786754296843 -2.8654073173570906441 0.0028161693868753220199;0.11199387855136198888 -0.084550654301577168881 -0.18653400461911603947 0.067084668603516597885 -0.28792913658100893759 -0.10545449697381326093 0.093179331771261683648 0.0060705812155222678081 -0.012777576507950347273 0.20747715783599021688 -0.10844627190117230031 -0.14446187522377346157 -0.05588142469333675505 1.3410186301025057709;4.6264828509910511656 -9.9209908302906342215 6.4818829856492081731 -0.66616426199588074653 -5.5110333037414740431 -2.6423047582927332577 2.5175975759916959795 0.69509622162333861706 -1.6831474486583577477 -6.725691426297510489 4.7543068013164466734 0.30062688587959751629 4.9873458083162987009 0.77483958013819875799;0.08121934530812446873 -0.11397030108258109082 1.4367372022611153426 0.03034246572892412841 0.46472417580024816264 0.77490892979418146691 -0.89447530092408689129 -0.067124315572163695265 0.15030119686249315825 -0.77028413690443764406 -2.1523424335606038404 0.73400282306617414818 0.076692399153505882992 0.054264456906660624158;1.0010901323523140327 0.060459739176860247123 -0.66512583544639414246 -2.021958847733522191 0.16055968987835439465 -0.14602324859288057235 1.5465518717261892423 0.61875436398554251038 -0.65182847051624392964 0.16279614182330715 -0.30070218579787905133 4.4099397380548612801 0.08177397275690034828 -0.42696638768491340654;-0.96716998093490869071 3.3464457406507257531 0.53443996694010786896 0.63417131889973477055 -1.5724242227780107495 0.39059894235317338396 -0.38840611474583186524 0.57644502970471112047 -3.095988766106561485 -0.44395968014531045354 -2.0279038057638780757 1.6171706688684635012 -1.1903069120516582835 0.1870884466150646297;2.4724561086615066685 8.1336282753516169208 -3.2705550180292841667 -3.4395753854871968791 -0.17226846930739914132 2.200906879498553792 -2.2215552704362990788 -0.97570758622657249859 -0.70411022755664443018 0.54410503687483513513 6.5034611328849436518 2.7181291052157505739 3.1665795706870696335 -0.082186814596967486257;-5.2689038797261895652 2.4760460230593732689 4.2204549579731658326 3.478509892993033592 1.5129418638269986896 -1.2966280116874042694 -5.989278275038471655 -0.10528142380910393561 10.128435418786500222 5.9022257527629271578 -2.284332590118999029 -0.2541645689651884088 -5.8149703005518098564 -2.6247508529802763277;1.2413884291058103759 -0.42747136471094265842 0.3976007588982680141 -5.8670697900105777123 3.8089791037971272303 2.9873200692954995361 0.94149040287654439663 -1.1646307993202280606 0.42724133807185032952 0.083301353969101182839 -0.39572190879576496503 -1.5162051023565892294 0.96462188746628008129 0.049564867214699562248;0.80960010392808068325 5.1734902716850799109 0.044721224573952535197 0.86401220280311374911 3.3603305271599825943 -0.51613002209830960432 3.7549154807001619005 3.1393840718905314802 -1.4398475689101315478 3.5220404650985872586 0.39515580721401205588 14.105585382072046485 0.17673736768021428012 4.5074386532670835948;-0.476586063210218569 -1.631073371437884667 7.6686878693165247967 0.98430190559366292913 2.6493447059062362747 -0.43288615278612013748 -1.6939597726436637082 -0.28948316499631016052 6.0365554781091246284 -2.1586196681802718444 0.26965162175788370824 -0.43866885634645019776 -0.66177137135911723309 0.32717171258401933631;6.0999233414665949837 0.70960447129101322794 0.36668959819596547156 -1.1742215998909384389 2.8331140782775352527 -3.3699569892409444449 2.6977867614484130065 7.7025510286694185424 0.67778254832900630689 3.7293584753311508351 -0.95003749629073852567 -1.2090171641123683699 5.4366544058835035713 1.1998739699350127186;1.5704517564438322808 0.12737787781629866801 -0.37697289687414814452 -0.082483137760189562115 0.16211325608902091289 0.96131596102917904467 -1.4338426273995392712 -0.33525563679581921184 0.11587309463840946011 -0.42910879580168936887 -0.18316413806731440816 -1.530120554943647404 1.6844981210486673628 0.14409322960604206698;-2.5833128080132290449 0.90745147899592959462 0.15384328224435506183 0.17494802138793491553 0.3971799111857636233 0.071025105823005058037 0.34931136789943217913 -0.29562372865364394681 0.11581706736170914451 0.5745993092948733505 1.0460669458044959956 -1.5759701050945842393 -2.4041112642222306484 -0.046687381712604197892];

% Layer 2
b2 = [-1.0913538792787520482;0.60471767763427308751];
LW2_1 = [1.3818293176914120401 0.97990190012176492385 1.1320074815852196881 0.24454791995949068384 -5.7223431412374088367 0.80811035799724761919 0.34788178342737574589 -0.86498051467178549423 -0.18999922383818365623 -0.65659684228683845575 5.7953289076565592808 0.22396094183545131595 -0.46775950675012256674 -0.14147960362327413608 -0.26695201480893204771 0.29810186305123026473 0.51134201661418832163 0.84139425085811625493 -0.27140539569292360111 0.28880042453167337202 -0.40398499600462528525 -0.25499389840294461873 -0.37201143336468278644 -1.3346828501914658194 -0.34433143511910263568 -0.46161744983374142226 0.7313885966273673267 0.059491452734544827963 0.21925122823270518091 -0.98627878283955294769 0.49978927224574248855 -1.4235623305898261748 0.23335328883097064545 -0.62353267178224769385 -0.36360407034838621021 0.017598135753276077792 0.23115959972079655471 0.20793245388271686114 0.82521022014799672029 0.86436258769091867116;0.092393073244219539597 -0.069627279439137670924 0.027249205658633601085 -0.0060741491652137264215 -0.26826652031355496808 0.10170616430919053597 0.028676719487264638181 -0.00085540010068783001087 0.033527485966955358765 -0.067965131937174294574 0.25167981617347628953 0.02533151658676046844 -0.019283781918151502582 -0.0033427116155247691212 0.011995615321367045225 0.027689557080811739304 0.048865835580112385039 -0.00080778277975657153918 -0.029389439334450009195 0.010709089321342176587 -0.020360495083224534191 -0.010315181335774531099 -0.0095786395901734586178 -0.0025203540078406810529 -0.032872423854108427654 -0.12359937202175418081 0.032921430259516784589 1.133377951983125298 0.020622009194238902913 -0.023812367622045842869 0.030124079490991141628 -0.12556476751295214678 -0.0011794314937806438595 -0.55786421223425997074 0.0058075435765215059625 -0.75925598746435840614 0.038414830874269209615 0.018025405367115651667 0.064682295526671651498 0.047145048568830193181];

% Output 1
y1_step1.ymin = -1;
y1_step1.gain = [1;2];
y1_step1.xoffset = [-1;0];

% ===== SIMULATION ========

% Dimensions
Q = size(x1,2); % samples

% Input 1
xp1 = mapminmax_apply(x1,x1_step1);

% Layer 1
a1 = tansig_apply(repmat(b1,1,Q) + IW1_1*xp1);

% Layer 2
a2 = repmat(b2,1,Q) + LW2_1*a1;

% Output 1
y1 = mapminmax_reverse(a2,y1_step1);
end

% ===== MODULE FUNCTIONS ========

% Map Minimum and Maximum Input Processing Function
function y = mapminmax_apply(x,settings)
  y = bsxfun(@minus,x,settings.xoffset);
  y = bsxfun(@times,y,settings.gain);
  y = bsxfun(@plus,y,settings.ymin);
end

% Sigmoid Symmetric Transfer Function
function a = tansig_apply(n,~)
  a = 2 ./ (1 + exp(-2*n)) - 1;
end

% Map Minimum and Maximum Output Reverse-Processing Function
function x = mapminmax_reverse(y,settings)
  x = bsxfun(@minus,y,settings.ymin);
  x = bsxfun(@rdivide,x,settings.gain);
  x = bsxfun(@plus,x,settings.xoffset);
end
