function [y1] = gdNet2T40ND(x1)
%GDNET2T40ND neural network simulation function.
%
% Auto-generated by MATLAB, 16-Aug-2021 17:58:12.
% 
% [y1] = gdNet2T40ND(x1) takes these arguments:
%   x = 14xQ matrix, input #1
% and returns:
%   y = 2xQ matrix, output #1
% where Q is the number of samples.

%#ok<*RPMT0>

% ===== NEURAL NETWORK CONSTANTS =====

% Input 1
x1_step1.xoffset = [0.014469;0.014929;0.016612;0.019995;0.027617;0.033129;0.040462;0.032248;0.027814;0.019981;0.016227;0.014616;0.014469;0.001797];
x1_step1.gain = [2.02936285109246;2.03031050553716;2.03378524041375;2.04080591425554;2.05680272073864;2.06852827316157;2.08433642023557;2.06664517355686;2.05721950326378;2.04077676045056;2.03298931765763;2.02966559229701;2.02936285109246;2.00496228164708];
x1_step1.ymin = -1;

% Layer 1
b1 = [25.36392303488311839;-4.7076763968563080098;1.7548315005380683562;-1.7898595089615447762;6.8539027806914756269;-1.1277682178080103981;-0.93021165561522556331;-3.9776729380625552857;0.03985181928868134632;6.8192245198820442553;-6.4535675789267168412;0.62586017622342371425;-0.10331158725034336743;2.4258578444326257539;-2.5261095766649597216;-2.7110063901592234004;0.90463248429869791423;1.0695630657256454121;6.2251020531433622907;5.2500490699397701633;5.0729866853378986491;-4.51585572641666122;-10.410464711969481755;-0.71891148534694082617;-1.3449418793475302891;-3.1925503543148274765;2.0774918652034046751;-4.574129892255292873;0.95407881237756286819;4.4993786010582894619;-19.105462397203634595;0.84164494595591687887;-1.8726509433746905131;1.862494887314607217;3.7509985878703440143;-0.74636472562807842923;2.7786046801301624853;-4.2170695356261793663;7.3172582332995554921;-5.6448213742434427687];
IW1_1 = [-1.1073610804059161872 -2.7319917282002372794 15.981338675913480785 2.2450456781841188203 -0.25412501522545277721 -0.37122232018855400026 -1.8181071159467367959 5.2228922832579725011 -1.2833776084644819004 -3.3457924129982066219 -0.19802217961263557378 15.55746056706332503 -1.7209602648394082269 0.13846148434480343159;-1.7338974934494648661 -0.37186143525072840044 0.28975779559506764649 0.44727508314637814957 0.72903468019159922697 -0.0031655820775591298095 0.32425520733744045421 0.16291925334587156748 0.38441138687947257191 0.030378529606979117611 0.25912102041680856734 -1.0681970317375302226 -2.7994809265380733443 -0.088416717680975656646;-0.75729139690486968473 -0.29587770508978672446 0.29363361454803160733 0.11981979439165595103 -0.20363879545882840327 -0.36064479548399114295 0.77990198508813490808 1.4066354359198387503 -0.85085105882485900786 -0.068369241370385733236 -0.079760999180953820464 0.12566470625650805193 0.58899756387216106734 0.11508881517002529649;0.32950692412897641947 -0.37057275000898293182 -0.29343194814108941593 -0.056299608347103319295 -0.90159676195646987207 -0.1317988470339886975 -0.11679100886937869574 -0.13416002854051098381 0.036598901495089458669 0.13746135590361946432 -0.34977437096078484169 -0.38066765350812553637 -0.22720640034458919332 1.9219634745199445369;0.40184257802088590994 0.82055470654287054888 2.9576870490390962942 -0.29249132439756669877 -0.77234981989717543804 -0.25184631710095767287 -0.38606670711879170765 1.9524804437810974189 2.1170473389716333301 2.3289762815720220779 -2.5769392619763245023 0.64504218796198475872 0.17109106681658359239 0.15979616007998681537;1.3800535389638517447 -0.34185350435851918904 -0.38260325829068120296 2.2978669730886061018 -5.3096605909931238187 3.270830608514333715 -1.841870220782295231 -0.5198652382531044891 1.372669390821557478 3.4926493161788307873 -0.62785928553101366667 -1.4723399487046007206 0.29068091885274383035 -0.33317998271093052232;0.80216161172558309023 0.20284454172070220945 -0.036545282567781348093 -0.017454251268990059881 0.61711243137437343798 0.12208961398078480021 -0.1339574859160767295 -0.11508267307055732032 -0.010880961391086635057 -0.053675653155401320538 0.087570400692939726062 0.1452353785479644499 -0.87668214609058514597 1.8133188718657702321;-0.10490094712471821625 -0.17124370303925359749 -0.087992196858391297232 -1.9641419470819645454 -0.66503109538937543732 0.033970517229066077292 0.4901961545561261957 -0.66798725553692916979 0.90166200850819078205 -5.5681129967716609386 3.3262608150386503425 -0.543404140100817723 0.56929607492990141893 -0.14405605269208543451;-0.41563378863528716023 0.21793573547013636582 0.91050879934473183397 -7.3016624770708578041 6.7264743718413413376 3.4062859043112041491 0.74236444094481901512 0.085575495112413080268 -0.22253656355718157145 0.33934259628700969014 0.38522586829215216264 -0.6095439243900832027 -1.3985883024235885586 -0.26588946210093489242;-5.0739370152005545123 5.5868459739227889216 7.0771437984319893744 3.3740386353731119939 0.16261047556323143803 -1.384085431953254508 0.18021901842949206163 0.12262944596215823168 1.0058892401373915604 -0.43669228450453534407 -0.19427506519218229464 3.8772963799152186937 -5.1112192349146612358 0.091495635433210695253;-0.73352736520654404639 -2.2390927515600469455 -0.28291592123838432693 0.35783726032706725251 0.69308505668386444221 0.16413393434432635432 -0.20706417346571376337 -1.1173608806560220152 -0.76824830392981269256 -2.4042499299530781798 2.2605457296422626357 -0.48931207705333001901 -1.8406291204696905162 -0.082367416044947988629;-1.9571463736386593979 0.7149116661595766864 -3.6898410370854470841 1.4582377170692937263 0.20597240641637479253 -0.1303070983735814814 1.5528345052100551715 9.1371850986326226263 2.8830145711809809228 -4.6598041658425817246 0.65401610187984260403 0.20903034048369797948 -1.6353055508319336298 0.030234934332131584156;-1.0277463267625273069 -0.24228489809826220247 -1.8767214471141064891 1.0010543240924856256 -0.99672557871438549615 3.9669818936493932426 -0.94193111429590525852 -1.6041193517394571888 1.4315805082721708708 1.1588978846251807298 1.1863358026260653055 0.27332907964663299971 -1.9698722651222124735 -0.085103439522723228761;4.2400008712562007318 -5.8548983233876930043 -2.1427935129954884808 0.87353553554082730148 0.4177621154109604773 -0.021009222111002992528 1.0217925063064408064 -0.64256448710037317174 0.85402618036505273391 1.6467935854962056919 0.1862174808509203805 0.53561826029826908879 3.5344161631688160163 0.094756138056717481577;0.51795872658627850615 0.08434460827927474369 0.091628806793720998791 -1.1639253841236729681 -0.45894518852845544998 2.1341098044369544162 2.7718813109629980573 -6.47945347831202767 -0.37047325181820700557 0.92717757036494585776 0.84428532506433673355 -1.8887520960780328494 -0.881918318684882796 0.0093420707879713418831;-1.5014299171305236502 -0.029984198466851502002 3.195824910733887414 -0.28844174854283977094 -0.056173220324811840021 -1.3946026558087374347 0.55778270180065203654 1.2628849301966582619 -0.1386144942766960042 -4.1576980300430319559 -0.086813228702704317574 0.47581542224513334594 -0.38024131372275260521 0.021029015636000965295;-2.487777390214725326 -0.050551163323017629658 9.7141052574974438016 -14.304138863626684852 16.20989857531340661 -7.7439247547965370799 -5.0377787927173622862 -4.1740733127359197496 -3.7322821772139751495 6.3916792136433500104 10.636550081204559248 -4.3590554140927117999 -1.9628648407606792414 -0.72525475462233601753;-0.45254220700846481407 -0.15767860187491899993 -0.27877738036194793514 -0.25729976910704838167 -1.2440590789469232469 0.674574212723325628 -0.91569244580905329034 0.26449889783813523847 -0.60052848962300586777 0.023678489194696540621 1.7089546222753573268 -0.58077812751269786151 0.044292710214801474244 0.23624730861302190021;-0.3589286736173961101 0.8315337686163065678 -9.5752226904789594641 -0.32690174863254273241 3.3212505744998757073 5.9017832197546464812 -0.8963307137276138592 -5.7540307289059606788 -3.0876908850721402899 0.7577893298025857316 -1.9248580441518834405 0.25323526138177993028 -0.10234082810295719312 11.721174785698664778;0.88358430572191948293 0.17360020821050670126 2.2441152748776911352 0.78375527385958254634 0.51271663482692941827 -2.0568441239982488966 -0.98577697861552338043 1.767365781614522513 3.9193256745395252949 8.4741694077681817276 -7.2586880531586217558 -0.69143491226251108106 0.90897696938135186251 0.13200958765957468422;0.51477014784742425313 -2.0198702504027647997 5.3971197219403386214 0.15092198626567768227 -0.89602647442665595001 0.2364066841842213107 -1.2019908031469792586 1.382087964199125274 -2.0376074743460881322 7.8145033877987319926 -4.9546478925518613323 0.6126771029300209781 -0.15687847042010208409 0.36737937224417605009;-0.1851792904280853691 -2.0662181434100266308 2.6584426576658981567 -1.5431241052825803717 0.023016356017868486172 0.75618042139968077997 -0.33867236794553129409 -0.6265003751311634117 -0.15519762631542299847 -8.5236033126563093276 2.7149027059642341086 -0.41103909639990771074 0.87353198505633755655 0.5815105843237334815;0.68279258930454944654 1.2467975524216250438 -2.8158867707814208003 -0.33276181994856490753 1.5374013776781756402 -11.350678629743518044 2.8040737254780214727 -3.6560574818548916554 1.4756206422724769123 -0.017516470688350004731 0.3335367014700494348 -5.3620467090460843806 1.0649108734241807817 -0.40450530729031652921;-6.2995399515042667105 6.9899974389628631855 0.44346948219861453966 2.4492477597868531625 -1.408512791279154408 -5.1103783254067494113 -2.1372518405942093622 1.3868915735869258299 0.84490424978307021586 -2.5195900035820093521 1.3562708527158915395 2.5542797330299262804 -5.7844518860334606103 -0.43029832064811274206;-0.4199061704146384022 -0.11749623922108569374 -4.2257466504355836179 2.574272170361904255 2.2273046122038659966 -0.49217844092835277836 -0.20293513648731800747 -0.4405544566813448526 1.2805494733890807613 -0.49787259512398257533 -0.1904123810568855435 -0.73020908841704890158 0.55577531304246063915 0.18938416619948145181;-0.040910577697069946956 0.86353884822910098595 -0.19752935909090166278 -0.96615582105261788026 -2.101838022735329492 0.42963182802054467047 -0.60097811475806151016 -0.70534259261405307662 -0.088145877135200542685 -0.41244728793324964 0.22635041464780253362 -0.39088934206319769782 0.56797843271947023869 -0.23056647903285459877;2.3041867725107869624 -0.033148834796671626524 0.30407903571172328894 -0.073408301580659418573 0.14904097945980240847 -0.53361842204442255788 0.19599200098113717106 0.31069370344550151231 0.08415665998084427557 0.32723255740128814884 -1.3411813313194378416 -1.7295970050467948109 2.7750229530511432152 0.30778783847242752181;-2.6063122541586376535 -2.7406035874399750085 -2.2242828880577922845 2.2406396363918998915 3.5314390116819112109 0.43477806595220513941 0.080033770689733260695 0.036799069568960431076 0.80747038648139846106 0.71409320953977362123 -0.37088156472594868696 -5.1124004169048919977 -1.4867655637275098979 -0.18632958502981333826;2.8102252844613579974 -4.6490584004634962767 -5.8093755155184592098 2.8177630575716676731 -0.039895949251370028954 1.1315467100616021234 0.19543545991528138428 -1.789611513096617923 0.90897772676909038836 0.16179303829278679494 1.301163544932358862 0.0030390516720825216587 2.1247916063897664962 -0.10602709426053907871;2.953563291625419307 0.57677845433409113962 -2.6875436390665319308 -5.4754070019279046377 -0.46997409833197817397 1.0508487447699959016 0.22071407466831366451 -2.1320885463312873043 1.3043264166349384237 -0.82674213552928121906 -0.15886976406718578136 5.9132887974657810659 3.5848481856020604219 -0.17323214757268870501;-0.28627994928808775388 -3.2155798890479809771 0.33928820280067173432 0.35314570711588172403 -3.177945753270238427 0.16020807844107659568 -2.0414107230644211732 -3.0528347231744374923 1.4953262114571390651 -2.978258863893250119 0.0085733069785940332203 -12.824796372181555881 -0.82086150768665699928 -4.4284713538353299711;0.39106998462574893427 -0.26175693461766136316 -3.1291633772931297663 1.8504093394022242958 1.6610813417070198206 -0.75378819928456441968 0.84380579584259174375 1.7787833973108555519 -0.85927869068049766987 -0.079915179863590479759 -0.31900876499119790175 1.4574201888805122795 -0.38710814523842890233 0.042052041594871844565;-9.8091719793013147921 18.038177425514366092 1.0282869527040188196 -0.47442596374077017352 -2.3159528552740500373 1.9870126538904766544 -2.6087944522528072611 0.76491102241265984674 -3.751005179807151535 1.1200209900852664546 -2.6282990867251649902 0.90376926580463567973 -10.316286683736770158 -0.32141268276794543457;0.42235433635972746691 -0.3694293207645990007 0.48706436031487299054 -0.036914768339677113407 -0.67264176745812742642 -0.28755867425678377503 0.70020351502987920878 2.203500029643812308 -1.1493520442697229278 -0.24439339082443375939 -0.13076023997085903239 0.28103018182221062293 -0.62142051356337779655 0.13100556103188357171;-0.01948071542489199226 -0.69556242023985603851 -0.9333368911667428991 -1.1977117322657764298 -1.042168333476480635 6.2396769972983765484 -1.0233187747226306641 -6.7641527251256654552 -1.7873601220671053724 5.9158275792750982802 3.4254733589279555694 -0.93970566865223925657 -0.075390503846382989073 0.19161339202648713931;-1.3438391984282622715 -0.11880789118346490874 -1.3625827534662553475 0.39574252352775640684 -1.196283307990924305 4.0738163004877145923 -1.1368973287374963821 -1.7231252929776774696 1.182412958165400374 0.96985826209962400224 0.59687314980314110091 0.50306576244004908016 -1.9221473112447975407 -0.084840464059731793278;0.39549184716729524069 0.064780887246135343549 -3.214037651540952556 0.41650579302694029638 0.095642592027171152713 1.4024668717194053169 -0.4939866341122703397 -1.1969380903015456319 0.22772524554262882357 4.1163567742801312477 -0.030745876933588600632 -0.35116611338413394883 1.5333179681442163922 -0.0097602747564454438167;-0.17778829238188456618 -0.28045254671592723117 -0.17194027922955454346 -0.85106340040565986449 0.12809552644629879081 2.3984539727576557055 1.9218715473281542394 -2.1188064468331817558 -2.9115969213980372743 2.029336132650308322 -1.6500710904786914934 -1.6664546395236583542 -0.40873704258044268878 -0.03925967689827831314;-0.76410869992711605292 1.1354605720838126803 -0.1270937582051979986 -1.4164329270748663436 -0.3141245029008383205 1.5401682645512997372 -4.5011477408274771506 3.3180832859356597098 -3.2414641910773993594 0.22980551815332772581 -1.2435906141627062205 9.65343643665622686 -1.3459958898328316934 1.0620207040533933274;0.79471428263926846558 -1.9341303703964749516 -0.86938553916686822642 0.31113917309684180346 -3.2804224079085826382 -0.77106661717334368245 0.90572778575597567841 -0.69519597805246258204 1.1266018350640449874 -0.033469579851897475475 0.11219169059659855892 -1.9686587962064003854 0.94706044288120894148 0.21270647130972911154];

% Layer 2
b2 = [4.984006521504083409;1.1243308381340995084];
LW2_1 = [-0.45305061980434990776 2.6078374770133363469 -9.3808486943455502427 0.033871125724272754809 -1.8107479814698730358 0.44042379131828829353 0.12243916868849698265 1.2067676784244854016 -0.33559191826650802692 0.49531184611759770942 -1.8809326539147834811 0.14920323474215235748 -1.4655812829098273653 -0.93306760039913017035 0.45730618246896009849 6.1922224489085948562 0.15118841305956068344 -1.8313098160435279382 -0.12486712816556341799 -0.29428884117144099575 0.75809859600998963369 -0.28163960942010657362 0.32433900157602496561 -0.24309740988205905121 -0.75613792123849743465 -1.6450715966247948518 0.4393106622920563975 0.24913275433309464701 0.60055584256922500686 0.30222424300796218999 -0.12023443478480397295 0.68514144954528155562 -0.19652373945416862222 6.0788464516940985405 -0.23113583032103873771 1.4446759818119561114 6.5455646178767521448 -0.59430940464647696864 0.36305462469664206981 -0.64593066731087966925;-0.0077099700484746618023 0.22076182037858385621 -0.18125195236428925938 0.54335753366042227608 -0.092938761848400677779 0.037306992520966697491 0.51528827739744165193 0.097018870877965374122 -0.022806166712117909023 -0.022624303724494629342 -0.15427943001451252525 0.010246648041874931168 -0.014158135354861829669 -0.069128499491422579215 0.014443647194064651931 0.56465952510060946068 0.0095265646233908627544 -0.24106912185557000106 0.52204588102867655053 0.0057207508857986455117 0.0046369013462787076613 -0.045399336778449227159 -0.013067690293458302658 0.021103620516373759741 -0.087554301114641158721 -0.1107373810806288883 0.025267194783685626575 -0.017549934968323913781 0.056240666106152775727 -0.0065056486912420307886 0.7760650696028040807 0.048581138801471711319 -0.0091817588077168863642 0.01160534095950987131 -0.030452564993317193798 -0.0044545206666514371857 0.55712354614178649648 0.047111950482617778735 0.071113672505269120983 0.080400525387741617056];

% Output 1
y1_step1.ymin = -1;
y1_step1.gain = [1;2];
y1_step1.xoffset = [-1;0];

% ===== SIMULATION ========

% Dimensions
Q = size(x1,2); % samples

% Input 1
xp1 = mapminmax_apply(x1,x1_step1);

% Layer 1
a1 = tansig_apply(repmat(b1,1,Q) + IW1_1*xp1);

% Layer 2
a2 = repmat(b2,1,Q) + LW2_1*a1;

% Output 1
y1 = mapminmax_reverse(a2,y1_step1);
end

% ===== MODULE FUNCTIONS ========

% Map Minimum and Maximum Input Processing Function
function y = mapminmax_apply(x,settings)
  y = bsxfun(@minus,x,settings.xoffset);
  y = bsxfun(@times,y,settings.gain);
  y = bsxfun(@plus,y,settings.ymin);
end

% Sigmoid Symmetric Transfer Function
function a = tansig_apply(n,~)
  a = 2 ./ (1 + exp(-2*n)) - 1;
end

% Map Minimum and Maximum Output Reverse-Processing Function
function x = mapminmax_reverse(y,settings)
  x = bsxfun(@minus,y,settings.ymin);
  x = bsxfun(@rdivide,x,settings.gain);
  x = bsxfun(@plus,x,settings.xoffset);
end
