function [y1] = gdNet2T30N(x1)
%GDNET2T30N neural network simulation function.
%
% Auto-generated by MATLAB, 16-Aug-2021 17:12:41.
% 
% [y1] = gdNet2T30N(x1) takes these arguments:
%   x = 14xQ matrix, input #1
% and returns:
%   y = 2xQ matrix, output #1
% where Q is the number of samples.

%#ok<*RPMT0>

% ===== NEURAL NETWORK CONSTANTS =====

% Input 1
x1_step1.xoffset = [0.014469;0.014929;0.016612;0.019995;0.027617;0.033129;0.040462;0.032248;0.027814;0.019981;0.016227;0.014616;0.014469;0.001797];
x1_step1.gain = [2.02936285109246;2.03031050553716;2.03378524041375;2.04080591425554;2.05680272073864;2.06852827316157;2.08433642023557;2.06664517355686;2.05721950326378;2.04077676045056;2.03298931765763;2.02966559229701;2.02936285109246;2.00496228164708];
x1_step1.ymin = -1;

% Layer 1
b1 = [2.976483493735873509;12.574718686268383294;10.904477531510387678;-33.465727098734319611;-2.0510879071002245944;2.1946485450226713709;0.69813599694755734681;2.0894577202753836787;2.5155552220151147225;-3.9934544584635518483;8.8285985922880403365;4.2389897795135800251;-0.66822795257624134635;-2.9840768555424213027;-3.8639563109402637053;2.52610129964622665;6.7827239790841176159;5.1424791373920353266;-1.2237246521732783044;-1.0746717755428305541;-1.1686920974270171847;-0.033771391886704395235;-2.4370321854586864951;0.32485846555030756244;28.748652988846679079;72.644206967502341854;-3.6005135374669889892;6.8025824308918174665;0.43354246708018545631;1.2869570438431623405];
IW1_1 = [1.5638046244879062474 -0.15050422027810211878 -1.2475709094692595258 -0.12454163632794590377 2.9093096857231546259 -9.6503012266890308979 -18.781933404908805585 13.218379561046763371 -23.118081022513262468 19.916803972488835939 0.5631201327636701226 17.542401608333719309 0.8058902918044745789 -1.3201715687164912172;2.8557243198260544581 2.3743640985187779435 1.3510703477515402238 0.95535812986337675934 2.9937533166474215029 -4.727421840110515916 -0.66293832668385255236 3.0495208231270201082 1.0310753526030016491 14.233423932606763529 -1.7634077398539433901 -5.9377613912142130914 3.5375606000452117783 0.2029401783961762018;-0.43085761869959177117 5.2869918602184426959 4.8864763994239837075 -3.4651908059627296588 -0.38315021938397747503 -0.19576795944124197879 -0.46408433857541242507 1.4831084677450236953 -0.90288666275249396254 6.6478693842642258005 -2.2993501171368384561 3.0059117285691527854 0.51678794241462144843 0.1961228142422146159;6.3605209104594990777 -3.1748832314638071317 -31.583885288830281013 -4.896292303286670311 2.6928591185846437739 1.3042800706097117391 1.4252271114419625686 -0.8240665656288842511 0.58292545200288792273 2.7385389723979591814 1.9492642556371859719 -23.706747965858166793 6.1603161346562727019 -0.024750265411571919366;-0.29456595508314759035 -0.054577564777612774805 0.70205307759486101915 0.14493384926241992261 0.051996212998503224534 0.81365729676828524308 -0.86467432321246151528 -0.16308612097092586857 -0.26137576750465008057 0.61299218494952967262 -1.8427956736250989955 -0.65278692020377349081 -0.22344757360946498892 -0.031074881846870329449;-0.15749793737161993379 0.30830033577975551884 -0.12880292595286027546 -0.55747640509804508024 0.13976857281723190085 0.071073967172707669393 0.64849404263190302267 -0.25856596274144127978 1.6287918101638945156 -0.73460653557606236941 1.1179664816954391071 0.051245181196207446883 0.15127189301372467867 0.080323721973351122627;0.43039022739567245335 -0.44680831640667717508 -1.1122840307103030177 0.966084729022194999 0.54947286139525763904 -0.29453526596763307532 0.22501388615237497004 0.7970400750515563848 -0.065617154811183492358 -0.14150333288978417245 -0.16020718369058833952 1.590951849692530784 -0.42130743907885159771 -0.12320970094482822099;1.2239350406934961235 -1.0244680738738023429 -0.13938733720113749559 -0.032227460319372243369 -0.62070370786565032262 -0.17505372879790001561 -0.66893578843371692688 0.51608333211889145797 -0.48255603109643019355 -0.17993408656425516345 -1.5243343853348789718 2.3471393135928275697 1.8404429731295839368 0.0042971629518955920674;0.7142974067816476591 -1.1176661884526444268 -0.96223079529945843014 -0.13047605901160569397 -0.014574357958044542594 -0.60617919430463751418 -0.39120862039328452298 0.1700601587282430105 -0.78243408539507497412 -0.049392299275393805602 -0.38869739238805106618 3.7280920101095524899 0.36316348355130090297 -0.043002816674919674966;7.0575799410163542191 0.84705410339106002038 2.0152765539367685221 1.0328035654468641358 2.5128488236009047796 -20.3085293257246704 7.174778820413811431 13.256294423590013309 -3.0554524140815622069 5.6935536430651296769 -7.8504595351609767206 9.2422093259819284583 5.8286328850085249442 -0.91496567693635699747;1.9885058448841976819 -0.455062632474854456 1.0099479289469290855 1.4356672760379520781 -0.56207042084118241654 -1.4086842794007436996 4.7097099000621049925 9.548377697479644155 -0.18859651581196784642 1.7460432699390360245 0.8883580113300469927 -2.2474570666963451515 2.6957864631895596119 0.11744057094444410039;3.7844201694697727767 -2.7884433903855252446 0.74394079772641341641 -1.3459977610405342574 -4.371443092788399376 0.81531897899929783868 -0.67518176620576864089 11.001671727290821323 -5.1187938028839878868 -0.37211019424189728522 0.46388476077348778093 -5.1598070973865750588 4.0526785870807735535 0.17872230175829592613;0.0082368729791898291637 -0.0053209869548170455125 -0.060027213496848308427 -0.0070930074336259200246 -0.11417150969817002615 -0.081763694964947605803 0.029452463599129754396 0.065833261119833369479 0.11442473809333857104 -0.018872774954695414884 0.032687433103043617155 -0.067436397474419693121 0.10660890099206209169 1.4205666258376774547;-1.5373340675954063617 1.9554923094785321425 1.6807948361767486301 0.28199695547503378368 -0.17877736777947580982 1.1416278136858846182 -0.44870649698622733226 -2.6735318345437142362 0.049850857174761759039 0.25275682121845910455 -1.9800467181225269719 -0.78359371643440678401 -0.82542237994896106024 0.2000625466287894727;-7.8122039622873122866 12.070888455259803251 3.6034744689928883687 -1.712300125474492507 -1.1487426988040505549 0.63322712793294944067 -1.4664312298469308615 -0.62968966707328599686 -0.42547530080389622809 -1.9558420873948816343 -0.56993183740139707893 -1.0420594790331203505 -7.1845636469442801797 -0.087720028573906233538;-0.042655796977674562132 -0.51785135704473728158 0.35892381432464504076 0.8617417307515281566 -0.30433298214932669179 0.4731949995320685054 -0.11209283325272635656 1.5056360952036329515 2.6322775472889348158 -1.4340939012532718522 0.88029263516655564814 -0.66719853373443316347 -0.51743855502911417776 -0.014361993039685555171;-2.5411640103864256979 5.1284568461015718199 -2.6320886206926461526 5.8041250594648934324 -1.6471646582448356 1.6892333604398350744 -0.12176972854814228919 2.4834193814390252975 -4.4675465492179027294 -9.3288670278800847058 17.094247912213379692 -2.3316685687696381279 -2.0625033624242190555 -0.37401191955530521671;0.70598061621450292069 0.74135937373720373067 0.52571814543625927652 -3.2874377214026617722 0.16788178699225500545 -0.59501943098959941825 2.4829457330644522095 -0.060294608924154100005 0.91763626213468363346 -0.59904200617306835319 5.2586631859317005677 0.90370169688302426358 0.69106479098738893274 -0.18823533926975161146;-7.3464854649106126061 10.515499686078889852 9.9911978375329262292 -5.5312627623516767983 0.68415469967132203077 1.9747596328840884006 -1.6704940265497354446 -10.306219484241729845 21.379899703130945454 -7.921609594903769036 1.2730094915133536304 -3.8843719491617023643 -6.4586779890601091481 0.84602482540635604025;0.026092592805355870056 -0.27191986747945484648 -0.13658779587432495761 1.2072667219386192805 -0.92851096032458035889 0.063765709303285886267 0.93447834811220464868 0.24028643291779214208 -0.36626439143722738789 -0.23250524393253590993 -0.83994710301966946098 -0.052785570122540245719 0.14024458741339787538 0.011434661269003264586;-2.0272843416618289147 -0.64831706652082332631 -1.37592030407597532 1.4046948653171564825 -0.18162899489830419686 0.49810152359910248032 -0.1965391771120477693 0.34639956913181463305 0.64391027942515444149 0.33495600319871954298 0.064784068294407817779 1.4870277640519917739 -1.5631670447764116627 -0.10218915144432237641;-0.70658287413048104231 -0.42812853188409272231 1.0454174245580785119 1.6627466599977569484 -1.1878268953362753901 -1.151762076022169401 0.25730199556616456524 0.34239329010732705294 -0.47779729752361060902 -0.58183603705245268145 -0.31642892650694653955 0.3327101794812311053 0.34959834105376519364 0.071196468319260908242;5.1131339973588145753 -4.6816827761315540357 -3.3651996760302043121 7.6721741740111637498 -7.6677034806933708211 -2.6677492360148580275 1.818902171044854299 1.7667818347504209431 -2.4763187941737605513 1.4524915872322110566 -1.3329898771391186507 -1.1555410846769489375 5.3463437015111239248 0.69576076242603934752;0.36139478525966028943 1.8622733879150497049 0.52924945560311631443 1.7226359487111666535 -2.5308535567416088341 -1.8906758572622610615 -0.53420100815906701452 -0.058479617896467855909 -0.29198336708131322759 -0.74966523008768293224 -1.0411553436678515627 1.7946297983327461623 -0.64549007959610116281 0.14859765876260183637;7.2829249768522030806 0.40456328326254820116 -1.7824011288008885234 -1.117977028933525796 1.3785825174876384924 -1.516870632311624556 3.2288703256024926525 -0.61317023232034106872 -1.9714568790372919427 -0.047998620492068891363 -1.3660852257495674777 21.733069361828139421 6.1915433065356042519 0.13244112844037303489;6.9637254838329853968 3.0829379712660127666 0.91870948783173855823 3.8659487341409208838 9.3179412399865206851 -1.0691678134934603506 7.7092726329021061815 9.3607396425168651888 -4.0864807345065132793 9.6389464832988878129 -0.42749892897621721843 48.580255281002919787 6.5270981101152774073 11.739767879002043216;-2.6485308828512752477 -0.008487270006290556501 5.9529927575591710109 -1.3255678129439607549 -0.41747066665505944139 2.8115158868297074335 0.21541821254280260622 0.24193659195001329665 0.78587813854880439468 -0.39434137715276845748 -5.1752214953560065069 -0.60648430797916486057 -2.8564216059558913408 -0.21368524216935028126;-1.7852595045445254218 -2.7840505361879932522 9.3463359274138753108 4.3333994428481856787 -1.2004906774592523089 0.37403053262372548682 1.0860443715234564532 -0.33371772649545328182 -0.22826040538972494631 0.12535871449808666522 -0.040086208167322577578 0.014961596609762196214 -1.8650719026072519746 -0.46695994948425001425;-0.049771912985624680581 -1.2342680931745262374 1.7659651017522586258 1.2220059861481629149 -1.4335176406453629117 -1.3213996959379699092 -0.48218583812653359466 0.49604466889124226858 0.54638858074124330155 -1.2004785374373942997 0.18548021811622511512 -0.56576184641463500569 0.21778943671226319578 0.16277336388300461811;-0.013892468125395875805 1.1677542778449143679 0.1723789630106474513 -5.5625721910948158211 2.6956489634896581009 2.3396574092972786119 0.51819873668756477603 -1.314819759030738 -0.6751572199749592551 -0.11531597738553192589 -0.0058549151493276774261 2.1006527625817583704 0.055744580470296976882 -0.036679697122459595238];

% Layer 2
b2 = [-0.20335177239122767534;1.1186477273807515775];
LW2_1 = [0.10353398499685645406 -0.23088167683603441627 0.38847985873018603398 -0.16535035364704139815 2.1107225038013162077 2.0273772300732662011 1.3473637689115711691 -1.1418724271097726586 1.0534666172890563285 -0.20796862315811642796 -0.20864474648639275145 0.17752761446086698371 0.12861186691437306862 -0.58805243055775646699 0.52655562157681368163 -0.87469045719324822752 -0.21737265860060805966 0.50535427786229714098 -0.16311698997948509415 1.2990894366169689622 -0.54221584823958102195 -1.6225239814380654213 -0.24751910236419319422 0.66588386568194779525 -0.53822478836996667795 0.030570103407118996014 -0.27665881777095857608 0.38417369422297353854 1.009167645783038747 -0.51466445860826526282;0.010711722003400194966 -0.0011092282950425601251 -0.0060778900021803815984 0.019268675462284164807 0.1596657563801037738 -0.009943010660548727217 0.08565505597888406486 -0.051179117392199206804 0.054487913534216510236 -0.022971458370035953422 -0.031862448902622360347 -0.00052173488556727688759 1.0954657022934779498 -0.018813326351839451678 0.042488154704900978065 -0.0075007451758050082066 -0.010098167327658219908 0.031495114043969520135 -0.0073204512428255543235 0.073268529427135603571 -0.060736175026469246818 -0.0078041827257295040554 -0.043007390473033590972 -0.00029690100109277086163 -0.013723775727210920511 -0.68763737411525005516 -0.033963045403595425176 0.020973486468350243522 -0.019047249927389452162 -4.0446073753871810059e-05];

% Output 1
y1_step1.ymin = -1;
y1_step1.gain = [1;2];
y1_step1.xoffset = [-1;0];

% ===== SIMULATION ========

% Dimensions
Q = size(x1,2); % samples

% Input 1
xp1 = mapminmax_apply(x1,x1_step1);

% Layer 1
a1 = tansig_apply(repmat(b1,1,Q) + IW1_1*xp1);

% Layer 2
a2 = repmat(b2,1,Q) + LW2_1*a1;

% Output 1
y1 = mapminmax_reverse(a2,y1_step1);
end

% ===== MODULE FUNCTIONS ========

% Map Minimum and Maximum Input Processing Function
function y = mapminmax_apply(x,settings)
  y = bsxfun(@minus,x,settings.xoffset);
  y = bsxfun(@times,y,settings.gain);
  y = bsxfun(@plus,y,settings.ymin);
end

% Sigmoid Symmetric Transfer Function
function a = tansig_apply(n,~)
  a = 2 ./ (1 + exp(-2*n)) - 1;
end

% Map Minimum and Maximum Output Reverse-Processing Function
function x = mapminmax_reverse(y,settings)
  x = bsxfun(@minus,y,settings.ymin);
  x = bsxfun(@rdivide,x,settings.gain);
  x = bsxfun(@plus,x,settings.xoffset);
end
