function [y1] = gdNet_2_30(x1)
%MYNEURALNETWORKFUNCTION neural network simulation function.
%
% Auto-generated by MATLAB, 09-Jul-2021 01:52:16.
%
% [y1] = myNeuralNetworkFunction(x1) takes these arguments:
%   x = Qx12 matrix, input #1
% and returns:
%   y = Qx2 matrix, output #1
% where Q is the number of samples.

%#ok<*RPMT0>

% ===== NEURAL NETWORK CONSTANTS =====

% Input 1
x1_step1.xoffset = [-0.012137;-0.011588;-0.009767;-0.006048;0.001655;0.00749;0.01837;0.01636;0.001696;-0.006235;-0.00999;-0.011807];
x1_step1.gain = [1.97601708069165;1.97708948702436;1.98065494317006;1.98797671681669;2.0033154871312;2.01509304692144;2.03742754398297;2.03326420235045;2.00339776260538;1.98760726867978;1.98021762591709;1.97666155699654];
x1_step1.ymin = -1;

% Layer 1
b1 = [2.7254514364570434637;-1.7547897358055235539;-0.81015251735640458897;-1.7756994319484107336;1.1757291669254976707;-0.77763888982872264588;-1.1029119408731951069;-2.8233462337232957395;1.1126705178318812006;-0.77198250535242751713;-0.65495988674026484055;0.81755076281113892023;1.9554948942234160469;-0.73606866100168399925;-0.047116623987713934785;1.2614610914502342176;2.2965502472521692745;0.39615401009695455636;-3.3980731316267047681;-1.1814018061060798104;0.89707248712523446343;2.5976492193646354423;1.0045582880146437521;-3.1541065614187386856;-0.15619080148198838387;-1.3752376006607163195;-1.6053541710136980392;1.5844241591259571322;-1.8559906980653868569;2.4903659339152492969];
IW1_1 = [-0.86531355120697173167 -0.4807732417419805504 1.6558925407075979486 0.37320299535905587796 -0.4290632365945563631 -0.13014965072018550019 -0.55853349438639421365 -0.646813646349856608 3.3904179103852700727 -1.1045282689334368076 -0.27324103522365589258 1.3357261710349686012;2.4318300939307393449 -1.6860395142808726199 -0.50768293435867450913 -0.26062528770167342484 0.61981042978380684882 -1.3163578390086800862 -1.2377132536287440701 -0.53018869378808519688 -0.23170549927413813807 1.3252880373999198493 1.2799873104411838565 0.12926598540629208323;-0.095976474510529360962 -0.69292675555182570157 0.22051261680121717057 1.0884167485157330013 0.073117191760995861594 0.74401991832529745796 -0.30647101012427480082 -0.91672452143492400012 -1.4428370404518218173 0.59601261681910122636 1.2375782385221776316 0.2099257998700117811;0.70118744297287072254 0.34750583575099486255 -0.44327654905854180223 -0.6073541724634476946 0.81867322126573638386 0.0061817738029848086356 1.3042527265268741843 0.32487982148378730107 -0.93358277214328488913 -2.6119531686557011518 0.62084051596507439097 0.84049970459254685906;-1.4885672054362708572 0.094709837734509583207 0.41873870377351357641 0.60782360903060095314 -0.75171492333488665327 0.51747462859563342352 0.18953177987944577754 -0.041670644554710256635 0.063072666330792545586 -0.1619811154282628507 0.64200395901768181339 -0.64568021334488445717;-0.23349335156574971273 -1.4440517264381744766 0.40464860192527823957 -0.78751580902960449659 0.74147631952161874302 1.1780185168416739128 -1.037562884998323165 -0.2552238502812449461 1.4886642462289145783 -0.3443227951931613906 0.17559775583865330773 1.3378843931594428529;0.14301266754797642422 -0.19444769072573092616 -0.077454220497546161228 -0.71810631591803308904 -0.60085396656404199689 1.5810345248631263448 -1.4025063885310289358 -0.11018273950862841892 -0.61820218861284725875 0.35006782131938102287 0.48326842522407331693 -0.4309379796923435979;-0.32133767425314230248 6.6086687972342206265 -0.90781753288404654079 -2.0035902967207546155 -1.4261327353815227426 -2.5861917594196621728 -2.3380480267227432556 2.4948779683215533964 -0.79145271222967350511 -0.48012976584773614519 -0.26164397653190996085 -0.45068362899372987895;-0.039027788724942849563 0.12800941536796459075 0.18255881326815456833 -0.36862034956153844067 -0.83676783655199937773 0.033177814658875474929 0.46282532958726030348 0.91966235119628925165 0.56003696513221046249 -1.1847634652769338803 -1.0801092955136970541 -0.50313139358830705206;-0.16228114994341658051 0.64755953595458781713 -0.62314380076093367489 -1.4032303611495109408 -4.7841667537090142304 3.6577476951716727527 -0.66134060119628013119 -0.49111741409210174503 1.1453327580539256481 -1.1327897517136114036 0.97972480802296524338 2.4275211434099324137;4.232690673271110704 -1.2731903666924437868 -3.4315554713374045726 0.31446520597235266825 0.3324151334808772007 0.52952484461096949175 0.68807019797912405412 1.2545461264381170263 0.51764561691012478395 -0.93863079834118834377 0.22313916719261439603 0.24502667186481186246;-0.22252928533930688149 0.67094120956222780272 0.80422363608251634659 0.26491247397392769791 0.77978898675408103713 0.9731544770146576262 0.66406992524479824258 0.81154276448140716393 -0.77188374746129062576 0.098139317476982193544 -0.17235303380255215244 0.67036874333117546509;-3.6020235578720942726 1.6854811257934536606 3.3390000916495741201 0.5446029643608080173 -0.4564690567051972736 -0.12315380071049172872 -0.21189235582755042153 -0.72315541152453499674 -0.15701987471422845788 1.6220650534516665164 -0.53109000417730056753 -0.17069803162257335405;0.29095523157483582644 0.3623672293227624408 -0.33965697713677367453 0.10506366552318943675 -0.40546608339991280223 -1.3558793572771037361 1.1645559574343715692 0.77167850660768355642 -1.2772722014828397086 0.45602538050574054074 -0.81238264911093549525 -1.349801039719898732;-2.165170545956037973 -3.0596385817281261943 2.7294597725077718309 -2.9073399274430529182 0.64850016023703660473 -1.3039945901713989596 -0.41371158667500623762 1.9042249438404748041 -1.0766170876762268804 0.29282698939830065221 0.089750065067024625831 3.3519255388556472575;-0.52541317772086182369 0.40463578163735597348 -0.386222201135169807 0.36727767016675655354 1.051972468336360933 -0.69202830115240521192 1.6428394178185850016 -2.304527247194681383 1.128222650134000915 0.46735821170980645922 -1.1954919945576216733 2.6618555516299120534;-0.212409315834514556 0.98882101558374635442 0.76063773160575043342 -0.36838385107539300956 1.0098704272340826016 -0.2967970839041724207 0.88667195777255847222 2.3016421567593012831 0.68971217122400074739 -0.69920389723772136126 0.66062694778461628076 -0.089779108677058475085;0.65925601936966615746 -0.45965701316628804207 -1.2216439115850814545 0.4350444752321993569 -0.38276671114761723347 -1.6766993291897385188 -0.22148583404067737068 -1.1989478418188457276 0.98193458364398567007 -0.12794104604192954588 -0.59108366143236390489 1.1714596097759328863;0.31150820118870858888 -3.0482947698149835958 -3.381329739154085523 4.2327569642134825756 -1.444963726049487418 -1.7207618747777748691 3.1209069162118474594 -2.8528920961795978251 3.7344687982778039803 -1.0288241586618047663 -0.26820879516225759609 2.7783846769116085085;1.8671200438396919896 -0.49556375689241788374 -1.4202336556184058658 -2.855377749187671288 1.5337852249869694532 0.10032343301287191539 -4.9511761975470136576 1.9877158591544681343 -0.42853233209654900682 -0.19504674744703384692 -1.3725340455856680499 1.5103163985099476996;0.21259562149997479619 0.51801720275525220405 -0.28429338506467238812 0.22334502409542711376 -0.62442090768270153145 -0.39193426683218540729 2.6194408849360271141 -0.18433655069642843061 0.030233157338123144153 -0.77014423684446231544 1.9426038541819734551 -3.0791270578691234405;1.8556066298241606916 1.3799307130463946969 -0.27318465617660492306 -2.5949336704363235029 0.71672399892241445141 0.79862159099152874031 1.3583554572993410403 1.2675447668317554317 0.41742582242428405426 2.4378453565654378821 0.50812413121123845006 0.26756195519700509688;2.5899062151245426655 -1.4781090065021913471 -1.1607326661756594 4.790776060508237677 -1.7875908929215540422 -0.14162662953416901845 -5.3539141288497376081 -0.12961863737944318009 0.11082119233841794537 1.684863912467423841 -0.53638991004399361184 1.3471478368728169173;-2.3364876477918041786 -3.7558469117469490683 1.2420162801454173174 1.796357754446965771 -1.8151602405531490625 0.2323426469061460331 0.95702567162854745852 -0.036691912273627183549 -0.30399762916369521548 -0.2756471495192680532 0.72969022611684097868 -0.85202247023027188888;0.4581277100043109618 -1.8886765348096183903 -7.3311439364279058495 -1.0608186913905082172 -0.98185519928168851767 -0.062611597906446173067 2.033030823494933248 1.9941310343500013857 1.9692773328780437403 1.8452025729673677823 -1.5696344853370616246 1.6059504138901810055;0.67159709512639831352 -1.6698273058439410121 0.36871187507458574872 -0.81130311013390865593 0.62890164867868558751 1.5775603268566089632 1.3423805689496366433 0.75973909004794903943 0.12694309789445504255 -1.5662803424192817126 0.57902991949946858163 -0.23937818637995011972;-0.36481521713949399688 -0.62586392188775274992 -0.51826660935638235728 0.068643164533586167875 0.3540651678037656791 -0.86999998989068394462 1.2458212048087744517 0.46435960252016406091 0.03616802560145780665 -2.0616157567044162136 -4.1230788359268233378 4.8670612581751777626;1.1007006975420352557 0.76901608064140192234 0.12154978582344633242 -0.12253765291912990798 -0.44924853349441534744 1.3137385311980531721 -0.47799140897737635303 -1.0033940375335030915 0.4525730835189727963 -0.32418471844399798787 -0.95121393292227551797 0.021913691055977468219;-0.37871000581168012822 0.24728768622249547304 1.9146469801360441743 0.44561957285216535762 -0.81551362654015779885 -0.76220250447721082931 0.30669082107811679316 1.4381861008349130504 0.929461819729438532 1.0011016921305133653 0.7019685203866538048 -1.2064605032749202707;-1.7571720402233141911 -0.16238193860801147794 -0.34074557191621401842 1.1106410251537650602 0.0094873375979354079846 0.50388185479164604441 2.6836244786680478747 1.0047080645088057871 -0.77141840181189058612 -1.5775855470237896139 -0.4358013580540278098 -0.048672764808826693428];

% Layer 2
b2 = [0.6774345136295314429;-0.58372790389294659796];
LW2_1 = [0.099599171912755746217 0.018807745274633941301 -0.10977453184452390378 -0.15008002150394467167 -0.33125532686144854022 2.258089046483307237e-05 -0.39151369878127206814 0.018996179685451256708 -0.19324202078833688234 0.02432085037009174 -0.30414304550247833747 0.079102005746307588185 -0.15025261211750093326 -0.2559865139314224658 -0.040207688777757412402 -0.12013440432462281493 -0.3359772508321807738 -0.24419027812094334928 -0.051248570176742655469 0.072443122257384987006 0.40978540142649005906 0.2451914153351119896 0.019018678271613759928 -0.02135667222728502429 -0.047152919710837480627 -0.044926845798766913698 0.18242919946287247668 0.0020121737946908451605 0.052949396765219744476 0.33015592243264946237;0.90639342648055121199 -0.94229453358460202317 1.8195821891643888524 1.4787933990220500924 -1.4070151549405438551 2.2358167227776730712 2.0450806645766190783 -0.47210382720328764039 2.1810762673668624423 0.37689304105959131608 2.2396910664843532324 -1.9533583230097262273 2.5470537738570762087 2.2842136905444632156 0.51312073762568610746 0.98923671343891872443 1.045963533215847896 -1.5457885501817107965 -0.60812489404680025729 -0.44829670516946873438 1.3018841094947335435 -0.92960734530053268365 0.70897875802817433843 -1.0049195764350833393 0.55459122783116632238 -1.0367757617779000956 0.78833350498517362759 -1.3612078698130867238 -1.8137421092718903903 -1.5198784063350427864];

% Output 1
y1_step1.ymin = -1;
y1_step1.gain = [2.00271367703238;1];
y1_step1.xoffset = [0;-1];

% ===== SIMULATION ========

% Dimensions
Q = size(x1,1); % samples

% Input 1
x1 = x1';
xp1 = mapminmax_apply(x1,x1_step1);

% Layer 1
a1 = tansig_apply(repmat(b1,1,Q) + IW1_1*xp1);

% Layer 2
a2 = repmat(b2,1,Q) + LW2_1*a1;

% Output 1
y1 = mapminmax_reverse(a2,y1_step1);
y1 = y1';
end

% ===== MODULE FUNCTIONS ========

% Map Minimum and Maximum Input Processing Function
function y = mapminmax_apply(x,settings)
y = bsxfun(@minus,x,settings.xoffset);
y = bsxfun(@times,y,settings.gain);
y = bsxfun(@plus,y,settings.ymin);
end

% Sigmoid Symmetric Transfer Function
function a = tansig_apply(n,~)
a = 2 ./ (1 + exp(-2*n)) - 1;
end

% Map Minimum and Maximum Output Reverse-Processing Function
function x = mapminmax_reverse(y,settings)
x = bsxfun(@minus,y,settings.ymin);
x = bsxfun(@rdivide,x,settings.gain);
x = bsxfun(@plus,x,settings.xoffset);
end
