function [y1] = gdNet_3_40(x1)
%MYNEURALNETWORKFUNCTION neural network simulation function.
%
% Auto-generated by MATLAB, 09-Jul-2021 01:55:48.
%
% [y1] = myNeuralNetworkFunction(x1) takes these arguments:
%   x = Qx12 matrix, input #1
% and returns:
%   y = Qx2 matrix, output #1
% where Q is the number of samples.

%#ok<*RPMT0>

% ===== NEURAL NETWORK CONSTANTS =====

% Input 1
x1_step1.xoffset = [-0.012137;-0.011588;-0.009767;-0.006048;0.001655;0.006589;0.015282;0.006926;0.00169;-0.006698;-0.010773;-0.012656];
x1_step1.gain = [1.97601708069165;1.97708948702436;1.98065494317006;1.98797671681669;2.0033154871312;2.01326540575854;2.03103832772428;2.01394860805942;2.00338572186996;1.98669312941915;1.97868364113406;1.97500434500956];
x1_step1.ymin = -1;

% Layer 1
b1 = [-2.12621748501974972;3.0763905647933422749;1.9887175773957996849;-2.0061882232409455895;-1.642082462145876498;-1.4423497301414214267;-5.0111170615868632083;0.91909550989708299618;-2.7966478608434686137;0.78785488875997733427;1.3673581667396847994;2.4736453338050088391;0.21660329361827870831;-1.8656151958232116694;-1.4821710641853649282;1.3366075548035070142;-0.22641574855170637504;0.9157637902284305742;0.99032651391782677841;-0.1409467806228211495;0.98688705155573264172;-0.38068562355888768689;1.5775370195178597399;-0.33765292001765762064;1.4314792281089703252;-0.55090437215446319552;0.140726888873485112;-0.61177617055359501119;1.2388131206884578361;1.0639647766538649076;-0.50643073934563975769;-1.1960103633540490886;-2.2721732944842312207;1.3166243406499735791;-1.8181962448605941685;-1.2593483297352403572;-2.810152026389166835;0.86654539545787789834;-3.1243340205074328075;1.7367050336437002134];
IW1_1 = [-0.12314525858441308093 0.093777098104749101459 0.72947695116276822791 1.2997492663685534797 -0.0033513933143086566124 -0.88148703007093964779 -0.7423155433956521998 -1.038881327833849344 -0.60367270440007891885 -0.085124620653354632349 -0.20778677044694199294 0.10996392786737441138;-0.53132089526019510295 1.0227979998879037637 -0.53064215709386186592 0.30201488491213146492 -0.25468526505011551686 0.24675747470726183685 1.3387756614067696237 1.3085665206787884252 0.65140812494255084797 -0.62859080459904093097 1.3589835380927752784 -0.92643894040095497999;-2.2303877867690444781 0.6757730946532697347 0.22835715913143828093 -0.10903578510183324635 0.73539893029661618229 0.9681951557894825644 0.190595233312069956 0.97859033950113205602 0.010112914164399924855 -0.16050777155863757417 -0.60614983651703902012 0.48233883244230685294;0.015742502306725900119 1.1448676841181315567 0.12177576368536507934 -0.31659759956090988142 -0.70672509869230049073 0.12028171203535112377 -0.66094270254271803022 1.4712825681091374896 -0.043071661475135560038 0.075832743927576426457 -0.20168391645098682208 -1.0259131640405350083;-0.19069458611373507617 -0.55721181790182050531 -0.024817828770673781846 -0.27249659028386330473 1.6591110144526686199 -1.0200615492368532156 -1.17632683978782282 -2.1553491443479271261 0.8027192928395964211 0.30583919512293672449 -0.93015336111816404596 0.43258134169455531026;0.079503945973129624969 -0.34401520075041502889 -0.19183032864163654385 -0.79852550812528844126 0.85881685261007589816 0.5004784511786591894 0.62509349987461837461 0.00064897089655226863902 0.33941858170891586743 0.80098734343360933341 0.85638833152203930332 0.91444821649990049028;1.0354520946208556342 -3.2856233313326832501 0.29311016596211120211 -0.50142902589082194442 -0.92389689293799093228 -0.70278811165935617389 -0.94461025536889708931 0.82581771088765587585 0.22528952083329517597 -0.23137561014222038369 -1.0068087227989312993 -2.2667260837529688011;-0.45300444554140945064 0.33954784778274682555 -0.43334085972096397787 1.2687746380499398402 -0.14876874634972100941 -1.3022785381369583746 0.480469784286998991 0.7258096852987940828 0.79513794465863685268 0.31849180660212678129 1.4558704082728717299 -0.81195921354495137479;-0.69733233714132392134 0.10364254839180352119 0.083601778404672283385 0.16784525772183239711 0.80539273592913929178 0.5985768800256997535 0.14531667672171799666 0.12371887375207341053 -0.58173740853774502657 -0.76651364864191684489 -2.2237951249975180801 -0.80861434506338059069;-0.52099943645798552083 -0.28251860311512455581 0.22172376061548845771 0.17657736287425362942 -1.0250765537016024442 0.41540241768569041714 -0.76960551403131272075 -0.45703510137161934557 0.96956826206314750127 -0.54576587308700952317 0.84012400333367598382 0.92043750723010198111;-0.34802304318794108351 0.83598446938284165508 -1.3348932004276159446 -0.24008493822915177862 -1.161210870675039919 -0.37783362711143642088 -0.27277603417074874903 0.095575209096171370726 0.80009638109095226888 -0.64672767268912245697 -1.0005235366482196913 1.8044077357703516284;-3.8895505724218475407 2.3355095199964237551 4.8170250066564088698 0.65421316708912369275 0.20856020472873898486 -0.10878779111083400344 -0.49707836811959349443 -0.71521277946583561302 0.047384130192636750301 1.1235285707650155551 -0.868867090659563579 -1.5342217958955695067;-1.357855487877926981 0.61897743077869271655 0.23183850258219773632 0.32047842499391721027 0.52156435705017945015 0.64285486390953872071 -1.4395959966063536228 0.23987971063275026484 1.2059503230636692273 0.96605119349954859942 0.20612560994991099839 0.37345567040753491206;1.1823966889111130474 -1.0138711100494590678 -0.96432416178172131183 0.63498060452943405618 0.06054273079603228469 0.51278874445695799 -2.2927658776455110967 0.25929782095002523734 0.097087154697423183602 0.83164333909431631398 0.5901863823180578672 -0.54183251225704587295;-0.67310473476943755156 -1.838732540970352769 0.4432164454744279003 0.98425243842073417699 1.3607401588481438104 0.6939585537884206401 0.2123766435916596973 0.37835481416363336837 0.25192420905726931046 0.16352722006731729154 -1.2041397045501081031 0.19075380505414712973;0.6350644249434442834 -0.95847885666559606843 0.51895007593175446203 0.89856933907688951724 -1.6605520097931285584 -1.211471311116632199 -0.083321019716715252756 1.2032372516704992194 0.8209258920355242406 -0.07203360304739746256 -0.81302633679316538284 -0.22308071811612334434;-1.1147515770089928555 1.0933505916913723865 -0.35148822274360724816 -0.53571619094320321874 0.13292907040049900536 0.79872719630800581569 0.47600954245863974501 -0.013570198392046893543 0.049488916534379270851 -0.31062089195716002799 -0.40698467523737280604 -0.87154413485689785634;-0.39422895076114627955 0.80868755376743006735 0.32938549781290155094 -0.87582746119894872017 -0.78649918433134813345 -0.1865757214575738121 0.16651539184404773319 0.21249870965897915687 -0.54348454442330385028 -0.8064193180940499861 -1.0439601207625908152 0.29449644675721331488;-1.4081596658945245704 1.3683004818380710699 1.2046583053436423771 0.84385764274372743188 -0.93880760050587652721 -1.2878495686991073832 -0.70086517191195818466 -1.0455608368211075643 -1.3239880730725412938 -1.216961985354418907 0.12460256189363455581 0.16983544657677346335;0.53814895615738411738 2.7902351964677865048 0.90449084050078309982 -0.12884561257445603655 -0.26173101298071710374 0.4119838971173520048 0.78089762236391557781 -1.2468714341832707326 -0.67163347234991777057 -0.83625840010461338636 0.33562204711126908396 -0.98293574060370569878;-0.38822233765217845081 0.04541489965650842564 0.79130462792523181825 0.31499820581638965367 0.30220551722961375152 -0.97980768451621547133 0.35762307637292067852 -0.1622161079652025828 -0.037605164656063033712 -0.13535875324316776203 -1.6605190940379783715 -0.7020796385104387527;-0.46592044112895236729 0.082599365620322051651 -0.21862356749278527568 -0.11648633717204606719 -1.2798226610774845469 -0.0037305196826386832765 0.38112377190751556277 1.7224616105375314401 -0.46813058237998944611 -0.022369875038932819644 0.81249043820514565972 1.7576117688334049749;0.68210120525459827512 0.44246581895898196013 0.74558212213714580852 -1.7515524944690672449 0.15487679661144818088 0.76337050680066320663 0.14795050106106191756 0.30133689215880116175 0.98722624321423879667 0.86159832483719278606 1.2368311336587813898 0.62290254760275098889;-1.2741018095822165268 0.13366826573578977078 0.6259332674414666009 -0.67973202734703197514 0.12490404843693138359 -0.62437619486691842141 -0.29138995410323936808 0.20290526867250052723 -0.32339601087603470075 0.91476650994132346906 -0.63680337114917273666 0.78820276077818340887;0.56357697752205615505 -0.16397130668138767962 -0.91587167696335769485 0.050047143268891113033 -0.58150585660114240127 -0.51390758260958424586 0.58257458921465454793 1.2590574579033118052 0.0048458587933317663621 -0.13156448436108070243 1.2733954148441595233 -0.019575471081419507091;-0.14857740451126222325 0.49126667161613124524 -0.25461170713070369054 -0.29795275122245490351 0.85597072633248871831 -0.23670230377037823621 -1.1427822698533853796 -1.5484005072142907888 0.84672389990036966978 0.28525213808340182942 -0.028583778207708174235 0.085139106178309095774;0.25927048523148055192 -0.7130087711414494489 0.33932175931492009058 -1.0884133230704355899 0.73765455125221401911 1.2507805307889898749 1.062478295371122039 0.83229319468861806541 0.88454149970488860077 1.3887962758100287353 -0.19314381010654785298 0.21738540505258957536;-0.29394077363522508328 -0.46535473726731790833 -0.61953138853916012163 -0.44074813832854797813 1.477429029805473748 -0.75270003630522319682 -0.56529623842571119496 -0.57953455535817366417 -0.13013948971440680857 -0.17543530454283653985 -0.89779407673264077783 0.049584361419583652952;-0.027084160649082353323 -0.82823937349106724337 -0.55846815154919260404 0.53748015604814469715 -1.057756178348917997 0.63522616750032567801 0.64993546291088311051 0.1240208064866323151 -0.01942487967616101513 -0.23423651181900309592 0.56706558615187707684 0.044443137895310284857;0.33718749696556438167 0.11270363989683120087 -0.07949264246029486003 0.49127177569354385511 0.51281614822481080829 0.49286783265893246986 0.080415532651446464119 0.45444846264647414946 -0.16124707146939548652 0.87822581769777097183 0.098011289141030522032 -0.75782166676729090238;-0.1704302020161650999 -1.1859340968280465134 -0.033064923175458817151 -0.90279409709872193712 1.2315707478706086064 2.3902791296963679102 -1.8764674398329623806 -0.44338192110424073933 0.1367420924273497207 -0.79164883260527563191 0.57189923213286175674 0.54644139093314758604;0.15616960334040003167 0.68355796095567966653 0.069352319472771734032 -0.60560190067110120093 -0.10015997889948662081 0.37674441875746711439 -0.33492720870697240132 0.7518458717861341567 0.9053663036742546355 0.72633387213327915699 0.68540464749768226227 0.65662921127168916158;-2.9236545663340587353 -0.26738355812887459884 -0.1765297514759569808 -0.047115060165465558195 -0.040878713665162130786 0.63378177799038204476 -0.05964798753886328686 0.37280116939358026729 -0.38871991574849151796 -0.55253233073042828938 -0.15021329970216668048 -0.43264610697603012035;0.68751683036233446344 0.25814245262194729369 0.52423856496448262288 -1.8120349697846049875 -1.3120989434464735979 -0.55412624772645258098 0.46798482648391381833 0.19711548418709037844 0.67243434464101337067 3.0328056232878752851 0.16724322277231601364 -0.2786208791135001972;0.37383816936710367873 -0.53234035275121760478 0.097073160994120402667 -0.51962528629718107709 0.13734009574188912883 0.54930587695726407205 -0.29522030696125045601 -0.48156104640045227505 -1.7729728884517426124 0.38366540611978228181 0.48749135113188951651 0.269611401392160277;0.11658518470670463374 -0.44802113659334835694 -0.86094422981815088569 0.37921592598691222786 0.80165937021808264529 -0.22941785340500095436 -1.004385170976473507 -0.35041305416544749063 -1.0937459422116551089 -0.61403568092013838253 -0.81729219989221901788 -0.039346330464231388246;-0.058852361489391866178 0.6312602481489416606 -0.31257459642340368333 -0.3492974074972637899 -0.32301505123645629647 0.34965413402724876413 0.33726692320471407527 -0.066053624550503994839 -0.50347024620582159216 -2.9209728021119638619 0.51369430797536519417 0.33139773154023272062;0.27836397172961097057 -0.39714804059999414543 0.64884930004440355411 -0.86969844439624477417 1.2036967623091783253 1.2268886621524142111 -0.71844284643539124691 -0.0015797344399470498837 -0.22341273407924025496 1.9169048224903848521 -0.4014165126001043582 0.071076856025162143959;-0.045575733438998816682 -0.38394655437011293575 0.46767398379723290613 1.5781123919883692786 -0.14848367625062219854 -0.4295113368493715944 -2.5480754042385798108 -2.0802974773198359415 0.3458072316683262204 0.35112979175869440951 -0.58927776642886053882 0.65075795647331180493;0.87951720220778384363 0.408338331814640354 0.18878036776722201262 0.89700459801891907485 1.2563440584007172784 1.5821442580307527592 -0.35721279103988962111 0.56703806125044320385 -0.84105695140403513577 0.45395703925892261221 0.40227145955945120548 -0.4152479293522916004];

% Layer 2
b2 = [0.63815836219214461256;0.28674575078403091721];
LW2_1 = [0.74752628845080437703 0.11699909803362096294 -0.10195080265543096654 -0.057961958063072922809 -0.089138434360606977336 0.01175168721589389155 0.048173217441298758767 -0.49751477225515544633 -0.023211363364126273018 0.2298224672525386314 -0.033970245996632529584 -0.067918833467866521203 -0.20268186081576430868 -0.60399978356344086183 -0.14965488878619548352 -0.19955496626730021004 -0.42201151710297390984 -0.012383937615616277816 0.0080587608057085639846 -0.0046052033890655943993 -0.20815108533672616042 0.10580216710095395605 -0.22849758063606184777 0.14399677084735909571 0.22857688438778692164 0.45871751905481866762 -0.12817360108000480645 0.70351343307113989312 0.25783005411572446075 1.176842931582984475 -0.059276151917929703616 1.0143238822373827901 0.16689031419188546379 -0.018500254121657934425 -0.07308465231687827357 -0.7522608504572935173 -0.12562957743003411171 -0.35878809650564702505 -0.64003248901764331347 0.12114400641261843794;1.4295147718799632308 -1.4278909342307182229 -1.3866727611925797614 -1.1415579485352895794 1.1032042931585759327 0.6130231130438251741 -0.97983171514443767602 0.68447988854910701839 1.6044991795704572901 1.0905187700011422791 -1.2217603656048550143 0.97064655227219487355 0.74263721659507109241 1.7219870202915474877 -1.095702804163918076 -1.550561339227633173 1.8854579586539133018 2.251829234053713602 -1.7757796320598118189 -0.81504626846860328548 -0.81004086500876348875 0.79516889591171502349 -1.5442500775962941795 1.8574102440011257542 1.4009586890748655374 -1.7164669436498207755 -1.0257362231902258376 -0.099457221386195504564 1.3152560213222499463 0.14635950458407509522 0.78042058285532622808 -0.86175723356281597187 -1.5513714789473307398 0.99941727797835322455 -1.6417456781220356454 -0.090034904867414250473 1.7767684500862990227 -0.93630148579744743031 -1.1253700764267613454 0.57625978314431991478];

% Output 1
y1_step1.ymin = -1;
y1_step1.gain = [2.00271367703238;1];
y1_step1.xoffset = [0;-1];

% ===== SIMULATION ========

% Dimensions
Q = size(x1,1); % samples

% Input 1
x1 = x1';
xp1 = mapminmax_apply(x1,x1_step1);

% Layer 1
a1 = tansig_apply(repmat(b1,1,Q) + IW1_1*xp1);

% Layer 2
a2 = repmat(b2,1,Q) + LW2_1*a1;

% Output 1
y1 = mapminmax_reverse(a2,y1_step1);
y1 = y1';
end

% ===== MODULE FUNCTIONS ========

% Map Minimum and Maximum Input Processing Function
function y = mapminmax_apply(x,settings)
y = bsxfun(@minus,x,settings.xoffset);
y = bsxfun(@times,y,settings.gain);
y = bsxfun(@plus,y,settings.ymin);
end

% Sigmoid Symmetric Transfer Function
function a = tansig_apply(n,~)
a = 2 ./ (1 + exp(-2*n)) - 1;
end

% Map Minimum and Maximum Output Reverse-Processing Function
function x = mapminmax_reverse(y,settings)
x = bsxfun(@minus,y,settings.ymin);
x = bsxfun(@rdivide,x,settings.gain);
x = bsxfun(@plus,x,settings.xoffset);
end
