function [y1] = gdNet2T40Nv2(x1)
%GDNET2T40NV2 neural network simulation function.
%
% Auto-generated by MATLAB, 30-Aug-2021 21:42:34.
% 
% [y1] = gdNet2T40Nv2(x1) takes these arguments:
%   x = 14xQ matrix, input #1
% and returns:
%   y = 2xQ matrix, output #1
% where Q is the number of samples.

%#ok<*RPMT0>

% ===== NEURAL NETWORK CONSTANTS =====

% Input 1
x1_step1.xoffset = [0.014469;0.014929;0.016612;0.019995;0.027617;0.033129;0.040462;0.032248;0.027814;0.019981;0.016227;0.014616;0.014469;0.001797];
x1_step1.gain = [2.02936285109246;2.03031050553716;2.03378524041375;2.04080591425554;2.05680272073864;2.06852827316157;2.08433642023557;2.06664517355686;2.05721950326378;2.04077676045056;2.03298931765763;2.02966559229701;2.02936285109246;2.00496228164708];
x1_step1.ymin = -1;

% Layer 1
b1 = [-3.4938010070034426491;11.292441856395120325;-2.3144141685114822948;7.4842104631357875277;2.092291082356958043;-21.407422145642861722;-2.7532728704652438267;3.3207692149478247323;-3.2460529450603647916;23.877172649677266492;5.8719776575425592924;-0.68820060612390365762;2.103562434949867832;17.60397098029742935;-0.79043489509958098083;-6.8545735720998912655;8.9928277603965884879;3.6007795886327031987;4.3655055640392506078;-3.3485728583561789051;14.027986666489846712;-1.0856084249904995875;-2.2610659261424603805;4.6914387148529135274;-5.4084090373251818562;13.244322012662923527;0.70770880310198691632;-3.3229000017586862725;0.38572182368602081493;-19.779681586684041861;1.2744825330779572248;1.6085170311536054477;-0.49753510789385774205;-25.718654449128749206;-0.35516253793107704917;8.6507811166818804338;0.019202272815520927962;-2.3153166008115055874;11.571314816216970556;1.1078289212636460714];
IW1_1 = [-10.377241483190738691 5.787880539567749949 16.541981405326854571 -7.7899000513510872068 14.373528594847305939 3.7416273195778533278 11.955681524559421902 -9.6342266709424908555 1.8676173057448861581 -5.6485725388932248592 9.8582286071093498947 2.8840991183991544489 -11.653151018107934078 -17.032224140300296966;1.0707790147676043979 0.29646761613455296924 -0.086912526063147504951 3.0067718576220183735 0.92888280393080513431 0.17286266381878045983 0.87914003321990252804 -0.66088110881683748143 0.45152663666459191827 -0.11250222901803515196 1.3460518946159765186 6.9439714835368082646 1.282680547323501008 0.0418507126331566226;-1.1083086441950900092 0.044459996850279091818 4.2046667307692562332 -0.056787108300565942998 0.72355642769637518175 -0.091014448549037521574 -0.026896279930243967293 1.1469746581143642761 -1.8032556904640097972 -1.9931434384265576121 -4.7612836722122136024 4.8047138701310645459 -1.7521535406905337506 0.22922980436317666464;0.14132948639750111952 0.40947576568222954219 3.3792952800201301322 -10.140768061474325634 4.5408822851371866136 5.7408070889395856895 3.1367308853926600953 -2.8638618893820675382 0.61253937150559645275 0.68671957379740966587 -1.8501534429300061646 6.9343591091158529593 0.1909900030590758746 -0.61168043926679727118;1.1275755812699364 -0.077676540830098145252 -4.3338807132358398988 0.021350763027119017134 -0.64304989897110220731 0.075765422460885661904 0.060134397388938096163 -1.1276295148401609403 1.7770726274904704578 1.8969389709965602808 4.4802367389628701133 -4.6022454337412472825 1.8220165900918281476 -0.19765277662142100024;-5.6812257967636279332 -7.7602481455115244202 14.03788654569558858 -1.5011232344379275006 -0.28330865696786550201 16.232823898444340927 -8.7610637271619378197 5.0758409051188300154 0.61171511374375509007 -25.178097573448852131 -0.24733935482551003271 14.303699873162713629 -5.8079874169652931926 2.8001567342033872876;-2.2002384724336310207 0.18129325050439815126 -0.49044667499941785316 1.2938327038285930559 0.81456908007366424229 0.26953021461394999214 -0.62920278850529232084 0.22105474458968471518 -2.965424243741906718 -2.0906742379251053165 -0.19745183091903645289 4.6967369454388148142 -2.7957084854141402985 -0.25087424632685473291;0.23512733045592151826 0.803309943928729564 0.73481971138749402339 -0.84318630450996323589 0.018852330182525127433 -0.68722741386420582721 0.13871909171473628675 -0.60381055796700588978 -0.27911317143441266575 -0.24620030927835892531 1.0463857750515728195 0.24396082093611320962 1.3850895313289648403 -0.066940699760574637334;-0.18853234276001124003 -0.71797891501697563843 -0.82596139293840131756 0.99463285916248589391 -0.050823857294927096695 0.85297450816438047383 -0.10214037981031356961 0.71501289434303816339 0.27629919628320459557 0.32646173375082038204 -1.1383933833089980858 -0.24240438627656712978 -1.3113748954740813701 0.1840247386740815061;-7.5250003641182070524 9.3144116679404120873 28.750164501983885401 -7.1068616175159968762 0.62745030172656157674 -0.92720522310551889422 -0.024844055586742318231 0.14478920256851504633 2.9975903446867175894 -2.0864916423672705825 -1.1719272012597585775 15.191308187083409464 -6.8366610287413775993 0.43152129342993195138;0.43457471830144100977 0.05930685196907115736 1.6161969279048402637 -1.9454981024948598822 2.6230209585986146159 1.5734745516853825276 -1.0006503829591686383 -0.52410679900485857008 0.54369812055219879365 0.55897214934039018974 12.557710621311239052 -9.3564100866356447739 1.285987487799458151 0.048764752350841801543;0.085305434062111926141 -0.1459625212955118212 0.035764602007686489837 0.35974640491956316746 -1.0834018848456319351 -2.0638776706066126465 -1.2725363752787857141 1.3038597884153857454 0.18906674881064913785 -0.81333757362033520799 -0.29776845359375703204 0.6718008045878954837 0.37289955511008632261 0.074009723976892857755;-0.56130052680697328782 -0.91077897535632212911 1.883030369868707643 -0.0076681442226669864135 1.5725303149327694019 -0.063721833035700475856 -1.2797444268495687947 0.74509409804534010302 0.29567555145881213585 -0.9633157926541903171 1.401389316459315193 1.1888331250605761458 0.0056658107925877977673 -0.018030583482087469971;0.54854878470357137932 -1.3412570457577723815 0.35303872360051463675 8.3397361568007877253 2.5295071455381035186 0.10612358348185844947 -1.0122796769824615737 2.4554886080383488967 -2.5737075446218438124 -0.20194355336280606084 0.79476800068124209275 10.629793652126911851 0.79680387637569716208 0.10259507383876702302;-1.3256565569041831587 -0.057094904526931916644 -0.33288419623494308608 -1.3702319978843289228 2.6695674395537403178 0.7161761985235831629 -1.5858385664177914176 -4.6862930508812796759 -0.0167887778584267372 0.11881985826016217001 1.1552765882870150715 0.27977343265647985904 -0.34892013076494710067 0.20056915936124400379;1.0262413113571662304 0.024387901972458807948 -0.33542815358776950641 1.7917559517813501646 -3.2432939428456606379 0.42965506069720760252 -6.335373129769993561 -0.68054918120070251319 2.4737023068502570489 0.076715466086853645322 1.0108977393372700071 -4.6093483546995539513 0.97748277342694855907 -0.1710409790096165672;4.0850721023038847335 1.1514786185469900737 -3.9102452218541392526 -1.2986814008475371374 0.17223193257618166219 0.59571372597243610336 -0.45752672000361344073 -1.3482007681884207173 2.2561383004086943416 -1.0149285328289783248 5.725568684161956412 0.92246244493153350952 4.6939184363478645423 0.24172493594795446681;1.4463898798763876741 0.96819614774148965441 0.1861347521110515435 -0.73542948425500731524 0.029395810145282395137 -0.47805775366684560845 0.042580915321089721215 -0.28324762602880515505 0.13078356541595023699 -0.11237850772814381162 -0.016921496259776284965 0.26038460474028107816 1.2359531074357894553 0.086124083476063775788;0.27568930151898551895 -0.13543850458453449148 -0.52383934474892390742 -0.37167290266059577197 -1.3881966257612696758 -2.5308604291544223308 0.98799136543970822455 -3.1712804926663955563 0.68178752568892164732 -4.8520311386904149131 8.3456798838469410384 4.7264068249935133892 0.12737353478458532385 -1.0975778488280412137;-0.97195470219701385339 -0.23693437677726608692 -0.5638971959200033135 0.57447980612339255568 -0.030837165535664391031 0.27618512660057992214 -0.031690130831442432646 0.29299629946579974771 0.16143627098823135069 0.17208285322836300302 -1.1259523968987674714 -0.33323341141810541854 -1.0448239472105405046 -0.10277568687761845512;-1.6031877955275120051 -0.74966373216504200716 2.8174828857533493753 3.0360303941568971275 0.79021439206178167858 -1.8488953022986165386 7.5019252475821147641 17.530774963272175881 -3.8482161058568848944 -0.25172390109913556078 -1.3394122365721843337 7.3181863324256539727 -1.7049905682241179861 -0.030013818221063321562;-1.637468990322775042 3.9446727407971504675 3.3384582851897022238 0.84011549643732696957 -3.8978682174266987559 4.3934690647393956908 2.6586835168263345253 5.3233549981846879362 -6.3951941870173572013 1.2990768919771529255 5.3222709602750724045 0.55781182993917788338 -1.7645373984481067531 1.8114701999295514945;0.41579848576465078258 0.004111044769986096914 0.78804416734980586856 0.62338412981655833001 -0.107486858075891617 -2.2515457105189700115 -0.72116939746258090782 1.3665634141944207336 -0.075104118182066900711 -0.68893482883646439685 0.97856943272551155655 -2.9761505690678462521 0.081851936408071271356 0.045992345947463521283;2.7037373860624800415 -0.23207091346242805785 0.32284840951515336727 -0.10701333926090422777 -8.1826796976872930856 -3.1366820728629880577 -4.1949794954578187856 3.8984849358711870515 -0.4730326504283536293 1.5793632808847057891 0.59093087725478810057 10.327807080940264228 2.7569842822906296398 0.40938596781448205464;-5.9585777536412454225 6.3366865416830373547 3.7171164008995076777 -0.42578804014333843098 -0.83051378874867731739 -0.93568974967305362789 -0.54338822587372526129 0.48080681031204874909 -3.3999485897483467944 -0.79129989115629328911 -0.49195698126938147698 -0.86110506962159572009 -6.2735324707375053066 -0.17894346776130323762;-8.5363797167551727085 -2.1089736409034540721 12.189763096730485969 7.0952347206467241136 0.61592277270973705416 6.1261170889862599509 -1.7771239793192210588 -6.7549322191776539626 -5.1919907667151186104 0.23086353169718246137 -2.031895144802976283 -2.373155648988937827 -8.3772935545821045622 17.560289580309607516;0.24503380756948209274 0.21684883256334280821 0.022353992401118100153 1.7401720444960264711 -1.7337431750124359109 -1.0241791434830089802 0.20785194434326542678 4.3258614411062454863 -0.99823527093046837688 0.010741739516535323343 -1.656404461147931384 0.60196818060073886691 0.35753865842350462945 -0.094225859887029889128;-0.95990161718331901142 -0.77624534084681062751 -0.18202613549277207872 0.61842739847181793511 -0.088097617863738583721 0.36176160898306458646 -0.036634443533249974601 0.18862571306031727936 -0.29247816440992147058 0.091407220049017981478 -0.029667525998298607121 -0.28347550990602626841 -1.3207403817737668472 -0.077190654362301922009;0.54121018101585782745 3.9308773596395800709 -0.11897110917866055013 -0.12892374094029757092 5.2241797340221296508 -3.9107993986813500698 -9.0934879537656279069 -1.6965880767706231769 0.70023264665154605346 0.63499335543496226997 -1.5822430679715830948 7.0369438727288455837 -0.32481721450161293863 0.64925959645331521308;-13.94287945360698977 10.333190200758208377 -0.54747212457292482313 -2.3873185163537140596 -4.5569922837130638626 15.047328908325482644 -17.448519279148896999 22.104914910544909645 -38.427900445500604576 20.757978007541481702 -5.3493517002787820402 -0.77025834415753047235 -13.723227817018612384 -1.0442128610464487259;1.8573460630926041937 -0.57932309927375413849 0.70914338124439435518 -0.29135780064432487135 -2.2202154547513850424 -0.94646209346251553018 2.0977469332658778001 -0.60699043227629589925 0.92576129761469050372 1.6819379286893056946 -0.38039576018438980842 -3.432093705584965182 1.8834326102666294478 0.35758568458222916853;0.88316586631563631649 2.5992135500153121797 0.35912126673853644876 -1.7340035546578440595 -1.7505593473868119592 1.1332690971354195675 3.7191630551469385679 -1.2973241636680137301 -0.21666845039406168461 -2.6942253974110395021 2.9698291141168637886 0.012971110165937681236 0.010163358328058020794 -0.67890756979158239925;0.034409709696677732993 -0.18337679359576991578 -0.29028807276322082798 0.24310362520004891174 -0.78183974129473532422 -1.5676605308034461395 -1.4311588616473749358 1.4023857884064419022 0.52990687846212403134 -0.96379475572322514942 -0.21803245876609472775 0.68939667309175023391 0.50889583819394346165 0.012101914340293833117;-0.79945506013017197944 -3.9526251732460431221 -0.96326709580995839577 -0.41605003410397872754 -4.0266309420319270629 0.24239729479118726774 -3.1730699188947775191 -3.8358804085632951519 1.7003710109013667751 -3.9802861024195799189 -0.21108828442105379009 -16.72307142759063936 0.15157111913459964114 -5.1796408179151711693;-1.3268708697439532962 -0.21340532973362702496 -2.7765445657476757191 0.70378087756524398966 -1.9769321331266871411 6.1981396633370611227 -0.44542819813537110063 -0.11976337241647042053 -6.05773153789497254 -0.21140088839471768423 3.4215203239074600816 0.39950443131727442214 -1.1886755289494652654 0.33167573748705603265;3.3398362341947422927 -3.9689774743185908257 1.3915998252435373139 1.6138469622826170369 0.66831141238411106986 2.4607785631845771057 0.13455107138874417005 -0.17007290302933586457 0.69580491138847466726 4.5615771834187670564 0.48741851587618301167 0.32991356754514022942 3.0471799519982423199 0.20768031255049193562;-0.70688703602689151317 0.021824491338501356835 1.2724217169457492371 0.064916777033795516894 0.35758091916750656125 0.35075890648487800805 -0.090053660109733271733 0.0097497127485571873778 0.038139164331737446245 0.047102324152682603642 -0.069275315040570065173 0.052976978522649487147 0.5057100970755989966 0.53111915144636623332;-0.7648601682733777718 0.73060195647153258758 1.1808154800428372067 -1.524815011479426996 0.2480148754996183702 0.39113951278149139412 3.7198594827647908367 -2.3233672241025185023 -4.2951199316409196527 0.9335250185029062564 0.26904041611703954917 -0.14723649788583806353 -0.29346238400814506075 -0.064357871742857092334;1.1004503369618057196 0.28606599161687018551 -0.06626469331875783908 2.9906441944638357811 0.92804435914807092978 0.22664813102376502041 0.87376987619794221906 -0.67735791698884084688 0.41539433994151864216 -0.14529134258229375876 1.5266651108995590302 7.1152160306353335884 1.2828548180602494799 0.038589577170865967115;0.13891301170598374659 -0.025613899865317969057 0.51617841733719438402 0.008637002234629792552 0.24953957213919450431 0.10309236388706129184 -0.041229244771738116082 -0.063443716423374499347 -0.011912606077215550857 0.021104937186645005703 0.023061382756990416593 0.101654213765554155 -0.30405292724928772996 -1.3895643396602479491];

% Layer 2
b2 = [-1.2288104344198238493;0.88064787822224988023];
LW2_1 = [-0.10968803678902973309 -8.2099697460726446252 6.725024750928469075 -0.2229539664751783723 6.8683695243570923594 0.16181538265082590078 0.56738009020265900428 22.380188513839001985 13.764127852274011587 0.22484767359382043517 -0.38637665498387346874 2.5787650683634937288 0.84442255635450991225 0.39042276794298347298 -0.51381508210765547418 0.36783512985936583917 0.60307282746917223459 -16.074592674925540337 -0.20379633994270940356 10.931752805451967703 0.087560436262236404636 -0.14626331464073979993 -0.69760543514019535127 0.099556247652213006316 0.64191352574906246353 -0.17242652407510053458 -0.65082006433377725951 -18.746679180578553314 -0.19348371243158263288 0.097926234166539366521 0.55243243784024764764 0.30281536469526043609 -2.8723257159467721067 -0.12841845756878061957 -0.24987231475674845371 0.34447367074741475079 -1.0454677248880990259 -0.44168226850987635235 7.8779618760540603972 -0.23683761961892460524;-0.16137257998197399034 -0.74051753809406606344 0.94849719159701229021 -0.0016805100252784011938 0.97843498647123972045 0.025385640744486809989 0.046470112363782588305 1.2194014801864014874 0.40129598361213320024 -0.023571145599614550664 -0.05346874203442200657 0.24732696655535457708 0.083520867943429763502 0.031240759107511107545 -0.044392334907064991134 0.0096647238079613281142 0.038101660099073841881 -1.6063553036866007329 -0.0074307583073980366939 1.0713901218977412988 0.00090471907610080557101 0.0070331590322741163041 -0.021837632614127567426 0.010388398300306545333 0.050520678704741923959 0.28891473888991558994 -0.059961709620171110835 -1.8946535204956140852 0.022079025075778118542 -0.00096798130791626304462 0.040996787605166430668 0.01958166747716219569 -0.31005462841050879241 0.7393547016178791953 -0.012574724871533764226 0.045783808164921349637 0.38368265995873307439 -0.034331189224283811812 0.69768843126380430952 -1.0081749648522704277];

% Output 1
y1_step1.ymin = -1;
y1_step1.gain = [1;2];
y1_step1.xoffset = [-1;0];

% ===== SIMULATION ========

% Dimensions
Q = size(x1,2); % samples

% Input 1
xp1 = mapminmax_apply(x1,x1_step1);

% Layer 1
a1 = tansig_apply(repmat(b1,1,Q) + IW1_1*xp1);

% Layer 2
a2 = repmat(b2,1,Q) + LW2_1*a1;

% Output 1
y1 = mapminmax_reverse(a2,y1_step1);
end

% ===== MODULE FUNCTIONS ========

% Map Minimum and Maximum Input Processing Function
function y = mapminmax_apply(x,settings)
  y = bsxfun(@minus,x,settings.xoffset);
  y = bsxfun(@times,y,settings.gain);
  y = bsxfun(@plus,y,settings.ymin);
end

% Sigmoid Symmetric Transfer Function
function a = tansig_apply(n,~)
  a = 2 ./ (1 + exp(-2*n)) - 1;
end

% Map Minimum and Maximum Output Reverse-Processing Function
function x = mapminmax_reverse(y,settings)
  x = bsxfun(@minus,y,settings.ymin);
  x = bsxfun(@rdivide,x,settings.gain);
  x = bsxfun(@plus,x,settings.xoffset);
end
