function [y1] = gdNet2T30N(x1)
%GDNET2T30N neural network simulation function.
%
% Auto-generated by MATLAB, 30-Aug-2021 21:34:38.
% 
% [y1] = gdNet2T30N(x1) takes these arguments:
%   x = 14xQ matrix, input #1
% and returns:
%   y = 2xQ matrix, output #1
% where Q is the number of samples.

%#ok<*RPMT0>

% ===== NEURAL NETWORK CONSTANTS =====

% Input 1
x1_step1.xoffset = [0.014469;0.014929;0.016612;0.019995;0.027617;0.033129;0.040462;0.032248;0.027814;0.019981;0.016227;0.014616;0.014469;0.001797];
x1_step1.gain = [2.02936285109246;2.03031050553716;2.03378524041375;2.04080591425554;2.05680272073864;2.06852827316157;2.08433642023557;2.06664517355686;2.05721950326378;2.04077676045056;2.03298931765763;2.02966559229701;2.02936285109246;2.00496228164708];
x1_step1.ymin = -1;

% Layer 1
b1 = [2.5086871343378263077;4.043951577580124912;-2.415136559817073536;-0.47756917508358309732;-10.738292560317153956;-5.5188036101892024021;0.92797384636960911219;-4.6427575488497216938;-8.5711900136514298509;-6.7877104304279152203;0.1332646141254903438;-15.940391887863677667;0.62041365277726234773;5.009275431528342537;-0.55948285725386137646;-4.3345452338228964706;11.532469284799436338;0.43492146987190227758;2.5863931729452178665;2.0300798064086045258;-2.3277303761388927761;-2.9935114087928300641;8.2849376919359585258;-0.40688785515745273802;-5.448306059275140889;9.2484150173541763706;-10.421855705304544415;-8.2009686553937761744;-13.47660861690549261;2.1559749536807557568];
IW1_1 = [1.8012210640368799819 7.3667286040300732353 3.0787993092391352512 2.05459454416627052 0.14924197394307350817 -11.367757820543598513 3.7128926555880190641 5.9963329481052909387 1.2227076381109809322 5.7582665649191451251 1.443714617581397297 -0.7189896862883626838 0.76971971828879681699 0.23174412493041096628;0.27364502571352966598 1.47895076286458238 0.75841604795584038889 1.6233020296384157444 -0.9782513151507035154 -1.5389620699706936247 -1.6561893633115924995 1.1626854129772206115 0.27369893043654386355 3.6189229045367143911 -0.78151511070670331982 0.39703543526207718539 0.99799236983400729795 0.070011628903383874012;-3.6463566949475505474 0.88603741665284807549 0.23476422606995964171 -0.51456434587698396399 0.14193049802958737637 -0.20090908430116985461 -5.5350734061616018167 4.7934341963558289024 -7.645916722301607571 0.038558427335232396682 -5.0448115835663873696 -0.44316420371141007628 -3.3515476866505684583 0.001930868634922412036;0.14470552991123969422 -0.098048462112392431589 0.0064571386749074505262 -0.079136477853402928395 -0.0085399990990411914216 0.089713034473742320207 0.16689800190575429517 0.10794176702263763579 0.86112370290055717525 0.52292236231803379543 0.21413699092319593564 -0.65856941560116266654 0.26579344270127808203 0.048306081902674727346;-0.29732478909024134817 -1.1996618747865104293 2.1488027919980248193 -3.3887568168687849379 1.1134152480428929355 -3.6062657887955436031 3.3634839741027047211 -3.3475192726398197429 1.1395301895752059096 -0.38886108603925600979 0.076727090259096408786 -6.9045383376791686914 0.1201408679376227695 -2.95691142438010246;1.166725653126821749 2.6465999434093427922 -5.7042543411207491388 -1.8052882352306560687 0.3535563867392170212 -2.2994247873158575324 -4.5214673869816328633 0.31382591206467386202 0.028187413882746974181 -0.45586195640467874757 -0.61910382990849954776 1.4292807333068886511 0.16950173160040296616 0.47605332616941598012;-0.21804850637047892836 0.031187212497318921034 -0.054820512697883197473 0.19291442120553956019 -0.4955192607061093546 0.23965128558058049202 0.32580724536750482745 -0.025200910009648264803 0.067584577307414711589 1.3351897543959956316 -0.075144864911033171229 -0.88899934849651063296 -0.36649657180942568635 -0.09721090857860813228;0.097103857884011185453 0.83417148731661194816 -0.2642130079288472766 4.1228248510455172138 -2.0845437711182173146 -0.64517608207264331988 1.1604632118747100211 0.38762326817524428435 0.66167880718044758126 -3.532927809153347809 -5.0358946185941269036 0.85122987103601244208 -1.3527545828385303395 0.10598179168715225751;5.2990994774123114652 2.5764998477649085906 -10.751674836665367607 -6.3767299788486795364 -4.0862006831490420566 1.3963717924199119391 1.3394458908337465441 -0.19427377941003090567 -0.53784716433705836991 0.73744480494660480385 0.21696096854229310336 -6.5816190459324444006 5.9509890374691085668 -0.10932356551989452775;-0.94725832589542047213 0.97208287869750831245 4.9774861422523963839 -3.9081422120097784045 -1.2691151406057274986 0.4505373845893433371 0.82224647202593026396 -5.7275295947189377443 0.41843223907309901044 -0.76445185531861525874 -0.61553122393130044188 -2.5598447334144336374 -1.7126635973466661778 0.088329604874942291293;0.36043071072882193473 -1.538251811209256692 -1.428405277946849905 0.79681468432323709905 -2.7517867903145676323 4.194252966103028335 -0.26348583835920336149 -1.2821827959193334845 -4.3421659581260882987 -3.636880132209977301 6.6809461740589055623 -0.094418326361321705531 -0.84232716652821082448 0.21336738088829909632;-0.32332124218942331906 -2.4547943496014243969 -0.098672865568761244925 0.54479240254283967104 -0.24878765540727329486 -4.8530188292277047779 0.70086697047844837005 -0.36384600298850183764 0.65580644473716676046 0.13237773720875772865 -0.72012638849245036443 -11.610822632564541834 -0.81804632650495667789 -2.4492247877854649296;0.46435284490197664686 0.010482119041620264338 -0.048303074987178042099 0.17304162209249923654 0.11417595200395808108 -0.12167523008817258956 -0.23573645493640321691 -0.0037054255294168805986 -0.55255449596144401436 -0.53074034265535374733 -0.10056204862788580001 0.66254507749858648769 -0.52919899587718133294 -0.050270225525378901821;0.61937669055146626906 0.27272200859107620374 -0.85006562062674007052 6.8201404183586715746 -6.0076306410448996331 -2.8436285202677900052 -2.1356883113681579545 1.0851203831971123481 -0.13455024159618367285 3.1663759107960780526 1.0350592350365694916 1.8351536184474435132 1.0669413649263803645 -0.0023125713583365798375;-0.063573080710131193993 -0.0018268216296404456416 -0.043779238021949738735 -0.053579218101385835127 -0.19829395965808971347 0.12974201540743082739 0.14430072594013390597 -0.052129910355658656829 0.056779448084096593996 0.33287023888743372257 -0.017969938792573622588 -0.24116146861959719683 -0.047185546175343082154 0.72538991072332370535;0.82818675190871127167 -6.088715729217883954 -3.4431799192585077485 2.4282499197118663226 0.22135147026266616122 0.053576904713582715334 -0.88726616976596928144 -0.59633847012031282464 1.1839582920561628754 -0.31337260786096327037 0.31464671061224808168 -0.48488413417973030839 0.94602464873535907497 -0.14222919695109415006;5.5347695526337750138 1.4255189673216128732 -2.5214213456327665419 -0.31271126352271993998 -1.0230249948192531306 -0.64725548949974387458 -0.96348508953278411138 -0.80041566728345636683 -0.46242069321211326516 -0.59553731887565131142 -0.67874879700278822892 4.8173880697446467281 5.6874508850221348055 -0.10560666319706886462;0.37835160254891325726 -0.80322671938359968546 0.11453526356263668551 -1.4188663838099524472 -0.62181398478209004566 0.27162612640644095974 0.24170211052741780167 -1.0108932424539891493 0.97910205736195343729 0.57708313726069315752 -0.026918848608795703514 -0.50856652853313266682 -0.51059437269659069258 -0.13945207337166135031;0.85723556992429139623 0.35338662610508747575 -1.5626603483260792515 -3.4573857983099620661 1.681782441149901608 1.3089886251845246345 -1.0386616847707348388 0.41822207508140407661 -0.085142068772177462166 4.3003268463888124629 0.57495305799064699848 0.03047538004410965673 1.1990059438518048118 0.086427816575983792968;-1.0693037277144894492 -3.4144688545257366741 2.8026548130707968909 5.6482799444535594091 0.24991980897423260455 0.82510885788938492791 0.49320633453278933667 2.9095286043755685945 -1.348167273990085846 1.1965662883560426177 0.043551444575662713599 -4.1632062198781101259 -0.85971825929462886151 -0.28607581509476598391;-0.84427740717759425237 -0.37103389227605060308 1.8149482251663640042 3.4180709363353836139 -1.6755962958699579524 -1.312004453784951119 1.0016587102368526008 -0.46557327063340736562 0.036306680482943963495 -4.0362650413584022502 -0.57067154884174287055 -0.07082799077499671303 -1.2758449093663364327 -0.090966965177694397715;-0.49528790509742998127 0.12604645196651978467 -0.0083620697105040477093 0.25954391506887580787 -2.6741894585161096742 10.007357938445425205 4.58255890029322277 -4.1926824743518142924 0.21612437736676537448 -4.0199358828120885789 -0.5426641518393952035 -8.6011409073133258119 -0.021110115843739396535 0.010675082562524459973;2.6185558104131669843 -0.26737794836794176456 2.048951847118109626 -0.32233262599765383216 -0.20891341340683738936 -1.8536954359888719868 -0.42735413998933019508 -0.63222108756480721592 4.6128197432335715789 -2.2658483133705002999 0.58119061071858013623 0.63255146821068186647 3.3325575297057299373 -0.11413387059563764869;0.20704145012280250615 0.026712210432821847927 0.027099453822871603231 0.040922015813066460466 0.19452876506897787134 -0.1233540571098335481 -0.1692851042212720758 0.074539379277456033202 -0.066295395543722407394 -0.32825402105971995814 -0.021186581039364771328 0.26290444223949605007 -0.044028982355261696291 0.044625193028564595632;-4.2304166029393854842 0.82612846373168291603 0.622144747416342625 2.6387832816454803719 4.7581721776146972402 -0.09257400917181793365 -0.63639650265161840093 -1.4840069788487890712 -0.30873494371306353656 0.55573546946170482297 0.48733836463600327393 -5.8164478311279550482 -3.7219401847410114037 -0.13798767391925448322;6.4967022268777210314 0.50130056800773525882 -1.2351195651075155268 -2.062139136462171507 15.564744274784256817 -12.826496892289732443 -2.4885135730403238341 -1.8652754138856879607 15.270082518798211879 -6.365145663913430063 2.7010722756196452465 -8.4512074317615564212 6.5840008591173013741 0.32324070288956041619;-2.2147150642697375211 0.92344830662757604323 5.6750878176322787638 -4.7771524748860549892 -2.2948318695217353458 0.70830892296349456938 1.1407698330277176169 -7.4607617462910953421 -0.21426378996847270098 0.77129500798376215975 0.19724756004689752986 -6.5575571876038436514 -0.84561048135902727729 0.1832155158467263234;-2.8768971138366352669 -0.57765620765392988734 -1.8522008111362280314 0.32418650543469368364 0.18977410278555906231 1.8417169535840767214 0.4545791854312041802 0.63796498661840350675 -4.7735433114642651375 2.2935977127088418293 -0.61024724923085116313 -0.49378473990394505799 -2.3241264901316438518 0.1103009479089476913;-0.969728745363134359 -1.8828131199986628541 -0.17775620247759893466 0.40144613336284273863 -0.43575694830018391057 -3.7108425188634197589 0.5035534799010803475 -0.57469166263645499182 0.57015437252517831013 -0.15240588916760514082 -0.61864596837562202403 -9.3238731378917591996 -0.43580341093213575965 -2.1900603428124103544;0.66368385436620147555 1.3285916447070853508 -3.1867238542895588438 4.8055446690178040825 -5.731640187145704779 2.7900492359819879518 2.7171042023964870893 2.2551492352386168783 -1.4918208047265577587 1.5640057302000716088 -2.8567396533298676786 0.16126249701829939442 0.5194203017973051395 -0.010286872558561817315];

% Layer 2
b2 = [-5.6801204454965468216;1.3384509737216170322];
LW2_1 = [-0.19664362996731668543 -0.6679263868438896079 0.30389512514831962253 7.2456011069180554784 -0.58882744301377376583 0.28030249065682721898 -3.7903255622665654734 0.46731751493674655862 -0.22789867065278773817 -0.76307517772483912655 -0.36353552146257928079 1.0530363763558063805 11.174217743481522191 0.41572058939953310253 0.64821875501559811372 -0.45914143567891657627 -0.38266569856812954198 -1.1146863256817163279 7.3993278326937561573 0.34389222992086149189 7.1044812152440037778 -0.14916625267016572765 -10.055794378761699903 -15.480818743483386157 -0.22301310813158201074 0.13260906366179517346 0.51232484301824599005 -10.250562901194401277 -0.81550515235922915736 -0.2747017783116526557;-0.017067990909660747667 -0.046121471170140294904 -0.0015131024407500609074 0.523147210637398552 -0.63969505320111796909 -0.033406941762689351672 -0.076668549800026172814 0.057069738779849082944 0.0075482468162689393687 -0.049062482858383320294 -0.025582861231442197147 -5.3235895954313594558 0.95060607854163403641 0.011058431815904674195 1.9589926206337795467 -0.0039016292414202190936 -0.051733375820156225766 -0.050154675529645441345 0.44741783273032509349 0.002978040125750068285 0.41376160477910628455 -0.043218618478301204511 -0.28130678456973878809 1.2736719337311075417 -0.0071044624235519007738 0.019302969740992655806 0.055171011969617489434 -0.29309270230986489425 6.2470662461221024842 -0.029517514455715428839];

% Output 1
y1_step1.ymin = -1;
y1_step1.gain = [1;2];
y1_step1.xoffset = [-1;0];

% ===== SIMULATION ========

% Dimensions
Q = size(x1,2); % samples

% Input 1
xp1 = mapminmax_apply(x1,x1_step1);

% Layer 1
a1 = tansig_apply(repmat(b1,1,Q) + IW1_1*xp1);

% Layer 2
a2 = repmat(b2,1,Q) + LW2_1*a1;

% Output 1
y1 = mapminmax_reverse(a2,y1_step1);
end

% ===== MODULE FUNCTIONS ========

% Map Minimum and Maximum Input Processing Function
function y = mapminmax_apply(x,settings)
  y = bsxfun(@minus,x,settings.xoffset);
  y = bsxfun(@times,y,settings.gain);
  y = bsxfun(@plus,y,settings.ymin);
end

% Sigmoid Symmetric Transfer Function
function a = tansig_apply(n,~)
  a = 2 ./ (1 + exp(-2*n)) - 1;
end

% Map Minimum and Maximum Output Reverse-Processing Function
function x = mapminmax_reverse(y,settings)
  x = bsxfun(@minus,y,settings.ymin);
  x = bsxfun(@rdivide,x,settings.gain);
  x = bsxfun(@plus,x,settings.xoffset);
end
