function [y1] = gdNet(x1)
%MYNEURALNETWORKFUNCTION neural network simulation function.
%
% Auto-generated by MATLAB, 09-Jul-2021 23:52:02.
%
% [y1] = myNeuralNetworkFunction(x1) takes these arguments:
%   x = Qx14 matrix, input #1
% and returns:
%   y = Qx2 matrix, output #1
% where Q is the number of samples.

%#ok<*RPMT0>

% ===== NEURAL NETWORK CONSTANTS =====

% Input 1
x1_step1.xoffset = [0.0146989814285714;0.0168047771428571;0.0211341742857143;0.0263664085714286;0.0333409314285714;0.0540198571428571;0.0424217557142857;0.0355135514285714;0.0314918514285714;0.0256568285714286;0.0188763371428571;0.0156912142857143;0.0146989814285714;5.4465e-05];
x1_step1.gain = [2.98035211595729;2.19354370645863;2.2040091373307;2.21679103492463;2.23406151419443;2.28688629160316;2.25695507346017;2.2394965110196;2.49634480735548;2.50395036623798;2.53242621175233;2.63354026162748;2.98035211595729;2.35441874735358];
x1_step1.ymin = -1;

% Layer 1
b1 = [-4.7806444420022060626;3.1512171507216391042;6.0770248492606562252;0.73855051578741837126;1.7679130058975591755;3.0129757674013450952;-2.9460203971555696256;-0.41789327790409613872;1.9356309680159347053;1.8033843914999321267;1.1758774962440861067;0.52028949871921070791;4.0066164137456210526;0.50760458313950562736;0.02597788542728356187;-1.693811563310897883;-0.89257904260488341031;-3.0538554360340972593;2.4054691536345891301;1.6040041370734745563;-2.6386184834406001265;1.5826690993463090606;0.20859224251389066329;0.17424339843276670514;0.98987185290979295971;-3.1973519260585616664;4.3717968686302715042;-5.032892620460243549;1.4841866239888532597;-3.3888804049587379907];
IW1_1 = [-1.4011405232715778979 0.67582955762807828126 -0.73586591655920308153 -0.35175751848651298781 0.97934519362427019384 1.5222571514913711965 -1.5621075533548116621 1.7517212915635012038 0.74302597528492186907 1.7622333476587217493 -1.1714643478062836124 -1.3263226823476426119 -1.1203916590855642621 0.52393895561449133069;-0.53659833048527116883 1.0360161680814801155 -0.68500623430953078152 -0.44664069199272860011 -0.52351100450545495768 -0.19526257580892164567 1.777557714577976844 -0.19050437053983843017 -0.45467707523605199738 -0.50327613416262495516 2.1532978917210665593 0.52039740776806631128 -0.70405763568895007865 -0.65443982490413354913;2.0750212325157071369 -1.4655116975381952127 1.3973600363407256975 0.61875453178365047435 -1.2570615215592839675 0.82054581322162423174 0.777672652134353104 0.59118181340522157896 0.27612402096909294258 -0.69829253915941524866 0.25157922895548767706 2.1887622702718894097 2.4785887336290755023 1.7562346004996960414;1.801223713072636512 0.0047041114697120994803 -0.92426941034244058937 -0.9891733707662433428 -0.44728398628444032692 -0.62133133934207285254 0.79129440656705041235 1.3188438867879412886 -0.87595035187607228622 -0.74258927294588561452 0.4763125447828115977 0.56604072237323077577 0.30963508705185366354 0.8642595852095792397;1.9441848619392889663 -2.27104314003729435 1.2164172556786934098 -3.0371714292838363214 -2.8136549937173689351 0.028758821301962639305 2.4282846008556040474 -1.038610083769816006 -0.92309759259452262015 0.034446478598913796154 -0.34286958203895190334 3.7384870863364847438 2.3468804166053276461 -0.024485434566311536225;-1.155441596045884145 0.32065915538309652799 -0.61636849484446554204 2.173886991386602574 0.75602431591256369359 3.2199999136926371612 -0.3264269901586052125 1.6294880643551830079 1.1662636133726129728 -1.6011382435920824552 -0.49495461852131428238 -0.71650221843136763233 -1.2727950739297382299 -0.28653684287545727605;-0.046839372376398763498 -2.1939441147146045985 0.064402415551297276242 1.6303811244308845652 1.2738541210119886937 0.63628057289135042662 0.23332051907429474102 0.21509336764135522646 0.1143281016479089085 -4.1076605907329435396 2.173884120991949942 0.89998741673727045143 -1.2889079443207847042 -1.6247604987493362572;-0.13518863028679076188 1.4375985999192710807 -0.47367377374978952842 -0.42670740220290204192 -0.31611269079428594431 -1.1072250953849880339 -0.23822513322476018827 -0.12591422132633400821 -0.81933651430913367886 0.94955033439317948485 1.7488022485413738938 -1.7851816354724872049 -0.17177268029809802941 0.45804272535439516378;0.20672108633201985439 1.871134522348204543 0.65306843800300828917 0.034313039109712117902 -0.12170686863166163549 -2.0570374762992620354 0.2338951560255395079 0.7101959177839136661 -0.49465636988532107887 -0.17709141395474931047 0.42221172428039555058 -2.4394469083632066564 0.80802049472094195082 -0.98634146107772713297;-0.22059058233083744804 1.8022423899407551406 0.90785447979173516941 -3.066355538904029121 -0.16174399587230617326 -1.1058019737185160736 2.3871270019622206071 -0.86142515758303705997 -0.81535337895019244225 -0.25250538141472361753 0.043543950462998942674 4.0681833831867004747 -0.81529016456830638582 -0.38165337718694281044;0.39934118347600733312 1.0606327935279664665 -1.3884011479924154298 -0.39383283615703790215 0.44533921468531889598 -1.2817612889800582554 -0.4990162845511760259 -1.3592352231460618217 2.0538281688540087622 -2.365936728124999 -2.3067637396333156019 3.6505909700077139313 1.5441474620757744685 -0.40135146604537624837;-2.8172312348573500529 -2.8551266540931150573 1.6861159956647449043 0.21254776019654497698 -0.79240693868613099049 -0.61053282571929745615 -0.25674265349331754082 0.97549933750629469476 -1.8605753790118229052 -0.58319525487362011695 0.74307185361638472543 4.6699904104818736883 -3.2328960717547334802 -2.5781916089649721258;1.5887668297373747084 -0.84721468884431549995 0.34784048350948842954 1.2198555874439009905 2.9941595068724065065 -1.5440196339900245093 0.054198738934283535729 1.2902707496289327338 -3.7162523179404325369 0.7183344018775116302 -0.16668564582170569688 -4.4860620562572179892 1.9127203373386296725 -1.0676242875771748686;0.74078492485761038289 -1.1771654484763265369 -0.30921816278749658657 1.9427330997236484933 -0.27152819971580971492 0.60674654920730686225 -1.7029060393455075495 1.0015574839251579764 -0.0043608548186438687855 -0.017144488498445221991 0.14159340333706094128 -1.6184193303954452769 1.0554886424524583255 0.41789521666743478789;-0.20442496470534582409 -2.0845171897088872193 0.067984897202921223958 0.41692273337852370219 -0.1060071613114313277 0.90485768229980834132 -0.27251113291977657749 -0.55370494544673787285 1.7840554796630765377 0.13432825804416173576 -0.21864240339452864492 0.6857135750787414219 -0.31757500129951371504 -0.61389754039049648782;1.0596339275343993336 1.3862785894750679905 1.8464730222217475841 -3.6404537600304260891 -1.3024133988538988405 2.1498639141121387297 0.46355298064441996519 -3.8897115873511398654 0.13752184400885358873 -1.3198121350982656708 2.2720524458973190285 0.27576656294932277991 -0.32921283183501215408 0.37591865282311581753;1.2747939409919233356 -0.30158933013549310553 -0.9229266932048454386 -0.92801796255816160208 -0.36761493489471663842 0.030261981147822351879 -0.67965861118241810424 1.1595519033492436289 -0.27813458589423312173 0.50802179233914401824 0.55522508927277869351 -2.3792990408975716043 0.87772483570150128251 0.79131327065479739602;0.30358157143861885796 0.58582033042675640822 0.60412139006406218034 -2.7555809049378305886 -0.9826143652146027696 2.3285960194783457133 0.53741441406978662787 -0.67713218183734180666 1.4478734752172432998 -0.37108539244505150956 -1.8567242480539802862 -0.099815090357469063442 0.19689036630581302489 -0.29216142800838468263;0.4520062279590617571 3.3830400040537442763 -0.4554508079260071729 -1.8819421418839179516 -1.6126401869076696372 -1.0276353094417594036 1.1144709052168353391 -1.1507111440011257297 0.37028906322698690312 -0.72292283884561669982 0.61665954061707717315 0.13203461577972458452 -0.091349288863462344001 1.6877702864669297256;1.7933071441594143902 -2.5392489936534472506 1.0179207797211458075 0.39991290603668600001 1.0094011576616477299 -1.7429511904068926142 1.2226630756869478756 0.64817845183153055544 -1.7865798355962496657 -0.46711434846311494784 0.96714088626323913012 1.2088078705739586649 1.1848462203159317863 1.5321336902870594798;2.4329821350142548653 -0.50012534532492614048 -0.13674331756038970997 -0.79932072228920103552 -2.6275586280602052369 -0.22386553591793972862 -0.46340370208359954463 -0.32036071983571889898 1.7907958348621166866 0.70682655715732412016 -3.9403419727327668731 -2.6043692257144153146 2.3038369146481638694 -1.4312666436176872953;0.16478153443180315607 -0.57291718724341067492 0.20539790116564460298 0.52587826526082825929 0.81375539217516312807 -2.2115704192939031891 0.73185955647277067815 1.4672563133824292336 -0.28702735199313872405 -0.47655375524072346449 0.054116962358965486901 -0.1876182675475942252 0.79335069522958701072 -0.28300024927931943797;-1.729563001005260503 4.4245504534036479427 -1.7865427232849382388 -1.464846031967121931 0.55271543081444263201 1.7607871826608616495 -0.83255158155691766364 -0.45373454203286800457 -0.29595229138640660738 -1.5383774326817982736 -0.49551416199696218801 -0.18679990763013296085 -0.75012365290315352606 -1.6221362237465069001;-0.018060693753018233765 -1.7707367696992886152 1.2748623584709444234 -1.6254175609015546478 -0.50628202251360499009 -0.48457229119177891441 0.058542018121279688903 -1.1573528067768843464 0.92792855580558286643 6.8273237229455734365 -1.9884200099544750984 -3.5491554336003932058 -0.43540997404926956582 -1.2603910943709246695;2.7583373907480770448 -0.036996872600151664567 0.062980059309969124715 -0.82998063649520725793 -0.61687018501774071311 -1.7519103323322118282 -0.066584964981504402015 -0.30201593702377771411 -0.77220420852758553387 -1.01351201531671542 0.052292680136765745669 -3.0664188932354625727 2.3419298876691629907 -1.0817382272187148207;-1.2771103116613757855 0.43154857566427484716 -0.85487922623588863402 1.3183663505176961284 -0.40513958426145418867 -1.0237579032071848495 -2.1164658902136355145 -0.14400609048481655128 -2.7665524240503645004 1.4914699619666043073 -0.8413322513781478218 1.6870424846989200418 -0.44227790479744144569 0.064666827290903325376;0.78628538366627831468 -0.70382551270611282135 -1.2177859037918727925 0.91192552360118128707 2.3326543085487414508 -0.15598194393227707288 0.23133790948155202871 -2.0501305004668664012 0.3915955958675065296 2.7287252162769366493 -4.1342830638239220775 3.6091466896702835143 -0.55049557335238785694 -1.5839472288521698751;0.20527143148713106191 -1.1610111764126964662 -0.38124782925014055746 -1.7963265816739188985 -1.2480822054946423272 3.0800369719628588605 0.24556246210818358233 0.084995604300748345272 1.5237401644305113013 -0.35181804857377552143 -1.4920940607253754262 -0.62325612089008786132 0.35391988306412525134 0.21792793810000790633;0.91649145339846826985 0.90592853488176094956 -0.66585851085068348265 0.61261054473441733936 0.30260838978927467879 -1.8784763681747087549 -0.857503935815784879 0.63724831690534256001 -0.75261618962682486078 -0.39168283232996914389 1.2220419274134963761 2.0599421678320530837 -0.074765778527628806716 0.73920277142054835462;-1.5964972368425689453 2.6805061304523203347 -0.036807524709490606341 -2.6484092846303330937 0.75942818324522687323 1.4247307458375471079 1.6101549674397470646 -0.63798304923118953624 1.5014519563567636506 0.42688182303498878323 -4.718201233739491407 0.73432151159528968876 -1.2375334966349489374 -0.58664303755229851856];

% Layer 2
b2 = [0.26542470624602321205;0.52417967723317260287];
LW2_1 = [-3.2095915828690366745 -3.0106357341226193114 -1.0837513951393797917 3.2718523796330947206 -1.3121066880216736283 -1.7079279393333255399 -1.6479780096677094647 3.9387239491129535374 3.2642241658385966474 3.5460604964565018982 0.11583987306941304074 0.88734355502372619373 -0.66804289086179147183 5.8740303712498791455 2.6132317338413058039 -1.6465565579812146968 -3.4253562737637768265 1.5099904892023221503 -1.2556363164523318687 1.3381910817357707266 0.25401499221379963966 -3.0380128643440995617 0.50468305792909051721 -0.83462323816469519144 -2.1950511082029424692 -1.0435199478916399318 -0.28381394777092139314 -0.52414391154110162585 -1.8423778288718697382 1.8003134513865648447;-0.33714153817132835878 0.31404788091820867724 0.16808564622799515575 0.63517339934613314956 0.30486418915409352337 -0.67255397759664803381 -3.7476462362827298591 2.2190636330280053556 -1.5595142762541298609 -0.35859475125382450633 1.0772816940545451025 0.068407975622428576767 0.61123526619923185255 0.99570796310905296256 -0.67973355295209758609 -0.55204823794755419897 -1.120610481911232803 5.919841595678956736 -3.6298699840906838432 -1.0561332927742352883 -1.1377416412516194733 1.6746527694447186363 -0.9383978482978668767 -0.83259162666888464344 -0.29077032638269911802 0.14163595082081331666 -1.397672763096690085 -4.69689321344181554 -2.2433663971382942215 0.28331547897564085536];

% Output 1
y1_step1.ymin = -1;
y1_step1.gain = [1;2];
y1_step1.xoffset = [-1;0];

% ===== SIMULATION ========

% Dimensions
Q = size(x1,1); % samples

% Input 1
x1 = x1';
xp1 = mapminmax_apply(x1,x1_step1);

% Layer 1
a1 = tansig_apply(repmat(b1,1,Q) + IW1_1*xp1);

% Layer 2
a2 = repmat(b2,1,Q) + LW2_1*a1;

% Output 1
y1 = mapminmax_reverse(a2,y1_step1);
y1 = y1';
end

% ===== MODULE FUNCTIONS ========

% Map Minimum and Maximum Input Processing Function
function y = mapminmax_apply(x,settings)
y = bsxfun(@minus,x,settings.xoffset);
y = bsxfun(@times,y,settings.gain);
y = bsxfun(@plus,y,settings.ymin);
end

% Sigmoid Symmetric Transfer Function
function a = tansig_apply(n,~)
a = 2 ./ (1 + exp(-2*n)) - 1;
end

% Map Minimum and Maximum Output Reverse-Processing Function
function x = mapminmax_reverse(y,settings)
x = bsxfun(@minus,y,settings.ymin);
x = bsxfun(@rdivide,x,settings.gain);
x = bsxfun(@plus,x,settings.xoffset);
end
