function [y1] = gdNet3T40N(x1)
%GDNET3T40N neural network simulation function.
%
% Auto-generated by MATLAB, 18-Aug-2021 19:46:31.
% 
% [y1] = gdNet3T40N(x1) takes these arguments:
%   x = 14xQ matrix, input #1
% and returns:
%   y = 2xQ matrix, output #1
% where Q is the number of samples.

%#ok<*RPMT0>

% ===== NEURAL NETWORK CONSTANTS =====

% Input 1
x1_step1.xoffset = [0.014469;0.014929;0.016612;0.019995;0.027617;0.033082;0.040462;0.032248;0.027544;0.019775;0.016141;0.014448;0.014469;0.001797];
x1_step1.gain = [2.02936285109246;2.03031050553716;2.03378524041375;2.04080591425554;2.05680272073864;2.06842772603261;2.08433642023557;2.06664517355686;2.05664832136364;2.04034787931342;2.03281161223305;2.02931960972125;2.02936285109246;2.00451617494214];
x1_step1.ymin = -1;

% Layer 1
b1 = [22.151098785002407254;9.5825260403490748473;3.8052404669815267368;-6.7199065373215720598;1.1255332687203101205;-8.529917753163287486;4.8982981462337438217;3.403116091267655019;3.2606257191511249793;5.6769733592798319322;0.91052283429345226562;-1.5881910785678921005;3.0875898527644505265;0.19003478462409056915;4.3437040181312465137;-3.1804351211942321065;2.8472291209902542697;1.1482934574899734681;-2.9087603262829366813;-0.87268659033100681732;-3.6173658803852060117;-3.8519613716290606042;0.95781829340870128231;-14.879340346255283123;-5.4362653024444131944;-3.1414504360573491937;-2.9501118184241232889;-5.7930308260708054391;0.38966051782222388411;2.8901582001044281434;0.10364900855450356887;0.54649021329975600025;-2.7273026395344430739;0.51838805200810256224;-3.8143579094873456548;-0.2381423046598865334;1.4186504448977195203;-0.44387227658070027569;-5.8331018511757415368;0.74131084449883100085];
IW1_1 = [-1.1876712196389531684 9.2544919281221016405 -0.46380899762299404587 2.7177171546131679847 6.399069677532380318 0.42106505120386972241 1.3520437607494595333 -1.9287831577378422576 0.66361047291048913532 7.4123560746683576639 -2.4428179083843581942 8.358909679241325108 -0.19777738536157435378 -0.18585532280973332542;0.43871302455312460866 -0.19955854551495330607 1.9546864290949248488 -0.45295355996360608941 0.48759237410734979079 0.46714809238825133475 -2.5276367150369738468 1.8127593413742952855 8.3736931236777660814 2.0307163855316736623 -4.3480534670777784001 1.7618773132434635276 0.038734650486817845394 0.012197208941464339829;-0.49426092641010366258 -0.35029311605324636725 0.83583104070631286664 -0.15085695757259318106 -0.41006995889431524516 3.5717368857003104488 -0.42113077273326804395 0.19522858030683690189 0.171196986593146111 0.36957748005747220743 0.89620932435672107097 0.013560219715791075809 0.58911717578915212545 2.2586063221156655878;-1.8769067154906475814 -2.5049702332855083853 1.5280735912810463617 -0.53082100384428299034 0.56005265311682816964 -1.2109887798743179665 0.77084647417097817979 -0.49468649664671965338 0.93298491046707465735 -2.6030721946642145781 0.57983580940481938004 2.4946425683092199321 -3.1841107161884223409 -0.061302114828414071279;-0.033716214506883022961 -3.2296178459504458758 2.5578902474554401358 0.99807895825251147226 -0.080352774661180001448 0.053135775752185400445 -0.68861431206837742103 0.24032819397101778947 -0.42690940256796933161 0.081037533075899031987 -0.27376769138354661859 0.6338276633774216906 0.4763931429791680161 0.016211668809949605907;0.39962035487806635281 -1.5499155643673361293 0.049781805557514616223 0.37226387801859794902 -1.6026110596579219436 0.28311567517132274485 -0.7893041308865377248 -1.8211007864876054274 1.0039039490402164034 -2.0382724195193735461 0.3932310693737466889 -5.1039666821875613323 -0.62198059372651259835 -2.3235788825219341192;-0.78173720488027975684 0.093013984602453539385 -0.40493592731787436678 -0.4432416592752309592 -1.1901699886626369018 5.4143022116084065232 -0.85576121864941112616 -0.45252940094170091001 -0.40548901626560085454 0.26132851710358490083 1.4832590502837150748 1.2462374682387333813 0.13934393747200907177 3.1793579510779763631;9.7942080609594572849 -14.150970802733237264 -4.550889543917639557 1.6853389276291317334 -0.053137022753235875483 0.15063622238908372375 1.2861354082109406338 0.018838685508117836848 0.22286805385593630446 2.5406595380104448623 0.24798047092898028998 0.37042511099672531527 8.9893989940908198832 0.23275101249883214938;1.2937643253588990699 0.9350188979007599821 -1.6616539722483079089 -0.070460609508459629002 -0.12771224051123147847 -0.26650334052285801212 -0.45862196216911554902 -0.6388633285960368946 0.22772328218203832795 -0.55455358291204537302 0.12745114189647455127 1.1208995858570056647 1.6836856569836013975 0.080064481321293637373;-0.55374086291763857659 -0.61140699793563968445 1.8586584089985664914 -0.65177450757664334713 1.2894126994490051619 2.8550219388906983298 -0.97713080131001017747 2.7457442191069643123 -0.30593113680650141362 1.1790533763480404161 0.90852305900030283503 0.063208346863277753425 0.95549555490950954795 2.3704812402045392083;0.68040348936809647018 -3.0610002393084063677 0.28186501956317311368 -0.48072224524386741873 -1.2045171453640957093 2.0375788267362584527 7.0613127164250393264 -1.4188680271844642533 -0.68405489689813481213 1.1808260185647625473 0.057546320030229851372 -3.0454598846402158863 0.33591622028022349866 -0.24925579986442797376;-2.134914023810403183 -0.58466747505499416793 -2.5114214113579262921 2.7252089782865165368 -0.74824062839413929549 0.92851817475356157594 0.045092590635629266338 -0.82615675873735849866 1.4658905530508916648 -0.34588886142967162352 0.96220977612712033089 0.98692646185380938917 -1.8392718566542256564 -0.026739609973975193152;-1.3103149895582799633 -2.3762417194764084982 -3.1087695199550506864 9.491061606846278309 2.2380516268880339403 -2.3865699820452617175 -9.7767542760091821208 5.7495961463410472092 0.86189372286288967739 -3.075380757844938362 -0.82156138308714266039 5.1156523308217716206 -0.94533910356844319534 0.29215436510381170843;-0.15730494294484109741 0.038614037292584404981 0.093581856996103912616 -0.0062446577799188662805 0.05944143739033480589 -0.017975061220132738937 0.021210088519179260552 0.067302524756690282337 0.0017812345618917156936 -0.052060394478573544796 0.01718516751448514665 0.10707951550503491678 0.088111831775055715621 -0.80304326911000012412;0.62177664962951850747 -0.55497563965965612809 -1.2169946513424532153 -1.9621805744000884175 1.2890458745787150008 -1.7234792735217174808 2.3628052380938426857 0.63944081536945862609 1.9668124558216357745 -0.95578277212154427733 2.4210982767749800182 1.3903579893832527237 0.96790202742037789729 0.064031184730580989473;1.1749348356828626105 -1.0400753219116156689 3.3567658326894749266 -2.7667254559012972592 0.56241821033065741986 0.65296444525048236152 -4.1766846456303756696 -3.497545501658575251 1.526263294357193212 0.85179917379991310078 -2.4407467368136659402 1.9668821087130645697 0.86598642375154344375 0.01839874825309475645;-0.36489691863879097911 0.22407840842360784994 -0.10615410032899133541 -0.15913046881913553432 -1.7020139938290486104 -0.053366572717653867897 -2.4525705273259230665 5.0040080101492190323 -2.6280683930390345004 -0.36122165706756853565 0.53194280705667074116 4.6838453706768197193 0.19008704200001066975 -0.076389682555029411737;0.79159619066192632442 -0.0061630003354289520506 4.4330435734499298306 -2.5995124997534633238 -3.9033869828140925762 -0.72325038333169044957 -0.69255030460878985732 1.0549247696635035698 -1.2005561687896819656 0.2649761403751031974 -0.5567534038748469527 2.8293811101767549765 -0.14908520519432225115 0.22546996914320582839;0.32759785571743471611 -6.5361205842318756964 3.2814326989505446797 -0.2013160780237608638 -2.8316184266708073203 0.58524667655128148613 2.209668767625506014 1.2193234398623125081 -5.3366256135668708183 1.0092463034096812446 -0.12319235361198675738 -0.4936664474342497555 0.31828718627137259078 -0.052510795608941472634;-0.49381537446541468039 -0.10451067008797423896 -1.3887250446018062355 1.0138084577057857594 -1.644686079795700584 3.8569222963659903769 -1.111703101879643274 1.7762148487547042564 -5.7757882494145018626 -1.8909582299123954829 3.8957960446026134171 1.0095666732031660651 -0.83377409332689977894 -0.036675633386842571015;-0.96469747097019153959 0.97892147090837999812 -4.3335438718504386557 0.85648195482817113255 -5.6524128274024967311 4.460884780207927669 -2.7476976125280176966 1.4031682435662178321 6.3501245510098263125 -0.52897177117232829779 -1.3269236553721974747 -3.9734067660118888021 -0.20013012380225744802 -0.031252361612813250868;-1.5644300175819554344 -0.72167156571610835414 0.06944786490417005631 0.17128946404301959028 1.2615968031957089934 0.27355583799815580415 -0.86536839240016871777 -0.15726668029552806627 1.0701922841262334618 -2.4359207624924739122 0.33155261921272355385 1.4858164614831994577 -2.3228522441818668653 -0.21647853115251650125;0.132828953693396562 2.2381061211608890282 -1.0599305126875981919 0.97944636398602569205 0.71695618351099377197 -0.63267429966964849886 0.18861625411506699468 0.12853100102720199649 -0.49338004745199764978 0.9651729970936139269 0.43393161755498688148 -0.50925033943958963878 -0.66670036052729986231 0.10597361312924656607;-1.9560825954092175838 -4.7883651970405827214 1.9204527516980429702 3.2136032906590661362 -3.513734441367074357 4.6367011485073463817 -7.052837333125168584 3.3800067590499951464 -6.086680031404635649 6.1557831619620761998 -1.0738138308350007044 -7.3777248833603383815 -1.8826774493173108471 0.40699859688290412896;-1.1038962207816460648 0.3088604807273825914 1.0889176562245828084 2.5383402375870462997 -1.056186337213278037 1.5684668151248328805 -2.3825236010075125925 -0.19407178320626683465 -1.2052475381317195868 0.68986470040584468855 -7.3317473020473951095 1.630871573222357318 -0.76505889220157052844 -0.018375215434209168919;-0.075091844675637023365 -3.4488579433779307237 3.6712431516468191361 1.6781933269642586026 0.42816230996631160499 -0.46962392333873470562 -0.42981950652338668517 1.1656189947880069013 -0.81868833979977406745 -0.41038759089390181023 0.22570076897486104905 -3.6091420554981503699 -1.1418188038667136386 0.069216707760601833832;0.27814325739008699534 3.0474934580513939331 -2.3897987957575002049 -1.2123178869637063482 0.96295711703154629468 0.69141679812436529495 0.56907576387303315801 1.3171175815243301166 -1.7780469678860340021 2.0450088251129292516 -3.9811058493074491516 1.0884074735624809094 -1.1117055998957499074 -0.37945694615908587277;-0.75585473890091170457 -18.938546606733748234 17.307671505992200167 -0.44661711032221673712 -0.30874980066301077608 -3.1042367437902034233 8.7963705649472725412 -6.5007480074782826307 -5.8653388586317518616 -0.38255377244973004514 -1.6264098901688690546 1.1768688902478283698 -0.19006067333881751513 -0.13877853133722306556;1.2174274881490625422 0.5419879753018497226 0.018848803551840875858 -0.76703216806681728812 1.6497310775478017941 -3.7689396539540434006 1.5951486051999856919 -1.1886024845253309046 4.8460222705282909317 2.3148135513562499987 -3.4362835690743080974 -1.2845611104548304571 0.55682203070262081823 0.069531014772351892872;-3.2776389818023048406 7.9435518323641955973 1.1770559711302626127 -0.93109713926598913769 0.14176644074782207561 1.45544090381136626 -2.0330074537240205856 -0.58434231007335535324 0.10323728463916639897 1.1470288856584145432 2.9968472044316327718 -0.54959899521921740106 -3.0136766258031477683 -0.34111601495840471188;0.098877588926515894152 -2.6070596951970808064 1.9923271054178406381 0.55317448883577635677 -0.16519261425807424404 -0.13872106978267112476 -0.45838471209754705349 -0.37706936263950951993 -0.39661300708333857568 0.43631911027833580885 0.21858677785288987971 -0.43243986877963014326 0.38132139625392730276 0.046129109881809571281;-2.5505396890545473099 2.1770626284587852872 0.25663254927330936273 0.0061073992113933588816 3.7555119781382959587 -0.55430737149822040255 -3.2069693940260619591 4.0931125270856680842 2.0852368488635542043 -1.1268750630717316863 0.97001199317015274204 1.4927084108063628509 -2.7055080926545822528 -0.29770332188254677863;-1.1177407829258734218 0.55103951092684577695 -0.65809845071487516055 0.60074057950588932719 0.061161549852797647553 0.54212863658245458165 -0.93096847734991894363 0.22941544973341254643 0.65481949358769087066 -0.43191071347441784001 0.17069333555656204804 -0.56531044845068778582 -0.29172886231242939337 -0.049626024508836845406;-1.4808734886530368069 1.4634435240587404525 2.5217434639483329306 0.80726171441874761125 -1.9779657729466910698 3.5220884310681035423 -4.3512242453897211902 1.4947641807687832571 1.4876909681689736153 -0.1704186107763532021 3.6036414169151353981 0.71454183401007553833 -0.20854199327101510808 -0.083388627299558246153;-0.99356646025106176712 2.0345249950433634822 -4.709972216351957286 12.270391148242479673 -12.108088142262387166 1.4021609521508164864 -4.1728828549028573747 1.4397018115002293559 7.5062069853661679275 -13.675019542699279995 5.3649739830860960765 0.2843568485035610216 -1.5761513670826818867 0.016796581340889942674;-2.2694706325048046303 4.5448576384694945318 2.4567761049688594532 -1.1450189856868531191 -0.14196533610578454532 0.28642978297988486158 -0.93458725906906281455 -0.23531264456232964255 0.96385059527307315186 -0.78735824179095215136 -0.37014674042228457029 0.53809826119865278304 -1.4792669821691346588 0.020312510279488073944;0.44708152747680057759 1.7645706703862367171 -1.1914476853381659183 0.6796993572110490156 -0.71432226307978974322 1.8024041892551350141 0.56560084110811903457 0.88582444165880469544 -1.8793839908308047626 0.98762532867283803206 -0.67996526959844860727 -0.29746112014657077882 0.050662598213889117882 -0.17496072543552856904;-1.0226849581799986044 0.15564991702637276383 1.4297434648269329305 0.52803241429357750114 -0.73703484450470480027 -0.2986030675769281717 -0.1544800359714562088 1.7949182672528249949 -0.57525886687271154951 -0.32196944962094198317 1.3982022604469355187 0.78765482593206281869 -0.89880309183941209383 -0.068472455769230999856;-1.4370900031207403114 0.925446049649825353 -0.83502340081212211853 -1.4811789892663982382 8.2146222769501804351 -5.601578626236037195 -10.093231258091771352 -0.75784034191995586216 0.16799410679147222525 -1.7889617236054986549 -1.220435494333736548 1.9680642368210170545 -1.7468723580031284559 -0.14433818676692811156;1.272020099158833073 -1.0090616098419586955 -4.127134053468349606 0.93782003314811068773 -2.173888941632958538 -3.4781926359653536629 7.3283858500391279023 -1.9115036471077093694 -3.0481831600529312176 -1.5665681337254275807 -1.1067223489186011065 -0.47443239231005079892 0.64523256851292665193 0.30428980466379951242];

% Layer 2
b2 = [2.87203967630265522;1.0374897587669904553];
LW2_1 = [0.18254985882101260053 -0.33403912180241673857 -0.31310813920495350615 0.53271550384977039982 2.1565890955251414418 -0.095902722617134367189 -0.062366684518699380679 -0.36763648032341822436 -1.6674216390854295078 0.23195773362508007032 0.24136629798470679575 -0.35188421913004569452 -0.13816631976302468088 0.011528878532515950822 0.85852293489021602735 0.30257898269363003863 -0.32939253628831888232 0.46448544885402598403 0.33107707322134188876 0.7634506953206766644 0.18726384180044852723 -0.93946267370540248454 1.0288153111214342061 -0.30303956867467468639 0.75684490047983643546 -0.58296327630270505793 -0.55048726481276888389 0.22577492860846026801 0.66776377534990027929 0.46040287803435042679 -2.1088944824450712723 0.24079760336809383214 3.7418911107860246545 0.49334849928394258756 0.14189151790276777199 -0.91888156269944454291 -0.64444345719470730316 -0.87449667828661603597 0.21727946168396761184 0.53632233000078932683;0.0057716026671122376557 -0.024848849445144954862 -2.5220609661020856329 0.062507960509717214181 0.17348081006849877528 1.3221011668897135749 1.5749931347798307169 -0.017206945200442351485 -0.083943896283781474499 1.0139791534136888274 0.0054865220402701793054 -0.023054650014295866023 -0.010026997271425726679 -2.1518051522753887106 0.056972793052926316848 0.020776542729079652827 -0.0071968757951288526639 0.0094989903393165407014 0.017339990471864068222 -0.0090149483149782293212 -0.01266560818844721277 -0.031914635481901765246 0.058687442203403210328 -0.0084135937727146514059 0.070677856582786746653 -0.0045292587669462178873 -0.027667651247899972822 0.02327040029642990504 -0.01407885437411419971 0.040570258497985380031 -0.26082463099595609712 0.02109680269799970101 0.071542255836015214432 0.031129387534214309624 0.0084075187237968758425 -0.050802064372628817635 -0.042013153440160551366 -0.016699805601337935901 0.0013504816280943169552 0.059270342003926355934];

% Output 1
y1_step1.ymin = -1;
y1_step1.gain = [1;2];
y1_step1.xoffset = [-1;0];

% ===== SIMULATION ========

% Dimensions
Q = size(x1,2); % samples

% Input 1
xp1 = mapminmax_apply(x1,x1_step1);

% Layer 1
a1 = tansig_apply(repmat(b1,1,Q) + IW1_1*xp1);

% Layer 2
a2 = repmat(b2,1,Q) + LW2_1*a1;

% Output 1
y1 = mapminmax_reverse(a2,y1_step1);
end

% ===== MODULE FUNCTIONS ========

% Map Minimum and Maximum Input Processing Function
function y = mapminmax_apply(x,settings)
  y = bsxfun(@minus,x,settings.xoffset);
  y = bsxfun(@times,y,settings.gain);
  y = bsxfun(@plus,y,settings.ymin);
end

% Sigmoid Symmetric Transfer Function
function a = tansig_apply(n,~)
  a = 2 ./ (1 + exp(-2*n)) - 1;
end

% Map Minimum and Maximum Output Reverse-Processing Function
function x = mapminmax_reverse(y,settings)
  x = bsxfun(@minus,y,settings.ymin);
  x = bsxfun(@rdivide,x,settings.gain);
  x = bsxfun(@plus,x,settings.xoffset);
end
