function [y1] = gdNet30Mix(x1)
%MYNEURALNETWORKFUNCTION neural network simulation function.
%
% Auto-generated by MATLAB, 09-Jul-2021 22:38:53.
%
% [y1] = myNeuralNetworkFunction(x1) takes these arguments:
%   x = Qx14 matrix, input #1
% and returns:
%   y = Qx2 matrix, output #1
% where Q is the number of samples.

%#ok<*RPMT0>

% ===== NEURAL NETWORK CONSTANTS =====

% Input 1
x1_step1.xoffset = [0.0130930971428571;0.01507339;0.0186329757142857;0.0256636671428571;0.0316587414285714;0.0357627871428571;0.04279944;0.03666566;0.03197912;0.02591162;0.0199776785714286;0.0153934985714286;0.0130930971428571;0];
x1_step1.gain = [2.88706721455009;2.1893862006838;2.19795085450026;2.21506568604042;2.22987145646368;2.24012168699423;2.25791741645115;2.24238935375809;2.75928509288345;2.21567414546267;2.201203783319;2.19015367574641;2.88706721455009;2.03687041490763];
x1_step1.ymin = -1;

% Layer 1
b1 = [1.5341122241422120442;1.7641533156591420184;1.5294929530681549146;1.3067548537407438491;-1.353259082689431736;0.47482297687137586806;0.98012449838081239228;-0.13339126918103416664;1.3310171867861180228;-1.7604133874775280688;0.20283938858803288174;0.41327769114028878317;-0.10951271573914633795;0.19424672001337708882;0.80652479021580247842;1.5748423934245903144;-0.1015730619144353114;0.02710164478323345838;0.11225059750349608567;-1.3206145593489844181;-0.61787993690961751092;0.71953950645688136145;-1.2016678771553577221;3.3344323266770921066;0.027068945144245612489;-1.7533846958246348535;-0.74078211305265817543;-2.2538516479875951859;-2.143009926371869156;2.7763233774293283318];
IW1_1 = [-0.035597898805689684454 0.2505263660280515059 -0.73899553844563503624 -0.16627132276149841905 -0.21808502667799262165 -1.8349006812090424834 1.3901343513987827194 -1.1384580723720185702 0.031786095382942552989 -0.6979617321096363014 0.52301959114294727105 1.4949239420349484941 0.097625979820280664456 -0.88140820655293228292;-0.71215778177947941519 0.36214600317212580771 -0.14829125019015079734 0.091212793466726921343 -0.63353303859917253771 0.28357553338957841582 -0.14600373645003755785 -0.019364924507355427141 -0.81320904433684682022 0.26837232310872094487 -0.69921948824622526253 -0.84473907880224141653 -0.37997708754441955614 -0.07102975169078003248;-0.69604349061731163317 -0.39157094191129249161 -0.55541855045997923224 0.2419290915162125577 -0.50954728551304606654 0.58983809951921273296 -0.37021205070369583856 0.53940722730234369475 -0.5099787771620550858 -0.45852250910570802045 0.37193251063232518616 0.43999201587681879833 -0.30447916738818503468 0.50323002787822979087;-0.92300341414215125724 -0.94910522534009034157 -1.0971209558719359212 -0.84608575458685697512 -0.20547340949832945678 0.77029211155228971553 -0.51417239407993653444 0.10386931292132912941 0.35334060524539212533 0.71747011136078397975 0.33215195864111990431 0.59227661937595310615 -0.30193041997863068193 -0.49958529251373456903;-0.23493034851818983544 1.2798178222678189275 0.074363551719852885591 0.66639784672298019164 -0.052749915715254835913 -0.87778991233187986243 -0.12803017913010503182 -0.17842536887587484573 -0.049216500854143765964 -0.17482929628081497753 -0.72639169040825168899 0.012113933150971464836 -1.0430581651714265767 -0.67111708467159481017;-0.68018372126524873078 2.3045889600319382495 0.35599325747296389766 0.0022597236502305551031 -0.83031356507645925902 0.22918284738207911344 -0.16716026087399610267 -0.52121670639708261863 -0.40725098065360648691 -1.4880504503491984725 1.0109879625895294986 -0.69217832715850169389 -0.59228633206359326824 -0.14085369949475093354;-0.44077615842129136414 -0.59634098822403824869 -0.19190477940114614164 0.55378333519898637061 0.22500072063556783575 -0.41756981257502218119 -0.32078131113550428788 0.42148720843139075853 0.14702038248573714996 0.51420529357130884129 -0.93408135127087921212 0.21633771097558701646 -0.068969863250996993331 -0.15992812788048629824;1.2064955745932126607 -0.88484326119012091105 -1.1699046337199052736 0.069928864215817843064 -0.6696043342441377888 -0.80520362295760850024 -0.77673732177994114778 -0.21628842195025224648 -0.77032693344396241386 -0.92729619949393993217 1.699740280559593808 0.65995977482465784103 1.2039910361045089715 0.63082676782287172568;-0.85318008309764470365 0.065158162250110868152 -0.21605818547391575368 -0.84939078802273348945 0.11529956391706452923 -0.81669994661534528468 2.2474448027689883922 2.9167140858143945081 0.041592169997206669685 -0.76756505804738184295 0.97782205981994740895 -0.96773299359813913512 -0.89153471734015143912 0.76705439424016053085;0.60437093376950157264 -2.1958998663342614854 0.60810535238658613988 -0.12232886022359554246 -1.6061789106851396269 0.85095183298753718226 -0.29230833245916210128 -0.16398875153683273309 0.0049613080030521108585 1.0816427995640121029 -1.0507419368844423957 0.57877532519022523161 -0.64551296252582579527 -0.23787063031567542981;-0.27281780115741588455 -0.64972420277029352409 -1.0857830904179908149 0.12751020286611042254 -0.67354842397641634388 0.26261905990285711043 -0.1130256782233246271 -0.30484173418547932943 1.6784424076722193053 -1.2097014308176232689 -0.23800818908417795128 0.86770211170538313894 0.078398108721996095927 0.50382434831553701837;0.63959237241018151998 -0.79149063106827977077 -0.93850105356258750611 -0.39334943226308394237 0.21004169471789457813 -0.28462852603376304073 -0.58514351974696088288 1.1342311994165388267 0.30078039064642436706 2.1102035249316832832 0.58185909278574410308 -0.99598676078526182653 -0.37803666213655418016 1.7408268949163103745;0.2498784013156870043 -0.25352743362672236493 0.33068550183228584416 0.61992738207222175539 0.9797327840014541378 0.78468419177544301846 0.80618284518717875375 0.30871080098377601253 0.48999055534009888779 -0.45714573641845834828 -0.35814757776605726791 -0.30550255933520470419 -1.2205396446269043409 0.20416124278069935905;-0.15976101483590751662 -0.66202609783541122024 -0.71168280867807320877 -0.6258072790198255797 -0.12710767055114963187 -0.44994598413674224968 -0.055303898711862788107 -0.24972705776843440173 -0.71443817132034803663 -0.12866408761321915244 0.096485397655664620342 -0.77280613564655531444 -0.65968636289304949383 0.19710579478701262257;1.4779281184260386617 0.27926713573251271683 0.66503342690363553835 -0.28307957709387054912 1.178704224923996513 -0.96035877988461215704 0.45820032655445463998 0.89757859699083497595 0.0023567210131475693942 -0.050388127492587225786 -0.31519580640281941175 -1.8380524927956733983 0.87913292142905019588 -1.0090738966073855565;0.56398403551319098437 0.91653337419365110694 0.62823999294503762858 1.0965396388157051533 -2.8652817239590460119 -0.30333237829453107981 -0.39869031041136393512 -2.2774883052586236687 -0.29084753176361843874 0.55536385570337021278 1.7551863062115022895 0.07664396909611648212 0.75452293864839559134 -0.47884051226489765529;1.1449686025530509959 -0.39593058534983005536 -1.0145574781475006354 -0.66764422909513576609 0.25246057426995949236 -1.1618695877461500121 -0.482968549103046485 -1.04650133691692937 -1.2678390948180715547 0.08696009288943327975 1.1528960946216062489 -1.0580693406071439711 0.99435041795955259047 -0.06091480473004773355;0.72341757909493031864 0.025170798759241719278 0.62173619991411388508 -0.31661069481341569398 1.2379882551543330838 -0.47793525757453175773 0.72973641268008726524 0.59339260538634452935 0.46662681832360469736 0.28415221427648545971 -1.0347073637762880249 -1.8999245348160953561 1.083921650164948014 -1.186685404729981741;-0.33403742380625084385 -1.1064415284685069629 -1.3816895166916771664 -1.1214890120500693449 -0.14492658198297148076 0.73076772243545740082 -1.27556817999271499 -0.56430208641839174621 -0.57749653701259129335 0.97229807312028437849 0.68588421004226207689 0.50027870146277819696 -0.6432932681501295491 0.22055272062198347238;-0.6338080135244192892 -0.085715191225492565197 -0.10304206892737732826 0.59781862443721578426 0.31730553738649103224 -0.3742912096329962246 -0.098101321605877617182 -1.3109541167718832266 0.71870920903315538286 0.77090858885746083029 0.99597049922521641019 0.36808535698413658022 -0.64487355341922258933 1.2441390733533497226;0.26602212337226016636 1.4183285420929170328 -0.27049425347856526081 0.52574708232356370807 -1.4370433203417032342 0.13692959621039874074 -1.0635340426005424064 -2.4810181477514166026 -0.32458056906610238679 1.0137861234843763558 0.40450203784069638235 -0.2357881641534224082 0.250349252492304164 -0.30474413747822448606;0.36282533132028765843 -0.19577330866207351412 -0.48634119117545893118 -1.1151913283321213122 -0.047892691026732242543 0.50786687732557889152 0.8590943770493076892 -0.14762413334811724797 -0.014584877531592793654 -0.7449386632962717858 -0.17831331756982260472 -0.35398149510192239431 0.664896108322717172 -0.098681286610093649214;-0.60847577402269070745 0.26814030006909017612 0.1617802318923255156 -0.5931142702446333681 1.4118885650451058478 0.11021506883137013877 -0.1335776996442359088 -0.86812159693959534135 -0.32242690857971817442 1.2231955054154730611 0.14860980449080735122 -0.25282556093905772521 0.68205716774511926381 -1.0451840598276109784;0.26484224462176425563 1.0738908250327365845 -0.91822327178373819301 -0.29094998196906673993 0.21774059920299754234 1.9098245967519162924 0.84533444829518489261 1.3236085724748198889 -0.017218284597764484112 -1.1070431793361117379 -0.6212597728788495921 -0.22084528614503629029 0.62534096969361796514 0.77360855568366182489;0.38863097294323278863 0.95355938295184128339 0.38064707281866694277 -1.5056059357520588105 -1.2447227478290256997 -1.4126849803600924904 0.85653569258623540872 -0.76696258950009998934 -0.50034643319915472759 -1.7268756861739678055 0.94907646103419951444 -1.590676590014183267 1.2511660321953590458 -1.7554473050432792824;-1.4787161893890983233 0.27661830302795820113 0.37151417009839271532 0.18315911513362923002 -0.027829670473811560227 1.4262081490523348393 0.17083170384589452251 -0.48114897620866514671 0.72355874431569378036 -0.3525433477773107227 -0.088768500638575914552 -0.19289856524892595724 -1.2585170216321373005 -0.69420996989909189434;-1.5175190360842332193 0.18695960341718720343 0.35552914579569505626 0.90035928867651671137 -0.60336951306128527861 -0.34363734842802667879 -0.51986184171882676708 1.1026240690032655944 -0.70751381677342262133 1.6478279232347765593 -2.0572069768592688987 1.3118607497527285943 -1.2401174348491343924 1.0668056929472642391;-0.51749094899219139077 -0.25506150825438361762 -1.4377256534909061969 -0.2345173097840693166 0.34862169416405719424 0.94756792364275910234 -1.4099809628778197101 -0.20332398881240953958 -1.5240628284657897762 0.58411799171885203652 0.40525447494054650521 -1.1587970162873881819 -0.32879163106437003794 0.27960180282384089478;-0.31356908816119805072 0.79999531969815851351 -2.6792100821464823746 -0.21125328941413379358 -0.039966622618521935317 -0.75100819573897359405 0.3251515804342777205 -0.3403901466099765738 0.67557342972658063207 1.6184615197102536488 -1.0534875215763750411 -0.61118779009913737355 0.78115771270235268009 -0.61517676558500644646;1.9370607920472926455 -0.089023688230043321323 1.5757214065873084152 -0.68027491828913189131 -0.91731661429017785636 0.11401740871520055221 -0.53809824465820155215 0.17417855976406604324 -0.43197935481968896543 0.34522956835335377734 -1.1589729770969923184 0.62282918677187759648 1.6746531266861737208 -2.2763695171155844399];

% Layer 2
b2 = [-0.3221571187163957406;-0.3808975935307570837];
LW2_1 = [1.8095306941275486334 0.69900871717743573441 -0.20409337731154356121 -1.5615438321169616831 -3.7721186079798729729 3.0416607934095578614 -0.60719677097799018561 -1.6390128505111132284 -1.2219469503529754029 -2.3169598330670182484 2.631051130350335665 -1.2690250184495006636 -3.0532137691341616481 -0.26483053763998087859 0.31411151164666828439 1.4647714272836598326 -2.2581105547800253142 0.65429576988029869433 -1.6066135479663501417 -1.4261871732937336787 -1.7457989384796772647 0.18199588102781344423 1.1978259735831269239 -2.2085870905520148533 -1.5578117855454771679 0.25712815974266556296 1.5073284295532691779 1.4750970453191922793 2.0112024547542288744 -0.78274066854169876972;-0.15727884088493720993 1.2348724742612078309 0.15519712256714807141 0.036962440166414846365 0.48706906965459212389 0.10892744143820128067 0.4553378274833960182 -0.14557751939818852627 -0.31018795918864217054 -0.019180051789547056251 -0.55554177541526161832 0.0046819605764734841674 0.040846779464546463523 -0.035100290591718867617 -1.4928690108464892639 0.24764428884864644886 -0.35055394960603392107 1.2651892811386349358 -0.97087685770672282892 0.51829290598207011787 -0.60437524160012778829 0.92862037230570637636 -0.52029476445523714645 -0.16279408606161002715 0.014333548174066380876 -0.69202417162151275143 -0.040843499796235492594 0.41740062090427221264 0.061631523030737239699 0.049345280230890638251];

% Output 1
y1_step1.ymin = -1;
y1_step1.gain = [1;1.25409855082642];
y1_step1.xoffset = [-1;-0.594771];

% ===== SIMULATION ========

% Dimensions
Q = size(x1,1); % samples

% Input 1
x1 = x1';
xp1 = mapminmax_apply(x1,x1_step1);

% Layer 1
a1 = tansig_apply(repmat(b1,1,Q) + IW1_1*xp1);

% Layer 2
a2 = repmat(b2,1,Q) + LW2_1*a1;

% Output 1
y1 = mapminmax_reverse(a2,y1_step1);
y1 = y1';
end

% ===== MODULE FUNCTIONS ========

% Map Minimum and Maximum Input Processing Function
function y = mapminmax_apply(x,settings)
y = bsxfun(@minus,x,settings.xoffset);
y = bsxfun(@times,y,settings.gain);
y = bsxfun(@plus,y,settings.ymin);
end

% Sigmoid Symmetric Transfer Function
function a = tansig_apply(n,~)
a = 2 ./ (1 + exp(-2*n)) - 1;
end

% Map Minimum and Maximum Output Reverse-Processing Function
function x = mapminmax_reverse(y,settings)
x = bsxfun(@minus,y,settings.ymin);
x = bsxfun(@rdivide,x,settings.gain);
x = bsxfun(@plus,x,settings.xoffset);
end
