function [y1] = gdNet2T40Nv2(x1)
%GDNET2T40NV2 neural network simulation function.
%
% Auto-generated by MATLAB, 18-Aug-2021 19:05:32.
% 
% [y1] = gdNet2T40Nv2(x1) takes these arguments:
%   x = 14xQ matrix, input #1
% and returns:
%   y = 2xQ matrix, output #1
% where Q is the number of samples.

%#ok<*RPMT0>

% ===== NEURAL NETWORK CONSTANTS =====

% Input 1
x1_step1.xoffset = [0.014469;0.014929;0.016612;0.019995;0.027617;0.033129;0.040462;0.032248;0.027814;0.019981;0.016227;0.014616;0.014469;0.001797];
x1_step1.gain = [2.02936285109246;2.03031050553716;2.03378524041375;2.04080591425554;2.05680272073864;2.06852827316157;2.08433642023557;2.06664517355686;2.05721950326378;2.04077676045056;2.03298931765763;2.02966559229701;2.02936285109246;2.00496228164708];
x1_step1.ymin = -1;

% Layer 1
b1 = [0.99758937884116360983;6.1224911761675304689;18.259370533811811299;-2.8458310138897178199;7.6306848958183870479;-7.9280104629455383503;-0.22120029272388080921;1.3969705136079586527;6.2109343108784340615;-0.90974958773973035875;-10.720649417523455682;9.5068366528715966268;2.320093922847005885;-1.1785789211227946094;-3.6301687959249062665;-1.4077494379020951687;-14.143285381121460276;0.19212564264619208521;7.4029905811216556444;0.53419085817904321534;0.19204972280138710161;3.1923035484162376463;4.4577302250624200042;-4.668647191236577676;17.596966423998928519;-4.2411494852178135417;-3.8205695651857025652;2.392717152341394371;0.82413416358335067624;-2.096899221773807831;-4.6321109879349444682;-8.5728351259464048439;1.3206762948266963509;27.319731907323497211;-7.4137069598706242246;-3.8949109692469190414;0.10383509702463765423;-0.88002889635122050205;-12.551946969273279464;-8.3296443625153298029];
IW1_1 = [-0.68002471323495750077 0.18304212926496071789 0.077690504941167845554 -0.46901205084877972684 -0.1406234158085129804 -0.18959153561849814706 -0.36880648619244110753 0.29649684309683527195 -0.090224964234023333209 -0.51994599399324448186 0.34630441441510856349 -0.12732391818200650135 0.84571600567943394644 -0.04217958964692432311;-0.37951638363699585765 -0.017548185027600471386 -0.03221629185239462817 -0.1067206505609404471 0.43192100899813262727 1.461085619627948029 0.84479623687095994899 0.62649427258643164418 -0.57040008803016417627 0.77805316348990916087 0.94848262609813116519 2.8692884523494397442 0.91705880913477899607 2.0114847908717932157;-0.17986586835047699284 0.11165157500923857115 2.2045634510132106065 6.7859522739238533617 3.6641455664840698603 -1.8652715708376168546 0.80487407767204321996 1.8162004193698304544 -1.5709176779187490336 -0.24264916336927080942 -1.1242910576372322495 14.436844642377469228 -0.53891476561727946759 0.69716043680382122627;0.32201318641191550851 0.048511599372403006736 -0.3199807860823364325 -0.72646710042107143224 -1.4725073593513529069 -0.091891732066259904088 -0.074684135483605654238 -0.71367875360518573391 -0.053808316848540503619 -0.10160047821065877616 0.088459931010046649602 -0.51518723922433229401 -0.51528732756652295688 -0.3725656103827426624;0.76964064067655124646 3.3536438337423861711 1.5045392784854696444 0.67435755699504495997 1.622082586686465433 -0.5186632418207386408 -0.89466060722173690323 0.51759785166058291939 2.530029377165005311 -0.54983652349274092508 0.55147222192678813091 0.074029685970302905318 0.86758098375127501445 0.11643429658166687402;-1.0071495024562713283 5.2141891608061499142 0.536966949958155082 -5.3447359426058813625 -1.9819486679549347397 0.66209053990415622781 4.3861847633525448131 -4.3243641651505857482 3.1361447405021865009 0.53559458379291347008 1.7565818866661129238 -7.1181016217505970189 -0.44498870780284693893 -0.23569068664640246968;1.1310061055828426468 -0.082964444269995371584 -0.38933634843161013528 -0.4667761151963600863 -0.57565008928379646225 0.44665392405721437985 0.45372530094727847594 -0.93598626981306154438 0.2040658993064930482 0.96887878560524931526 1.7228113579364476848 -3.4919937428741101293 0.83913668588774825707 0.13779759883665249065;-9.0541921355305383656 11.800169972652755135 8.4211452653640286314 -0.5693227575689219222 -0.17734212517396166775 -0.68427754474637025872 -0.12784945371062314545 -0.47951106461838183259 -0.75287876088346539216 0.31890622126413908921 0.68267941077411176121 0.74447970271613161941 -8.5715272698781923566 0.38175562203181506726;1.1192985754029762813 -0.94296769846711081531 0.39125725126989330249 0.95087603294352796013 -0.40247291645616745104 2.3304923820438943061 -2.031178233509089992 2.6467829596945979809 0.83798396385627571537 0.78893854594072743147 -0.18880653110404985173 0.27292640610609847363 1.1230416699030212335 2.1744732131766157934;-0.63401494216662890313 -4.8350439346949727337 2.3603276147935119411 -0.04528503158272784157 2.917155024086125259 -4.2524021875132174131 3.1706050323579448857 -1.9868826623482165328 -5.2630261415815375869 2.4503420826627397844 -0.68946425252099807768 4.3904139568273601313 0.06638870151333706171 0.77721001311359660946;-3.4111111818065027457 0.47848331097095658793 0.77740317253058577318 2.7155854461962714019 -0.5173393264159553695 2.6621608906595204402 -5.8543727701941588037 2.9836097546518924872 -1.2686174163818837446 3.3014369643762586648 -6.2868091074130401097 -0.77148109518073781921 -4.299371693295857888 -0.14025413193388591715;-0.2768417741613039551 -1.0495221949978674747 -0.44884495372425470272 1.2489916736372341788 3.5244321551636521583 -1.3836923850640818756 3.916120833107912258 0.7751367796843819935 -1.2539716638363189727 0.053402572442478674075 -0.4180888475306952512 6.9261972793758284084 1.0097774340754017697 0.3219123147451875;1.7706729085144770064 0.59898739562832281624 0.5999682185029099335 -5.4134925174168611051 -0.72623053138172988241 0.032875999472248160216 1.510105611968909578 -0.7973768011324856575 0.5091384517724218961 -0.033282082185974927457 0.035674996317440747784 3.5346826167789413553 0.32924495216011678833 -0.31543295391575448816;0.37211739960452439036 -0.20280722403980114277 -3.7495817345386561747 1.6602662127014409243 -3.5996129115996122749 2.1729047873080529207 -0.0015874398777240856379 -2.916501408451624755 -0.3359383876668927682 0.59397867645535640246 -0.62237448453649646396 0.39116477134555577289 0.66142380314195203805 1.7558400350463461148;-1.8711410535501782348 -0.91724037551917492195 0.031882174961915914213 -1.7915232756818983972 1.4877261449748062638 5.6425161477340504135 1.9408486083783891285 -3.2897441434322800546 -6.4552060093843453004 -0.77360483299686111369 4.6545293997252095153 0.13109443412800478312 -2.1997616565259732191 0.62726296627520605753;0.54092672632699978497 0.20451689124076719017 -0.73773403348489841047 -0.0024367304737518374717 0.06780412827961139477 -0.89217497837715897813 0.41796511969947042209 -1.2470019364048525734 0.33066927851722238696 -1.9836694732280495401 0.98567221431501084172 0.53983054965358567845 0.37324562705760477854 -0.18104904612786246187;-7.1645495620571786333 0.22783047300696529502 5.7119010188124059724 2.2134379474347718464 -0.48707362462359438116 -0.36791782757668423098 -2.476472012551245605 0.15790504104096314553 -2.2463990311543611256 -5.7563967749096542903 -2.8058719458192471485 1.9854052954505458928 -7.1854440932420464705 0.033300061890610611892;-0.24974467807569755706 0.21802074172736418678 0.34276016860578462087 0.87104079345947682533 0.4838105047876820608 0.2816763389100708781 -0.45142447068979324465 0.45534242269984381846 0.52507653592058045611 -0.089334187398876746533 -0.98516304678306221287 0.97780544624707554924 0.096866908504336407537 0.23768520739749290915;4.3718677161785395313 16.156660538397492388 7.2088780650524872939 -1.1720908063438082447 -5.5903242341104544266 0.84302223102438955671 4.9599464909579218386 0.35046210094622265441 -5.08771016312735469 0.49624763507318742084 1.4067978373286551541 3.2535339743859523765 4.0192280838850722446 10.587252891452038739;0.079744896639458343057 0.18875447165278924633 0.39853724753533398273 1.0140250777665413828 0.61860875003430415564 0.31392521435335979385 -0.19125879407095747187 0.4430704993609532738 0.62638786104106680686 0.13433873815024155451 -0.94153587961169160625 0.97163667432420719461 -0.18741205077178582639 0.29301178138606143175;0.10873733734074185475 0.15863076213924029445 0.14154894830715131215 -0.36880603210382656432 0.78472076272215984805 0.56934665462481859333 -0.68388106372887236262 -1.0021126769592525463 -0.3330298679938617501 0.87998884989487691222 0.49440799262612827869 -0.037095881979157398212 -0.55180239968461075595 -0.0013959240164935122781;-0.048321981237662500752 -0.32745652472369407571 -1.1680305278433655847 0.89181495750394512712 3.9888670645359685096 0.20702605843707702626 -0.26320182115261658851 0.69214577600239890476 -0.38004591455980302195 0.31634441358809839429 -0.15225398727644520736 0.49204994540428081962 0.056875060106392309744 0.36145184837979454917;0.40071327666064210371 0.33199960111978815691 0.90571391582036042678 0.73908610888639458825 -1.7931606649693576649 -0.49374676851025234292 0.84228521702298331242 4.8498761463712227737 0.77834757079103800148 -1.2091457284569906427 -0.027145244556468436231 -0.25513958034386508 0.88184981939038398213 0.073411190905739970303;-0.15940180734978839916 0.26241354426398222355 0.1040067387416639122 0.11436575347174669781 0.32204757351119639441 -2.0962469823119418422 -1.0804175253042804794 -0.4644021076866069464 0.58380010650158065122 -0.38082741111559509362 -0.94122771615046363358 -1.5459772666155890963 -0.016029685860016844312 -1.9277976090087418637;3.8603316091616615147 0.67514521472610578012 5.6703606058901945275 0.50618647906807068271 3.6369645840311983775 -0.33618697593642599131 -1.6922101589712670311 -8.8338004048588434358 -1.3857248873548742019 22.023857954854879182 -1.8820584857197555362 0.072564976492039690026 3.856574568797277891 -0.06090582744139995397;-0.98436109487492085002 -0.47138393689007451748 0.23258212095354108273 -2.515822200210339421 0.15310743954446678905 -0.081623688578109115932 -2.2105597406869397226 -1.2748114409645618927 -2.6073255357804265842 -0.97126775396661024775 -1.9758958213391035752 -1.0410897909314422716 -0.93160811955113298488 -0.68773805536351551027;0.024487103237581714366 0.42327787691130641656 -0.39752818093162972657 -2.1622873688512083135 9.8668104968924197351 -14.745883591927974265 0.47440427394908946113 -3.5507049679444686596 0.43714205834954450447 2.1797877700541610224 0.26126318815486498925 -3.0468076044714140771 -1.07748347957395052 -0.38360755525793865939;0.74370241413989490731 -1.7320926314980591432 0.05517917434133871174 2.7214745274635352423 1.3053964738300503079 -1.1474340997346839099 0.49626156443070518209 4.2453191976733872792 1.8206518436178165121 -3.0302264135511265408 -0.2418245383123877601 -1.6252645938443932572 -0.4610763816279175864 0.1265041959554115969;0.46006816741167338991 0.069955140382189501258 0.12695159327618088518 0.092082593221668757044 0.21126393229080717151 0.10582280010787918634 -0.14529486718229303599 0.017185023711026752025 0.11288300978772999872 -0.056156621249454967415 0.053146767331946752344 0.18294419833155534105 -0.47998001069812040731 -1.0942827515122561799;-0.93658104995433200113 1.5468651976348091193 0.41459323151558802323 0.37403652335783149629 0.72622224031270465883 -2.2424637195017882441 -2.094194960682120854 0.84709214188480275176 0.76730100183359684074 -4.108130180653497554 1.5788529915662008474 0.67118556288547726041 -0.43388285818772814872 -0.32227046625440641803;0.044690953231243654709 -1.4534972443057503355 -2.4218756977783892914 9.255620559324219343 -9.4540692994335753241 -5.8594768955117002562 -1.9477788214911837539 1.2562559232217791472 -0.91241494778328113835 -1.9138424137335332542 -0.59197991474419131563 0.43843978871981387213 1.0349001826808419402 -0.04467512798824711806;-4.2881705186519178952 -6.9992419251783886125 10.593073336620316027 -0.087893428286235739111 0.62902750625409276086 -5.8535930052477365138 -2.9901674186237339192 4.3934176530435671282 -2.3496039048100385571 -1.1397432031727825485 -4.0630836446646565463 -1.7760506594930955959 -3.8082498658067054365 0.10637942721079884922;1.8506425861312549852 1.0976245044988985899 0.35541280177543660423 -0.29592842354235587843 -0.49718393713519193344 -0.0030018397493192586212 0.14603029533154154862 -0.64631767285332597517 0.42404908107721733801 0.021914840243008357895 -0.58311755884783389448 -1.1414370195863168256 0.89808949209957267268 0.070473857019814734048;-4.2997447938248045674 3.5558283828323524745 2.2432934423053292328 -17.619670166439838965 32.778844657955602315 -15.710160493145485461 1.5648791017933796343 2.7226384979492088689 -7.9028664633282863505 1.6001302209988848002 -12.202903422472244799 -0.6965517849156454 -5.1084393657099518293 -18.526109840257550587;-3.2725072508043795416 -2.2993749340593261365 2.62182353010344249 0.043206207646186441107 1.1660628555137213525 -5.7843382156431193408 -3.4505470036321317373 2.9641192792449140292 -2.0731867717628036374 -0.10813802450925705245 -11.240469412647714265 8.6841230904821156145 -3.9673480542618273503 -0.30229538526943888765;-0.67235144145996161846 0.32176348784195685226 0.1240481799513159511 0.040676859289334829639 0.62119314537055758674 -2.0950083756625588194 -1.4175540704538041048 -0.36178837292229271139 0.54813816867432851865 -0.18791863835841027264 -0.75857311712774178059 -0.83964156943548418077 0.66160048894520251395 -1.7886032768896109602;0.10094265064281467137 0.13083004702587977541 0.34417571844299665873 0.66907878710648505116 -1.7422233290645194881 0.13190381985823901312 0.66250625071248714359 2.213920664498561397 0.51554666295623630123 -0.59166100005961175246 -0.37749463831361168564 -0.25840555015062988131 0.54055955328406513072 0.037208072448338048999;0.39626146676765944266 0.98856659165363214292 0.17854185859057286612 -0.49432172517033151626 -1.0145573069452042958 2.2148066716873691107 0.92736431215869197242 -1.7089013197776958819 -0.76679897609384750634 6.4294324080378286723 4.947645571754645033 -10.14557156666834814 -0.42353312611732868431 0.1695855244844662324;-5.7550041706329402302 0.14259091023765047002 0.75186406898503199692 1.7619736903944023254 0.26925952051702145562 0.64693609243881922133 0.47870184603317550431 0.82319633650204238062 0.56299824360397099365 0.54158109659418873782 0.40044661759633504161 -7.0289600957601265918 -5.6059311485165048694 -0.095472579397505197285;-0.27865979748647201619 -1.0111941189482736014 -6.4106004716462985371 -0.56281617715371679012 0.081030731404841196963 -0.62396932206362243356 -1.8854973743599230396 1.7975664733793970118 7.1131412895143171227 -13.45329992355306814 -5.9717159258277501266 8.2673743363374168069 0.14080171941564512128 -0.53126577456990520254];

% Layer 2
b2 = [5.5206759546449646336;0.85264891842636325592];
LW2_1 = [-5.8199646304796264218 -0.051047238846803857926 0.39019720557469239619 3.2239231806242751865 0.44411065792010384623 -0.32523191515173111021 -1.1566726798222086714 0.36886347263376911831 0.78411817859894039628 0.20151428143374433555 -0.37980658844723924616 -0.46575779102685488375 0.43067335506533882539 -0.23306557210974665484 0.22154466445678477893 1.1227028065100879139 -0.47940136413936235149 7.129358632319572564 -0.085536255652090276147 -6.9117503957739137022 2.1042367179538747912 1.0864032241201253548 0.6062009676908619582 -0.90561096627310266882 -0.28856176870497518561 -0.35310526469539016414 0.15509795508716414658 0.41989974119245515594 -0.33746581374297984768 -0.62134262315914967623 0.23303177198956645522 0.19423960600268064258 0.74265391793905455309 0.31864723341968848036 -0.22972825960700773984 0.87056781254227921796 1.520584029523252223 0.55051532972481298511 0.56025323890045541919 0.20449750334423094644;0.14755202844615974977 -6.2184770485060028022 -0.0082047984002589138125 -0.12344523164020354544 0.028574790288986035708 0.02669100980012316035 -0.061561501376723164192 0.018126465790383360782 1.0299493678665867513 0.01445594652168576133 -0.023032269559104322915 0.039688105018274286162 0.028322863649689875021 0.02202108228351300559 0.013798353218036560341 0.071683631900250052715 -0.043315513364941819752 0.69254257805523866676 0.0019621205555152725943 -0.38362453729244910816 0.23561389235883378745 -0.072168725677703271515 0.019774289376152144604 -15.194327476203678629 -0.0049295170076579025373 0.00043126847741988601909 -0.007406775757487178008 0.030982101227441431746 -1.4342670919971625132 -0.038833839253647084444 0.0069117585441803106733 0.00019301489549460580132 0.037600379242240855593 -0.0062911824953481056133 -0.01923285645700486407 10.669773950879672952 0.061147987611844728528 0.027492574962675701833 0.067754328236252686635 0.016035538946603811183];

% Output 1
y1_step1.ymin = -1;
y1_step1.gain = [1;2];
y1_step1.xoffset = [-1;0];

% ===== SIMULATION ========

% Dimensions
Q = size(x1,2); % samples

% Input 1
xp1 = mapminmax_apply(x1,x1_step1);

% Layer 1
a1 = tansig_apply(repmat(b1,1,Q) + IW1_1*xp1);

% Layer 2
a2 = repmat(b2,1,Q) + LW2_1*a1;

% Output 1
y1 = mapminmax_reverse(a2,y1_step1);
end

% ===== MODULE FUNCTIONS ========

% Map Minimum and Maximum Input Processing Function
function y = mapminmax_apply(x,settings)
  y = bsxfun(@minus,x,settings.xoffset);
  y = bsxfun(@times,y,settings.gain);
  y = bsxfun(@plus,y,settings.ymin);
end

% Sigmoid Symmetric Transfer Function
function a = tansig_apply(n,~)
  a = 2 ./ (1 + exp(-2*n)) - 1;
end

% Map Minimum and Maximum Output Reverse-Processing Function
function x = mapminmax_reverse(y,settings)
  x = bsxfun(@minus,y,settings.ymin);
  x = bsxfun(@rdivide,x,settings.gain);
  x = bsxfun(@plus,x,settings.xoffset);
end
