function [y1] = gdNetT1N20D(x1)
%MYNEURALNETWORKFUNCTION neural network simulation function.
%
% Auto-generated by MATLAB, 12-Aug-2021 21:51:06.
%
% [y1] = myNeuralNetworkFunction(x1) takes these arguments:
%   x = Qx14 matrix, input #1
% and returns:
%   y = Qx2 matrix, output #1
% where Q is the number of samples.

%#ok<*RPMT0>

% ===== NEURAL NETWORK CONSTANTS =====

% Input 1
x1_step1.xoffset = [0.014928;0.015425;0.017231;0.021103;0.027804;0.034437;0.04709;0.03412;0.027544;0.019775;0.016141;0.014448;0.014928;0.011211];
x1_step1.gain = [2.03030844445888;2.03133331640556;2.03506622614266;2.04311587429525;2.05719834272102;2.07133040516258;2.09883409765875;2.07065059841802;2.05664832136364;2.04034787931342;2.03281161223305;7.91323924491871;2.03030844445888;2.0236094514703];
x1_step1.ymin = -1;

% Layer 1
b1 = [4.0760538370717753764;0.41983703501870189845;2.0602725458350970023;-6.0005601742491725403;4.8960573388034385189;-2.7918871883106013421;2.9843419991122543955;-14.422699624262143914;-5.4282484642811388298;-1.1845739170542932683;-4.871897846822975886;6.5755068453283644914;1.6743748293883742306;5.6503692090410257975;-2.6266223696763306705;-12.821907820994775662;12.209029873453113524;0.69249003507141826397;-2.4004210595515664828;-3.9925885077432714532];
IW1_1 = [-0.3291494878522751022 3.0471763201469910243 0.029243376721942264396 -0.44667310429212508938 0.92800122207956226017 0.22420667891181136899 -0.45240848642186570761 -0.81075162523239552304 1.1981820540471557202 -1.0600819650463955135 0.083421990403167098349 -0.60039016272578771272 0.62239344572804156108 -0.50290483000834207417;-0.42537955712219538418 0.15390473251671812904 -11.21528939189402152 7.1246668433192272829 2.2635580051023969084 3.2247313929269179056 -0.71036110624319048767 -2.2059408690658237617 -0.14969050673761516435 0.22163316477472139177 -1.2061736861119554121 0.057707189511627107747 0.16233321554836496747 -2.3154894042247287089;-0.27587628345531961527 -2.2501234788292863165 -1.0289953997441625422 -0.82905564508462281648 0.43613771014582292107 -1.7171043893761912535 0.070511601327578318776 2.9299366977602225859 -2.2099868798692559047 0.80663545528096058934 1.4205914559738761493 -0.55640731698267809069 0.94590739048087080221 -1.2459869919400476945;0.24940222666880046409 -1.3005397795984880993 -0.28399877071463736078 2.6904496667468036364 -0.70988316842387688688 -0.41375900903389062346 0.41421095277067376816 0.6697918165261621537 -0.34892561320622944576 -0.41225141317834446131 -6.5424554868271860286 2.8568265369829966005 -0.53346354959834119125 0.52658039083568652927;2.056604344462998224 1.5925340919724986222 1.6675381819206220868 -1.5451656285784070022 -3.9623475797974849755 -2.8781696093321142982 0.75971453626438523177 2.4130394306252638259 0.23933284661954554173 -0.07506438523498555615 -0.49697161520912108701 0.40950759472127684635 2.4196711737138385523 -3.6528447907986825172;-0.90384095342865578004 0.59234403704725457906 0.59622209220386723771 0.25173722384858554513 -0.62603474796930258517 0.79020669249916641874 1.5909167022836854244 -1.2557001682829831424 -0.98206024120513935038 1.9798716207331297223 -1.2518108961708145355 1.6528167742577153376 -1.6077734847454263623 0.19564714160150542543;0.50133887490633810557 -0.41127617952959277803 -1.646258001983465169 -0.18808744045796949029 -1.4356576121399524659 0.71367481797154741496 -0.54543661649635688526 4.9744001525259298191 1.0232033478186350894 -1.6223166083553930417 0.98907918073039347018 -0.68510209582648262661 1.5451502660181888338 0.48443584283705648508;0.44870948620794542938 0.61763561547107936889 1.1609947008928667156 0.042981105952464959685 0.66503409492868770236 0.57050709030928625776 2.6235916936513485886 -2.5336235810801528423 2.9513510821348876156 -4.5363555473585908118 -17.593023811814532564 3.0451527353825884603 -0.33153990582159986733 0.41117804631049165165;4.0486263774240498492 0.00085599606022333796229 -0.37324314626861021527 0.085641695679880003311 -0.26556726988888890162 1.3883504869763585443 0.6616821215038897197 -1.5747102578394995831 1.3752761576750283101 -5.3990551387121010762 -5.6825807955392271253 3.4318913028784594488 3.7554297205757887212 2.1239486016539226299;-2.0969567755063716064 1.5271944545710922636 0.95977446489766604643 -0.66710131660330629355 0.11221305632150745113 -0.17392669312955871819 -0.53757613445903629223 0.68942203258001788502 -3.6555472365997290218 1.6971896482704811326 -0.60505595551024371481 0.25712443367584869591 -2.7807577509117913372 -1.6966430012972162356;-0.98593760984031286743 0.41775886457561955956 0.68532154859350202791 -0.87507499936382204808 -0.73798403757935893132 0.79153760587827581841 1.6346793350470596451 -1.7221180690382942302 0.10849661964958801086 0.80020176963223177413 -4.586474036911517338 2.7437087519962846116 0.11754513578936864882 -0.10007313028596186155;-0.48187921068069961006 0.51935951998186802303 0.39391489936576468134 -2.931032546745614642 0.14580603835735297946 0.49147710920668236101 -0.037610829994921116115 1.3865343027693977085 0.63076862065379457611 -1.511296529396561672 9.9821248667402056043 -4.1267141597777827755 -1.5316470681633638229 -0.51708298342247061008;1.505424273152994763 1.7348416115052183173 1.5138925482948888401 -0.99100904842059478472 -4.6398350137930721715 -0.79784938957361595246 0.78700238372905007012 -2.4477426075460639865 2.0776023181069258605 0.0023138482329984576269 -1.1393235618781853979 0.78657364093737458521 2.4969302386554730333 -2.1970942962093413797;-0.35097837234149670271 1.231652236789237076 -0.38128118020088980211 -0.58368562674279711455 -0.81428208341745889065 -0.043933121201382818732 -0.26225952739669455838 4.2248435938315163085 1.6537875140398823337 -1.5224381949375411782 5.2401550589043193185 -2.0223163035840276969 0.069761140104678084906 1.1220805929800274914;0.23643280570057881307 -0.24960751402877626171 -0.48068000112280773184 -2.7545339896898290988 -0.78161366346219174339 -0.083377225553978570605 0.18728216849940876321 -0.0069652114844429569018 0.98253391026317993262 -0.96664016355006610048 1.5982606208169223283 -0.68011193692381455289 -0.10867238577537473299 0.59760080832786177663;0.23995615224944211175 0.42450285122837189133 1.1629602064971846787 0.19556392670932312705 0.77582952622137690835 0.50001847549805700233 2.7053921064296915233 -2.5375244041019735519 2.9605026954497946079 -4.5462712541788619092 -15.519571691134368407 2.5985287558153205012 -0.20161218197320440737 0.23614534678986359717;-1.3917079763523978464 5.1344208595092979408 0.90747186066294849294 -0.010072670918836897774 2.721833010757431115 -0.42626315603637782159 0.23599428018781831717 0.15301888230210278219 0.79623113641375153904 4.4120397689842940636 8.7678670074619162733 -4.1813601743177564174 -2.6001845964466085981 -0.38831686995719427724;0.35413457291238020774 2.347423348818820088 -0.12662515553000538993 1.0390918095825831813 -0.10451560437800710979 0.44822878231371249269 0.42051053140206595682 -1.4234091944555382625 6.6860160952527216693 -3.2394099926985844284 -0.27866689373849623523 0.050330496856662826355 0.67780760206107160126 3.0450179714665051023;-7.9351216955493475425 -3.6090547095517631071 0.057670111280715849467 4.2615656368973136026 22.751246969468880366 9.0340554351740092187 -7.4539224073235512691 2.3703867455834006783 25.980925532294374847 0.005792060022643576167 19.830999409929539468 -2.3197606239916073179 -8.0798946594442533353 -7.0957227255610773042;0.41683247843994497561 -0.68929633369869358628 12.318155645083185945 -8.0079118761367009682 -2.5671211729023770687 -1.2595853019615257384 0.83255061426971344041 -2.707579314090693412 1.9835376035864151767 -0.18216768561310656138 0.77181717378423619902 0.22927886844780928643 0.099958762941682127723 4.426070065211572313];

% Layer 2
b2 = [-1.0924947010240311229;-0.012098713276853866744];
LW2_1 = [1.0686569555140299492 0.16148704605044295057 1.0279998578225517658 1.109854924722909697 0.15881920594581236394 1.7266426198711302131 0.94923995575713315809 2.3877910181771633269 0.925267514700027216 1.6586515980339133769 -1.6518967426435271495 0.98816376210097367494 0.070943490322390417857 -1.049434066019226286 0.94659439882898066543 -2.3411390040818744751 0.4225907231526774277 0.97220212669601246969 -0.25183382726558017906 0.34673153968880771059;-0.028840866731244810955 -1.0413009900265368657 0.0049869604293086792351 -0.0033321506563822691528 -1.0369154123760739861 -0.052610992209770966743 -0.00059782117528264300862 0.19609667940858849233 -0.023591445516612238181 -0.033999556005488221211 0.081097484391464358389 -0.0022212215383905029725 1.0036275495390256651 -0.007614874884392556359 -0.023278440843766935731 -0.19952505720934504696 0.0078875430953201184497 -0.0049960696472322345049 -1.0215673302900358799 -1.031962878723186483];

% Output 1
y1_step1.ymin = -1;
y1_step1.gain = [1;2];
y1_step1.xoffset = [-1;0];

% ===== SIMULATION ========

% Dimensions
Q = size(x1,1); % samples

% Input 1
x1 = x1';
xp1 = mapminmax_apply(x1,x1_step1);

% Layer 1
a1 = tansig_apply(repmat(b1,1,Q) + IW1_1*xp1);

% Layer 2
a2 = repmat(b2,1,Q) + LW2_1*a1;

% Output 1
y1 = mapminmax_reverse(a2,y1_step1);
y1 = y1';
end

% ===== MODULE FUNCTIONS ========

% Map Minimum and Maximum Input Processing Function
function y = mapminmax_apply(x,settings)
y = bsxfun(@minus,x,settings.xoffset);
y = bsxfun(@times,y,settings.gain);
y = bsxfun(@plus,y,settings.ymin);
end

% Sigmoid Symmetric Transfer Function
function a = tansig_apply(n,~)
a = 2 ./ (1 + exp(-2*n)) - 1;
end

% Map Minimum and Maximum Output Reverse-Processing Function
function x = mapminmax_reverse(y,settings)
x = bsxfun(@minus,y,settings.ymin);
x = bsxfun(@rdivide,x,settings.gain);
x = bsxfun(@plus,x,settings.xoffset);
end
