function [y1] = gdNetBDMix30(x1)
%MYNEURALNETWORKFUNCTION neural network simulation function.
%
% Auto-generated by MATLAB, 28-Jul-2021 22:01:19.
%
% [y1] = myNeuralNetworkFunction(x1) takes these arguments:
%   x = Qx14 matrix, input #1
% and returns:
%   y = Qx2 matrix, output #1
% where Q is the number of samples.

%#ok<*RPMT0>

% ===== NEURAL NETWORK CONSTANTS =====

% Input 1
x1_step1.xoffset = [0.014018;0.016235;0.019675;0.027656;0.035214;0.041072;0.047315;0.038958;0.034175;0.027592;0.019829;0.01641;0.014018;0.011819];
x1_step1.gain = [2.0284345961691;2.03300584997433;2.04013974957285;2.05688521757732;2.07299857170398;2.08566232292727;2.09932978896487;2.08107450038604;2.07076851396475;2.05674984163026;2.04046028703155;2.03336756168729;2.0284345961691;2.02816101570304];
x1_step1.ymin = -1;

% Layer 1
b1 = [-9.0267041641523153572;-5.3522969344353379384;-1.5372346105611314204;3.294031435591926904;3.9816965748293773331;5.9696737207627714739;-2.5271486361058141945;0.10421621546729502306;2.8677267651403286486;-0.043883060688605965427;-3.5328573198534174438;-3.751472138742848017;-1.5626564544109575738;-1.846596340153242144;-2.9103439445225234294;-1.0533517227863082866;-3.9974989456617437966;-2.0319492337985254338;-4.3452549404915572495;-4.7486268911361957379;-5.5083067419713751534;0.85278060315265702407;0.6789167218817170335;-1.6331749287531578396;-1.0416022073474042742;-0.89208914979096143316;0.91531687107141801452;-3.6571213149587187274;7.5384461641063804649;-4.6510238224599218526];
IW1_1 = [3.7735364779079203501 -2.1371520741630276596 -1.0060172567553475886 2.8647542125846126027 3.0351135260869166466 -27.67890800894726766 14.426740313438720875 -9.6277990586082626834 -1.640612972804694758 -1.2565246527816853472 4.6864906703247335429 -0.5028221493892947036 3.6670474209142209787 -4.092511057458142254;-1.0143705370196520743 3.3236792055391441991 -0.13139345733353535728 -1.8243413993817780838 -1.2356076463370224694 4.3699794126416975359 -4.7068117154824049564 -1.3529574457157278466 0.34323829721343085408 -2.8303115275867143374 0.61227986682375412641 -1.0381052283669236491 -0.94870987957515917621 1.2627061376758339506;-1.2761042248029770274 1.655662083461860945 -2.1190524886036810059 -2.511106818210564473 -1.0487000977871649976 1.39174168818027022 -2.1719049684240152587 -0.021643362821563878751 -1.0852920655373885506 -0.81145174078484594293 -0.95179004807688916134 -0.70292248901857468102 -1.0799862571575231662 -0.23440179195549654123;0.14718917650134855091 -0.84203125580595727939 -2.2681385803963078907 5.995544359205585927 -0.12019695981265732243 -1.8108347884803255301 -1.3291456334164939435 -1.3705189939341082539 -1.2042462902144157599 0.59880032096354651738 1.7516297516503076537 0.50646113753518173795 -0.034432313297686298337 -0.72692808418309162732;-5.5302657759425501993 8.7380379979816744651 6.9685588238726206001 -0.54359316958649828155 -1.6824233436176061485 1.7303230491241172739 1.1228419102326876455 -2.4782131696020366363 0.30679702333683145365 0.25397077428951819744 1.9287211097573968566 -1.5796783789288240119 -5.2341126464786347228 0.73828103911614584298;0.76075256870626051242 -0.90941286494124329298 -2.7549278023163412676 -0.42931499242354370649 2.554875890423395024 -0.36735981150176055809 -0.89607218363354390611 3.0893773313580639162 -1.5795319465628083755 2.9231550409894770937 3.1059781826325858489 0.78966905174771706566 1.8388971194497414352 -0.99218888642910618714;-0.7382703032511499508 -0.93872104879081952333 2.8313710975687076399 0.13967156364128641144 -2.4745345131479901113 1.7440440438050024419 -2.3044842505823681655 0.96420889415283805857 0.64281948761620932853 -0.94646039339435839022 0.6739365084993172994 -0.70261475738936263191 -1.7882585808637951885 -0.53820403496671009869;-1.9109732508618983982 -1.9115832685080478281 1.1000242864903091444 -3.6229697864656431605 -6.5549685165192057568 10.730134424804949944 1.4530615734024834307 1.8470900480568810398 -3.4459131551441584129 -2.043441911018840873 -4.3848547634620302915 -0.6548398369106623873 -1.8364690633428775168 5.220265448103013739;1.1137927272246030963 -4.3600206816939159893 1.2360760133732395794 1.9065603349688171608 -0.17548051988511839672 -0.98461495486703176638 4.9436639693996173861 2.5074307386427654443 -0.14205783583402223358 0.72509809009817516312 3.3751426013016967431 0.18565832502166659812 1.6750982461020567094 -3.3194899768479375624;-1.6755042738297840632 2.9520521082251400813 1.6754755091881616824 0.097704410331877322715 -3.7532154929158192402 4.2775371185937736129 -2.9608832448162445417 -0.065339744627405521582 -2.6184404228153921323 2.8717133303461306326 0.50438794660044050655 -0.73057715821889757102 -1.9439239579094111932 2.5738353520069070512;-2.9782497157070970673 -1.7702585112606472606 -1.2958130311748272678 3.8685809225557066249 -2.7839210588710869843 1.3645270720524544927 1.6052137994203996563 -0.12683624207658464322 -0.088453274945148929742 -0.18759565215186432829 -0.0088713323836152567503 -1.0308723307911418221 -3.4116207459774359201 -1.4705053927439890593;-0.055874642894672629789 -1.3005039149859012326 5.7791768775873606501 -1.3309002914785827976 0.081459694410036795342 -1.0573404366308507552 4.7096904202265879036 -4.1078900593546237019 0.63207700749234740911 -0.80459657354007474428 0.21000746050458526937 -9.6444489744856287672 -0.70682374543168435821 -1.8257960535596444718;2.1620902064446982926 1.9884631276106394804 -3.1873799119462029594 -0.14991099916081862542 0.22752194850254245373 2.8710402320646415397 -3.4512143059148856494 0.47451947127016402828 0.047766446651378496879 -0.075159266612024558385 -1.2266772868129294238 -3.0002218709960906118 1.3511372896470239535 0.61707665090679797437;0.26680924221769591886 0.44615305105531799512 -0.30631929062539414721 -0.35251756370615039415 0.35831901883183553403 -0.48389842745087346954 0.023074161745795067346 1.0437425004142328877 -0.69106076864174581509 0.10676448860791432072 -0.65984346103983526621 -0.57094127939750161094 0.25426117228973676987 2.6792089741869586916;0.48350120561305715006 -2.1383265797653843165 4.6489797443715854541 1.7665996475016154665 -1.6775441837889744079 -6.5958334697468679053 -0.93262648238207979112 -0.021666932283545201066 1.6902174165953642859 -3.22578659388285649 3.5868473305436259224 -0.11540619678433225448 -0.46053012940340265491 -2.1328156303216045941;-0.27116680019432837234 -0.69941528541006892095 -0.37533511278728559635 -0.21608432156823687009 0.50745511781450713951 -0.0010254301431799305033 0.34720721071142701675 -0.59161408091180411883 0.049520808247900574561 0.3125665745976779486 -0.22219524808125393212 0.35648266709500120442 0.025679670804452103816 0.47777046552355745268;-3.9470612952548247421 3.8086718463600464091 7.3980528349574994351 -7.4955426684105628254 -8.8563391663169195311 10.580829373371420488 -0.60014082154596337659 2.7632259829006842189 0.3592459578610135984 1.1361543837296339543 0.47037718662946143011 -3.5855413622928029582 -3.252018453571586587 -1.5866800098037532329;-1.9899889919672646421 3.2296982751953988711 0.81906590315138239067 1.3919069924409626093 -1.3434090571964654171 3.039074605498624404 1.8257463212067512881 -6.0663173185297107892 -0.24618819534429337015 -1.0545226001505079161 0.99348138269686447899 -1.4821324836849194551 -3.0158716456068637157 6.9199776227464733225;-0.2905908210830263072 -2.2963390534819354549 -0.75386129938310031395 -1.6797814999424225402 1.3669481705607233746 1.1253315080599872733 -0.35149298381370902566 -0.91868604454813418414 -3.9740916206526892829 2.5304808232342632657 -0.51914044555533445102 -0.39768069289170815406 -0.49081895491845622947 0.020623123138736591808;-0.34189148710569022827 -2.5071625187456043626 -0.84152390245938324398 -1.5850690194518679554 1.3942429712342210291 1.0826489765264302179 -0.40090776474152356457 -0.95738662044072397883 -3.9890076816536752524 2.5881912434455776051 -0.41752819805124607999 -0.61345995512221518364 -0.33857608368420882838 0.2521180442528022092;-1.6053178312004376949 3.3725190978817769505 -6.5946236611216404455 -0.70610322394435687254 -0.48729373036876094671 0.30748591840272637699 -0.43542371740153662518 1.020487664513077819 -0.1349192015986745985 -0.47091196764851050993 -0.80246828517015433846 -0.48525409323453999599 -0.54650766963598940151 0.65110185258497743632;-0.41989722602817508568 3.3577138993921593624 -0.009812770426141714103 -2.1919582518730829079 1.8657107905879768417 -0.77951379073478543891 -1.1947189000885527488 0.14700151587174620227 0.46819688108533452642 0.40443742967767171148 -0.58128450379419216443 -0.29976483275668830419 0.071416609722680657324 2.0297323793800075009;0.0048077875853110739121 -1.0303490846756209187 0.32541871739456218471 0.47799785625538382394 -0.6982451993010330149 1.7158411635507759829 2.4071920901812218219 -2.8978179633024132578 1.0689686876854131992 -2.7175265876040270996 0.052249996582231450493 2.0946993526557493581 -0.35126138864470551892 -0.86779219952771335933;-2.2716842310965432716 4.8511549394081106001 -0.73413223661496807004 4.9995046009945411924 -4.7438254027768902432 -0.48015080938664511656 -2.7833423678437783089 5.7616953097058107858 -3.5611290369583508131 0.22274286963971989817 1.3419246953630110664 -4.6101752503638344649 -1.1446166815457134991 2.0973656633751742717;-0.67388030111743157935 -0.92261048774157794483 0.005499547530508517787 -0.86728417443419292265 1.2839968594750199582 0.026925885720643583099 -0.71839615507605891764 0.4114391843062426557 0.20793478680853424989 0.6970637383353115446 -0.52322688418213636474 0.79707298392853920266 -0.050812346276261084743 0.96265317195295696528;0.19466465270052610292 -0.60943152000033185001 -0.19385288053467916725 -0.12203570823248979793 0.53009805030028267492 -0.096309611846835507798 0.56640010972740550965 -0.46670816045922641768 0.094212392572178366157 0.19113840858209465989 -0.015082830681638572171 0.31952214876501544571 -0.22228817889060958901 0.4187224180106040583;0.65229843658205477475 -1.8666603850264928965 3.8386648777535410382 0.50502137329131979726 2.205561343531817986 -1.3087821290409087371 -0.5691522113981608566 -1.9845626294839175952 -0.3572539238281948748 1.1778666812026594712 -2.3571016243616647046 0.11343006569296415487 1.154293014531411421 0.59044901754633172253;-2.2181125572557292003 1.6757659032182070646 2.718084283308939586 -1.3833381530562178785 -0.49208460214429339263 -0.51532907489656065714 0.41262716942767369011 1.2944910106618032763 0.28215472830837867724 1.4045857512764388098 -0.20312958117147780768 -2.9234578841424534446 -2.3703969368524671069 -0.019970809747570573978;-0.98250246082144687687 2.0466704009571872191 2.5900662309167348241 2.1750393788172539544 1.4564852483329424615 -7.6187244803087974532 8.1028741478592039016 0.5667159366994961589 0.75897755277323430967 1.2460013512949459358 2.0325753900390401974 0.63581853646661756763 -0.76840217200411942144 -3.4053647641568511872;0.015101558379827026771 -3.0204964637493625368 -0.35509860624766870218 0.40847253307204578476 -1.6197065815261264543 1.5515419069795748364 -0.89721378010275043557 0.62027170990092583835 -0.68754376008972140077 1.0208078293284548188 -0.60530583440392882189 -1.4935637779123771551 0.97317942585391725707 1.8661293630298638746];

% Layer 2
b2 = [-1.3197682467828368846;0.14359258818313125339];
LW2_1 = [0.3193179982892598856 -0.6397404576331091608 -0.99954329710603018189 -0.40531329306548796731 0.3682360653761542757 0.52119273529078857798 1.0031806055656369292 0.47028287753529746107 0.4631169925261463538 0.27996485292562878211 -0.34785846170400741562 -0.29834396048164191217 0.58744420125132390531 0.29917880809437663592 -0.3429777283493400386 6.9203895734203335621 -0.30928716369885583815 -0.3347254050438147055 0.74412434686534101314 -0.80990221379914828503 -0.32383541367787932463 0.81271360847124496374 0.60281359826318803297 0.26991381742770026442 -1.5974349431303163094 -5.9661002805716432107 -0.47206541855513656225 0.63367715464367802003 0.28568533986266503311 -0.7723682922272533391;0.07577621882717655577 0.038858461823901950527 -0.14606664032687927124 -0.07859565466712362114 -0.1729918025906671819 -0.11111045154870477503 -0.095575936443994591318 0.34293394162359419619 0.044969032916173483361 0.16711024312882646892 -0.0064706070680372439891 -0.052699616917356945089 -0.0088595243083949750534 0.64461433660565004011 0.12340368729951066429 1.0965202980890420559 0.058162692978235779051 0.1209660688879932583 -3.3431017996061775932 3.3895059224879653392 -0.37395360726574883303 -0.37956268851293228916 0.045961046440462338669 -0.086997090957096401276 0.32621702548394521104 -1.4481660596339080982 -0.2650143008626075769 0.15393998730674973707 -0.090245901492131561095 -0.3705614257211484186];

% Output 1
y1_step1.ymin = -1;
y1_step1.gain = [1;2];
y1_step1.xoffset = [-1;0];

% ===== SIMULATION ========

% Dimensions
Q = size(x1,1); % samples

% Input 1
x1 = x1';
xp1 = mapminmax_apply(x1,x1_step1);

% Layer 1
a1 = tansig_apply(repmat(b1,1,Q) + IW1_1*xp1);

% Layer 2
a2 = repmat(b2,1,Q) + LW2_1*a1;

% Output 1
y1 = mapminmax_reverse(a2,y1_step1);
y1 = y1';
end

% ===== MODULE FUNCTIONS ========

% Map Minimum and Maximum Input Processing Function
function y = mapminmax_apply(x,settings)
y = bsxfun(@minus,x,settings.xoffset);
y = bsxfun(@times,y,settings.gain);
y = bsxfun(@plus,y,settings.ymin);
end

% Sigmoid Symmetric Transfer Function
function a = tansig_apply(n,~)
a = 2 ./ (1 + exp(-2*n)) - 1;
end

% Map Minimum and Maximum Output Reverse-Processing Function
function x = mapminmax_reverse(y,settings)
x = bsxfun(@minus,y,settings.ymin);
x = bsxfun(@rdivide,x,settings.gain);
x = bsxfun(@plus,x,settings.xoffset);
end
