function [y1] = gdNet_2_40(x1)
%MYNEURALNETWORKFUNCTION neural network simulation function.
%
% Auto-generated by MATLAB, 09-Jul-2021 01:52:41.
%
% [y1] = myNeuralNetworkFunction(x1) takes these arguments:
%   x = Qx12 matrix, input #1
% and returns:
%   y = Qx2 matrix, output #1
% where Q is the number of samples.

%#ok<*RPMT0>

% ===== NEURAL NETWORK CONSTANTS =====

% Input 1
x1_step1.xoffset = [-0.012137;-0.011588;-0.009767;-0.006048;0.001655;0.00749;0.01837;0.01636;0.001696;-0.006235;-0.00999;-0.011807];
x1_step1.gain = [1.97601708069165;1.97708948702436;1.98065494317006;1.98797671681669;2.0033154871312;2.01509304692144;2.03742754398297;2.03326420235045;2.00339776260538;1.98760726867978;1.98021762591709;1.97666155699654];
x1_step1.ymin = -1;

% Layer 1
b1 = [1.8498177323072020339;2.3567405611366880613;-1.6065289931045023675;-0.24478388536605671932;-1.9931021839656406502;2.7422874199457822897;1.3786629984617606581;0.73336452893213743831;1.0784030695648612053;-1.1990506354603307493;0.94241700968123698345;0.9789674110666385376;-0.66500363697967235233;0.59716720078503870983;-0.41813080013288006498;0.64523941083970770549;-1.396541548904507879;-0.20606650685740929285;0.18605138452582417607;0.43947840240270341639;-0.26689759837591570113;-0.53471308038782938699;0.040644251774731403326;-0.12169850180108372772;-0.17823399993746724679;-0.13280762846402438537;-0.97064010249259646823;0.49190293664048639899;0.52596698525808338598;0.42766486723742702658;-0.60818172939874215466;2.0513318347255333762;-3.0457836813324963288;1.6627138618564489825;2.0752883835338979956;1.2954304095769260119;1.8666645395233980587;-0.35080268919281032414;-1.9038043577554677466;2.9075911865095065423];
IW1_1 = [-0.45652435341807412472 0.39586938414088279625 -0.60825486319719457295 -0.098735044114041700669 -0.1254675053876941615 0.62271416130834056357 0.27411134903641692917 1.2642619418710436818 0.78859471139140502327 -1.2096437098533476817 0.29044692743677297253 -1.0062620282994059195;0.49001970208268297302 -0.66445815878172231894 -0.95135441195694758765 1.0617166094829761924 0.78716918119443435309 -0.080252308939507521757 -0.76692579064440336012 -1.4043249732839127031 -1.2249943861019025881 0.94566643255247440081 0.001368015090913977938 0.118312155083386078;-1.0786540997973783629 -1.4105763811161786681 -0.17386992240726495407 1.1920880240372171421 0.013117950232405611866 -0.83294917292757686411 0.51430650742266759146 0.651536486287676464 1.0714592349377991543 -0.63043530427822191964 0.55160808868044686193 1.0757606904543326465;0.33079480676456879396 0.30539355018138819586 0.3522422068510446258 0.49892295410042014625 -1.113499523579571937 0.81590586311796142738 0.067054582716022284594 1.8167667793901920437 -0.14405948618771990954 -0.97538704884323212951 0.29435358485311274856 0.19072514283363042886;0.74552863175052896949 -1.1617914743444484049 0.47179346300259161762 -0.13054099285585535339 0.72795864144352506742 -0.17088372861279477188 0.67589531075728237486 1.1954268053330614485 -0.37003730044027521862 0.17286298447919781762 -0.1979372543316242905 -0.049289951101988499493;-0.25567691219925731128 -0.010999229825747941502 0.21711370587453659997 0.43094688269068232023 0.6728108215257114777 0.0048812568415724927329 2.1319841860597956718 -0.049330396227849515611 -0.14899053765969277885 -0.72410198487983823412 -0.12406913954885688545 0.11693154602182745383;-0.4584967482079471135 0.19490185447612340397 -0.62924088506489461725 1.1952377731200762856 -1.1678492322791567126 0.4160927221795239217 -1.2916885035995187003 0.43810022802214065862 0.34865179678537189245 0.17631985014944848156 0.90091251240301029046 -0.48265684478953729819;-0.39563511402953821516 0.16477204391581715126 -0.25372484941503370415 -0.96201948739452403103 -0.18918339413847237718 -0.13575120369533813514 0.53795426308536309357 -0.57581247651853595393 -0.46779976174259468857 -1.1727512155509378644 0.83153957901316966073 1.7097307179294756185;-0.14072457286819031741 -0.7288348023435112788 -0.54027304124251140927 -0.68762660999297409159 -0.66057263309344194102 -0.0028548495395382053608 -0.60626113119202484913 -0.43127457803573981954 -0.58318898567075705408 0.4653416520925260369 -0.056978059386423064725 -0.79243063669237145952;-0.37738364536503793412 0.23203824198463107731 0.45861431983793704559 1.5453872766525638127 -0.64324742377803489912 0.19108531223025260193 -1.1372850552765854104 -0.32661272758574522168 0.90461057637512076735 -0.27498276644802094326 -0.33607737025420864052 0.23490947822372615361;-1.3202738518230112685 0.57635622631951277661 2.342253804410441731 0.50645590799846340602 0.68954756773143566217 0.71672880238396452501 -0.86532280793337812419 0.019735857456356413475 0.63698078200271113225 0.2128974363796254099 -0.37920884493367834622 -0.1453284365090996566;0.38737102763226810564 -0.3047182313369286577 0.58434903185421005478 -0.73238963544265323069 -0.13386384511379184614 -0.14201562119569474674 0.82165971114742630821 -0.35683709236097221895 -0.27349616932421905169 0.006794775898802006206 -1.4129965185526831561 0.45239901995742881624;0.75899333596816631609 0.88039678414773658854 0.93412515586261146705 -0.38486236214719116155 0.88308692012746792255 -0.88019169869395330608 -0.6603050595695049152 -0.54062963611992387314 -0.48265786488506723373 1.6340456812866233083 -1.3305478511048680623 1.5800639473218791586;-0.95894635619937207416 0.053210627903439874919 1.84068383150357473 -0.57814442984492631084 0.47745450674058947937 0.85489427864252598432 -0.37668075681787266396 -0.2550924616348018148 0.84449252878332514705 0.027857716363181860703 -0.86922032902346890726 0.47993044355468922335;-0.51680396453526988854 0.19264658761740988124 -1.5616455278757062075 -0.99911919352559597218 -0.1513634619309387197 0.20292883288864807523 1.1533502675104161384 -0.051024218386757864974 -2.0229735288415313654 1.2121929014293344462 2.248254222464239227 1.7602611387409925481;-0.002136808099584872056 -0.38664504794570786483 0.89823907905529309925 1.200629411709698724 0.5718719203941317053 -0.91433224427878545537 0.86342864321439494191 0.3152880392550243549 -0.54175406545167148487 1.1922992753526362453 -0.070649859084155608446 -1.4327463851689399288;1.8344541441433015461 -1.185879359747380235 -0.84599690471413779846 -0.78227419232268324834 -0.34122626409469458686 0.30050971812594157173 -1.8526477823723268568 0.17945148477991917924 0.028775607865233594762 -0.18997466492106401814 -0.062570665011446119363 -0.5790327529670572515;-0.73015965885737532659 0.33537237016305132542 -0.71679085618426685578 -0.93139816377908013489 -0.65798130824020806262 -0.47542702053931473749 1.1370753218132749751 -1.3280208824068155948 -0.048396901751281223847 -0.77724563952587399918 1.2402264144620513964 1.019555235588909925;1.1390375759698492253 0.24447899809176126817 0.40304576830890193051 0.40277578391533819246 -0.3011453981120112422 -1.509132561121772742 0.60378922511513977156 0.20413709464165580298 0.25243137489270628393 0.51527196198641589397 -0.50429959291092940621 -0.23527493996218609706;-0.47385753734213870159 3.1675193265044887525 -1.3230439874016195478 -1.1563338349493397228 -1.553524777983965377 -0.22376952919971043743 1.5403741033206055366 -1.2108377431491530452 -0.95645291769298157458 1.3102394050493615385 0.4405310275514508489 -0.17624260460083873703;-0.37653655428918647585 0.41569361505904056653 -0.39162684795309504748 -1.2290875549012409973 -1.6110450506054279085 0.67414881244416058337 0.19397623229453436755 0.09740236351624084743 0.093596009056499451795 -0.061281172019759286296 1.0520308755440270776 0.15071040031660071223;-0.070527294231066184338 1.2220210188128683981 0.33306025093084085098 1.8224311378185100718 -0.15815959310046437403 0.3891175999928260798 -1.0638838013415412576 -1.7635333967973052527 2.4021022126681326192 -1.8552742073922037225 0.64722891172473318022 0.0088160130956717458472;-0.041887997670692081464 0.28646524946085394348 -0.29570179661452566933 0.33130832019744266281 0.41267331787317912406 -0.40143502797439561958 -1.7114578786865148885 -0.0043458019271724115939 0.41697178776934301636 -1.043497848310332321 0.76671444783845021931 1.3875225354259992372;-1.3671067153239975234 0.98336371251585319442 0.19072247755954069293 -0.3171873449264913658 1.5824975460103476443 1.272665148953977754 0.53944756814473382445 0.07367538849723229144 0.36534969450528520518 -0.073712112458385270486 -0.54410143776782193825 0.29151354364129833385;-0.070945478944427570189 -0.98311058730291889241 0.18438898779980372744 1.1347453465331853728 0.14587056476687018658 0.10883732740396412364 -3.4726995180700437338 -0.15535462671818145441 0.83763420692155665659 0.76296265228860260521 0.43765679934314921651 0.12694219193814454405;-0.61896805441221314226 -0.12599177993162824496 1.1223675299887423407 0.18359756080658279354 -1.1344408391040452511 0.57105455619782541365 -1.172872018474696576 1.9708650945801511334 0.090397131617825809968 -0.44504940962213512812 -0.038746389498143296581 -0.55506310181024764994;-0.28670649811196130541 -0.51535118594793827285 -0.75017667788926523098 -0.76351999636334011434 -3.2270121890687928357 -0.2558908781843613478 1.0667222263151145967 -0.049239397996054132256 0.052856174334919583946 -0.48277911814077084651 1.9355071469492570735 -0.61373937505357922806;-1.8161541001074892332 1.0518570876974204786 0.86687000131760616473 0.74277003539493491324 0.31003366546557170613 0.084636515851398003152 0.50252204750150819557 -0.19315765289533995408 0.03072465569946632169 0.16714664499008441423 0.28982534635269863177 0.70023967594030200878;-1.9948351363849468054 1.4787835633405479463 -0.41286196608377340178 0.18919016343322969664 -1.2980075396819830136 0.65578489092396397009 0.61786460390776065665 -0.017061528252450497423 0.59838210833191762816 0.27164162044395712137 -0.45524317576747125313 -0.3896232164899672834;0.78901579647960240482 -0.8615286716736948458 -0.65510303414700699065 -0.315295324626577389 -0.070128794395453122879 0.92887356739589888033 1.4843967351875226868 -0.41060374539267885385 -0.16513302952354913522 1.5732189665137459311 -0.094627262532875927592 -0.036305409049798016696;-0.94395027493544159114 1.039338296954450902 0.98878999245326915091 -0.19232046021533608093 -1.1570402501857428579 0.77819256013288606866 0.82430317239337369539 -0.61936594523897814391 0.23299903638814303819 -0.96421466845354575348 0.1775159593012618775 -0.39816740227222763293;3.0767378811506027603 -0.3574607180281501595 0.3326383878422763396 -0.66953509805467403826 -0.1237299188348869039 0.15807847007553890717 -1.0762856915436533889 0.035966411799409465921 -0.35439309582205991145 0.29555368924871316949 -0.014189486322286733178 -0.42134666802326192769;-0.88428191404432598954 -0.016870633050391055374 -1.1270732265736647104 -0.72797318507452735137 0.30903050703899992424 0.20738945140066816775 0.80104608153089795763 -2.2206909453831644718 1.0147843924270809612 -0.52432527557880570512 -0.012665617299202236445 -0.324948626293663001;1.0817420019202259596 0.20225486657083066588 -0.3197246284392035176 -0.84375983365614126708 2.4716320160210707435 -0.4933709589662160222 0.32650326056327727553 0.22125656007144961501 2.5831187786121043715 -0.74741056693274010581 -2.2044896498557720044 0.20098028094655412401;2.9536980367443588236 0.27914949317568582554 0.85907491782777412048 -1.0940626021950274893 0.78019600116251819344 0.10837189350075107641 -1.285181811099258109 -0.17425138078481067216 0.31686427414226819854 -0.25010866230252015718 -0.087966032736655472291 -0.46364971010946826047;0.21587770865972311096 0.28112391901356353907 -0.54620982446054167081 -0.11383939689810690377 -0.50772593038058655424 0.39795284473988140617 -0.63030669930339733309 -0.2341485392632671747 0.59965651609550307821 0.19312226172757177012 -0.89046038518929515604 0.88400276680523925954;0.2871605321613883155 -0.74784219228602488716 1.0545117206760190598 1.1719202314281993438 -0.18150136166912567148 0.20187996088529525096 1.6569674124614861555 0.11731127687199885412 -1.4485823518286933265 -0.57559562492167615222 0.42923447850768331469 0.027490964241755670716;0.34943871918363472728 2.3926447051436783298 0.36405545458819477123 -2.1448926587490868556 -0.60441692780080868985 0.055193654838483895142 -0.099611712543403077569 -0.40316895875533287352 -0.43562022439183961664 1.0247344562540117163 -0.45401120907860037512 -0.27016288791905135325;-1.166892210298406285 0.942916616241124661 0.54470672749440918192 0.14993226470239559567 -1.6909647825185571968 1.9013113257337324047 0.082590454235180674192 0.16409807778127921685 -0.16578336539627408497 0.1467342474307558875 -0.7213165697072493332 -0.78176157688222169817;0.60980051033047122377 -0.47857579923645349185 0.93889483251697292143 0.78230580599876287096 -0.02343731229235562763 -0.35002848634823563456 -1.384356876839166306 -0.64042812119826841855 0.35909112126702769086 0.27627902274705540275 1.0885164544191421321 -0.32287476011628268857];

% Layer 2
b2 = [0.66564551132066784866;-0.12193073211705433845];
LW2_1 = [0.8620620088763081279 0.51060860171616018199 0.34661271215246597377 0.13450873492050424707 0.84059524626957160542 0.53860645160175968371 0.35724004116923191443 -0.04150033721544776899 -0.10902200527529376517 0.25422417931189794649 0.021527343539855491039 -0.25687180804760517683 0.32775143383357602245 0.28056232584324913848 0.039419049187810736856 0.29519163255637792531 0.24089139117781832589 0.051045832167807891899 0.10719486118679402709 -0.010918955836215020125 0.24277116130203940658 -0.17781090193416801415 -0.091475707347572585149 0.16304845460913183763 -0.11001190993684270558 -0.44540360469386613973 -0.1157506947926736085 -0.01371450296574646191 -0.19239569456712249385 -0.2064538374853846503 0.36200887599149295104 0.39989389706499228749 -0.15046216995127595362 -0.12550449352682463422 -0.23945996904661331905 0.46805531795783328342 -0.24498529511060951336 -0.11126384765003038968 -0.20093463506449288358 -0.31188541344122411303;-1.3151114217913302262 0.71142460007920971243 -0.90417359890658699495 0.90734743238536186283 1.5337835864305293665 -1.6413686690469622143 -1.7480999395129412921 0.97051825300624083859 0.027084416532233548947 -1.2268527389587884358 -1.6413294961485436207 -0.74446548407873947006 -1.2908387586887410947 1.783044687254280003 -0.7067860876933294012 -1.1123796800082286218 -1.9509845249191088978 -1.1224500006393274276 0.87574568822618348296 1.0729299613365081978 1.2122670104732635732 1.1669931892681189023 -1.7050638304308660675 -0.81624819266726478251 1.1514083146898150822 -1.0909755670810572514 -0.78993543439974689413 -1.922518633215910544 1.0951340622671121849 -1.0024304031077624355 -1.746482691943660237 -3.6101721785926064179 -1.4485310037935661409 -0.96395845380723643725 1.5237623211930437783 -0.41900874095026158228 0.34768003473704184314 -1.3586378728895565082 1.515182389848338973 2.4364476931345362409];

% Output 1
y1_step1.ymin = -1;
y1_step1.gain = [2.00271367703238;1];
y1_step1.xoffset = [0;-1];

% ===== SIMULATION ========

% Dimensions
Q = size(x1,1); % samples

% Input 1
x1 = x1';
xp1 = mapminmax_apply(x1,x1_step1);

% Layer 1
a1 = tansig_apply(repmat(b1,1,Q) + IW1_1*xp1);

% Layer 2
a2 = repmat(b2,1,Q) + LW2_1*a1;

% Output 1
y1 = mapminmax_reverse(a2,y1_step1);
y1 = y1';
end

% ===== MODULE FUNCTIONS ========

% Map Minimum and Maximum Input Processing Function
function y = mapminmax_apply(x,settings)
y = bsxfun(@minus,x,settings.xoffset);
y = bsxfun(@times,y,settings.gain);
y = bsxfun(@plus,y,settings.ymin);
end

% Sigmoid Symmetric Transfer Function
function a = tansig_apply(n,~)
a = 2 ./ (1 + exp(-2*n)) - 1;
end

% Map Minimum and Maximum Output Reverse-Processing Function
function x = mapminmax_reverse(y,settings)
x = bsxfun(@minus,y,settings.ymin);
x = bsxfun(@rdivide,x,settings.gain);
x = bsxfun(@plus,x,settings.xoffset);
end
