function [y1] = gdNet3T40NDv3(x1)
%GDNET3T40NDV3 neural network simulation function.
%
% Auto-generated by MATLAB, 18-Aug-2021 20:18:49.
% 
% [y1] = gdNet3T40NDv3(x1) takes these arguments:
%   x = 14xQ matrix, input #1
% and returns:
%   y = 2xQ matrix, output #1
% where Q is the number of samples.

%#ok<*RPMT0>

% ===== NEURAL NETWORK CONSTANTS =====

% Input 1
x1_step1.xoffset = [0.014469;0.014929;0.016612;0.019995;0.027617;0.033082;0.040462;0.032248;0.027544;0.019775;0.016141;0.014448;0.014469;0.001797];
x1_step1.gain = [2.02936285109246;2.03031050553716;2.03378524041375;2.04080591425554;2.05680272073864;2.06842772603261;2.08433642023557;2.06664517355686;2.05664832136364;2.04034787931342;2.03281161223305;2.02931960972125;2.02936285109246;2.00451617494214];
x1_step1.ymin = -1;

% Layer 1
b1 = [10.565053619704617205;-6.4593474143387208386;-22.749730377740498;-17.793448471150057344;7.9130486566870388287;1.2387023182837193502;-1.2592491313501785744;0.24578063892699444914;11.507052964384637761;-3.3833630146765130142;6.0647032756245815577;2.6069218255340391721;1.1962851651782118179;-2.7554789622484667788;-6.8231556962031119085;8.6219197227384167803;-0.29820214274788092723;-0.90019956765073227967;-1.2975627854662341587;0.21996943512314490188;-6.5940660198366476408;14.402354167006022223;-3.5230176550842449146;4.1059782581495722908;0.92505045035059008107;2.2374055703776685178;4.5147665842493198696;-23.297504601387345247;0.56159427023359875797;7.1203618734622091679;-0.22458037135575109611;-0.26550350373512976443;-0.31646774274536221272;-8.9642936284600072128;-1.1748380251001810937;-6.2072403288924817844;0.90485100317745004173;5.5607961817962463513;-5.2715604307042154275;0.30563435233197633334];
IW1_1 = [0.47773779400854066157 4.2955623001844198683 -0.40456959141166404237 -1.2779155101489252377 1.1446743666277556795 0.51374893186776271481 4.4463709703139846496 1.548210985390954697 -0.81725311982628867646 1.7471574448161704129 -0.26185797218019113419 0.39883411068457536031 1.6521060573943622263 0.18947963446916046837;1.0256319804672051621 0.74524149939374662033 0.38415238708429938486 -2.7790969655503885427 2.6707400799720457663 -4.7707343779400099848 0.1611662783095024476 1.592819818184690206 1.5960805739796926073 0.98019844131280109423 -1.4305269071722037655 -2.1667628834353767076 1.2164110029691430626 -4.6779519893522927276;-0.60941050014368114418 -11.096769904954363994 1.1683957963453643902 0.12832499911712610952 0.35301516478047240133 -2.4834549089108617359 -0.051778193473167727356 0.51790097099388188173 -0.70704844543616729435 0.24589269756773235454 1.4692157025086400868 -15.555537277481535696 -1.9371573100715042681 -1.3579738286002156489;-1.6798604000075134657 -9.2027848832412004754 -10.139990009324128195 12.481789515414160263 0.21301180062643562674 -1.6725316393674642956 2.3947166697479871367 -0.33048772536138365519 -1.2116285532915749279 0.21347864884721731715 1.9694523275909552318 -12.718251384292639017 -1.6742539541176995055 -0.43006505387816035269;1.1381870302265242323 -3.3523838589074985705 -6.097361867375924227 5.3684836226627945521 -1.1741625579813519398 -0.88823554025167728021 -0.98869537728420520128 0.77443302152145510053 13.638213705921440777 -4.5228390587311961824 0.97035267415692261217 -1.0057258818277674539 1.8274281397011471473 -1.1015340575124237255;-2.524099451289318008 4.6784917469041369387 -1.5080902396064939097 -0.028601068155372631752 -1.8982347546518520964 1.8059374117151474337 -3.7196204649751218874 -1.6942039790694023438 -1.3723688705148247013 -4.8870563453454538561 -1.1953541791164397079 0.63717724014679488764 -1.275293678138704756 -0.74930510721143062103;-0.53041688229634842422 -1.4503987636046926646 -2.3389194885663049384 1.4255580728879071462 -0.83814592875425852903 -1.6950697950211095488 5.8654881977417190342 -2.6275326328725028269 -0.77120090534661434045 -1.0681981724723526028 -0.66996237138587444448 -0.65445628015726153848 -0.45861593388141025374 0.16920895846327410617;-1.0692488380290141592 -2.2260828706516151421 0.44451207556746658023 0.42950227575643618039 0.13138228579181557287 -0.44709471240337717024 0.55787993172401051378 -0.20654578221172198438 -0.14741248272378323914 -1.3790099542760447804 1.8062901749356883307 0.70901749817183878921 0.36061734579269644207 -0.23618765937468313987;-1.6605300573617711724 5.2169384212521956456 1.4659430866053777542 -8.0545706034998616474 6.2056033198111615334 3.8384534873266709099 12.749458807419514983 0.8290444155033782625 -0.58230007502186775792 3.2386564299544837731 0.88970205552036119023 -2.7076374385070129946 -2.2570125076249949458 -0.49313396106142365349;2.3962343375045005445 -4.6804020474160008547 0.1624559970139099474 0.36508301292767608714 -3.5540971934508269747 -3.5602284722200310263 0.75267725513247241143 -1.8454389830433639563 0.72634514494346191782 -0.21388101464236922156 -1.0693498019940976818 -0.52791275369240686643 1.7905319132813519722 -0.02032482922228953659;2.472109162366571411 4.2652355445326337602 -0.49993863331313087572 -5.346683185482772771 3.3723675551504936898 -2.0705438040481269901 3.8273193509026603998 1.4943195141087819433 2.678116760879079461 3.7119852499425380898 0.83907454171564288536 1.6088256309332462646 1.7132499830099372495 0.022165990129093163241;-9.8734086295228618013 17.116681686464939816 5.3718044946679235352 -0.92529512026781779443 0.2856626734328829853 -0.075257195367904816674 -0.62239411056107207809 0.048625297356451872843 0.35636082017038600567 -0.97274222443715951947 0.37387653047604108014 0.97213586911346072661 -9.3720690813143487929 -0.085899844492353855108;0.45190689175182457982 -0.48749849995346283826 -1.1218825332817514706 1.3023224129969692697 -0.48545037433196008836 -0.87259786460022448207 0.76645498419308344396 -0.4699252297228782016 -0.33700178732728336417 -1.0166685489756135397 -0.24764052926682514344 0.33462224131960238704 1.2017532271054904847 -0.38354012377553897695;-1.1555722140195585634 5.1376102705008692695 3.3719419186669528088 -2.2701615036245836876 0.15861925154814143779 -1.0264896809193897464 0.73237648594805559998 0.041173653841733603986 -0.60860160044780575728 0.53591371332400494776 -0.90940953371451360709 -2.3189122605389327347 -2.3924909413704584793 0.37619576212156974337;-6.8478969355094152505 -0.20533538990291227977 -1.7509463517133450061 7.3960253750707432019 0.90333355855159092052 -2.8803650719550639714 2.1850594412424504398 3.6330416248214811858 8.7652278139126256207 -16.852588631259212804 2.9086101020472399092 2.7634613516242456654 -7.2368244255112115226 0.22938094302042039141;1.9069571496633908048 -1.0897778606995296435 1.4716408562267664362 -2.7080820774858098687 -0.4246730404310747331 -5.5011944271346315816 7.0201110154559946963 0.13606377209128431294 0.33240746933753667625 7.0030572097568324352 1.6354318958552844787 0.87485846726704963316 2.5802549026369367979 -0.46342806133335917584;-0.00084890110799800593336 1.9761348084040237794 -0.050248957041873952567 0.20832555948171679883 0.29719982268818478932 -0.32256769395138146228 0.00024104065665654303419 0.026057160339916972391 0.20414910999195537422 1.1323893180863273678 -2.0692414810364119226 -0.51927431111591237922 -0.61274186678387021487 0.19892154824943861224;0.081074941191055599488 -0.058420360860476597265 -0.15181777930776033103 0.0142159892079404028 -0.011604596859969144515 -0.18193852105198426994 0.040190037489473855181 -0.015319277277676335985 -0.07308985569638268287 0.11052512955786479576 -0.10933618054065623315 -0.10706426547751023148 -0.027395788951373140768 1.4649978654871851358;-0.7015210690540603089 0.79730036718446284372 0.95772381380635396297 -0.26391999912668256956 0.76076663079559991854 4.2745807829289752533 -2.427911103268425741 -1.8206220908294943328 1.832001404347939344 -0.77694910238692116433 1.3293270251138469273 -4.8744241849575331571 0.030216598626210122713 0.22049825107439402494;-0.11754080015181027352 0.42099192296986437389 -0.98451204583379836599 -0.004906007996208598676 0.47957660146540298518 -1.7073511558039571323 0.14073061109252898992 -0.19064842195007108971 -0.97680253711262043925 0.052314143335975962779 -1.1575155415042031049 1.6099120005755755969 -0.21585993349572521471 -0.21347951134374321125;-3.3888420817870987811 4.1029258617984778468 0.005639029082757957001 -0.69309506742312854133 2.4936920004263876116 -4.6563584213712756465 5.1907946439687444595 -7.6752019125349733031 -0.52764214851579327448 -0.4600044599639236953 0.28058227920645117948 -1.7459721756479285037 -3.8562679778679389564 -0.062878880219015220732;2.2813349504125608469 12.308880274947599176 -0.60717540948087567187 -9.2611473278757525662 10.675429594788516496 -3.332803242255775622 3.9553050343741937844 -0.28696916619282214489 6.4240305475645822497 -1.5768285528846532895 1.0884568833974865854 0.13145341271128579974 3.0120528753662156873 1.591286857524477627;0.13197823439219863451 6.1379028949679517169 -8.9034056995470614027 0.15330588880468257185 -0.53391811271314437715 -6.2691575155942862452 1.6468421118567311279 1.3666132736845590934 -6.7757483793017794227 3.2357379142673448058 -1.1454566686312972479 -0.64804312278064146735 0.175937419885985602 -1.6575427179510004994;4.4392022830490365237 -2.6980032690299644571 -2.4388372543115095503 -2.039468120402162743 -0.85639763575151428565 5.3665884434203947606 -3.8399573772779138636 -4.2028363608244854177 -0.84077405038433528084 0.35252725609064328172 -1.2616547179163446479 5.0771237754946554332 3.2268463958066213593 0.56938487725781117277;0.68181790541889120139 -2.891532508397576251 -0.10399785803239616766 -0.52455553456214631947 -0.33919945542870783006 0.15133035949815110133 -0.29426952455085830795 1.1088933335006603276 -1.0218478609947638791 0.90968023999627412035 -1.0727438808263580761 2.7671870972329002392 0.77719360855956731715 -0.19423281710797213329;-0.57137770882245730864 -0.73208412940851719242 -0.3665802632766296254 0.61563826924677211849 0.85932976754856538193 -0.46691821520825183001 4.9026822101329647907 0.10070471842284905994 -0.68097563983959730205 -0.35484262295523816277 -0.059149566580336883359 0.10920355896923387984 -0.65151241606515719607 0.23134320493517512851;3.3878679841527912231 -4.7770790823733779717 0.23972441693895257808 1.5428534548640717716 -1.3789001960596574126 -3.5271615887883984719 6.2736659651140307403 1.7321788349982358834 0.40187595187328684077 4.8183355195987678243 0.53970182922468856734 -1.2432849379951762536 3.622423438981709598 0.24441365781928117706;-0.47785166038366155838 -3.6689383509753734636 -0.51701434227725961978 -1.0424469150970854248 -3.5095982819308302325 0.96872910720239346904 -5.0039620392822730111 -2.5544072082560504988 1.5934961354454038052 -3.1158861243875612956 -1.1741375932074731292 -13.911587058064643685 -0.54368415685379445357 -4.9295054405080502846;0.80064139130516165377 -0.53841622030648195185 -1.4882904443265267957 1.4697370230092334786 -0.47361054396395640964 -0.75429622815363661648 1.1912793018215521723 -0.89057139527545037261 -0.41261431054376390692 -1.4190760702815070626 -0.35485409161749109641 0.43223311696210015009 -0.068351688950321898286 -0.48106365215258467538;2.4076475837861828211 7.2513607381284606035 -3.5151273148580628458 -4.1298297938662233975 0.13291845957972142633 1.5406867449212373611 -2.7043812271285596616 -0.94195885695108882985 -0.94488760653984338322 0.97869297829496715302 1.1530326554712162501 2.8102977456651365706 2.5445861256921395999 -0.27015391545922723404;-0.024916474288281281746 -0.13256750449972914963 -0.19110040318208251775 -0.6576134600320414636 0.29638660469734184888 -2.8606878577303267441 0.37709704589969261779 1.2768162066127148879 -0.56426538887247712495 -0.52901644232886868568 -1.1876262608287515565 3.8532492111929377288 0.48408743524724817675 -0.041090429871415916352;0.40953017674882075116 0.90694901310203024369 -0.9859933857487445108 5.0070101902615400391 -4.2592716044886378413 -3.4202484167160989159 -0.54763516358758679292 0.66760456573964366278 -0.98422038612338558217 -0.59267750100183513862 0.75446488576147430205 0.16785960368057292746 0.047315191992264409027 0.18522648628633181511;-0.45974099665831247297 -0.077988127938839010844 1.4976738520600452187 -0.26499115830348229927 -0.12290894201395230478 -0.68269136520462225803 0.063342342979350374499 0.98776114090410771507 0.71801946511173031507 1.3288552478604298557 0.59291583829855665222 -0.94215880052093348151 0.81708404747413077018 0.36510788130535909435;-4.7102429327079731181 -0.61874787719953627807 -0.27132064691466944995 0.65960133793768882526 -2.0363050884064919366 4.3632629345614315497 -0.21666925980819831676 -0.66249310000795347264 -5.6216615786244155117 -10.184155659187444698 10.619774593343784375 0.32758902934484868119 -3.6462259288449780925 0.26478208074956305351;-0.24615238613794823697 0.74754517056952396459 1.0990563682368597043 -0.42305457499646975661 0.96016659236433132829 4.3268066880962496867 -2.5678385463035215963 -1.7887435466896697278 1.8467984992323169813 -0.78567919078391712517 1.3262078624357278578 -4.8876574969907640167 -0.4351777971840504744 0.20352754812266962703;-3.8351267547216840725 -0.30682922310403637489 0.30965277610568942013 0.29366230203330595527 0.16512787767215134083 0.1520401588281198868 0.65116963880854528135 0.31462985532920251242 0.35436057143128107949 0.2088791581895152738 0.28186004532739916684 -0.59689928976771722269 -2.8004943254425529453 -0.017180496608194765346;0.2382190026075429734 4.2080063258312945251 -2.876654847848742147 0.19935850644907460172 0.2910242491410174881 3.2810278391458718161 0.38593981238641811293 0.092293100900374430706 0.15233938783466191569 5.7041370493029663891 2.0812875193797117923 -8.7618961085620767903 0.31380734719788222487 0.57159907740486204375;2.2787987992035825258 0.90012103109829921799 -3.4840747760245327491 0.38761453592563405168 -1.612112856554602569 2.9319259102900274705 -3.771290827311646332 3.7095707726789801661 3.8726757990145732613 -1.3938575922030811416 1.8053452725016496672 0.40918305286318440439 1.7846970203738503624 0.16391461275926702545;-0.47080746871904843864 -0.015160641813184175253 -4.1726228269108274205 -1.6362892133932445127 0.53922061323107972619 0.21263841123684779078 1.7291651332082178527 0.23831744157717396626 1.395629778854491132 0.21577742306694747132 1.2230355059937121354 -1.5464166364623017635 0.54808749704949588644 -0.038496431165392627771;0.081734318074762876694 0.02707976267536633258 0.22029668434733531979 0.55989077622033189829 -0.1751192895418512141 2.8929350712153727443 -0.34556170020037069168 -1.3149087573596784928 0.65812077066338003917 0.40849479134734095753 1.1643994097417340594 -3.6772475486247984122 -0.49191593217622797685 0.024754249127000842873];

% Layer 2
b2 = [-0.35639522367635995126;0.57376839467971985087];
LW2_1 = [0.51571344368578087014 0.20665888929197986923 0.19123074148787086446 -0.19132265042441812253 -0.24987953428679540724 -0.38667536903498767042 0.42104139764880793573 1.2399472967360558595 0.12177688629871044612 0.16927877690284623413 0.20240227517490744225 0.35476452893836751823 2.220764322762214249 -0.56046892972257844612 0.14925064082123859488 0.22344687871807111801 1.4930579754789139457 0.01154844845580069862 4.3501504492638574106 -0.89138733081414700532 0.32212612080905039802 0.13151611790138073577 0.14466014202296095803 -0.18674967046184948183 0.98181143944929583078 -0.59805087734487138995 -0.25860343012445285993 -0.10946145934337200845 -2.6577013934344688728 0.28294947947450521664 6.2854721630467249582 0.35808326927178951715 -1.2477632535137828107 0.21837185213360929548 -4.1661309059011255584 1.2623426764591720861 0.28148620539060587031 0.32921454120431692392 -0.59875688853458053362 6.3640612129250584417;0.053939076270706168281 -0.55895785887135773784 0.12046957460088926484 -0.0066344510707792153648 -0.026332287304928883587 0.0043258307878001221389 -0.041416709035574136855 0.051619109304969268415 -0.017224194059250155092 0.0062498956495037494979 0.030940671675709859045 0.023093442466687895409 0.1053178046142769636 -0.021186899985123745088 -0.0012174290544956221146 -0.0048675874724301015917 0.049278514165640982525 1.0661827636904317451 0.51427255652881387338 -0.080467892419498462941 -0.0047321615858779133776 0.0047405757836209505909 -0.010490434555233157932 -0.016370438269436002332 0.033100382680602696839 0.0049680632048670816253 -0.022407403244271654336 0.73020840670648845538 -0.1521831268822070593 0.019751083022876321504 0.61053981382986421966 0.010872270146273003977 -0.15994703422529876757 0.0012428473506995512624 -0.5154344514920563558 0.070236094332315118782 0.027240684698918875284 -0.0090147482371998651635 -0.024092367614395277658 0.60584310094168569716];

% Output 1
y1_step1.ymin = -1;
y1_step1.gain = [1;2];
y1_step1.xoffset = [-1;0];

% ===== SIMULATION ========

% Dimensions
Q = size(x1,2); % samples

% Input 1
xp1 = mapminmax_apply(x1,x1_step1);

% Layer 1
a1 = tansig_apply(repmat(b1,1,Q) + IW1_1*xp1);

% Layer 2
a2 = repmat(b2,1,Q) + LW2_1*a1;

% Output 1
y1 = mapminmax_reverse(a2,y1_step1);
end

% ===== MODULE FUNCTIONS ========

% Map Minimum and Maximum Input Processing Function
function y = mapminmax_apply(x,settings)
  y = bsxfun(@minus,x,settings.xoffset);
  y = bsxfun(@times,y,settings.gain);
  y = bsxfun(@plus,y,settings.ymin);
end

% Sigmoid Symmetric Transfer Function
function a = tansig_apply(n,~)
  a = 2 ./ (1 + exp(-2*n)) - 1;
end

% Map Minimum and Maximum Output Reverse-Processing Function
function x = mapminmax_reverse(y,settings)
  x = bsxfun(@minus,y,settings.ymin);
  x = bsxfun(@rdivide,x,settings.gain);
  x = bsxfun(@plus,x,settings.xoffset);
end
