function [y1] = gdNetT1N40D(x1)
%MYNEURALNETWORKFUNCTION neural network simulation function.
%
% Auto-generated by MATLAB, 12-Aug-2021 21:57:15.
%
% [y1] = myNeuralNetworkFunction(x1) takes these arguments:
%   x = Qx14 matrix, input #1
% and returns:
%   y = Qx2 matrix, output #1
% where Q is the number of samples.

%#ok<*RPMT0>

% ===== NEURAL NETWORK CONSTANTS =====

% Input 1
x1_step1.xoffset = [0.014928;0.015425;0.017231;0.021103;0.027804;0.034437;0.04709;0.03412;0.027544;0.019775;0.016141;0.014448;0.014928;0.011211];
x1_step1.gain = [2.03030844445888;2.03133331640556;2.03506622614266;2.04311587429525;2.05719834272102;2.07133040516258;2.09883409765875;2.07065059841802;2.05664832136364;2.04034787931342;2.03281161223305;7.91323924491871;2.03030844445888;2.0236094514703];
x1_step1.ymin = -1;

% Layer 1
b1 = [-0.14262985953856874288;-2.2838817375231448281;7.8988757240370341961;0.7516940340262012743;6.196474021556684697;-2.493854770424110967;-3.3734019509780019952;0.063631867749440240711;4.3630797052759033861;-0.72892900956373885002;1.2559557462782471315;-3.9705786896754680093;-3.2379296818434992744;2.9490910451026013384;-0.31957199849441658701;1.6021858573123837211;0.5460059801451385697;-1.6858394100049747255;0.39787732547455079146;-1.1023941380513326838;2.4654991047345191646;1.8041222531717124866;1.7265188565885909444;2.0343228949595526522;-2.4744400258921745994;3.6210914781801477602;-2.4116216110858696986;1.910244262441313623;2.6488068219918563528;-0.58888636571813346432;-5.1632892355557959974;-3.468189715576476928;3.9468639718352509504;-1.1714231271685209279;2.0564508857240584305;0.79334459996271666782;-3.0654468324586612304;5.5958295460791935838;-2.9003484823559828598;-2.1202059833159823121];
IW1_1 = [-1.2645522953224510587 -1.3188315542028488103 0.26060042132301475259 -0.86323004273509840178 1.3340749990126623548 0.10459487859065765003 -0.8792472434499777334 0.92028118982740847454 -0.84782599225008470345 1.0597957269510536182 0.83174518024981591857 0.54207037731738016983 -0.18239536929450944625 1.4472457369673856764;0.13685206946279548923 0.094059170914420550669 -0.058576996703449048243 0.98211528365245370775 0.97911223216395670832 -0.99448606585990351192 -1.485143572936123757 -1.2145145062537887615 2.5072289128486175969 -0.03533599762413557055 -0.043333018630690285644 2.1976830530938786801 -0.56628760812717571227 -3.1586305530912652806;-0.034452409962799676602 2.3487090094630556081 2.044498987714571836 2.1919985129610544128 1.5592167796493809906 -0.66136370720470194495 -3.3114642425670561821 -2.0667607022566412134 0.52342493846057902562 -0.4288118415695845731 -1.7236219692652969826 2.5718039625116966285 0.57603685260899895049 -0.028320861908562013076;-0.036829510827588091137 0.83646325338694560436 -0.82510864063601352392 -1.0027914574310821116 -0.91352745868704943177 0.91055670797333410071 0.073968370207250944137 -0.033954525788475298231 -0.89325805803245106329 -0.18625951555774411528 -0.058435311769860796838 -0.17264027670560250227 0.31390559299237519308 1.0283009996260534802;-0.19203377163508034142 2.318442540982898592 2.7693763414798904243 2.3120649395683279259 1.5992330629845412648 -0.66385909685175426009 -3.476192046301862959 -2.1677485191038528001 0.3025792599157506868 0.32538421925509392052 -1.2198978682390066997 2.4603107652295008734 0.68001766749284886515 3.2211916300859613216;0.35743118936750623016 0.52180905808035182858 0.61820244020759584913 2.1474990482971270112 -6.072559596699973028 2.1921922840903067531 0.0066103209702237306078 -2.3195778239786419839 1.5826251135946434179 -0.065092571427094805814 -0.37025231757960458401 1.4475229522914621061 -0.63233827245627582947 -3.5057236329493686178;1.2956403667589149187 -0.081979873312392967377 0.66759120393201587529 0.75442912504033310395 -0.088310774148752629875 0.74181371644494709106 0.76185731394722544518 -0.99082140376197647136 0.88321492585644179041 -3.9999632217109097887 -2.9505581792673964969 0.95839891129084520127 0.099616394623087661797 -1.578804943797890159;-1.0614906390306813044 -0.90460196839960360649 -1.0018393443928994557 0.49213388315711836807 -1.8998059179834023702 2.1043765372012956938 0.9405677966417166358 -0.25903041043717695002 -0.13104404072915637469 -0.59115340222415924121 -0.15543781063273687248 -0.013987726944211048563 -1.1700381466417355547 0.42699970627150690694;-0.57966195683939125693 1.8537536557006506488 0.69497227177192932857 0.94072171742571486508 0.13295779168668928061 -1.2961265613605930103 0.50933803106801045502 4.0658197584284518911 -0.19091303161021228041 -0.051085996648014081467 -0.41460897047336942034 -0.45528639668297427034 -0.5993461107898594431 -0.14761106677506877216;-1.1806995812582332661 1.8586284812821771695 -1.0076163928796078029 -0.36098336096671529427 -1.016642024897250085 -2.1585966629070805212 0.27976669970029788281 -1.6531195037589427876 2.2376043779496650465 0.74841655139931995144 -1.8350107818057903586 -1.425561787336342201 0.3197325561717081488 -1.1468747357372219842;0.45799690408797355534 -0.58426790191936384122 -1.2907644836278682199 -0.71855662639188278007 -0.23480116383413207615 1.494322475093866176 -0.52083127690748420857 2.0242130617653901759 0.44567911200795878868 2.6437785586919075875 -1.9585284342958559911 -1.076954307295136859 0.44469268328555516812 -0.72292605752062355506;0.52388877206898676331 2.2613847412981749052 -6.4648705530666648045 -2.5399191612308356092 0.72350171992148426536 0.33616574194261644726 -1.8766617924444859433 -0.3409213873408443729 -4.2765138398238162765 -2.9471740421280974154 -0.22346318696840278273 0.8088162619529634112 0.75580695138070796979 -3.0904464162897018475;0.83391281900026281715 -2.136466943486708292 0.069567729765009356235 -0.45644823699613051859 -2.8974109809935404414 0.72095972736220637067 0.17282744765400809284 -1.6395731841429006526 0.83804246108621227584 1.4208101991342099168 0.28243151934787547042 -1.0384734351456212931 0.50194512948583680512 0.14988319302318459103;-0.90746562449079148927 0.84496914083898044812 -0.1861425075006719887 0.26508047526466277377 3.84661634012845699 -0.39579947832120254692 -0.2417709953106135512 2.432365691147815312 -1.2775448710363273008 -0.0092174247384668936411 -0.31754050142102985266 0.93174197256353852303 -1.0293371109012281472 0.098589188078336900678;-0.40813821174807540793 0.42944787452105004366 0.44759103854534965095 0.80177931457508899715 0.7303366088604217321 -1.8135813060604175639 0.51855076385088738622 -2.6551650499459626964 0.51980228979876452744 -0.99277184338183177559 0.69765659426006498833 0.50413278899729674354 -0.10022786313735876362 -0.34652162460494662088;-0.60640905562346858471 -0.58557043430854438526 1.6561818768238800725 0.59282746118868834273 0.75858065187629408754 0.83108192516469414635 0.087197620782335394374 0.30748778308284030469 -0.78986595957072758267 -1.8286525743326744742 3.1042071179800685421 1.2227550159321896039 -0.6015282525394002322 0.28950216457285493643;1.2863145783058489435 -0.30892979063235614934 -1.5805303811133333269 -2.398560016122474714 -0.86160995396861905782 0.56739754976615819348 0.42911332391882089921 -1.0772414282881963565 -0.73895594332236702595 3.5045462270259681858 2.1261794398083737612 -2.7743252523345920402 0.16316841555401778718 0.97980009211192131691;0.83818375963541591478 1.3266590434401404064 0.22008187805974452345 -0.60224836649910207242 1.0732711527513758565 0.60028503381131326222 0.76410001563178742146 -2.4633270618892417758 1.6666084148261131048 0.068226361770968593778 -2.4195959933984338974 2.9984805505769611678 0.68838774905904487333 1.1527505609770887229;-0.38242085778910228644 -0.23683916547262034991 -0.85061743028520897525 -0.13043930518612506519 0.36991780728367512632 -1.1005799885079765588 -0.43012494450172722438 -0.75443260740342699133 0.25946797957477513163 0.62857458183171766031 -1.476378642019579468 -0.058212301696293052011 0.67203906250069034289 -0.79272218849000675167;2.9757740130945382617 -4.0405586201408727476 -1.2709583000225150862 0.79166389800416514522 0.59209333583814294233 0.066733207234291103127 0.84249953793063003804 0.26366353096149319768 -0.46148638403394681706 0.60128279656014738119 -0.58808126195835330741 0.84564380917920511926 3.1778284969250365499 2.6343575663291609601;-0.49641865022587211564 -0.15192967539591459292 0.27337077643777307756 0.092005324591844489523 0.27778081534026116683 -0.92147177114051348479 0.4171695435270636465 2.7056493076788621366 0.33587233419088963204 0.73040520607071912629 -0.89431345623537261691 -0.57124201663202434087 -0.39279566082287009632 -0.70652045451957079525;1.0381861814029271773 1.3921436345823696712 -0.8812837061755804946 2.1009090587668097783 0.082032501416574449271 1.059947155517388051 -1.335967682333352835 -0.55029670029732602465 0.09616570139103923498 1.1927830351787651608 -1.4327262434733005758 1.8967375595709650149 1.1652478814524771522 -1.9482177567012082253;1.1637113561158720643 1.0690721202992725658 -0.62558473251438873053 2.3756487446518321782 1.0515275616076849019 0.70421190892356455571 0.35447854364612263467 -4.6048319952952878609 1.1352018672551813516 0.96474779058384096952 -0.097521193167719261163 1.8209896039614623664 1.0343813338065701579 -2.6902809904379947348;2.3019547364132084688 0.67479273931211869453 -2.0213373988383005475 -1.8489229256386108258 -1.260433115341638155 -0.97138898342242741002 -0.82416581606452854469 -1.116142127253155758 -2.4192524207541934445 -0.42126571865855483301 -1.2214720389955235902 -1.8010530128923751825 1.6195003320183427586 -1.6689145816631500985;-0.55338223151153587143 4.2049533478903144967 -1.8684478045377066469 -0.50228480953272824916 -1.2474375880916335202 0.22988800872128023478 0.09922917272837397662 -3.3196968163576667799 4.235190403810294768 -4.9286634628667949087 -0.32944261347416625707 1.4847499140390307826 -1.3875380654877220721 -0.39663386935951217005;-1.8487619277133005014 -1.7145945410485090576 0.015037438492572170745 0.84985352469557040589 -0.26337033391190184384 -1.5737296413756880487 0.11429297254018706831 -0.39030527648186741363 2.4144216400722648963 2.6275460011692666207 1.3675155976181314621 -2.2269371271601583473 -2.0544738250225687004 -2.4744912551913906817;-1.138960900504653484 -0.72773200353855460598 -0.34407230239503983071 -1.5219247471748786893 0.58092080655484468199 1.1597973017740961232 -1.4752662458347505225 0.83329642344644816454 -2.0846391841453222327 1.1456074889881955325 -1.0000833927033636606 1.1806282288706502204 -0.85299646782090576824 -0.8835027002806300489;-0.56291458802149740848 1.4554783189500042351 -0.83695322313683162552 -0.90871471166326922564 -0.20914901894017889905 -0.94803091682812090646 2.0578541948523052518 0.31098745777193093076 -0.52830211502603852125 2.8858106458835068864 2.8178569161329418691 -0.5296131037980846834 -0.39449121428699773784 1.1319485963321718192;1.669680620647573166 2.4648226189644213413 -2.8473816388350829953 2.3279509792611396968 -1.3166548959214317005 1.1720579893500879809 0.49350904693409530788 1.5824570626746041757 1.296886273526302702 -0.32386546460397092062 1.3858991951977237544 0.26234579043026562406 1.198098404549232221 1.5073891969405792679;0.42532650038898667244 -0.77711279597330285007 -1.1448274286624873231 -1.2523318235824287825 -1.2501971402669418421 -1.2719561020527110351 0.83274096833768040948 -3.1083543371680679712 0.92265723809764177421 -5.1162964741268268654 1.0748323396087504644 0.70007503305695306661 -0.33229329577572463972 -3.7508522679023541535;-2.5308797677265011394 1.5810080787449372064 0.64127048833037214592 3.9161782103761151319 -1.9872287345109547196 1.2177932087067124822 1.0481311117302323233 1.457812461079526889 -0.2278335151615387133 -1.8878491850703698063 0.90618966074294104995 0.34622823604680702525 -2.5135443995712436482 4.6837478528333980066;-0.69517466219994361598 0.67595401968669288628 -1.7424847414564286208 0.94768977656679298516 0.69392362849979472017 0.74650687908695656514 -0.31295614599324506067 0.48042298095193108898 -0.14297352568925605909 1.9148678705599688765 1.6876882790617575569 -0.24902392655691032997 0.20149591425777618747 4.9666175848448101959;-0.41907496647096592612 -4.4125869770971979378 1.9568177698878748139 4.5260735149606770023 -1.7363742872485832258 4.4007573958166750216 0.41426392276215479038 6.0789861626329448896 -7.335048772524912053 4.6912873345303731654 -1.319977753287929545 -0.14628642971839919684 -1.3678597899213669198 -0.4095038299628549483;-0.55326437342258005803 1.9466628198953195295 -0.30233597992218408379 -2.7489249085850011589 0.69336265906752414523 -0.98273481493956504895 -1.0131992357335635191 1.8722596374196276425 -0.031685114549398013528 2.035210186874115923 0.90009858168364031972 0.61653918589292644459 -0.051009967598222412388 1.8392468574480955734;0.88088133655330813632 0.25204865854165159345 -0.24048303749207897151 -0.40574552576732747511 1.3662533542929218289 -1.0143719932583252774 -0.0070693144906768118352 -0.67538836093727006027 0.222578433204704218 2.2942952463154631104 -1.7573064710740333716 -0.97298011960500929707 0.50896213094818787415 -0.9839636880502901084;-0.20075738042659946325 -0.3104922895014936568 -1.537723121308565366 0.4750642139605497638 0.063876812653068437697 -1.8955021388442707675 -0.061307172906159002057 -0.59479865809982035429 2.4524975689297900949 2.1237322087634260548 -1.6828681849432869377 -0.31538403240383822146 -0.84523794206198921142 0.54280731175891283602;-3.2828396103265209405 -0.46375757047622323537 3.0449144257257145796 0.3087065772785593798 0.33514385833334908726 -1.3735248939145685565 -1.8408781776576008671 2.4307002862710458402 -1.5384741988974177662 1.024228459569329841 0.2562441390586083223 0.30116374983325799874 -2.9099464952324916034 -0.022864261723142563498;0.41990412914108721232 -0.3214919103638085307 -0.53555764611851430779 2.3655827849653068284 1.2701625376338263607 -0.1668479964013659389 -0.36553614783878107808 1.9938583655335844202 -0.67189965880426860689 -0.02827785148896572176 -0.46325774327862945245 0.94693054149196853597 -0.43560011281498067781 -1.9583009956237200644;-0.86985719393229277152 0.62007904598112761896 -0.33020032148949951534 0.25527458261909968806 -0.18849750900282843946 -1.2081447365474649036 0.6680721099705485555 -2.7551665335010313562 -0.9160004046310811221 -1.7888229209473065495 3.9210603586366050699 -0.098362634035000673371 -0.089491466230950236782 0.46377022196966327661;-2.6354681049307586704 -1.4167277715775008495 2.2065646049009917107 1.7814564376879029606 1.3808619727024951107 1.9833548786586707724 0.061031993333417161596 1.4065930263884771634 2.5435040114140643475 0.40825759959646007458 0.82164027560497976399 1.9186126005991921417 -2.1538678206395238668 0.38944739643175146915];

% Layer 2
b2 = [-0.038385166171757210962;-0.060249999028791662026];
LW2_1 = [2.2336665477518091727 0.59764418196530200156 -0.056877459733975510581 1.3342927837613858255 -0.10253301486032453949 -0.65197233986091984725 1.9519709636087674287 -1.55857211559540354 -1.927803002556116807 -0.84853338062787997398 -1.685384688918709406 -0.51554700292497679381 -2.6083916886811637781 -3.3931570405960833625 -1.6893499842767867314 -1.8345588331085751488 -0.95486212014392601866 -1.390190493944941208 -2.9400077531525163899 -0.87253428174252489757 3.1335734325935109545 3.3110223558775873087 -2.4439868646094935478 -4.2360463667080860972 0.57970420165526892475 -1.5648236221098621446 0.56892327167205891669 0.42815946782274755256 -1.1729831387732454484 0.60918109456338775942 0.43274182674024636031 1.3678593360780266774 0.60667128792781332969 0.57002499475961387887 1.1964007655416106779 1.7345925309357752564 -0.58017375862962683453 4.028636452670983914 1.7959118687707222861 -3.3804198831111511581;-0.091091355584451985661 -2.0663290257564814745 -1.374061724124854722 0.15362638947745288487 1.3311212350439485252 1.1905811618081179049 0.0060018626394620980258 -0.035547419266264104754 -0.0094093641714811764032 -0.027733716133985550356 0.018565650997686210938 0.0090034533147560266014 -0.0041546677282226782482 -0.040778457882216137542 0.031358609724177283207 0.0074748222123235570635 0.010498526992578064224 -0.012282006460971137823 0.062662319930585463901 -0.022976468883143204291 0.058412355687165053164 -0.065551608127140795212 0.066192966397427943637 -0.18542763126621308878 0.030037146409485730725 0.00074161253350339857715 -0.035844417398029647381 -0.014426996130294050813 -0.0284053707527979378 -0.022480912234533623889 -0.011730430321601479846 0.031340323303682256217 0.031460786259702465395 0.025862073885518629957 -0.023191251302143375823 -0.034931861633400784761 -0.0047804316382327625631 0.21744602632472651016 -0.0015179488594219694379 -0.14622037821040112515];

% Output 1
y1_step1.ymin = -1;
y1_step1.gain = [1;2];
y1_step1.xoffset = [-1;0];

% ===== SIMULATION ========

% Dimensions
Q = size(x1,1); % samples

% Input 1
x1 = x1';
xp1 = mapminmax_apply(x1,x1_step1);

% Layer 1
a1 = tansig_apply(repmat(b1,1,Q) + IW1_1*xp1);

% Layer 2
a2 = repmat(b2,1,Q) + LW2_1*a1;

% Output 1
y1 = mapminmax_reverse(a2,y1_step1);
y1 = y1';
end

% ===== MODULE FUNCTIONS ========

% Map Minimum and Maximum Input Processing Function
function y = mapminmax_apply(x,settings)
y = bsxfun(@minus,x,settings.xoffset);
y = bsxfun(@times,y,settings.gain);
y = bsxfun(@plus,y,settings.ymin);
end

% Sigmoid Symmetric Transfer Function
function a = tansig_apply(n,~)
a = 2 ./ (1 + exp(-2*n)) - 1;
end

% Map Minimum and Maximum Output Reverse-Processing Function
function x = mapminmax_reverse(y,settings)
x = bsxfun(@minus,y,settings.ymin);
x = bsxfun(@rdivide,x,settings.gain);
x = bsxfun(@plus,x,settings.xoffset);
end
