function [y1] = gdNet_1_20(x1)
%MYNEURALNETWORKFUNCTION neural network simulation function.
%
% Auto-generated by MATLAB, 09-Jul-2021 01:48:37.
%
% [y1] = myNeuralNetworkFunction(x1) takes these arguments:
%   x = Qx12 matrix, input #1
% and returns:
%   y = Qx2 matrix, output #1
% where Q is the number of samples.

%#ok<*RPMT0>

% ===== NEURAL NETWORK CONSTANTS =====

% Input 1
x1_step1.xoffset = [-0.011749;-0.011132;-0.009377;-0.005719;0.001818;0.006589;0.015282;0.006926;0.00169;-0.006698;-0.010773;-0.012656];
x1_step1.gain = [10.7493362284879;1.97798111423632;1.98142022257293;1.9886270419471;2.00364262228732;2.01326540575854;2.03103832772428;2.01394860805942;2.00338572186996;2.09197143203812;2.25265559936971;2.4634637532102];
x1_step1.ymin = -1;

% Layer 1
b1 = [-4.1249325226583906101;1.3441151432609479421;-0.57602045388827805006;0.55800396521198425415;2.0241512147567930491;0.41474128290107020733;-1.1442224082409848673;-0.39959577557684067273;1.6438359050944832962;-2.0610370948854099815;0.66443772719347560241;0.73000274760205907665;-1.6217552347616457364;-0.02655199355366533176;0.18462080885332948776;-3.4328023854989981878;3.7032195139739334522;-3.1408555814948901919;-1.3120285131930506939;-1.0091737745959181716];
IW1_1 = [-0.94374617245470637794 -0.83634639146854050651 1.0986115386841948105 0.2538121415869662445 -1.0759519801937404981 0.1182308919399569086 -1.6113446193170390952 -2.0356343314738984951 0.11894321527670848049 -0.24840925394134166782 0.238609093460219579 -0.96084025788127414014;-0.40152122603266465761 1.4160721160086671144 -0.6731934714420960697 -0.60194583042676574891 -0.073076272506269482343 -0.29229279241739070105 -0.11003266754694848717 0.20422427431976691858 1.1930113791422658487 -0.52099307474627831738 -1.8117071509868190038 1.6519309572114893037;0.27328317791373907264 0.91187724761055055644 0.60328602915275941765 0.35700898542589443174 -0.40704672468070579594 0.72961668290947345739 0.33331839760776282855 0.67853936020207050728 -0.088498197183188326287 -0.8790851380707205287 -0.64440426703594155811 -0.50143241785062031557;-1.3187206214891717959 2.3185038886654081303 0.37576971560642241643 -0.15736361890912503592 -0.56816788180875155145 0.15067423604688703898 -0.97590599037368408464 -1.1993940379444592015 0.37982567994986426996 0.093699888364973296651 -0.32964979420317641612 -0.39902565458937511167;-0.73331474982932809414 1.7661271691328011002 0.36523079318825468764 -1.5419444194824458716 1.4539695678182196215 0.098349693218138634077 0.34421768615274406233 -0.092037718256629694191 1.1867397996838451313 0.044362557103086432131 -2.2167022506468265775 0.64656065864037715052;-1.9546962750326328795 0.082072893639287380907 -0.25102465129167134128 1.3203035588025335834 -1.3762693552624809534 -1.2495961396921944075 -0.15305782890132638152 2.2368425363741950562 3.356661780566049913 0.92643914321881948304 0.23380818957220955712 -6.3618196675293807729;-0.203665111730404913 1.1711509148727521357 0.71765926967845394824 0.37400492500457083178 -0.22970020415199388086 0.63909640872174067194 0.46874465662609388072 -2.410348432424124443 -0.30211781860189051985 2.4085622280380176718 -1.2429461409337103639 -2.0590358104492381131;0.44028732876225873394 -0.35993326378149098632 0.068915144136124859009 -0.74344559213273464504 0.78473154596921490533 0.40132275008407375383 -0.56397728059727647576 -0.86051044562960044004 0.60320533350543636963 -0.64453972556111183145 0.97983418855880088927 0.15681332034449149693;0.3303254546332464181 -0.30518386570659983281 -0.66889127564673578341 1.4740527712752375944 0.25514126271655362954 0.092430235537952654123 0.090419391589218564564 -1.6913041078428032726 0.20279979888554325318 2.0468735604526746563 0.57625848894494957619 -1.8258569324235474074;-0.096283877135286355387 -0.85189211420035049205 1.4843244614298534145 0.1450337144641590803 -1.348832220218659339 0.06816981108808972678 -1.0993876786169498594 2.6160511584144017228 -0.85293933650506759125 0.10772182341479269452 -2.1878036747573363918 -1.9863537732440008643;1.7795934095002441389 -3.3201016458871794867 -0.78099425050565307593 -0.14725576992756492234 1.0997234399385908965 0.21435317695305072805 2.0311235713472082232 0.67820379805563291153 -1.1262037455710494083 1.647753092095459726 2.0513146380815543424 -1.3977838760605678647;-0.70774505017977684673 -1.1257558215554990255 -0.18256026928453022995 0.21495408095225385092 -0.51868030686058241852 -1.3414837047541632309 -0.09460063022031699187 1.011238646501288585 -1.0845322488109596648 0.63054182610611364534 -0.17963476635842187679 2.6761988983374056517;-0.56478997942963871104 -0.018255199835918903273 0.27096801466351078114 -0.028199708394596526007 -0.5607743080903671018 -0.52978767969049544995 -0.75347089051372295732 -1.756055757888187463 0.41715424390683647493 0.6217621665830999067 -0.82632977434591692312 -0.93130125980903777361;-1.5254474871393712831 0.095549104165737794303 1.1716817975065789703 0.96910828053702402496 0.95899078649623514803 1.5451782180515150067 3.8017672762169696377 0.55800889288340260741 -2.8716939266727474767 -2.1454566263119905223 -0.092327055000660560036 -0.39917347040013040349;0.52076675465690835942 2.8217880415941758443 0.4363368955107622682 1.1035786318391331839 0.30336191929656791677 2.0767865130249356653 1.8228928479481254499 -1.7530306504620083441 1.893463068483563827 -1.3417392242028718385 -1.3574271396458135186 -3.4022405696666968566;-1.6040716297630934761 0.10549886984590178818 -0.34359469447285112542 -1.1856722348989054971 0.32789279788342728938 0.46923055143630360009 -0.81151397444051387442 -0.7711610452967221363 -1.0030168398289822651 -0.85004823769010384726 -0.85832022255132001121 0.1615342901575282375;1.4542171204324858547 -0.75482404229701105525 -0.31158945491418088558 0.82788355238133082281 -1.1273596899075073452 0.51914707959665662429 -1.1768088162341634462 3.3186151257962128724 -1.0535073169219983935 0.16135652324596111429 0.56238859163566912169 2.5368088344012602597;-0.9532156547077864639 -0.5192154395068144801 0.83492928213720996045 -0.013447976485593510221 0.29675093436955829462 -0.32714985550386066482 0.23733119516519279868 -3.0352831870993042251 0.68299083321109066436 0.11037987215289223053 -0.89634961098500387511 -0.95585940513511624683;0.16803886877170251535 0.19855421016495544695 0.26518905184979735257 1.4541000692151673235 -0.35452846721918701567 0.93700095776836356265 1.4427522123118612374 0.31442215287299668525 -0.9759926004620206319 -1.9866643797551017947 -2.5715261639687607698 1.500729091714150254;-0.22882320668252942308 -1.2100968977742498911 -0.082033485359752661426 0.13879110141102626863 -0.71082481015838228089 0.40811825212416497077 0.41641105899372665711 1.189355637457306436 -0.58435266336810176568 0.023943439515723120847 1.5090950868731927148 -1.1421638985107687159];

% Layer 2
b2 = [0.52004359961523405342;-1.4917617590801568461];
LW2_1 = [-0.8196574420935219818 -0.4413801616974104558 0.22003233546547817934 0.1954144556734918603 -0.49794371196197634299 0.050975877222100833552 0.17928471264489492798 0.65855985977432440759 0.93135179493762654257 0.75163467553492668838 -0.29910017694322765802 0.72423108956970061456 -1.1416536210342416169 -0.010385883119347282325 0.34470869814589749636 0.17568608885143613407 -0.1984290094592921494 0.19443420040464182152 -0.46751823252953272902 0.10888939536746874981;3.5043474091694899464 -1.98578292028731207 -3.6558679096558357458 5.039625409802262368 2.3755106364548095321 -1.4777369309536598774 -2.3290270899626803747 -5.3229171706308191503 -1.9541184240688589391 -1.2940764550716390424 2.2527060183356257816 -2.6786262978035217941 -2.3281554903734620332 -0.65237761798884652542 -1.1555023887729742871 -1.1885520921290106955 -2.247715200528749957 -4.0216973447050907708 2.27012330213887914 -2.4109132668359358753];

% Output 1
y1_step1.ymin = -1;
y1_step1.gain = [2.05334381907577;1];
y1_step1.xoffset = [0;-1];

% ===== SIMULATION ========

% Dimensions
Q = size(x1,1); % samples

% Input 1
x1 = x1';
xp1 = mapminmax_apply(x1,x1_step1);

% Layer 1
a1 = tansig_apply(repmat(b1,1,Q) + IW1_1*xp1);

% Layer 2
a2 = repmat(b2,1,Q) + LW2_1*a1;

% Output 1
y1 = mapminmax_reverse(a2,y1_step1);
y1 = y1';
end

% ===== MODULE FUNCTIONS ========

% Map Minimum and Maximum Input Processing Function
function y = mapminmax_apply(x,settings)
y = bsxfun(@minus,x,settings.xoffset);
y = bsxfun(@times,y,settings.gain);
y = bsxfun(@plus,y,settings.ymin);
end

% Sigmoid Symmetric Transfer Function
function a = tansig_apply(n,~)
a = 2 ./ (1 + exp(-2*n)) - 1;
end

% Map Minimum and Maximum Output Reverse-Processing Function
function x = mapminmax_reverse(y,settings)
x = bsxfun(@minus,y,settings.ymin);
x = bsxfun(@rdivide,x,settings.gain);
x = bsxfun(@plus,x,settings.xoffset);
end
