function [y1] = gdNet3T40ND(x1)
%GDNET3T40ND neural network simulation function.
%
% Auto-generated by MATLAB, 16-Aug-2021 18:56:01.
% 
% [y1] = gdNet3T40ND(x1) takes these arguments:
%   x = 14xQ matrix, input #1
% and returns:
%   y = 2xQ matrix, output #1
% where Q is the number of samples.

%#ok<*RPMT0>

% ===== NEURAL NETWORK CONSTANTS =====

% Input 1
x1_step1.xoffset = [0.014469;0.014929;0.016612;0.019995;0.027617;0.033082;0.040462;0.032248;0.027544;0.019775;0.016141;0.014448;0.014469;0.001797];
x1_step1.gain = [2.02936285109246;2.03031050553716;2.03378524041375;2.04080591425554;2.05680272073864;2.06842772603261;2.08433642023557;2.06664517355686;2.05664832136364;2.04034787931342;2.03281161223305;2.02931960972125;2.02936285109246;2.00451617494214];
x1_step1.ymin = -1;

% Layer 1
b1 = [2.1593019350565438863;5.3085327664344807985;-3.6919542514520236054;-8.6024886554330759481;12.856551444350111879;5.9147967800202776445;5.8715801411814068089;3.4526654612961125146;-0.11439785318342442222;-2.677449229397044661;5.7401611566280372756;-27.320372270086487276;12.822481030594396145;1.9251157972703758503;0.69109130024643561363;10.164502624136339648;1.5679490830410189872;2.8185410531437806725;-9.9388638941700815366;-2.5007890193010267055;7.1094019414159701498;-2.0534587210024914938;7.6056392235056451412;1.0532369846570175387;4.4477460577019893861;3.1419302343985524573;-1.1028672730364912358;0.55857232376212495595;-3.2512523487361799646;-0.82522718778396764172;-0.65313249444875043359;-2.394557064156136672;4.0743340493924202761;-24.98192654960690362;30.725914837775732735;-0.71091982629595029675;9.7130810466138814974;-10.598757782253461102;3.9482249625896690404;-10.397111504288853112];
IW1_1 = [-2.0412798171654711332 0.13885345321020678422 -0.16278809611675398861 0.24275806324981474837 0.33325775901024046188 0.58808054009950905261 -0.33077823393416938558 0.18079617269226166965 0.070844293043542505561 0.1552554603683732326 1.1077574436212258568 2.7851086997579819204 -1.3170428691958440126 0.016845596314133473581;1.1914646292570258979 -0.86608170286551877659 4.2826621257692192302 0.5867059003599930378 3.2555713370312338029 -1.6426838651106809852 3.2033636468243811279 2.204965209862234321 0.97303781211364748227 2.2069778740756986757 0.17157861739838894954 -0.13266108898625283974 0.32956235656650706423 -0.4413565889304397194;-0.8976843537297768405 -2.3732800762543075912 -1.1133217441384741786 4.2609876437393179316 -2.5081162108895758145 2.907379353984847814 -2.4186865018125289772 -7.076562202391785128 2.7270201786343051253 0.0051212497517223246057 -1.1711583585159690557 2.0863622464171176496 -1.6916296744344698766 -0.11175516852731198769;-1.7144486045362237192 -3.07794965182514213 2.1094409423271960335 2.511683395603477198 -0.16818381565988657633 0.32839902559007755345 -1.4640011791111104955 -0.23301812339700753163 0.6071914598305475641 0.62195127517402093442 -6.2222656317594546849 -2.0559486298037987773 -2.4782869838922243488 0.35095573544511937669;-0.31752366890754202267 1.5602468033728571495 1.0164689830806787896 -0.81499712107716659748 0.78808175922788947787 2.8409609557948543035 -0.18865211614843119259 -0.46717541306411414226 -0.30257675805079431441 -0.0046924813501595698251 -0.46297650061024636647 9.2754643890897270353 0.14078243290511927022 0.50121974790272627587;2.3356318780463456442 -3.1928695638761563913 0.30304004958461028263 0.067254296367482840902 0.42241241570496651514 0.28006923364039587598 0.42928110847477168877 2.4667405130492952026 -0.61312228676143143424 2.2425966911414993987 1.8829203538745296065 0.52389438934439269691 2.1700366657706644524 0.24166695241107208347;-7.6534684198123015264 17.674861911232792266 0.34472284425580823619 -0.36983047695929344156 -1.2082201259812161975 2.8206920409439200093 -2.4719191935018938189 15.452822699744659829 -1.557233303202214092 -4.2074612415572181234 2.3247162740783138268 -3.6179372915503620334 -7.9001641383497851479 0.11168625101381768339;0.3102032936305979538 -1.8638111872209621733 -1.1090315879874912408 2.4672939050703797115 -0.48569422190294075925 1.2447114865481962998 -1.0179332436225951852 -1.8352158587302258574 -0.76826212026001816646 -0.065966509523100499979 -0.98605899968968224734 3.0406378936121520873 0.82160499756428950757 0.041497490317713763008;7.9809310910092756686 -9.5719910284526115163 -9.5561801820777798611 1.7624542851059841198 -0.09395951622076643972 -0.089594326692822814917 1.1812488376748186969 -0.43703506346040532637 -0.051149368953287192852 3.7490913291620118208 1.687363857251273247 -3.562390220031611765 7.9209521462106131651 0.033955729183903930746;-4.3702159374406788217 -3.6680331838010520329 4.1797377619289468598 6.8582916155721429519 -1.4949957844652133065 0.96330508158361616289 -1.217299861015506135 -2.8403441543068868036 0.010157670548560961132 -3.1099930261061974335 -0.74222728597866882705 -0.79096969207177836303 -4.5821398118049883053 -0.49705915086891405696;2.8819066770611883044 -4.7801644992880074625 0.75760723455015499539 0.2694252768257174302 0.7179295816873078051 0.37190555022288107612 0.77922165860342096355 2.8627871818243844082 0.018604426401031944061 0.56099839294394038269 -0.10012239284043068788 2.972845338835261142 2.6386881937553074984 0.39081236266308833072;-10.216795777304351844 2.3818765170922153729 -0.454877093123170817 -0.40067888586571936971 1.3012305620654058824 0.079049231251835688772 -2.4470814826227411665 1.3395936923859304013 -16.214674280542936913 5.8416255022737537672 -6.3286469541198133726 0.26545049193590619652 -10.153450230760556749 -0.17201050059257888547;1.976950095661754947 1.9400037461481507428 2.2005534087608795701 0.71441124751443874086 5.6184854108422745966 0.89342735691976671308 0.27648511143442155991 1.7736000762675641074 -2.7305529824599807931 3.3331316501900998261 0.29211585629873609848 6.8264129305057226205 1.5536708694332497238 1.7027950728895093757;-2.1349258879512227338 0.015487796323499508286 3.9874269116775611366 2.6235854158918270329 -0.72389268034125708873 -1.0010826032236894712 -0.63410460178133809528 -0.58990308218701170695 -0.15402100362494997032 -3.7880066169953101607 13.229016412999838437 -10.137547190439857303 -1.5075177868518949698 -0.10737632832597571175;0.65909835686783724285 -1.1126059532582450728 -1.9116528352694808213 11.71704849363207579 -9.8552980519791546499 -5.8795177869561960904 -0.45940778935626214174 1.9373696924686849563 -1.333847994368587031 -0.48774378919772987118 0.39917500437877628805 2.3170817295117887014 0.95517310185691850499 -0.1312687915978932307;0.60832920531887690885 0.57543920797750569562 5.7866650541122783835 -1.2408523986298078956 -0.099906123921247882991 -0.070409404601200833995 0.09452934934623638541 0.18680799490814453678 0.16693604558536384586 0.70193419387271760446 0.12347427654840978373 4.5323900184250014433 1.1744090478861419768 0.10235123078185215384;-3.1435386370919329302 5.3773948245388769607 2.4657581008785465215 2.7876481360432587842 -4.4750147682683483197 -0.38768364927632109618 1.2505805852600409001 6.7135530129969973601 1.2823236404389031229 -4.9703920270646291257 -0.14159208326965749825 0.32544220152038577654 -3.2680394481059114042 0.032489313924305970871;-0.85725144891471727338 2.3840773270559245667 -1.9602762180310122631 0.45497342396619272487 -0.6919414606567942938 -1.065649489705166264 1.0016181414286422502 1.5771379289160303294 -1.1387381652163890422 4.7442915773958445058 0.63685893153503081443 -2.799922718001853994 0.34809972804738770202 0.10991514981143965524;3.0520754073436671128 -4.6780894822991703208 -0.34152265278834059714 -2.3102222774522389592 0.91229921023350579734 -0.18616597190133032935 0.77962723492457208785 -2.697855733831178604 -9.6813400147440962229 -1.5064808090836658838 4.0319563794993893424 -1.1984538361464689427 2.3405836714585488423 0.22197259229199328701;0.84956371639232719506 -0.76748016705271804305 -0.10477142322542215558 -0.50486775356276947235 -0.30434680988880830066 -1.0349466366199155942 0.16834708719059884863 -0.25528453502966863553 -0.19381912538568163429 -1.2390509262533189183 -3.0512369174639339953 0.67036408997281460298 1.8114210201687450663 -0.20349672050718353722;1.5582563369506734485 1.5053157925945428453 3.4127609649345136411 -0.49134564940492131413 -0.66563951940491605797 0.66679956606118562235 -0.47295106516898033355 -3.3273308688133247379 -4.4080566813642585444 9.3480087360626455961 -1.5303808442270823154 1.0515940087972055483 2.0994249528883290878 0.33333241908139427112;-12.40174950177691926 29.758061653214401332 -0.74882687026678218523 -4.8514460474224501141 35.250486701428947356 -14.388983482382244006 -33.06570807445975646 13.62449194955160614 -1.7631558458358604913 -8.0860787576454367098 11.892834306316839132 -8.9360490624651394143 -11.815533798533961019 0.46783490705233699014;2.3124157141241856728 1.5960659553932008414 1.6742373411519857473 1.5983211280746743022 -0.79352248429611649261 -6.4092437256288654623 0.70053301888540753239 2.8623504393404486379 8.5189674375838677634 3.5944850530928054155 -6.5607731614869253534 0.051033254520560650258 2.0197291160212178518 -0.41197192415815003796;0.057105386689329122596 -0.096664213084787148356 2.0941989620261578509 0.60085291162388443365 0.33846750576095252505 0.54380474938031175824 -0.50328240639316279559 0.044010752546854770006 -0.064947636099857541936 -1.5289235153269347123 -0.58530332407116136828 1.3981901697142928853 -0.84820371525655213762 0.1342042979902905997;-1.796365423831382202 14.15339024403870738 -0.33469367537342453733 0.25187775545345447714 9.5055363280001010651 -0.19738143333791943745 -4.979617318788085889 10.691131613979495185 -5.0334315250131584918 1.4822864512832041317 -7.6823411257438314337 2.8050472650606268488 -3.0296330059043667937 2.0144557334344885824;-0.63376412109339252954 1.3759713348414497336 1.2586495409405167312 1.1834686466369839231 -3.1222137895548565112 -0.59858694824286162728 1.4430683389089462576 0.72745842166498742021 0.60779536302075520826 0.12472224323685733582 -0.83452881729571226632 2.3753552157094484087 0.083811410714148423806 0.078612514279323239541;1.9447539859199276524 -11.670234961131692231 2.7940606628313977566 0.035343234579349090685 2.8774100293529567551 -1.5451548135767576575 0.81243557376638242395 2.0141527431529002712 0.41411243551228205106 0.088858862213078398939 1.694981958644100617 -1.7190107772211595805 2.1684117125284307903 0.13758264094101557706;-0.32033855184307091779 3.2795587405318955554 0.75455821138378476043 0.13624610574850748446 1.8934233321323248322 -5.2123579519039271446 -4.0336999490138927271 1.2420217004804594563 1.1087286936515230451 -0.28246625527391183708 0.060897662103580559034 4.3098573152849599666 -0.64448226845098677273 0.23878920016169419283;-1.8496154033200975508 1.5116469387999273977 0.2260824291469898939 -1.1346303218179678574 -0.044814620723995071683 -0.10863638551260046405 0.40246425318045792041 0.033613712070434738355 0.61701816694360533955 3.1638962368394309976 -16.982854858004589715 11.531649956682443303 -0.63999310494821204376 0.12867745588125353851;0.88021111910423521785 -3.6119363157509218887 -4.1401918027900341812 -3.9741798453440058125 -21.458404744549778087 -7.040504631624109777 30.424737319228597698 -4.0609302875727859572 -5.1463677133568781485 -10.145991208239580672 -0.63753099468986551557 2.504346688408875643 0.98858517610868446024 1.0468535960053286793;0.95939276819664243146 -2.8169695139634707282 0.28921341316527787724 -0.1691487553430104096 -0.8642779377735732016 2.7950007785394848092 4.005467818910841693 -0.46529407423623392326 -0.78675952018438843893 -0.50196942337455174865 0.19326428984073679151 -4.3366297885082776276 0.1213350569701731746 -0.041230572033480475391;-0.65732487963804753228 8.9963790184027896402 -11.14290666935572105 0.21801791414279786396 -1.7107536120909818678 -1.602477521600930821 0.72793541430794794778 0.064939837095480734686 -2.5477167993003777546 0.66496201663368392776 -0.45214917790837194644 3.4995109526662755428 -0.16744192482861636195 -0.19399842552291590714;1.4067517543936534086 -4.76300139051701521 1.3870686880883347225 0.12346208266556196742 2.7693813979867099029 -1.6034957165345453678 1.5791489398701166191 4.0169823619508404633 -0.67346542614611903943 -1.1889891158105612146 -0.18101580783564386046 2.3072991937373195093 1.9654950534006165874 0.074268013589407405606;0.7987409939593058672 1.9301331733745104025 -1.0491130484788795396 3.0791839498541770936 0.28507268700329846389 1.5307515835774356816 -16.836158711178988767 -2.2254669800620918707 8.4349083199378771525 -0.68034397825117221004 1.8074150004852902462 -15.938510025127932579 0.20373977521871997065 -1.6268003322599826621;0.78131268121105845736 7.6643719518206827601 0.032019694005636888112 1.1455435030538989594 4.3661009333735165683 -0.8836361630565797709 5.9925574521906117553 3.468423524146508452 -1.7923079599161255704 4.3286377928213903843 1.2965938374455523441 17.010713054179188219 0.42355144732823468701 5.8275109997063614387;-0.025913857876290871673 0.028851498114207708989 -0.051712366903690062947 -0.010420190956746795685 -0.11300763676769791377 -0.13504841575638426576 0.10668205810448723458 0.0045409204513770472234 0.037438297592234284772 0.15292966195994669998 -0.032711626371288313186 -0.18218231454384120616 0.028193253527907708583 1.3510537722414792672;4.3389072545619109533 -0.36629729536418209612 -0.31500558198217543104 -0.34458504866165340363 -0.18445626021789365834 -0.04495849509786545295 -0.34678807244308917923 -0.48957787472567088072 -0.31829942858166782038 -0.21650498792266831272 -0.33415418875251690078 4.0069282262323975274 4.4071506258222656882 0.22649868274166942705;3.3689264430685961216 -1.3514307999102490587 -1.8135304843645214667 2.3131711713907998629 -20.712800641260027845 0.035492968133269339748 -2.0013596652438807588 -4.9112611480195624836 8.0012438799329270722 -1.1471865127498050985 -1.0508900132521594717 1.1166449863598058023 4.1357310192596727916 -1.3237683148653900389;1.0963083389900574183 -0.38381463563763490443 0.31135651410824599639 -0.26994845861139105114 -0.91081462226859888354 -0.71822701070501915321 0.64929310497448577966 0.2789930284050484155 -0.47673748429992346409 0.45902263724034431114 0.68490117933734129263 3.3312588247780143824 0.12065184193242672883 -0.17287299143026160775;-1.6081231008409329064 -0.88955710524771058889 -5.7015939467086038661 1.2066622915269948901 0.10599412443388753213 0.058949893615953062598 -0.076474814965205625827 -0.19525610235243009982 -0.13454172066879749314 -0.69704851191575556424 -0.054758071083545467594 -4.7744253228541326806 -0.15704983496574359547 -0.12421257295264880038];

% Layer 2
b2 = [4.8325386794796756362;0.60021991258784079815];
LW2_1 = [0.71088746091099397351 0.17134339200080939136 0.21383239253773853039 -0.33525342901156385267 -5.0383373503841362151 1.0525029532490421946 0.15584827817516866411 0.63867018013120646636 -0.36214428030329598451 -0.25927871281114062141 -0.78614688051925174506 -0.18482809527831497998 0.11790244791856283046 0.343367170146611278 0.1892650940147260763 -11.378194986740103545 -0.26977856224992052825 -0.27571064124616623259 0.24582599030772164794 0.54929163938051517313 -0.33788750552279861461 0.088518454825347495096 -0.20959370548312825089 -1.0855950029490022413 -0.073409977158716041568 0.54782913705221936151 -0.34689770897589933263 -0.34957685130278115526 0.44995400612455449529 0.10834988360817481012 -0.43284502461992413469 -0.28116068879602368336 0.3647345808027065428 -0.79345655155447336604 -0.0085617427830376475334 0.013580905729636839549 -0.98055183995712857925 -0.11182372539575546888 -0.86812340545881017118 -11.240955521657388871;0.033697249419369225409 -0.02596240077453611933 0.029071473211372687168 -0.037726251789730359809 -0.17675273256235690678 0.1160540720203464965 0.0096461176677270586005 0.015632253000577321644 -0.036254970674762222738 -0.0011164255944965866072 -0.062199178711667961472 -0.010728236553636773948 0.023979745575776718197 -0.0069174306713925062806 -0.00056613953409288212543 -0.60678453807429677536 0.0051898345444720299022 -0.063918809128846121315 0.015658081776357624798 0.071340904059798607162 -0.0031123432780022662267 0.0020040920796635637927 -0.008579626119432299039 -0.028263240198724913499 -0.005996868702012576359 -0.0066438134729989170926 -0.019913083973206915922 0.078946392022186048787 0.0014161430734431533843 -0.010078951042558650236 0.052044998472241914278 -0.0071545180162126539511 0.011421407360447995843 -0.76544160210296519065 -0.71684786871959282895 1.1210596189476984552 -0.09122014417373251749 -0.020527722145009030807 -0.086903571236923687904 -0.54561400208593457961];

% Output 1
y1_step1.ymin = -1;
y1_step1.gain = [1;2];
y1_step1.xoffset = [-1;0];

% ===== SIMULATION ========

% Dimensions
Q = size(x1,2); % samples

% Input 1
xp1 = mapminmax_apply(x1,x1_step1);

% Layer 1
a1 = tansig_apply(repmat(b1,1,Q) + IW1_1*xp1);

% Layer 2
a2 = repmat(b2,1,Q) + LW2_1*a1;

% Output 1
y1 = mapminmax_reverse(a2,y1_step1);
end

% ===== MODULE FUNCTIONS ========

% Map Minimum and Maximum Input Processing Function
function y = mapminmax_apply(x,settings)
  y = bsxfun(@minus,x,settings.xoffset);
  y = bsxfun(@times,y,settings.gain);
  y = bsxfun(@plus,y,settings.ymin);
end

% Sigmoid Symmetric Transfer Function
function a = tansig_apply(n,~)
  a = 2 ./ (1 + exp(-2*n)) - 1;
end

% Map Minimum and Maximum Output Reverse-Processing Function
function x = mapminmax_reverse(y,settings)
  x = bsxfun(@minus,y,settings.ymin);
  x = bsxfun(@rdivide,x,settings.gain);
  x = bsxfun(@plus,x,settings.xoffset);
end
