function [y1] = gdNetT3N30D(x1)
%MYNEURALNETWORKFUNCTION neural network simulation function.
%
% Auto-generated by MATLAB, 12-Aug-2021 22:18:27.
%
% [y1] = myNeuralNetworkFunction(x1) takes these arguments:
%   x = Qx14 matrix, input #1
% and returns:
%   y = Qx2 matrix, output #1
% where Q is the number of samples.

%#ok<*RPMT0>

% ===== NEURAL NETWORK CONSTANTS =====

% Input 1
x1_step1.xoffset = [0.014928;0.015425;0.017231;0.021103;0.027804;0.034437;0.04709;0.03412;0.027544;0.019775;0.016141;0.014448;0.014928;0.001797];
x1_step1.gain = [2.03030844445888;2.03133331640556;2.03506622614266;2.04311587429525;2.05719834272102;2.07133040516258;2.09883409765875;2.07065059841802;2.05664832136364;2.04034787931342;2.03281161223305;2.02931960972125;2.03030844445888;2.00451617494214];
x1_step1.ymin = -1;

% Layer 1
b1 = [1.3308856677429092841;-11.890707387103914172;4.3998410651877373212;-7.2800766212614593798;-1.1742878549551769574;1.4993938858610311726;-4.964092434719548308;5.6907889385862491238;1.593582690568951632;0.69473077489417278674;15.530737777773655495;2.0067079066954058852;-2.5748445517824087858;-0.6123972277628144667;-5.049773670625180344;4.2053509731736884447;2.303340084204757332;0.69644001573674840788;-2.7894641213960822412;3.7817183727768521884;-1.7037716013936816672;-6.5044995910646807857;-6.6513582197745053648;4.7494581629905905373;4.8485892791679914282;-0.41943992337436147855;6.4723172209428536661;1.3871050020046571394;-10.979676561240449217;-1.5175389517847674981];
IW1_1 = [-0.49661613795762293844 0.70198148467803189732 0.98579467376621410235 -1.0339988217381714808 0.71628396078007239289 0.13275747014557995329 0.87816980163592472941 1.1890972578615424116 -1.3109419979620748897 0.73926413996680273577 0.17135827413996634894 0.47554781939730816909 -0.24438526830286350089 -2.0113000703123726787;-2.6737026585221332908 -4.4888526254067633303 -8.756364382407154423 6.2235076106243267802 0.83760625397460530817 6.8129415811338454034 0.077975120101918246607 -3.2848474206887896543 -3.1057531925925792038 -3.8431336651180947328 0.11576008847525903755 -0.67300120817361741565 -3.3058832153324679837 1.6782937322741169339;0.022718376912750769259 -0.32657745181750746921 -0.55496761530967531062 0.87447879400471673073 -0.89454414453607189461 0.22007715124283019903 -0.35913412227160290691 -0.086406472419350177638 -0.33219691734643275183 -0.063935855779034184154 -0.62044385579185534763 4.4364552098086083021 0.37638569049800651989 -0.32613331748401336307;3.9419575159571769163 -0.22171788976191189602 -3.8839028358667269103 0.26988828898203776063 -6.8531250771957692436 4.7093494125157588925 0.50511747502115689201 5.0057648927295756991 -6.5450644506478958817 -8.6266256131256415784 5.868876460147202323 0.83838293300609922909 3.7675364708100378408 3.042081341144149409;-1.6364663084333490595 1.035361714854371229 0.19891822130448086337 1.024379346222339171 0.46217167356667365752 -0.86688902420206170873 -0.29429966509861466006 0.15919353986244044741 -0.43783776989056405471 0.036241919152369031498 0.31305424016275718024 -0.14662801780773382365 -0.73837498469192752726 1.6178564312874752495;-0.020155957916049488388 -5.8501240192627168568 1.9425294915669870655 -0.98087328701777021234 2.6175071381129573211 2.450689535973107791 -0.94478209205000895921 -1.0322633918228247829 -0.28114478923166585922 -0.44029873298851107677 -0.12374123852113125266 -0.5344208143860661453 0.20366553588096233951 -2.162599623132182014;-3.4614496091942670297 1.1891543525549668203 0.87899437868039453914 0.34091937864430044147 0.084777513264737439092 1.025712212681384905 1.1129061526642116675 0.9201789383644612963 -1.1918297237517498921 1.0152083828877327409 1.3975550614257059578 0.520941282303338693 -3.9218330218878794113 1.5426327780026709569;-5.1322479648616949888 11.253074791555333078 2.7534396454346836691 -0.72365225465264060301 -0.24479136592317413124 0.33447270180114863081 -0.17819624035078787672 0.20126759387574630344 0.41727461761884782065 0.27300272361821220635 -0.40761877957479158985 1.3127661621715118745 -4.1643399316796179122 -1.5815011734929187437;0.71361694231987660153 3.0363639069516117353 1.2197741976884812765 -2.9874630595112674492 5.2270568886627151173 1.6406740968781841072 -9.2742595310699300626 2.2057953475194880255 5.808926730298844987 0.13137604435110811218 -3.3230886354043178699 2.2312820381963462957 0.031380162530756504358 -3.8888770075638419144;0.1664886544518602296 0.27502829971609832338 -0.67530125653514239126 0.028292537898400499374 0.83750844246797340187 -0.29273924445896376545 0.20923185934047003331 1.8989909888253673209 -0.71906395032894487862 -0.25523215828637108027 -0.81281462832065276558 -0.34946695392436660788 0.10223348893919716185 0.83676831856202249504;-1.4761260605734016771 2.6455317162654869989 -11.311657977841235834 11.648806625046008278 4.7757106563202125216 -2.671826170916070442 -3.9763862361930359945 1.8517253848287897888 0.33501240572262219741 -5.968371706239508967 11.437868851913208346 7.1574967648182887814 -1.192719770832595616 -6.1795945610492548639;1.8591236805987427783 -1.3741326820828418942 -0.44899204501074158058 0.79441504193734580053 -0.46618602510815521089 -1.0503028702696495245 -1.0946795955441630532 -1.3129681434065572088 1.7781214026802174555 -1.2760598987152884654 -1.0878207310486214254 -0.63410633455063059039 1.9473995421476493206 -0.36877802577421786578;-0.29651510679016662708 3.7028408264206276179 -5.9650593338216202355 -1.4960818943185243413 0.067986468239503314304 2.3062092834834668764 -3.0728311878607073027 0.023673925405272799871 -0.40237505578638421699 -0.44924655090056753171 1.211278343621431608 -0.01093102295472693497 -0.783557740724877827 -0.7400121523444714855;-0.67207224103441998153 0.088237994386412707537 0.86179537615609058676 0.1599739245435139734 -0.16381356503755192811 0.16729648555454215697 -0.99360053068829656819 -0.99461939086427919587 0.71278111131944699164 0.27952857104368666885 0.81340634096684027998 0.28984101507352416638 -1.4325252828037637887 -1.6763020793905054617;-0.8993812180347491303 -1.6394385378405849085 -4.6768199517502324625 -0.52470595932106567361 4.1061508405424849144 -4.310096786738176533 0.2106080926693216504 5.5772905566345105655 -5.2947269889179198188 -0.47756091996906613328 0.92004381385239575319 -1.2778261587669965671 -1.2450685707057409513 -0.20256000287496139789;-2.0897223006809504398 1.4827262621836978518 0.43311753634770655541 0.956437584847741884 -0.92509992067246293868 0.80215247446823401134 -2.133003629782408872 9.3203765936041325091 -2.2238107338610908492 0.89630111540600121423 1.4944893153215972337 -0.57198094418607459133 -1.6656171870497398224 -1.0357084080778278246;1.5222980808305319744 -0.51562179892705262141 -3.1712916461516487132 -1.178226202740791928 -0.034131542675998480241 0.91691734490772769384 0.060499814452621418492 0.33872419961684663292 0.34821829152479288894 0.49228374687534520726 3.4647454645989430588 -0.30836839296816059841 1.8308691235739043002 -0.34189165587268383062;0.82641168945750487218 0.015447873887878289106 -0.7103068283059854604 -0.092254928328318677733 0.35157265183832092648 -0.12790536211379174847 0.58619335191332200274 1.3800532933284912485 -0.69338741937421100037 -0.27261967443020423962 -0.80505171975174660837 -0.30418104893753883378 0.32360132604239261189 1.0912592342671583179;-1.3420181957588310784 0.092236886066441037269 2.612899571191107384 1.2799190114636098681 0.13425037238104259307 -0.78545718427295641018 -0.046216568912591370066 -0.28700081620916428893 -0.31610592392863939848 -0.3969795654824814779 -3.4907725202393260489 0.13239482097662408355 -1.5396964185340942244 0.45290365377089425447;0.15261069026236578905 -0.48487428495151496666 5.1454983210697093909 -2.3264342715394894512 0.77545224660845302189 1.3475747395562338582 1.4410860361278179376 0.97586786845666950718 0.73976577115436981114 0.34622689128466388464 0.19862723272300020216 0.35137243311038257598 0.96235887240218687122 -0.25773015770369389621;1.9179310303246914771 -4.9266208673385154526 -3.2263515419393096195 0.8273636140304786446 0.62933102561718523571 -0.92823038526852819086 1.1337172239585258104 1.3735325581387221039 -1.5224348854938531961 0.37492696838670314108 0.58462210495634203689 -1.3720112230228698191 2.4170773707688568699 -0.15379955952971421929;1.5784950940928830221 -3.999993081692411856 -1.2490555010200989905 -0.65898447178004093683 0.43131486180909522909 0.24153151672042474929 0.29840498353407074461 -0.23704711990662655219 -0.15433815571040171433 -0.23920436767812863765 -4.8737601415403597471 0.3460435265234766411 2.2694921871060458329 0.94093549207913840249;-1.1569112825975766956 0.29769713531450203714 -0.4589010025854360908 0.44129161591890547767 1.8624299726651778464 -0.7050678229751963233 1.4507467326465599555 -5.1779162478240365886 1.1055858764760910784 -0.39655525996777402087 1.1259475186593219664 -4.6410467087403723951 -1.2223179800768457781 0.6758760971192486755;-3.475320939716605384 2.0191533438717765847 6.9247648566650239488 -8.9386799446505857958 13.679891522198650122 -1.7534361918574998818 -2.5833604249778145956 -0.46045019298763639748 -3.9801248681806837837 -1.0797251268012759695 -3.8098088662019140571 4.5100514089585086452 -4.1747285039304982135 0.33042462743954365001;3.0642205009276182182 -1.5965004243903089254 -1.6803502850550222636 8.3021688244203186713 -1.0769139369729603395 -8.814176343712654571 0.36240621161212233092 0.58597858593135176974 1.2522631236209489369 -1.673468399182313604 1.1426275574880946362 -0.34276226477183618924 3.0085494219498540858 -1.5878108468486509253;0.0027741031111617412558 8.4142618197592344842 -3.5293858352996752004 3.2481879193767371206 -4.2388258841222121731 -5.0865829134291704605 1.1157648381822646844 2.1191140841981144227 4.6483799823779703431 0.52226397671635926834 -2.5400303488495263871 -0.76479566833314271967 -0.13363853620006244105 0.04217777361833702221;0.85533303353169842786 5.2606278859227124656 1.1285468415503110418 -2.0578065498893258756 -0.28369089328727592481 1.2367690091565113342 -1.8895030247911790422 -2.7297030328056748338 4.8548147238929146852 0.58078557632626681695 -1.9405129709669333149 2.5114333230506229455 0.24200451004825709878 1.4685812546755319108;-0.078571800902412308742 -5.3735020861578135509 3.1628890296370544277 -0.10561641265236007547 -1.3066219803147245404 2.2276243856672102162 0.54042731971898694265 -0.86867295668837563039 -0.10302533912362733803 -0.84512364914638193891 -0.11418257743876514265 1.2701781110065635261 0.5494249016322875212 -5.1398697020537946756;0.22271846335631290126 -6.705992665254894014 -1.7434025330686993005 2.8775026751555450311 -0.5622147289035395179 -1.5174346966043854579 2.5131574488137817802 0.88105693915214999823 -1.0234389501565228642 0.52464077746562476356 -1.8397587467829064067 -2.9048636819626532102 -0.22850546597635840174 1.5946715917998499634;0.19061532210729276171 -3.0042333512724583855 1.9657830548209023203 1.0993427877965513684 -2.2774517676408869704 2.6215541017199197604 0.46479224941492747192 -3.8815054417250194341 1.702329786794070543 -0.0087331850462114279932 1.2704527945518517829 -0.075508268655256741142 0.53215792015668039738 0.11187541359134256513];

% Layer 2
b2 = [-1.1562912661541044912;0.21612626632947765093];
LW2_1 = [0.34299470248920715942 0.24489195118417597663 1.5666699890015705066 0.13022384060729838562 1.2843973145870459796 0.57133890701223555286 0.84689071195969878314 0.90038054127383493341 0.26627569312933974111 -4.8754281674081854092 -0.14150554489605157715 0.91726178229400678887 0.28393392523579891185 0.47866547667535924715 -0.27888773227762503337 0.3507049531197785619 -3.9568097446586332211 5.0229785740359300661 -4.5987088121747268232 0.28004248159879507885 0.65129186227339463944 0.79630431923027855667 0.55702224783468001768 -0.20782209663075595918 0.23547613524710966915 0.37324420247680240026 0.33620145137517187806 0.32726112578652083451 0.42190354579092759213 -0.66345305282586586326;-0.62369100740885130563 0.017200040221122741418 -0.0069312937596577427896 0.047879653271145287963 0.33877187781536488576 -0.055513580347702415341 -0.16356951383501136532 -0.031778802762689004058 -0.035876889876122683432 -2.7455465428461098831 -0.011891926686631304477 -0.45178023267503886196 -0.011085073486493669109 3.1592173537953049944 -0.012118348051440025123 0.042206305741095080653 -0.014128688747363291403 6.2585139860208736096 -0.078187850261894162318 0.092605520732983281906 -0.031135658629346384119 0.13885361863288792073 0.024054737017973119168 -0.0041067839004742005479 0.017978898488504643088 0.003566359774744240832 0.050571113510238234479 -0.24823646748571454035 0.031213193324506408044 0.12048561806161617316];

% Output 1
y1_step1.ymin = -1;
y1_step1.gain = [1;2];
y1_step1.xoffset = [-1;0];

% ===== SIMULATION ========

% Dimensions
Q = size(x1,1); % samples

% Input 1
x1 = x1';
xp1 = mapminmax_apply(x1,x1_step1);

% Layer 1
a1 = tansig_apply(repmat(b1,1,Q) + IW1_1*xp1);

% Layer 2
a2 = repmat(b2,1,Q) + LW2_1*a1;

% Output 1
y1 = mapminmax_reverse(a2,y1_step1);
y1 = y1';
end

% ===== MODULE FUNCTIONS ========

% Map Minimum and Maximum Input Processing Function
function y = mapminmax_apply(x,settings)
y = bsxfun(@minus,x,settings.xoffset);
y = bsxfun(@times,y,settings.gain);
y = bsxfun(@plus,y,settings.ymin);
end

% Sigmoid Symmetric Transfer Function
function a = tansig_apply(n,~)
a = 2 ./ (1 + exp(-2*n)) - 1;
end

% Map Minimum and Maximum Output Reverse-Processing Function
function x = mapminmax_reverse(y,settings)
x = bsxfun(@minus,y,settings.ymin);
x = bsxfun(@rdivide,x,settings.gain);
x = bsxfun(@plus,x,settings.xoffset);
end
