function [y1] = old_gdNet2T40N(x1)
%GDNET2T40N neural network simulation function.
%
% Auto-generated by MATLAB, 18-Aug-2021 15:34:53.
% 
% [y1] = gdNet2T40N(x1) takes these arguments:
%   x = 14xQ matrix, input #1
% and returns:
%   y = 2xQ matrix, output #1
% where Q is the number of samples.

%#ok<*RPMT0>

% ===== NEURAL NETWORK CONSTANTS =====

% Input 1
x1_step1.xoffset = [0.014469;0.014929;0.016612;0.019995;0.027617;0.033129;0.040462;0.032248;0.027814;0.019981;0.016227;0.014616;0.014469;0.001797];
x1_step1.gain = [2.02936285109246;2.03031050553716;2.03378524041375;2.04080591425554;2.05680272073864;2.06852827316157;2.08433642023557;2.06664517355686;2.05721950326378;2.04077676045056;2.03298931765763;2.02966559229701;2.02936285109246;2.00496228164708];
x1_step1.ymin = -1;

% Layer 1
b1 = [3.3202412193338712854;-9.7340282037559866524;-1.9096902981791838982;3.3416312791127542603;-2.5421388323530722531;-3.0189938855672320273;2.2810145556835417224;-0.17380008653561124232;11.272294813413786585;1.7071053320683118315;1.1339965402952321138;-1.7162213440464990644;0.88747305939976983691;-1.8278658759306931625;-8.1794619041827729689;-0.3667194335142803796;-2.7417825236669193245;-1.4142036617951603272;-3.3191621174291832119;-4.8645010883673487356;2.0331364088230508003;9.5251522201222247332;0.034417393103292573397;2.7914141232717981644;10.055144830843198989;-0.5466725344081597715;-1.5838297112266666034;14.539974789558716139;-1.0265969215791299618;-3.9070238475863199312;0.28308500539010078567;-6.8419087105595517428;-7.6925016505736145689;-0.42310749801776881274;-12.301470749057022758;-2.2054348410411335202;1.9234367854288716426;29.390888278157433433;1.8647517808293772035;-13.578856605118119205];
IW1_1 = [1.9957299999834656745 -2.4161329534328412905 -0.17335565433934213564 1.99267926036019416 0.4302922114961296729 -1.135028093582896469 -2.425658959168909945 -0.11497244185803394412 -2.3896548112282962606 -0.340085816441878519 -0.10743999661666209233 0.48412502997404649463 1.6710838048411591483 0.61737811380892115842;0.74883456666925973799 0.076109294416110695458 2.1237757249237390056 -12.773759451238881013 -1.4708398021828672508 -0.32756054209836904523 -0.030707691306331361819 -0.85645697244267582349 1.3585975384273267785 -0.8928567597491972041 0.078943706189442963694 0.56164220091005856439 0.88626447393007334874 0.84821941947427004216;0.37821369064438925545 -0.0046212342177256986869 0.064941822286703046463 0.82480827903709774684 0.020287081409723392578 -0.022201416367357531406 0.95438179240802956116 -0.48213317313835757361 -0.016130174429362199168 -3.7067013826175561064 2.1937243003801603081 -0.79258126018372521138 -0.11446101296464399055 0.1174288243583875152;1.2719821089803164949 0.037413618003282786417 -4.1093095849221530358 0.95231652156163537626 0.068759090478467954632 -0.11030418257342651522 -0.54956835824340033447 0.25530386734967158713 0.37614191558398546444 3.4818625713112090203 -1.8310047902859964974 1.6699508862377852036 2.5004183896586460456 -0.007795086059313934522;1.2631972350587370446 1.5272330640875810825 -0.2258886844351365164 2.6101201572505097204 0.047068862279327605691 -5.3972268805097023403 -0.87361608684135028113 0.99932286746476939321 1.0151437307371700136 2.299895216519959984 -1.2362939910175345659 0.85541593449814889993 0.89595240382095076015 0.4569455442302040038;-2.5406726999546318524 -0.61443406916005782747 3.7051230854008769811 1.0986208347333086266 0.092699285087483110357 -0.37091219000214054047 0.20746835939164387508 -0.60665371113778665535 -0.2687331603725952589 -2.5317692482841702706 -0.39877194605113608361 -0.66797508713981701423 -3.017029689701068218 -0.086080114626110634801;3.2942515674146881643 -2.0400148242101985296 -0.22065523787375140863 -2.5138196134859667197 -1.1403534815787825796 10.011993970437526258 0.81035757702530952784 -3.391836638493562095 -5.0336454725339070393 23.290869458898480815 -2.6705156576311335215 -14.927745510843676513 4.5408485332544898938 0.4722581432004487878;0.50804618235192833264 0.0014614035201879664941 -0.061991319210092148129 0.26234049742253734427 0.68320580347446169256 1.4875863870395018562 1.8214549613953756602 -5.0638284567645568401 1.3466664429669099601 0.27409074922189347046 -0.20869699755062715019 -0.69207695436304417225 -0.34840648690450065628 0.1994370704891825774;-3.3877620119381957053 11.613671595816621007 6.5183026480187020724 -2.7479108332855859409 -0.65948379993041339464 -0.27826194509733698235 -0.45530110923969890901 -0.31770131282696512098 -0.62295176249558348314 0.72587633889072522564 -1.0794867469129274529 6.5047998179142911823 -2.6550369506481859005 0.074234302991563180796;-0.40771845115305094254 0.12616087383559393409 0.21061547600770985644 0.0027002964654647514109 0.50896197300447276746 0.18818103957016135697 -0.14426199605156678207 -0.093936691474241662547 -0.1378181235685524697 1.0451372031364509763 0.11701518146354011884 -0.14515277511524582454 0.45503793160433742004 -1.1054723650582489736;-0.43240688131185139875 -1.1881764863702790613 0.61517132809668018112 0.72202778981456550156 -0.020498100533420358232 0.31733348131501315503 -0.15216980108514932546 0.7595391125876596039 -0.28303784770861073472 -0.86406132310941341501 0.86850281020314845648 0.57527216744659659398 0.1275697438902701486 -0.058724407715064250168;-0.11350985152345322016 -0.25328891937693154279 -0.38680169571795169903 0.017490064018056285244 0.57143507613431610004 0.17034409500465261256 -0.062536962233911530529 -0.39765500537833042838 0.22259664962232422747 -0.049044618664886081849 -0.067463737364194545365 0.079873521056995147593 -0.85262256381513035208 -0.056639916396096015583;0.035551830177162652147 -3.1325941184075465351 2.0896241286082677391 2.0632016262059513778 0.1356937651910060938 -0.87792864220747779402 -2.23824110641118601 -0.77733975111621056442 1.4227631769792392635 -2.0222296058946960251 0.70047181977900041527 -1.1385052023712201041 1.2626890884600321385 0.53180744588685591179;-0.89560762724753961717 -0.25992881127782441197 -0.4995046021136038128 2.9653206209541931315 1.2586119698731617067 1.5127836625015889105 1.9588147692282733558 -0.082972668393390583419 -2.1156806839041850665 2.5696531717425208363 0.10713293924973783799 -5.9013146007035963692 -0.77546280117607269133 0.18665573419468617367;-0.22325246737494422455 0.22374946132810613619 -1.4511787102493183266 -1.1787619590347395704 -0.3397843522097427349 -0.011323790589645981591 -1.6360217145828981344 1.1986960893657729876 -3.1345961421995731655 -0.76987117315824948882 -3.301233203554796436 0.28906845521047630498 -0.67066065737026048232 -0.081719398207459409411;-0.18634204782963031954 -0.68858220443078421713 0.20491213030930272021 0.32659054647435548091 -0.43776691853656041209 -0.69460963693311172928 0.8332026155802485512 -0.28021948498149412687 0.38321035493694172169 -0.10059777159168756255 -0.69855887629131085959 -0.1545166424710494868 0.18868617379939695011 -0.36559205253828996884;-1.7679810962216835346 -0.46317653670577751956 -0.53689900775811516542 1.0270376224366180029 4.9543385793780085891 1.6109806622233595608 1.8894954507909356156 -1.624663818634094925 0.17192766559625993761 -1.4266885930045813957 -0.054126577315907462018 -6.0704848420217771832 -0.53594960089767784694 0.33825510426775995398;-1.0826761460582814411 -0.83668033274647068964 -1.3066678680181982308 -2.5512235570144108365 6.1026013677811148384 0.14287108042752535986 -1.3705565671923642945 -7.1109718873493745761 -0.16653011365677403144 2.770346924632637986 0.50516587361919140786 -0.23507936981518748332 -1.5194533135370853483 0.35262037542751067942;0.68955574925877305414 -12.611000343799554813 3.2480762806679597254 3.5273914917606439268 -10.555273068885481891 7.3734947030058490824 13.463729788231701079 5.1960657371245533298 -6.3763540363118540455 2.8083581198569591564 -9.2204382491230578722 7.8920784096130605079 -0.3179876909458457801 -0.66798139608400319833;-7.0583794904854011421 7.9484891065174041458 4.5809500156887015265 -1.6187795030419154241 -0.79826283641212114617 0.023885757548189053695 -1.3032234792850947436 -0.22350551956556977129 -2.5599971982464166942 -7.9169154981095601897 5.6631126113838181624 0.27436798083905367118 -6.2700697938836409406 -0.24421095661182593006;1.9130323589163533704 0.41379796494636428283 2.1550065142578498367 -1.7193890594404370731 0.49728537992805504908 -0.11196693416815535482 0.63243545820833757531 -0.25890807936945958723 -0.054722159060971185818 -0.64226559207779143623 -1.2499283501511273542 -0.62103276948038199645 1.4423326834103176175 -0.21938316575347399651;0.070906646511718796067 0.7498673039286654074 1.1562167255448387859 1.0568592336055961933 1.3662275606277858309 -0.18287973534950172083 3.6821106674117674018 0.64878788982401347507 -0.69042445213762915213 0.24314035867483935194 -0.4789929214756181719 5.8835196941875578247 -0.3750709189519519926 0.22435756860318237238;0.12349292702328502902 -0.29480971431012359396 -0.15522514239987869611 0.14385875368069939162 -0.61464708309195781322 -0.24929915208445216357 0.3019951140403805967 0.10645184813713903793 0.11207308536682601685 -0.97248725725794393782 -0.1161521113070922151 0.10077284633740331288 -0.085373140294644614401 -0.77031184111909090095;3.4122246930944322152 13.906560479384886264 -7.2037641487896202364 -4.3828029190690092065 -1.0139633830491727728 -8.1664078831204722775 5.9615836676869919941 2.6735973062277476053 5.3529304244449011918 1.3083321323646701639 0.32668220799411995525 -5.2345005146241785354 3.1211712480617341825 -0.9732718566722495801;2.2135753888278992818 -0.92357866182293435475 0.65388234622613516933 1.0330114480497576412 -0.8504187806265761651 0.68963281650593599714 1.0042762005710461626 -0.83908564295498866414 1.728698665742800733 1.4472840901615333653 4.0750162239694578403 0.42728088474496322968 2.0948042907123012313 0.0053551901535624918393;-1.0871864899082832601 -0.37354769440446999873 0.78092924209824665649 -5.8745912192606279945 3.0805661765658429729 6.6179100882628842939 -0.37575211353528270575 1.8148554458745715934 -1.102849879236514008 1.1356276817872419382 -0.63144844628224483518 -1.5904987939558237198 -0.28903576214777110254 -0.30160979773944579518;-0.0055141948254692207954 -1.7609432954261907689 10.444119831060232784 -9.7817408282602862357 -6.6730761712524744311 -1.2452492744999994478 0.074156522726389992317 -0.7644822487560253288 -0.24470843737325814748 -3.8477466069176875507 -0.5611531358541839154 5.2657571043683546463 0.30033118144234988156 -0.25450491151708598547;0.58406723439060004299 -0.9663993313945666852 2.2590674374699570848 6.72511191839860345 -0.17603228179976718182 2.1646370270872861141 -1.3305161821454802862 2.7305265628421726554 -1.6197061165421655637 -0.55684162169666939768 -0.92604620975588947118 10.312812577483626342 0.17301227489316650665 0.76303819707706233011;0.36536091747245325045 0.06575403839752821944 -0.093351838202543044321 -0.53211030694306693523 0.098673199847903764192 -0.10767293567714826541 0.13340059297834644392 -0.087321561367606825854 0.11436023112159809934 0.24812021744126133704 -0.35406605371040561492 0.093426669892921199168 -0.35001928491247974451 -0.020363049568561230468;-1.5388972621690855114 -0.56362813033740266633 0.34005989520840446128 0.54748527758773368745 0.34531086597532661964 0.47251034898346294666 0.49181891441727715319 0.060932527860990362556 0.58354600830032765657 0.11312733413500977719 0.38216669205476871962 -1.657700855990935862 -1.8377985416058555401 -0.077121229961509829565;0.017100349378482877782 0.84850284043704715664 2.7812145353238602041 -1.8667815544632182512 0.0029526445089903957664 0.91538737042802265087 0.090933736645064808246 -4.2659992798195069952 -1.8841341324347455899 6.6566364294724111872 -2.7364862356220016615 0.32860047907988793048 -1.0279702139609430134 0.34422663490963506527;0.74013333036713402358 0.37988014229205613326 -1.5434187555992227026 1.1895470237661547319 -2.0029101803044415675 -2.9450602822489377886 -7.3204729148970963948 0.72551135283365320028 0.94251733473091636739 -11.197953750696202135 5.88913925378777936 0.30407916366977910672 0.88453159113766144372 -0.16187284970400978024;-0.54845704960241914439 2.7051366414814821404 -8.4867592238956621742 -2.9811551795882955673 0.73018200434368696339 3.8839078423732877887 6.5064719090778755373 -12.881690434864987438 7.7168468862705852374 4.3063596635953356184 -15.500262781376164867 4.2238308866085834126 -0.0066630435561464279592 -0.56940247650343167596;0.96683468566545527345 -0.4832572753383598263 -0.93661272287410690662 -0.2083879194014736369 -0.76581220854782106056 -0.45671529325799059551 -1.0430126041769089973 0.013536528852194029682 -0.49816120893084575583 -0.66731423672868672714 -0.60783574015167329829 0.01788176640710057233 0.42915260707085434166 1.0812121875422981976;-1.4550359907760528344 -0.42354773136324896932 -0.35172010908312378863 2.443116307585293967 0.30858825047979271394 -1.495686936706539294 -5.6663451298265616884 1.8295933279678100458 -0.77824823950476862411 2.9412472659796389252 -4.5971765309354344353 -5.2659488235613762797 -0.61398774300602088072 0.17289517574492979657;-3.0913622384279557664 0.5372292602290861252 2.1253694049813041111 1.0848572191164180811 0.6643056842007251106 1.1758710223616359869 2.1712331415698860049 -1.44529880511824671 1.6802805461963876699 1.2969730968544472827 1.7857311011890812935 -2.4844784111795714665 -1.6138117524985382545 -0.74101538848518000435;0.40075003042407281173 0.30696247384467623132 0.90649026852468872484 -0.28346834322101749359 0.0039532404414568400597 -0.67461182612438064243 -0.0018063881209371898673 3.6394409668797216284 -0.48316108494824200337 -2.1454786449426670458 0.87441497882171703715 -0.1239994301539024818 1.0448100377295086449 -0.011973773940563902859;2.4651939572596810457 3.1231116005286403414 -0.44079414605379446668 0.53245535154794654265 4.1322479372497582517 -0.81267674930137467904 3.3722630581691728224 4.1161287154808299249 -1.8587818206634578733 3.8724824736768930222 -0.024277421777567809169 19.271032086345389445 2.4971505320133386974 5.4373510704097176571;-0.29454529286961678158 0.18108932489431089907 0.33689603515413496515 1.1699066064841687762 -0.59826772592334775958 -2.3596664710398789211 -0.99450485035644486942 2.5927469196243539962 -0.7446632653364906318 0.38312889076347705908 1.1914837542062761688 0.38267886482064217279 0.17041100239611350897 -0.021996569320223618993;-1.8586304572441492144 -3.923528485616904149 -4.0641369111457015251 -2.1402641438028497944 -0.51146889074532830843 5.8553595589395284193 -0.8862820690432995363 -2.868542310554857977 0.14564767692878616279 -10.710104455513421939 3.7002838989670387981 -1.3767157223465051885 -1.1009495250773049246 0.20788570000701728224];

% Layer 2
b2 = [3.8086691927297890992;1.2358099003853946218];
LW2_1 = [0.5799661889123944869 -0.21304278035365636912 1.1605683421176258285 1.2196327531545976264 -0.47127837406531636333 0.70408198168040903031 0.14969764248910419346 0.54353200873167917262 0.47457595809205949111 0.16401132278245802998 1.9053183646737588131 -3.9190490947704708091 0.28615048613630933438 0.27053080907248294729 -1.0104136306307560655 -1.3568329014607716232 -0.22141806140617992238 -0.2577239044868190887 -0.12512017297477120992 0.43036198126559804811 0.41331187146132436494 -0.76648079130474044973 0.14985660807357137347 0.11442882519910911598 -0.97452364275463299048 -0.23692700775005909319 0.15648015900095393893 0.33763554675097912083 9.2275163422260977342 3.3067864202442494026 -0.39863689559113046901 -0.17932769937240969349 0.16293670769309323565 -0.67688689697970383374 -0.34340146000669879989 -0.63861392377409931242 -0.74845245508812829893 0.054082655249489713922 0.8309130891993277146 0.18917205636491857268;0.034634446435822134613 0.016843600247508260653 0.14120890153715295878 0.07519919842680225508 -0.026307252921678334068 0.041794398963938675373 0.020776806359250225148 0.055961532543911576831 -0.0052932366831043532393 -0.77410541259071774522 0.14401148292415782981 -0.30006308979592272168 -0.0059911292577493691427 0.030473108512562199768 -0.046187056046043839519 0.03665004980067688295 -0.023748149873168623858 -0.016970350578909585565 0.0019767796842591889295 0.020287581315075926131 0.031386050500729130441 -0.0030307384524730874784 -0.88627412770286928545 0.00066140753920291444658 -0.022321693346113384571 -0.0018362071109891801596 0.02314433995833196922 0.0011861119313433443525 0.43753168933234082294 0.22805475939077238245 -0.015502378687123697168 -0.012093565482721837026 0.0072101961528494729753 0.71287567604998869353 -0.028378708761581526027 0.10371488025935719779 -0.022612900632024493519 -0.75490851616147802705 0.083992873134752357722 0.0090566578005547952734];

% Output 1
y1_step1.ymin = -1;
y1_step1.gain = [1;2];
y1_step1.xoffset = [-1;0];

% ===== SIMULATION ========

% Dimensions
Q = size(x1,2); % samples

% Input 1
xp1 = mapminmax_apply(x1,x1_step1);

% Layer 1
a1 = tansig_apply(repmat(b1,1,Q) + IW1_1*xp1);

% Layer 2
a2 = repmat(b2,1,Q) + LW2_1*a1;

% Output 1
y1 = mapminmax_reverse(a2,y1_step1);
end

% ===== MODULE FUNCTIONS ========

% Map Minimum and Maximum Input Processing Function
function y = mapminmax_apply(x,settings)
  y = bsxfun(@minus,x,settings.xoffset);
  y = bsxfun(@times,y,settings.gain);
  y = bsxfun(@plus,y,settings.ymin);
end

% Sigmoid Symmetric Transfer Function
function a = tansig_apply(n,~)
  a = 2 ./ (1 + exp(-2*n)) - 1;
end

% Map Minimum and Maximum Output Reverse-Processing Function
function x = mapminmax_reverse(y,settings)
  x = bsxfun(@minus,y,settings.ymin);
  x = bsxfun(@rdivide,x,settings.gain);
  x = bsxfun(@plus,x,settings.xoffset);
end
